svm_type nu_svr
kernel_type rbf
gamma 0.166667
nr_class 2
total_sv 1514
rho 0.529147
SV
1 1:0.172948 2:0.164467 3:0.246374 4:0.0562393 5:0.288422 6:-0.533003 
1 1:-0.0390871 2:-0.095127 3:0.0167962 4:-0.219127 5:0.371988 6:-0.431117 
1 1:-0.193244 2:-0.265719 3:-0.143932 4:-0.409506 5:0.360374 6:-0.410988 
1 1:-0.0600645 2:-0.114375 3:-0.00680918 4:-0.242633 5:0.326304 6:-0.440485 
-1 1:0.254623 2:0.217428 3:0.293267 4:0.125499 5:0.356565 6:-0.269925 
-1 1:0.0495964 2:-0.00583452 3:0.110378 4:-0.105459 5:0.371959 6:-0.342394 
1 1:0.0056189 2:-0.0482691 3:0.0807498 4:-0.153839 5:0.325018 6:-0.348314 
1 1:-0.113377 2:-0.171512 3:-0.0382411 4:-0.2888 5:0.27037 6:-0.417474 
1 1:-0.0233362 2:-0.0663957 3:0.0442475 4:-0.177371 5:0.285552 6:-0.446764 
1 1:-0.139561 2:-0.187717 3:-0.0776999 4:-0.331856 5:0.355355 6:-0.312581 
1 1:-0.115885 2:-0.183663 3:-0.0449287 4:-0.306523 5:0.315329 6:-0.467791 
-1 1:0.0839948 2:0.0704959 3:0.0902913 4:-0.0617968 5:0.364098 6:-0.467965 
1 1:0.0963065 2:0.0623856 3:0.116925 4:-0.0639713 5:0.311213 6:-0.391776 
1 1:0.227142 2:0.20154 3:0.291288 4:0.113303 5:0.349054 6:-0.246904 
1 1:-0.0351284 2:-0.0863019 3:0.0333939 4:-0.183258 5:0.356151 6:-0.495939 
1 1:-0.192636 2:-0.272973 3:-0.153571 4:-0.424049 5:0.281481 6:-0.347488 
1 1:-0.126473 2:-0.214928 3:-0.0792252 4:-0.346111 5:0.29299 6:-0.355837 
1 1:-0.120363 2:-0.178085 3:-0.0574489 4:-0.298249 5:0.377256 6:-0.460377 
-1 1:0.0969028 2:0.0468434 3:0.159188 4:-0.0428466 5:0.35033 6:-0.185459 
1 1:0.566728 2:0.561595 3:0.611821 4:0.503523 5:0.31873 6:-0.288655 
-1 1:-0.00593446 2:-0.0733689 3:0.0628365 4:-0.17019 5:0.304124 6:-0.207062 
-1 1:0.181626 2:0.127911 3:0.192895 4:0.0398445 5:0.373157 6:-0.369195 
-1 1:0.0761844 2:0.034736 3:0.131167 4:-0.059839 5:0.315738 6:-0.182579 
1 1:-0.171011 2:-0.247032 3:-0.127715 4:-0.400508 5:0.327705 6:-0.406288 
1 1:-0.0407083 2:-0.0870474 3:0.0132629 4:-0.208755 5:0.287163 6:-0.398611 
-1 1:0.145801 2:0.104552 3:0.211725 4:0.0038358 5:0.339347 6:-0.220119 
1 1:-0.0605367 2:-0.0978854 3:0.00259192 4:-0.22121 5:0.302609 6:-0.456445 
1 1:-0.133125 2:-0.205663 3:-0.103957 4:-0.362737 5:0.304708 6:-0.365697 
1 1:-0.064088 2:-0.126289 3:-0.00722164 4:-0.25052 5:0.276788 6:-0.311309 
1 1:-0.00449999 2:-0.0753807 3:0.0242731 4:-0.196754 5:0.352563 6:-0.435923 
-1 1:0.0816707 2:0.0100212 3:0.113459 4:-0.0820085 5:0.379225 6:-0.395339 
1 1:-0.112338 2:-0.177684 3:-0.0792762 4:-0.299718 5:0.272913 6:-0.369526 
-1 1:0.156852 2:0.107587 3:0.208631 4:0.00959697 5:0.344418 6:-0.30286 
-1 1:0.282819 2:0.248729 3:0.301189 4:0.155242 5:0.296581 6:-0.31096 
1 1:-0.115111 2:-0.16912 3:-0.0371837 4:-0.292308 5:0.272597 6:-0.46994 
1 1:-0.146257 2:-0.218594 3:-0.102675 4:-0.36274 5:0.304171 6:-0.420337 
1 1:-0.0541758 2:-0.118374 3:0.0174887 4:-0.215586 5:0.301889 6:-0.237881 
-1 1:0.0589534 2:0.00222266 3:0.0741293 4:-0.134969 5:-0.479284 6:-0.134234 
-1 1:0.186324 2:0.197331 3:0.228102 4:0.0656853 5:-0.488062 6:-0.428777 
1 1:-0.192965 2:-0.176485 3:-0.228059 4:-0.297658 5:-0.47026 6:-0.319634 
-1 1:0.710407 2:0.726944 3:0.769439 4:0.676844 5:-0.585341 6:-0.306346 
-1 1:0.12363 2:0.148105 3:0.197166 4:0.012236 5:-0.629934 6:-0.106859 
-1 1:0.114385 2:0.0957949 3:0.158565 4:-0.027588 5:-0.508645 6:-0.133902 
-1 1:0.193405 2:0.164615 3:0.235175 4:0.0622702 5:-0.54493 6:-0.342908 
-1 1:-0.0833666 2:-0.107953 3:-0.0647999 4:-0.220939 5:-0.5269 6:-0.459722 
-1 1:0.196081 2:0.182416 3:0.239837 4:0.0445167 5:-0.635016 6:-0.355079 
1 1:0.00582847 2:0.00588905 3:0.0985509 4:-0.155057 5:0.126461 6:-0.0581179 
1 1:-0.0154497 2:-0.0190071 3:0.0594057 4:-0.174622 5:0.0998629 6:-0.0558101 
-1 1:-0.132961 2:-0.178621 3:-0.0642347 4:-0.331128 5:0.132518 6:-0.296177 
-1 1:-0.27901 2:-0.327222 3:-0.211203 4:-0.502887 5:0.120905 6:-0.28851 
1 1:-0.0955878 2:-0.100457 3:-0.0124222 4:-0.273532 5:0.0839982 6:-0.0538232 
-1 1:-0.0577335 2:-0.137531 3:0.0124614 4:-0.244122 5:0.194224 6:-0.0505169 
1 1:-0.0902868 2:-0.121427 3:-0.00836073 4:-0.270715 5:0.137441 6:-0.120842 
1 1:-0.0769954 2:-0.110403 3:-0.00947213 4:-0.243212 5:0.113914 6:-0.144364 
1 1:-0.184279 2:-0.20978 3:-0.114549 4:-0.345958 5:0.115257 6:-0.253708 
1 1:-0.123538 2:-0.154975 3:-0.0579935 4:-0.313851 5:0.0716363 6:-0.123386 
1 1:0.169079 2:0.165935 3:0.228235 4:0.0478832 5:0.0977038 6:-0.202565 
1 1:-0.0150822 2:-0.0369196 3:0.0594295 4:-0.168103 5:0.105081 6:-0.223915 
1 1:-0.0895442 2:-0.133495 3:-0.0240056 4:-0.26346 5:0.0868522 6:-0.118599 
-1 1:-0.139335 2:-0.213286 3:-0.117107 4:-0.355291 5:0.147864 6:-0.254857 
1 1:-0.0686092 2:-0.114999 3:0.00337285 4:-0.256404 5:0.0779697 6:-0.148443 
1 1:-0.167986 2:-0.205819 3:-0.0908728 4:-0.376381 5:0.0776008 6:-0.0812228 
-1 1:0.11543 2:0.0545576 3:0.121282 4:-0.0395167 5:0.207188 6:-0.10215 
1 1:-0.241625 2:-0.289945 3:-0.165134 4:-0.490692 5:0.0952619 6:-0.0891922 
1 1:0.00964981 2:-0.0193707 3:0.0780743 4:-0.147585 5:0.107407 6:-0.285392 
1 1:0.0114614 2:-0.0615714 3:0.0181786 4:-0.169782 5:0.179016 6:-0.215019 
-1 1:-0.100625 2:-0.163646 3:-0.0321445 4:-0.281375 5:0.172797 6:-0.0534092 
1 1:-0.0102805 2:-0.0704542 3:0.011377 4:-0.183679 5:0.182714 6:-0.164759 
1 1:-0.196499 2:-0.25554 3:-0.120917 4:-0.407715 5:0.065576 6:-0.178504 
1 1:-0.211288 2:-0.272211 3:-0.134637 4:-0.454142 5:0.113624 6:-0.0892096 
1 1:0.213143 2:0.214377 3:0.265507 4:0.119715 5:0.0580909 6:-0.14979 
1 1:-0.134694 2:-0.152447 3:-0.0486904 4:-0.328903 5:0.120131 6:-0.117573 
-1 1:-0.580613 2:-0.535228 3:-0.573589 4:-0.71986 5:-0.843679 6:0.135244 
1 1:-0.0601612 2:-0.0165184 3:0.00236351 4:-0.183953 5:-0.873732 6:0.12388 
1 1:0.300461 2:0.309771 3:0.343919 4:0.195891 5:-0.906964 6:0.226589 
1 1:-0.0508135 2:-0.00393977 3:0.0146417 4:-0.165997 5:-0.870077 6:0.103905 
1 1:0.562232 2:0.602551 3:0.619924 4:0.562613 5:-0.919421 6:0.0807822 
-1 1:-0.0838354 2:-0.0698722 3:-0.0352877 4:-0.215658 5:-0.990359 6:0.401567 
-1 1:0.512908 2:0.500918 3:0.537848 4:0.449345 5:-0.83815 6:-0.0186717 
1 1:0.244929 2:0.266438 3:0.276807 4:0.146644 5:-0.98877 6:0.314126 
-1 1:0.190308 2:0.143912 3:0.205279 4:0.0808867 5:-0.686436 6:-0.331994 
1 1:-0.0801595 2:-0.040267 3:-0.0293651 4:-0.198717 5:-0.761684 6:-0.0325576 
-1 1:0.466331 2:0.452347 3:0.500413 4:0.402811 5:-0.805546 6:-0.138039 
-1 1:0.15535 2:0.129895 3:0.167114 4:0.0401886 5:-0.844043 6:-0.0761291 
-1 1:-0.0504922 2:-0.0290389 3:-0.0130961 4:-0.1786 5:-0.870989 6:0.310072 
-1 1:1 2:1 3:1 4:1 5:-0.789194 6:-0.23534 
-1 1:0.129585 2:0.122299 3:0.17003 4:0.0265551 5:-0.84229 6:0.0205997 
1 1:0.38028 2:0.445531 3:0.41352 4:0.397771 5:-0.947494 6:0.0893795 
1 1:-0.159771 2:-0.125624 3:-0.121045 4:-0.299591 5:-0.847393 6:0.0508322 
1 1:0.150315 2:0.189383 3:0.195383 4:0.0504727 5:-0.971802 6:0.20709 
-1 1:0.264812 2:0.243739 3:0.28084 4:0.169862 5:-0.875706 6:0.0180512 
-1 1:-0.207647 2:-0.159579 3:-0.209945 4:-0.300847 5:-0.810811 6:0.0788595 
-1 1:0.413959 2:0.416954 3:0.405089 4:0.352993 5:-0.896882 6:-0.0620742 
1 1:0.230773 2:0.261573 3:0.267473 4:0.167006 5:-0.932647 6:0.128806 
1 1:0.111623 2:0.168985 3:0.181906 4:0.0192172 5:-0.877652 6:0.196368 
1 1:0.757046 2:0.783292 3:0.788427 4:0.766128 5:-0.772077 6:-0.278322 
1 1:0.253178 2:0.290034 3:0.313547 4:0.194405 5:-0.876289 6:0.176211 
1 1:-0.0886202 2:-0.0408004 3:-0.0393867 4:-0.208427 5:-0.88005 6:0.25597 
-1 1:-0.0386035 2:-0.0579583 3:-0.0331334 4:-0.15694 5:-0.888884 6:-0.0306487 
-1 1:0.611338 2:0.618753 3:0.66495 4:0.559589 5:-0.716052 6:-0.181067 
0.4614285068285753 1:0.754348 2:0.768757 3:0.767068 4:0.723384 5:-0.736558 6:-0.333508 
-0.9216780482471979 1:0.592401 2:0.6168 3:0.530127 4:0.557909 5:-0.940829 6:0.0689677 
1 1:0.31739 2:0.332538 3:0.337139 4:0.220394 5:-0.866324 6:-0.134401 
1 1:0.428868 2:0.45198 3:0.428878 4:0.380414 5:-0.851503 6:-0.205658 
1 1:0.346534 2:0.375989 3:0.373342 4:0.286433 5:-0.921488 6:0.00425802 
1 1:-0.393022 2:-0.338353 3:-0.344769 4:-0.535294 5:-0.868218 6:0.220548 
0.995334810560035 1:0.424963 2:0.459652 3:0.470589 4:0.373718 5:-0.954037 6:0.129619 
-1 1:0.394395 2:0.383188 3:0.43271 4:0.325325 5:-0.885689 6:0.0495005 
-1 1:0.37289 2:0.342543 3:0.40626 4:0.278975 5:-0.808078 6:-0.0630436 
1 1:0.0364558 2:0.0781458 3:0.0913169 4:-0.0819917 5:-0.84864 6:0.0879768 
1 1:0.514395 2:0.536984 3:0.550992 4:0.481789 5:-0.820428 6:-0.220871 
1 1:0.254097 2:0.252255 3:0.254989 4:0.165637 5:-0.917086 6:0.145534 
-1 1:0.0909954 2:0.0823321 3:0.099627 4:-0.0461824 5:-0.898365 6:0.193559 
-1 1:0.375076 2:0.386163 3:0.430407 4:0.3147 5:-0.297788 6:0.244148 
1 1:-0.381716 2:-0.343623 3:-0.32686 4:-0.549435 5:-0.393233 6:0.0178189 
-1 1:-0.287049 2:-0.279267 3:-0.249596 4:-0.4471 5:-0.252798 6:0.0825963 
1 1:0.345808 2:0.379439 3:0.372248 4:0.297375 5:-0.333358 6:0.262521 
-1 1:-0.140052 2:-0.11478 3:-0.0820033 4:-0.278795 5:-0.362277 6:0.148556 
1 1:-0.468928 2:-0.431975 3:-0.399761 4:-0.648219 5:-0.235523 6:0.155571 
1 1:-0.41131 2:-0.457777 3:-0.355122 4:-0.662873 5:-0.335854 6:0.0253707 
1 1:-0.52985 2:-0.474613 3:-0.474788 4:-0.726088 5:-0.333473 6:0.0942279 
1 1:-0.0417646 2:0.0301057 3:0.037048 4:-0.0539135 5:-0.318281 6:0.199945 
-1 1:0.423027 2:0.449316 3:0.451321 4:0.352766 5:-0.30382 6:0.157062 
1 1:-0.758086 2:-0.679249 3:-0.73365 4:-0.907426 5:-0.401268 6:0.071323 
1 1:-0.496817 2:-0.45562 3:-0.468215 4:-0.639003 5:-0.368034 6:0.310923 
1 1:0.453777 2:0.50317 3:0.516693 4:0.445799 5:-0.329455 6:0.220272 
1 1:-0.475903 2:-0.434051 3:-0.428879 4:-0.64354 5:-0.240933 6:0.122968 
-1 1:-0.223307 2:-0.214708 3:-0.180299 4:-0.315529 5:-0.368709 6:0.186748 
1 1:-0.00505104 2:0.0197075 3:0.0328422 4:-0.125395 5:-0.42127 6:0.0261737 
1 1:-0.118026 2:-0.121427 3:-0.0748364 4:-0.294535 5:-0.286943 6:0.0290751 
-1 1:-0.152643 2:-0.126489 3:-0.0959496 4:-0.232245 5:-0.433858 6:0.306359 
-1 1:-0.112322 2:-0.105094 3:-0.0427418 4:-0.244874 5:-0.447743 6:0.0303864 
-1 1:-0.0503203 2:-0.0442857 3:-0.00798024 4:-0.170398 5:-0.278606 6:0.277271 
1 1:-0.485991 2:-0.429554 3:-0.424762 4:-0.635353 5:-0.418434 6:0.0996232 
1 1:-0.312101 2:-0.248422 3:-0.244726 4:-0.429524 5:-0.345942 6:0.180576 
1 1:-0.16051 2:-0.0902514 3:-0.161732 4:-0.199667 5:-0.388606 6:0.189341 
1 1:-0.133507 2:-0.0782006 3:-0.102095 4:-0.206229 5:-0.390938 6:0.295892 
1 1:-0.367158 2:-0.372088 3:-0.324887 4:-0.575982 5:-0.366615 6:0.093104 
1 1:-0.643984 2:-0.590882 3:-0.616623 4:-0.818456 5:-0.414951 6:0.0670318 
1 1:-0.39202 2:-0.328784 3:-0.367331 4:-0.550186 5:-0.44176 6:0.0875199 
1 1:-0.194698 2:-0.139889 3:-0.213747 4:-0.262577 5:-0.35987 6:0.222891 
1 1:-0.303122 2:-0.284159 3:-0.239613 4:-0.471034 5:-0.257184 6:0.252997 
-1 1:0.257514 2:0.253048 3:0.290064 4:0.160404 5:-0.29965 6:0.300999 
1 1:0.600912 2:0.622644 3:0.644665 4:0.613764 5:0.796501 6:0.358405 
1 1:0.603417 2:0.612813 3:0.630378 4:0.571185 5:0.818969 6:0.407451 
1 1:0.306098 2:0.328485 3:0.361978 4:0.250783 5:0.800968 6:0.406412 
1 1:0.273678 2:0.298104 3:0.319953 4:0.209755 5:0.826425 6:0.376082 
1 1:0.593044 2:0.597221 3:0.621074 4:0.541991 5:0.813127 6:0.368817 
1 1:0.380819 2:0.388757 3:0.408692 4:0.309964 5:0.841245 6:0.378796 
1 1:0.252467 2:0.26492 3:0.279565 4:0.174073 5:0.83317 6:0.411322 
1 1:0.206591 2:0.190214 3:0.240767 4:0.101695 5:0.845337 6:0.409738 
-1 1:0.21333 2:0.206689 3:0.25309 4:0.104681 5:0.721191 6:0.178919 
1 1:0.472746 2:0.484078 3:0.516814 4:0.428085 5:0.716423 6:0.21969 
1 1:0.216516 2:0.216606 3:0.265592 4:0.0986909 5:0.363389 6:-0.568326 
-1 1:-0.0660153 2:-0.0916973 3:-0.0229148 4:-0.248994 5:0.485757 6:-0.592486 
1 1:0.411177 2:0.437217 3:0.470812 4:0.339788 5:0.537581 6:-0.731643 
1 1:-0.20989 2:-0.253751 3:-0.1399 4:-0.401379 5:0.378755 6:-0.553638 
1 1:0.155069 2:0.182427 3:0.249139 4:0.0447712 5:0.49332 6:-0.84979 
1 1:0.136198 2:0.128536 3:0.232909 4:-0.0105894 5:0.473458 6:-0.68527 
1 1:0.136311 2:0.166031 3:0.200084 4:0.0494412 5:0.496716 6:-0.590188 
-1 1:0.733737 2:0.729649 3:0.747955 4:0.691309 5:0.544608 6:-0.958735 
-1 1:-0.0723255 2:-0.109916 3:-0.0296762 4:-0.254753 5:0.498545 6:-0.825139 
1 1:-0.238167 2:-0.273432 3:-0.175564 4:-0.43726 5:0.449535 6:-0.623152 
1 1:0.373741 2:0.37106 3:0.422257 4:0.273936 5:0.303333 6:-0.537017 
1 1:-0.161657 2:-0.126656 3:-0.0955025 4:-0.296079 5:0.516533 6:-0.632924 
1 1:-0.244643 2:-0.300595 3:-0.171964 4:-0.441042 5:0.392202 6:-0.604961 
1 1:-0.295466 2:-0.309282 3:-0.214281 4:-0.489714 5:0.463344 6:-0.610643 
1 1:-0.185759 2:-0.193808 3:-0.11761 4:-0.366044 5:0.377172 6:-0.596648 
1 1:-0.231666 2:-0.271226 3:-0.165625 4:-0.42814 5:0.458179 6:-0.546766 
-1 1:-0.0856113 2:-0.143965 3:-0.0286285 4:-0.233483 5:0.498435 6:-0.799588 
-1 1:-0.0967857 2:-0.133669 3:-0.0564547 4:-0.229295 5:0.520905 6:-0.878851 
1 1:0.0941681 2:0.0987593 3:0.182697 4:-0.0562167 5:0.475158 6:-0.710251 
-1 1:0.560547 2:0.557057 3:0.613439 4:0.485494 5:0.479473 6:-0.764785 
1 1:-0.12454 2:-0.182103 3:-0.0452675 4:-0.311277 5:0.357034 6:-0.515077 
1 1:0.143597 2:0.159334 3:0.211497 4:0.0601329 5:0.541893 6:-0.782366 
1 1:0.0510871 2:0.0103292 3:0.110451 4:-0.125238 5:0.378212 6:-0.521009 
1 1:-0.190898 2:-0.221709 3:-0.134914 4:-0.379948 5:0.424709 6:-0.552731 
1 1:-0.364369 2:-0.382978 3:-0.29326 4:-0.553523 5:0.450033 6:-0.589213 
1 1:0.244803 2:0.25013 3:0.323779 4:0.127256 5:0.50168 6:-0.692325 
1 1:0.366989 2:0.384199 3:0.439148 4:0.28748 5:0.494472 6:-0.876837 
1 1:0.301208 2:0.30514 3:0.310815 4:0.206617 5:0.411193 6:-0.549698 
1 1:-0.347769 2:-0.39217 3:-0.282372 4:-0.551199 5:0.389723 6:-0.568597 
1 1:-0.130778 2:-0.193223 3:-0.0724595 4:-0.332216 5:0.439871 6:-0.550114 
1 1:0.311234 2:0.328016 3:0.387212 4:0.21579 5:0.478991 6:-0.800622 
1 1:0.160814 2:0.187511 3:0.236002 4:0.0759279 5:0.548324 6:-0.834494 
-1 1:0.160428 2:0.186321 3:0.196964 4:0.065039 5:0.521711 6:-1 
1 1:0.234905 2:0.255327 3:0.264439 4:0.135527 5:0.329458 6:-0.53187 
-0.6965544543862525 1:-0.0740821 2:-0.108796 3:-0.0211979 4:-0.221693 5:0.530913 6:-0.808745 
-1 1:0.504991 2:0.509045 3:0.540362 4:0.432685 5:0.515643 6:-0.713544 
1 1:0.553888 2:0.575548 3:0.62738 4:0.518618 5:0.546908 6:-0.871454 
1 1:0.364197 2:0.353669 3:0.461823 4:0.233784 5:0.476206 6:-0.731506 
1 1:0.600958 2:0.618688 3:0.680502 4:0.533514 5:0.465596 6:-0.765098 
1 1:0.10721 2:0.116874 3:0.16867 4:-0.00444605 5:0.512653 6:-0.596005 
1 1:0.111437 2:0.120617 3:0.172937 4:-0.00604236 5:0.314503 6:-0.529532 
1 1:0.374207 2:0.410094 3:0.460093 4:0.306244 5:0.478651 6:-0.824812 
1 1:-0.0540471 2:-0.0776938 3:0.0151903 4:-0.224534 5:0.456606 6:-0.572483 
-1 1:-0.17063 2:-0.19371 3:-0.250376 4:-0.430511 5:0.478486 6:-0.584631 
1 1:-0.185783 2:-0.197456 3:-0.106844 4:-0.355055 5:0.407584 6:-0.575353 
1 1:-0.0512851 2:-0.0818677 3:0.0324827 4:-0.221455 5:0.344371 6:-0.536406 
1 1:-0.127368 2:-0.155328 3:-0.0447596 4:-0.323067 5:0.362037 6:-0.536521 
1 1:-0.377982 2:-0.512833 3:-0.346528 4:-0.585473 5:0.405014 6:-0.476 
-1 1:0.0333922 2:-0.011313 3:0.0358018 4:-0.114236 5:0.447514 6:-0.329176 
-1 1:-0.219387 2:-0.296537 3:-0.151891 4:-0.384252 5:0.438694 6:-0.22117 
-1 1:-0.0616314 2:-0.150412 3:-0.00982084 4:-0.208915 5:0.431231 6:-0.251463 
-1 1:0.0526688 2:-0.0273745 3:0.112319 4:-0.0790025 5:0.391409 6:-0.230808 
-1 1:-0.112646 2:-0.17468 3:-0.0666968 4:-0.281766 5:0.448612 6:-0.43986 
-1 1:-0.177453 2:-0.240306 3:-0.1382 4:-0.342328 5:0.444675 6:-0.382843 
-1 1:-0.129136 2:-0.208238 3:-0.0895172 4:-0.330834 5:0.435984 6:-0.516841 
-1 1:0.0399257 2:-0.0281187 3:0.0449727 4:-0.130205 5:0.500744 6:-0.386623 
-1 1:-0.0903727 2:-0.179564 3:-0.0601422 4:-0.268892 5:0.491719 6:-0.330319 
-1 1:-0.138566 2:-0.209407 3:-0.123892 4:-0.301875 5:0.422566 6:-0.310926 
-1 1:-0.245966 2:-0.313648 3:-0.218723 4:-0.44221 5:0.489049 6:-0.385726 
-1 1:0.115216 2:0.0516462 3:0.160524 4:-0.0248489 5:0.382937 6:-0.286098 
-1 1:0.0374069 2:0.0168836 3:0.109781 4:-0.0905262 5:0.380909 6:-0.17483 
-1 1:0.345591 2:0.328141 3:0.37199 4:0.252133 5:0.52401 6:-0.422235 
-1 1:-0.0467029 2:-0.109431 3:-0.448259 4:-0.233018 5:0.393224 6:-0.390262 
-1 1:-0.0529279 2:-0.155328 3:0.0115013 4:-0.222645 5:0.373515 6:-0.210719 
-1 1:0.0933107 2:0.059706 3:0.167854 4:-0.0125841 5:0.404298 6:-0.230292 
-1 1:0.185812 2:0.141517 3:0.148118 4:0.0533715 5:0.443446 6:-0.254963 
-1 1:-0.384127 2:-0.467594 3:-0.354198 4:-0.614608 5:0.385977 6:-0.451524 
-1 1:0.284323 2:0.283703 3:0.323369 4:0.220975 5:0.40844 6:-0.289489 
-1 1:-0.281235 2:-0.386423 3:-0.257153 4:-0.478793 5:0.466871 6:-0.510849 
-1 1:-0.0245426 2:-0.096023 3:0.0227319 4:-0.200136 5:0.461621 6:-0.457777 
-1 1:0.0265896 2:-0.0306415 3:0.072024 4:-0.12836 5:0.429235 6:-0.488172 
-1 1:-0.150349 2:-0.231637 3:-0.0950008 4:-0.328412 5:0.441158 6:-0.490846 
-1 1:0.0468642 2:-0.00581767 3:0.103644 4:-0.0662109 5:0.394114 6:-0.305506 
-1 1:-0.251712 2:-0.328366 3:-0.202772 4:-0.434177 5:0.421769 6:-0.359712 
-1 1:-0.0828578 2:-0.141443 3:-0.0544825 4:-0.23865 5:0.42912 6:-0.425861 
-1 1:-0.160235 2:-0.228463 3:-0.100253 4:-0.335331 5:0.3679 6:-0.178843 
-1 1:-0.0359829 2:-0.0952108 3:0.0130474 4:-0.200107 5:0.400577 6:-0.514123 
1 1:-0.104626 2:-0.178264 3:-0.0421575 4:-0.289182 5:0.450502 6:-0.404958 
-1 1:0.0974719 2:0.0811299 3:0.170797 4:0.00323866 5:0.393948 6:-0.276186 
-1 1:-0.158699 2:-0.24056 3:-0.118242 4:-0.335315 5:0.388935 6:-0.476035 
-1 1:-0.471422 2:-0.542434 3:-0.410418 4:-0.690097 5:0.459944 6:-0.527789 
-1 1:-0.233277 2:-0.299261 3:-0.196549 4:-0.422164 5:0.495553 6:-0.40624 
1 1:-0.0126514 2:0.0240885 3:0.0687405 4:-0.0610511 5:0.403641 6:-0.300249 
-1 1:0.182961 2:0.134254 3:0.22739 4:0.0674563 5:0.378133 6:-0.228709 
-1 1:-0.014584 2:-0.0516221 3:0.0633514 4:-0.121929 5:0.416575 6:-0.232042 
-1 1:-0.115176 2:-0.20169 3:-0.0534156 4:-0.296475 5:0.448333 6:-0.219433 
1 1:-0.172001 2:-0.257628 3:-0.108515 4:-0.358021 5:0.404878 6:-0.192874 
1 1:-0.445311 2:-0.555892 3:-0.401843 4:-0.638234 5:0.470259 6:-0.315755 
-1 1:0.112156 2:0.107508 3:0.153573 4:0.0139291 5:0.509563 6:-0.485604 
-1 1:-0.00138567 2:-0.0708677 3:0.0591667 4:-0.142228 5:0.390264 6:-0.208392 
-1 1:-0.0789328 2:-0.153726 3:-0.0229523 4:-0.267255 5:0.412823 6:-0.514434 
-1 1:-0.0230801 2:-0.100803 3:0.0318449 4:-0.184791 5:0.437677 6:-0.197748 
-1 1:0.169305 2:0.119367 3:0.222072 4:0.0647826 5:0.427378 6:-0.224278 
-1 1:-0.114307 2:-0.14946 3:-0.0525313 4:-0.249799 5:0.389046 6:-0.357104 
-1 1:0.166872 2:0.172125 3:0.2088 4:0.0765738 5:0.432766 6:-0.38092 
-1 1:-0.220064 2:-0.294111 3:-0.174442 4:-0.403629 5:0.446686 6:-0.453104 
-1 1:-0.0286678 2:-0.10539 3:0.0262888 4:-0.181237 5:0.436497 6:-0.23967 
-0.4093779578253171 1:-0.247369 2:-0.314901 3:-0.200079 4:-0.419485 5:0.432095 6:-0.308568 
-1 1:-0.178386 2:-0.254506 3:-0.124808 4:-0.345647 5:0.469233 6:-0.436302 
-1 1:-0.0947349 2:-0.189709 3:-0.0602342 4:-0.292376 5:0.477028 6:-0.33069 
-1 1:-0.222259 2:-0.324749 3:-0.190249 4:-0.43725 5:0.493096 6:-0.353063 
-1 1:-0.16051 2:-0.214708 3:-0.121174 4:-0.327354 5:0.416275 6:-0.329086 
-1 1:-0.309025 2:-0.390382 3:-0.269038 4:-0.525176 5:0.45414 6:-0.500775 
1 1:0.036865 2:-0.0182821 3:0.0805798 4:-0.110518 5:0.458865 6:-0.380539 
-1 1:0.0427102 2:-0.0122021 3:-0.029404 4:-0.12355 5:0.510705 6:-0.436436 
1 1:-0.345858 2:-0.412293 3:-0.302742 4:-0.548657 5:0.500634 6:-0.43991 
-1 1:0.145981 2:0.110589 3:0.167101 4:0.0165733 5:0.446914 6:-0.51784 
-1 1:-0.174592 2:-0.262309 3:-0.144077 4:-0.347234 5:0.420972 6:-0.202466 
-1 1:-0.0892878 2:-0.160992 3:-0.0401269 4:-0.250123 5:0.474676 6:-0.294955 
1 1:-0.244305 2:-0.31832 3:-0.1686 4:-0.448615 5:0.513867 6:-0.463422 
-1 1:-0.144042 2:-0.247892 3:-0.109779 4:-0.339544 5:0.419722 6:-0.389712 
-1 1:-0.0948083 2:-0.160749 3:-0.0207897 4:-0.254925 5:0.448965 6:-0.240079 
-1 1:-0.0668172 2:-0.148589 3:-0.0141653 4:-0.233965 5:0.396855 6:-0.331581 
-1 1:-0.263673 2:-0.331527 3:-0.215032 4:-0.461449 5:0.395286 6:-0.490027 
-1 1:-0.125339 2:-0.183203 3:-0.0910361 4:-0.288062 5:0.42412 6:-0.334161 
-1 1:-0.0825697 2:-0.182423 3:-0.0167573 4:-0.223729 5:0.394622 6:-0.184973 
-1 1:0.315014 2:0.293813 3:0.330433 4:0.208137 5:0.390145 6:-0.376503 
-1 1:0.0209493 2:-0.0408414 3:0.0722913 4:-0.110139 5:0.426548 6:-0.288593 
-1 1:-0.220152 2:-0.283997 3:-0.155966 4:-0.395809 5:0.453478 6:-0.26095 
-1 1:-0.0296043 2:-0.102047 3:0.0482011 4:-0.166776 5:0.390467 6:-0.257445 
-1 1:-0.0829128 2:-0.132182 3:-0.0528403 4:-0.237636 5:0.427136 6:-0.372033 
-1 1:-0.172227 2:-0.221366 3:-0.113498 4:-0.363152 5:0.484097 6:-0.473858 
-1 1:0.0172927 2:-0.0626606 3:0.0779665 4:-0.136572 5:0.379299 6:-0.250984 
-1 1:-0.190372 2:-0.240942 3:-0.141474 4:-0.35448 5:0.443198 6:-0.308208 
-1 1:-0.459956 2:-0.551046 3:-0.430972 4:-0.727205 5:0.385307 6:-0.431463 
-1 1:-0.177779 2:-0.223085 3:-0.109839 4:-0.349594 5:0.442195 6:-0.176594 
-1 1:-0.205296 2:-0.30714 3:-0.175477 4:-0.396832 5:0.394275 6:-0.439577 
-1 1:0.328853 2:0.302242 3:0.338225 4:0.215249 5:0.489084 6:-0.304935 
-1 1:0.0301951 2:0.034508 3:0.100392 4:-0.0578242 5:0.420113 6:-0.280414 
-1 1:-0.401083 2:-0.454339 3:-0.345207 4:-0.601825 5:0.409732 6:-0.397406 
-1 1:-0.136981 2:-0.2093 3:-0.0950008 4:-0.330482 5:0.505318 6:-0.356432 
-1 1:-0.217371 2:-0.281416 3:-0.154881 4:-0.409175 5:0.390424 6:-0.509537 
-1 1:0.0822464 2:0.0205663 3:0.114575 4:-0.0459505 5:0.410986 6:-0.313144 
-1 1:-0.0510319 2:-0.116442 3:0.0060801 4:-0.206314 5:0.445991 6:-0.204042 
-1 1:-0.00503323 2:-0.0669664 3:0.0159799 4:-0.167685 5:0.414113 6:-0.416 
1 1:-0.477133 2:-0.624239 3:-0.418102 4:-0.722541 5:0.460499 6:-0.287443 
-1 1:-0.0836284 2:-0.1429 3:-0.0751357 4:-0.298619 5:0.489556 6:-0.415973 
-1 1:-0.172295 2:-0.264333 3:-0.157371 4:-0.368722 5:0.405654 6:-0.438498 
-1 1:0.0405275 2:-0.0057334 3:0.0824628 4:-0.111033 5:0.423929 6:-0.515299 
-1 1:0.0144327 2:-0.0547507 3:0.0465172 4:-0.136212 5:0.437792 6:-0.465391 
-1 1:-0.0559045 2:-0.118949 3:-0.0222411 4:-0.225885 5:0.47985 6:-0.409188 
1 1:-0.279092 2:-0.341362 3:-0.211309 4:-0.482309 5:0.430268 6:-0.173445 
-1 1:0.0952456 2:0.0208565 3:0.130279 4:-0.039367 5:0.384732 6:-0.332433 
-1 1:-0.201109 2:-0.279505 3:-0.123176 4:-0.412193 5:0.421373 6:-0.180552 
-1 1:-0.0191281 2:-0.0888442 3:0.0298057 4:-0.168806 5:0.410515 6:-0.345421 
-1 1:0.116708 2:0.0564644 3:0.187128 4:-0.0171027 5:0.375262 6:-0.189277 
-1 1:0.00154688 2:-0.0865944 3:0.0468501 4:-0.140627 5:0.430317 6:-0.269202 
-1 1:0.0374561 2:-0.0127972 3:0.0843892 4:-0.107693 5:0.476789 6:-0.499551 
-1 1:-0.0878985 2:-0.178442 3:-0.0502955 4:-0.258737 5:0.463621 6:-0.337961 
1 1:-0.322228 2:-0.40619 3:-0.262232 4:-0.553931 5:0.466379 6:-0.409261 
-1 1:-0.186222 2:-0.231939 3:-0.119829 4:-0.349733 5:0.429793 6:-0.19649 
-1 1:0.140197 2:0.0755686 3:0.187932 4:0.0410307 5:0.386924 6:-0.183031 
-1 1:-0.0973803 2:-0.162661 3:-0.0493394 4:-0.266168 5:0.426415 6:-0.457292 
1 1:0.316246 2:0.352034 3:0.38025 4:0.259493 5:-0.71788 6:0.545843 
1 1:-0.39559 2:-0.367469 3:-0.329457 4:-0.555983 5:-0.725354 6:0.667921 
1 1:0.134953 2:0.158989 3:0.192815 4:0.0432769 5:-0.575838 6:0.480014 
1 1:-0.281235 2:-0.247693 3:-0.203275 4:-0.430132 5:-0.544448 6:0.448193 
1 1:0.00932144 2:0.0310798 3:0.0791492 4:-0.119852 5:-0.582074 6:0.526302 
1 1:-0.186785 2:-0.127224 3:-0.140972 4:-0.288234 5:-0.637885 6:0.541296 
1 1:-0.414069 2:-0.380717 3:-0.339592 4:-0.563382 5:-0.700082 6:0.592909 
1 1:0.125683 2:0.161677 3:0.18966 4:0.0413085 5:-0.553927 6:0.540053 
1 1:-0.408256 2:-0.375598 3:-0.344769 4:-0.569501 5:-0.609467 6:0.569166 
1 1:-0.648738 2:-0.584994 3:-0.587113 4:-0.828464 5:-0.667294 6:0.547594 
1 1:-0.244541 2:-0.212959 3:-0.184341 4:-0.374112 5:-0.552133 6:0.48773 
1 1:-0.0986802 2:-0.0789637 3:-0.0410358 4:-0.238231 5:-0.624902 6:0.446614 
1 1:-0.660688 2:-0.617152 3:-0.625575 4:-0.880372 5:-0.581268 6:0.616379 
-1 1:-0.193575 2:-0.173633 3:-0.131755 4:-0.314353 5:-0.6972 6:0.817366 
1 1:-0.391943 2:-0.343965 3:-0.331684 4:-0.575939 5:-0.64903 6:0.611919 
-1 1:-0.0628064 2:-0.0598014 3:-0.0705507 4:-0.215183 5:-0.690413 6:0.536946 
1 1:-0.244474 2:-0.203794 3:-0.168018 4:-0.407369 5:-0.561301 6:0.439131 
1 1:-0.207785 2:-0.182378 3:-0.130533 4:-0.371574 5:-0.54979 6:0.610696 
1 1:-0.147119 2:-0.129042 3:-0.0752856 4:-0.310604 5:-0.57879 6:0.577323 
1 1:0.0113639 2:0.0168391 3:0.0158889 4:-0.122882 5:-0.734226 6:0.829876 
1 1:-0.393099 2:-0.358332 3:-0.333115 4:-0.587752 5:-0.643225 6:0.506191 
1 1:-0.409607 2:-0.371687 3:-0.328254 4:-0.619023 5:-0.58643 6:0.441255 
-1 1:-0.243934 2:-0.271075 3:-0.190531 4:-0.438032 5:-0.71524 6:0.471227 
-1 1:-0.0838354 2:-0.0787853 3:-0.0189458 4:-0.197895 5:-0.705234 6:0.874683 
1 1:-0.434964 2:-0.38979 3:-0.377514 4:-0.644206 5:-0.540185 6:0.571711 
1 1:0.101784 2:0.114645 3:0.159768 4:-0.00611184 5:-0.662028 6:0.453513 
1 1:-0.297089 2:-0.242863 3:-0.242839 4:-0.433483 5:-0.693737 6:0.655132 
1 1:-0.220389 2:-0.213668 3:-0.154186 4:-0.396045 5:-0.736811 6:0.630239 
1 1:0.164517 2:0.164955 3:0.224813 4:0.0600415 5:0.166914 6:0.253872 
1 1:-0.156472 2:-0.200927 3:-0.100195 4:-0.336759 5:0.232432 6:0.0184618 
1 1:-0.0986652 2:-0.127392 3:-0.0351272 4:-0.235317 5:0.229028 6:0.160663 
1 1:0.0531522 2:0.065679 3:0.116628 4:-0.036419 5:0.225746 6:0.373859 
1 1:-0.284752 2:-0.327014 3:-0.218175 4:-0.456586 5:0.185539 6:0.184628 
1 1:0.0414024 2:0.0427795 3:0.11321 4:-0.061471 5:0.234612 6:0.216885 
1 1:-0.0924609 2:-0.0940689 3:-0.0132739 4:-0.219015 5:0.287092 6:0.198846 
1 1:-0.111596 2:-0.142279 3:-0.0327372 4:-0.272189 5:0.26251 6:0.150075 
1 1:0.0136163 2:-0.0143648 3:0.07872 4:-0.104041 5:0.229459 6:0.137631 
1 1:-0.0533118 2:-0.0428874 3:0.0262315 4:-0.168591 5:0.288252 6:0.170959 
1 1:-0.176803 2:-0.19076 3:-0.0988828 4:-0.315486 5:0.271292 6:0.193817 
1 1:-0.0493037 2:-0.0454628 3:0.0213837 4:-0.173442 5:0.288689 6:0.227989 
1 1:0.00446606 2:0.00105912 3:0.0722913 4:-0.0942376 5:0.258976 6:0.176169 
1 1:-0.0449713 2:-0.0724084 3:0.0219418 4:-0.185373 5:0.243806 6:0.170829 
1 1:-0.112193 2:-0.0886018 3:-0.0514319 4:-0.214933 5:0.271828 6:0.305198 
1 1:0.0764786 2:0.048748 3:0.160373 4:-0.0459554 5:0.247141 6:0.0857365 
1 1:-0.23928 2:-0.28604 3:-0.166364 4:-0.407278 5:0.271656 6:0.0659981 
1 1:0.00446606 2:0.0147057 3:0.0578947 4:-0.066477 5:0.264657 6:0.363755 
1 1:-0.197718 2:-0.239546 3:-0.116104 4:-0.3675 5:0.260654 6:0.0932628 
1 1:-0.298316 2:-0.356364 3:-0.224856 4:-0.496228 5:0.270363 6:0.0460576 
1 1:0.0236323 2:0.0292368 3:0.0875484 4:-0.0794683 5:0.285989 6:0.317636 
1 1:-0.171011 2:-0.193369 3:-0.0919645 4:-0.305033 5:0.274484 6:0.171203 
1 1:0.0429965 2:0.0267445 3:0.117638 4:-0.0620432 5:0.247137 6:0.111763 
1 1:-0.0631874 2:-0.0808343 3:-0.00639765 4:-0.18438 5:0.196454 6:0.178189 
-1 1:-0.0431791 2:-0.0343855 3:0.0256289 4:-0.15346 5:0.201692 6:0.454455 
1 1:-0.189574 2:-0.213558 3:-0.125662 4:-0.373867 5:0.248879 6:0.0408175 
-1 1:0.398233 2:0.410012 3:0.444766 4:0.368365 5:0.264485 6:0.418289 
-1 1:0.483492 2:0.506708 3:0.533059 4:0.49103 5:0.28765 6:0.460262 
1 1:0.0245782 2:0.0301744 3:0.0624611 4:-0.0828763 5:0.231622 6:0.265743 
-1 1:0.0640952 2:0.0413522 3:0.0698716 4:-0.0792569 5:0.185177 6:0.293493 
1 1:0.0973864 2:0.0915693 3:0.175509 4:-0.0169153 5:0.211896 6:0.192442 
1 1:0.0734346 2:0.0556208 3:0.150714 4:-0.0379499 5:0.247284 6:0.141145 
1 1:-0.112597 2:-0.135835 3:-0.0345268 4:-0.2555 5:0.254693 6:0.0205685 
1 1:-0.164772 2:-0.144555 3:-0.102849 4:-0.268796 5:0.216186 6:0.257905 
1 1:-0.0786241 2:-0.0610639 3:-0.0107657 4:-0.183241 5:0.182916 6:0.356601 
1 1:-0.0669679 2:-0.0739874 3:-0.00163047 4:-0.158609 5:0.202817 6:0.109742 
1 1:0.0184522 2:0.00794382 3:0.0953036 4:-0.0969757 5:0.227546 6:0.189971 
1 1:0.0500226 2:0.0574926 3:0.0946747 4:-0.0479386 5:0.202114 6:0.230988 
1 1:-0.0517809 2:-0.0700417 3:0.0301425 4:-0.155806 5:0.231424 6:0.0935797 
1 1:-0.103006 2:-0.0774914 3:-0.0370621 4:-0.190021 5:0.258814 6:0.255675 
1 1:-0.0723514 2:-0.0684734 3:-0.000764853 4:-0.215087 5:0.17783 6:0.223048 
1 1:-0.33558 2:-0.37683 3:-0.288056 4:-0.53138 5:0.259511 6:0.0367625 
1 1:-0.216878 2:-0.261162 3:-0.143786 4:-0.41216 5:0.239801 6:0.0212859 
1 1:-0.284077 2:-0.271302 3:-0.219823 4:-0.386403 5:0.234467 6:0.356534 
1 1:0.0422183 2:0.0173574 3:0.0970802 4:-0.0757408 5:0.215424 6:0.09055 
1 1:-0.0857229 2:-0.0925485 3:-0.0115392 4:-0.207591 5:0.276749 6:0.146562 
1 1:0.00545946 2:-0.0267283 3:0.0819147 4:-0.125816 5:0.260656 6:0.0656396 
1 1:0.326319 2:0.347272 3:0.387395 4:0.273203 5:0.221192 6:0.234663 
1 1:-0.219534 2:-0.214983 3:-0.152195 4:-0.363536 5:0.187595 6:0.268359 
1 1:-0.274322 2:-0.275665 3:-0.215785 4:-0.421228 5:0.192217 6:0.225367 
1 1:-0.0353601 2:-0.0371005 3:0.0402327 4:-0.151592 5:0.251173 6:0.204016 
1 1:0.267457 2:0.278332 3:0.336549 4:0.219053 5:0.226307 6:0.298291 
1 1:-0.0753945 2:-0.103593 3:-0.00929803 4:-0.217401 5:0.23539 6:0.0416153 
1 1:-0.109752 2:-0.14312 3:-0.0361324 4:-0.23758 5:0.229701 6:0.11599 
1 1:-0.0797137 2:-0.114468 3:0.00502132 4:-0.21691 5:0.2648 6:0.122805 
1 1:-0.0765441 2:-0.0902242 3:-0.00901981 4:-0.201135 5:0.27346 6:0.0937772 
1 1:0.125523 2:0.115164 3:0.200933 4:0.00986197 5:0.246924 6:0.0636614 
1 1:0.0175048 2:0.0364433 3:0.0853448 4:-0.058041 5:0.236937 6:0.321341 
1 1:0.13808 2:0.152753 3:0.206521 4:0.0754823 5:0.354001 6:0.18803 
1 1:-0.191752 2:-0.16584 3:-0.132096 4:-0.309175 5:0.304211 6:0.306138 
-1 1:-0.115324 2:-0.109674 3:-0.0382411 4:-0.250012 5:0.374334 6:0.294985 
1 1:0.0367593 2:0.0699805 3:0.0991474 4:-0.0344934 5:0.333848 6:0.259369 
1 1:0.0598113 2:0.0798883 3:0.130214 4:-0.0377136 5:0.338163 6:0.319222 
1 1:-0.0261273 2:-0.016859 3:0.0561038 4:-0.157736 5:0.311025 6:0.204093 
1 1:0.0135922 2:0.0228028 3:0.0730464 4:-0.0899952 5:0.333599 6:0.280327 
1 1:-0.200262 2:-0.241324 3:-0.113437 4:-0.374822 5:0.334291 6:0.110446 
1 1:-0.0445603 2:-0.0480763 3:0.0209419 4:-0.172308 5:0.367994 6:0.1964 
1 1:0.0222156 2:0.00342659 3:0.0888539 4:-0.0751218 5:0.319274 6:0.117108 
-1 1:0.273008 2:0.275555 3:0.339845 4:0.201189 5:0.355388 6:0.389687 
1 1:0.131246 2:0.129 3:0.191476 4:0.0347225 5:0.353828 6:0.113331 
1 1:-0.0771018 2:-0.0719668 3:-0.0066033 4:-0.200613 5:0.306449 6:0.26541 
1 1:-0.0851378 2:-0.112331 3:-0.0225402 4:-0.218416 5:0.383759 6:0.206331 
1 1:0.0258492 2:0.0226306 3:0.101666 4:-0.0809322 5:0.294578 6:0.112462 
1 1:0.0104599 2:0.00490818 3:0.0996462 4:-0.125147 5:0.316284 6:0.173843 
1 1:0.176227 2:0.223016 3:0.245876 4:0.153107 5:0.348562 6:0.261088 
1 1:0.0633852 2:0.0929248 3:0.133299 4:-0.00878762 5:0.358493 6:0.240146 
1 1:-0.0194364 2:-0.0208693 3:0.0618729 4:-0.145835 5:0.346317 6:0.103224 
1 1:0.0337081 2:0.0526906 3:0.100982 4:-0.0721809 5:0.36829 6:0.324937 
1 1:0.0370693 2:0.0279881 3:0.115894 4:-0.0826941 5:0.348889 6:0.162924 
-1 1:-0.0287694 2:-0.0344449 3:0.0242151 4:-0.129238 5:0.310826 6:0.341519 
1 1:0.00714735 2:-0.000831717 3:0.0622025 4:-0.124072 5:0.370277 6:0.152645 
1 1:-0.0521856 2:-0.0669188 3:0.0160102 4:-0.18737 5:0.363538 6:0.170413 
1 1:0.0736127 2:0.0627863 3:0.131409 4:-0.0588552 5:0.300281 6:0.144671 
-1 1:0.124869 2:0.135487 3:0.198285 4:0.0300371 5:0.35533 6:0.35996 
-1 1:-0.0460866 2:-0.0792443 3:0.0274591 4:-0.171374 5:0.370675 6:0.393536 
-1 1:0.23381 2:0.2329 3:0.294655 4:0.15744 5:0.324089 6:0.385699 
1 1:0.278524 2:0.278575 3:0.349523 4:0.202351 5:0.360274 6:0.268814 
1 1:-0.181855 2:-0.192157 3:-0.109296 4:-0.343246 5:0.322082 6:0.146343 
-1 1:0.0490506 2:0.061754 3:0.101134 4:-0.0666554 5:0.348699 6:0.319899 
-1 1:0.0280242 2:0.028169 3:0.100678 4:-0.088738 5:0.370987 6:0.3728 
1 1:-0.31448 2:-0.334096 3:-0.247273 4:-0.461829 5:0.386863 6:0.166823 
1 1:-0.0802677 2:-0.103096 3:-0.000930999 4:-0.243165 5:0.332908 6:0.13153 
1 1:-0.0759618 2:-0.109401 3:0.0022982 4:-0.215628 5:0.327668 6:0.0932767 
1 1:-0.135576 2:-0.147422 3:-0.0502955 4:-0.266554 5:0.306841 6:0.119933 
1 1:-0.0224415 2:-0.019808 3:0.0451536 4:-0.125276 5:0.284658 6:0.0884344 
1 1:-0.146707 2:-0.141806 3:-0.071625 4:-0.275517 5:0.325871 6:0.342541 
1 1:-0.0401338 2:-0.0574611 3:0.0310375 4:-0.176854 5:0.376535 6:0.179323 
1 1:0.0505458 2:0.0526906 3:0.11878 4:-0.0456322 5:0.357782 6:0.214874 
1 1:-0.0756713 2:-0.0880911 3:-0.0114335 4:-0.20516 5:0.314698 6:0.0872948 
-1 1:-0.0285866 2:-0.0100655 3:0.044429 4:-0.140833 5:0.385711 6:0.393706 
1 1:-0.254227 2:-0.283105 3:-0.180833 4:-0.432979 5:0.384763 6:0.155924 
1 1:-0.101157 2:-0.0840054 3:-0.0302999 4:-0.196495 5:0.348582 6:0.28119 
1 1:0.322173 2:0.3176 3:0.371248 4:0.246334 5:0.29447 6:0.0883423 
1 1:-0.216213 2:-0.203073 3:-0.155888 4:-0.342952 5:0.302515 6:0.284166 
1 1:0.0536921 2:0.0767774 3:0.130392 4:-0.0222089 5:0.305492 6:0.0946982 
1 1:-0.0574234 2:-0.0905233 3:0.0228195 4:-0.20716 5:0.346675 6:0.136939 
1 1:-0.0372245 2:-0.0226586 3:0.0394884 4:-0.147893 5:0.319857 6:0.318104 
1 1:-0.0238197 2:-0.0013076 3:0.0585678 4:-0.130425 5:0.367927 6:0.350809 
0.8640712322936519 1:0.280492 2:0.290587 3:0.33419 4:0.215326 5:0.127624 6:0.46358 
-1 1:-0.0906593 2:-0.0832203 3:-0.0166123 4:-0.219458 5:0.110391 6:0.485148 
1 1:0.201678 2:0.205259 3:0.249518 4:0.123162 5:0.177824 6:0.463588 
-1 1:-0.140562 2:-0.121427 3:-0.0801465 4:-0.260084 5:0.0441812 6:0.53993 
-1 1:-0.139505 2:-0.114313 3:-0.0762876 4:-0.265984 5:0.0939413 6:0.485323 
-1 1:-0.199103 2:-0.170611 3:-0.139545 4:-0.34706 5:0.0113035 6:0.317727 
-1 1:-0.0553617 2:-0.0556198 3:0.00862162 4:-0.17406 5:0.188764 6:0.437628 
1 1:0.201613 2:0.212832 3:0.198073 4:0.111481 5:0.152963 6:0.395524 
-1 1:-0.163627 2:-0.144592 3:-0.0952236 4:-0.285828 5:0.164551 6:0.357724 
1 1:-0.151513 2:-0.116442 3:-0.0833562 4:-0.284846 5:0.0672913 6:0.367269 
-1 1:-0.141416 2:-0.126522 3:-0.0871557 4:-0.269363 5:0.0106554 6:0.342223 
-1 1:-0.157426 2:-0.142754 3:-0.0926226 4:-0.305073 5:-0.00118043 6:0.427971 
-1 1:0.0535765 2:0.0610162 3:0.116541 4:-0.0318342 5:0.169788 6:0.380486 
-1 1:-0.223788 2:-0.225637 3:-0.159737 4:-0.354335 5:0.0106181 6:0.539868 
-1 1:-0.0691681 2:-0.0444533 3:-0.0164675 4:-0.203845 5:0.0272105 6:0.317307 
1 1:0.423714 2:0.452294 3:0.480663 4:0.38109 5:0.0830447 6:0.3968 
-1 1:0.191318 2:0.201268 3:0.254153 4:0.100467 5:0.0132129 6:0.368032 
1 1:0.00480342 2:-0.0223437 3:0.0629068 4:-0.11965 5:-0.00909482 6:0.515044 
1 1:0.182257 2:0.17472 3:0.167458 4:0.0710937 5:0.0866659 6:0.426832 
-1 1:-0.130116 2:-0.110525 3:-0.0599124 4:-0.270415 5:0.0592677 6:0.341723 
-1 1:-0.217023 2:-0.199208 3:-0.139403 4:-0.398311 5:0.14012 6:0.318692 
-1 1:-0.0661028 2:-0.0443904 3:-0.00391399 4:-0.185983 5:0.148471 6:0.367816 
-1 1:-0.0983805 2:-0.0703328 3:-0.0375896 4:-0.210345 5:0.0771934 6:0.485529 
-1 1:-0.108006 2:-0.0966416 3:-0.0310042 4:-0.246945 5:0.0218978 6:0.0769944 
-1 1:-0.301862 2:-0.293853 3:-0.222378 4:-0.471331 5:-0.0114959 6:0.015116 
-1 1:-0.361041 2:-0.341924 3:-0.281288 4:-0.51233 5:-0.205213 6:0.236579 
-1 1:-0.200658 2:-0.194688 3:-0.130263 4:-0.337309 5:0.00654798 6:0.106428 
-0.4118285976648561 1:-0.0614119 2:-0.0377253 3:0.010536 4:-0.194292 5:-0.0437175 6:0.159271 
-1 1:-0.204294 2:-0.204571 3:-0.140757 4:-0.369468 5:0.027278 6:0.237259 
-1 1:-0.346751 2:-0.333666 3:-0.262092 4:-0.539821 5:-0.0114719 6:0.0405826 
-1 1:-0.0483495 2:-0.0351598 3:0.00547125 4:-0.139454 5:-0.170474 6:0.0903438 
-1 1:0.00418726 2:-0.00683195 3:-0.0251409 4:-0.131021 5:-0.0293021 6:0.170421 
-1 1:-0.270806 2:-0.252387 3:-0.224629 4:-0.376199 5:-0.19037 6:0.0495513 
-1 1:-0.316638 2:-0.303474 3:-0.258512 4:-0.446659 5:-0.159105 6:0.0648654 
-1 1:-0.376567 2:-0.350825 3:-0.327655 4:-0.513178 5:-0.174955 6:0.0495321 
1 1:0.399111 2:0.457889 3:0.467693 4:0.407475 5:0.0387777 6:0.160979 
-1 1:-0.397482 2:-0.376967 3:-0.33291 4:-0.522242 5:-0.190491 6:0.0859952 
1 1:-0.442134 2:-0.398419 3:-0.366837 4:-0.585496 5:-0.160574 6:0.127005 
-1 1:0.112554 2:0.133297 3:0.129451 4:0.00765159 5:0.0311513 6:0.187801 
-1 1:-0.0545155 2:-0.0332402 3:0.0110971 4:-0.16255 5:0.0383759 6:0.134019 
0.5032647487213129 1:-0.172069 2:-0.161601 3:-0.0976926 4:-0.328872 5:-0.00349107 6:0.236184 
1 1:-0.326658 2:-0.301042 3:-0.247016 4:-0.46959 5:-0.141138 6:0.126495 
-1 1:-0.121313 2:-0.0943467 3:-0.0490363 4:-0.260418 5:-0.0146217 6:0.202737 
-1 1:0.157086 2:0.124677 3:0.0841808 4:0.00763568 5:-0.0285191 6:0.195435 
1 1:-0.323064 2:-0.305206 3:-0.236565 4:-0.489832 5:-0.119703 6:0.130542 
-1 1:-0.296863 2:-0.257558 3:-0.22588 4:-0.418124 5:-0.17612 6:0.127039 
-1 1:-0.464041 2:-0.445618 3:-0.424424 4:-0.617167 5:-0.207145 6:0.0491908 
1 1:-0.22211 2:-0.203846 3:-0.165461 4:-0.349908 5:-0.181379 6:0.200968 
-1 1:-0.417491 2:-0.40155 3:-0.365361 4:-0.571172 5:-0.191705 6:0.12704 
-1 1:-0.153313 2:-0.138885 3:-0.0714292 4:-0.313621 5:0.00629761 6:0.0492089 
-1 1:-0.317093 2:-0.309564 3:-0.243591 4:-0.505116 5:0.00640368 6:0.0769082 
-1 1:0.316862 2:0.304283 3:0.368169 4:0.223023 5:0.040755 6:0.180379 
1 1:-0.114913 2:-0.215148 3:-0.0430347 4:-0.315551 5:0.375781 6:0.0109572 
1 1:0.0205407 2:-0.0776179 3:0.0568804 4:-0.154763 5:0.432615 6:-0.0202281 
-1 1:0.0696289 2:0.0730504 3:0.123548 4:-0.0112698 5:0.395278 6:0.168512 
-1 1:-0.0743177 2:-0.0978854 3:-0.0431185 4:-0.222589 5:0.413598 6:0.103532 
-1 1:-0.239904 2:-0.297148 3:-0.187271 4:-0.424685 5:0.41813 6:0.144857 
1 1:-0.102148 2:-0.169375 3:-0.0270873 4:-0.280347 5:0.335175 6:0.0672296 
-1 1:0.0479806 2:0.0141796 3:0.127471 4:-0.0679732 5:0.361175 6:0.0839196 
-1 1:-0.206277 2:-0.25485 3:-0.168767 4:-0.366161 5:0.381212 6:0.142908 
-1 1:-0.0361628 2:-0.129211 3:0.0329803 4:-0.220676 5:0.454559 6:0.11392 
-1 1:0.14714 2:0.107179 3:0.129027 4:0.000299376 5:0.297707 6:-0.00677641 
1 1:-0.204375 2:-0.327325 3:-0.141043 4:-0.467771 5:0.380971 6:-0.0216349 
1 1:-0.243766 2:-0.372221 3:-0.185617 4:-0.471496 5:0.371987 6:-0.0163455 
1 1:-0.197796 2:-0.294628 3:-0.120596 4:-0.412421 5:0.341729 6:0.0200389 
-1 1:-0.27297 2:-0.393674 3:-0.208488 4:-0.494813 5:0.452915 6:0.0964962 
-1 1:-0.156637 2:-0.230613 3:-0.0983151 4:-0.346455 5:0.431837 6:0.117944 
1 1:0.0678171 2:0.0692102 3:0.108326 4:-0.026054 5:0.390016 6:0.106243 
-1 1:-0.330054 2:-0.39053 3:-0.279902 4:-0.496264 5:0.390601 6:0.15024 
-1 1:-0.149332 2:-0.188237 3:-0.0821589 4:-0.296986 5:0.399397 6:0.140321 
-1 1:0.197441 2:0.158724 3:0.192815 4:0.0628051 5:0.351697 6:0.0608025 
1 1:0.0536792 2:-0.0374026 3:0.0975847 4:-0.10096 5:0.44878 6:-0.0100538 
1 1:-0.116662 2:-0.205611 3:-0.0545717 4:-0.317733 5:0.354365 6:0.0267948 
-0.8218190130949422 1:0.0584729 2:0.0403942 3:0.106932 4:-0.0397518 5:0.294848 6:0.0694397 
-1 1:0.0815718 2:0.0403293 3:0.147028 4:-0.0277931 5:0.296065 6:0.0279962 
-1 1:-0.023346 2:-0.0456528 3:0.00550335 4:-0.162683 5:0.400481 6:0.0755908 
1 1:-0.104332 2:-0.207446 3:-0.0562295 4:-0.290404 5:0.457998 6:0.0313646 
-1 1:-0.159329 2:-0.217196 3:-0.0857216 4:-0.338197 5:0.361069 6:0.0487292 
-1 1:-0.243161 2:-0.341812 3:-0.186351 4:-0.467722 5:0.431022 6:0.0518701 
-1 1:-0.00443788 2:-0.0962758 3:0.0579669 4:-0.177569 5:0.46151 6:0.0119749 
-1 1:-0.139561 2:-0.254231 3:-0.0849297 4:-0.34577 5:0.44277 6:0.131168 
-1 1:-0.0821863 2:-0.170954 3:-0.0185426 4:-0.274551 5:0.397762 6:0.040525 
-1 1:-0.033734 2:-0.0896276 3:0.0202032 4:-0.193707 5:0.319366 6:-0.00990307 
-1 1:-0.249649 2:-0.269346 3:-0.206528 4:-0.429661 5:0.276973 6:0.00337594 
-1 1:-0.190397 2:-0.23352 3:-0.115107 4:-0.350511 5:0.305855 6:0.0466377 
1 1:-0.158972 2:-0.293939 3:-0.102269 4:-0.359858 5:0.45409 6:0.0610329 
-1 1:-0.063557 2:-0.0661348 3:-0.0601422 4:-0.217221 5:0.342697 6:0.0846565 
-1 1:-0.323851 2:-0.444406 3:-0.252344 4:-0.563331 5:0.43503 6:0.0819839 
1 1:-0.153842 2:-0.2655 3:-0.0959496 4:-0.366599 5:0.360354 6:-0.0223601 
-1 1:-0.0747109 2:-0.125193 3:-0.0257112 4:-0.235629 5:0.424368 6:0.0889053 
-1 1:-0.251642 2:-0.315774 3:-0.208591 4:-0.440296 5:0.420574 6:0.115166 
1 1:-0.0557391 2:-0.11478 3:0.018657 4:-0.202163 5:0.320568 6:0.0419721 
-1 1:-0.301955 2:-0.430854 3:-0.253667 4:-0.586092 5:0.432023 6:0.0369458 
-1 1:-0.182835 2:-0.229654 3:-0.12448 4:-0.351711 5:0.408461 6:0.144874 
1 1:0.0804365 2:0.0191668 3:0.146998 4:-0.0793917 5:0.400688 6:0.0107254 
-1 1:-0.0684824 2:-0.148212 3:-0.0629225 4:-0.268923 5:0.44155 6:0.102735 
-1 1:-0.0543631 2:-0.0843729 3:-0.0224654 4:-0.191476 5:0.40058 6:0.111332 
-1 1:-0.126999 2:-0.164595 3:-0.0733966 4:-0.273036 5:0.329849 6:-0.019888 
-1 1:-0.162318 2:-0.231637 3:-0.10146 4:-0.342728 5:0.308549 6:-0.011398 
1 1:-0.199998 2:-0.232242 3:-0.133671 4:-0.367341 5:0.284172 6:-0.0143193 
-0.6997351226216358 1:-0.280325 2:-0.31558 3:-0.217847 4:-0.454757 5:0.373756 6:0.136794 
-1 1:-0.0962228 2:-0.136929 3:-0.0524872 4:-0.231713 5:0.281372 6:0.0574246 
-1 1:0.168691 2:0.13613 3:0.193927 4:0.042226 5:0.335433 6:0.00137692 
1 1:-0.102546 2:-0.233887 3:-0.0403744 4:-0.332704 5:0.391683 6:-0.0139012 
1 1:-0.273565 2:-0.423373 3:-0.225538 4:-0.507463 5:0.439051 6:0.0646188 
1 1:0.10399 2:0.0180363 3:0.153002 4:-0.0195794 5:0.123953 6:-0.563662 
1 1:-0.066228 2:-0.120941 3:0.000558897 4:-0.222523 5:0.109219 6:-0.532924 
1 1:0.0782503 2:0.0550243 3:0.143898 4:-0.01969 5:0.176999 6:-0.571121 
1 1:-0.0706373 2:-0.1684 3:-0.0143084 4:-0.216296 5:0.171529 6:-0.596739 
1 1:0.051938 2:-0.0331025 3:0.117325 4:-0.122646 5:0.138368 6:-0.497916 
1 1:-0.00790428 2:-0.0256691 3:0.0537047 4:-0.132905 5:0.0911122 6:-0.533132 
1 1:-0.106684 2:-0.159861 3:-0.0375896 4:-0.280989 5:0.101181 6:-0.390168 
1 1:0.306687 2:0.281625 3:0.363599 4:0.236662 5:0.0905052 6:-0.569016 
1 1:-0.184738 2:-0.237099 3:-0.10466 4:-0.346502 5:0.134239 6:-0.412229 
1 1:-0.213948 2:-0.283348 3:-0.148277 4:-0.319472 5:0.0960756 6:-0.601132 
1 1:-0.164858 2:-0.23629 3:-0.0940569 4:-0.342812 5:0.143919 6:-0.447705 
1 1:-0.0987102 2:-0.164388 3:-0.0386085 4:-0.265892 5:0.103339 6:-0.350784 
1 1:-0.0557037 2:-0.102746 3:0.00786287 4:-0.203557 5:0.151197 6:-0.466747 
1 1:-0.0281811 2:-0.0804997 3:0.0347113 4:-0.171727 5:0.0771458 6:-0.414365 
1 1:0.450913 2:0.450747 3:0.48236 4:0.397253 5:0.170483 6:-0.542374 
1 1:-0.189773 2:-0.277457 3:-0.155422 4:-0.386763 5:0.165475 6:-0.357663 
1 1:-0.0830502 2:-0.13867 3:-0.0642347 4:-0.272986 5:0.172068 6:-0.516526 
1 1:0.00997757 2:-0.0853744 3:0.0639348 4:-0.150479 5:0.123907 6:-0.526408 
1 1:-0.0452272 2:-0.116821 3:0.0187167 4:-0.234551 5:0.150026 6:-0.407912 
1 1:-0.106762 2:-0.151715 3:-0.0283192 4:-0.274147 5:0.118699 6:-0.453916 
1 1:0.125687 2:0.0719896 3:0.169651 4:0.0318318 5:0.146062 6:-0.605633 
1 1:0.00643068 2:-0.0541073 3:0.0369129 4:-0.132474 5:0.16145 6:-0.566056 
1 1:-0.0976783 2:-0.134121 3:-0.0263597 4:-0.269241 5:0.118904 6:-0.394586 
1 1:0.00400962 2:-0.0514911 3:0.056201 4:-0.122026 5:0.109658 6:-0.565581 
1 1:0.289184 2:0.269585 3:0.329364 4:0.233861 5:0.136208 6:-0.570839 
1 1:0.173805 2:0.100819 3:0.223263 4:0.0821693 5:0.195017 6:-0.630881 
1 1:0.110021 2:0.083963 3:0.190081 4:3.13907e-05 5:0.183289 6:-0.550817 
1 1:-0.130563 2:-0.192447 3:-0.0825224 4:-0.307573 5:0.165213 6:-0.388314 
1 1:0.0196508 2:-0.033516 3:0.0832819 4:-0.141402 5:0.145539 6:-0.350588 
1 1:0.0509764 2:0.008846 3:0.0924364 4:-0.108246 5:0.0997862 6:-0.442651 
1 1:0.529973 2:0.505028 3:0.492418 4:0.450447 5:0.211537 6:-0.582675 
1 1:-0.036746 2:-0.0861691 3:0.00376207 4:-0.160083 5:0.227428 6:-0.639571 
1 1:-0.0467142 2:-0.114624 3:0.000558897 4:-0.197493 5:0.15258 6:-0.528505 
1 1:0.268406 2:0.240263 3:0.309788 4:0.16003 5:0.119533 6:-0.487328 
1 1:-0.19434 2:-0.263245 3:-0.140399 4:-0.3926 5:0.0914539 6:-0.411675 
1 1:-0.0595331 2:-0.127727 3:-0.00486264 4:-0.231275 5:0.146793 6:-0.384365 
1 1:0.136428 2:0.114166 3:0.191291 4:0.0340042 5:0.23221 6:-0.597084 
1 1:0.0281796 2:0.00669184 3:0.0868922 4:-0.057404 5:0.19651 6:-0.595666 
1 1:-0.214433 2:-0.275665 3:-0.145614 4:-0.407214 5:0.184037 6:-0.519045 
1 1:-0.072209 2:-0.121751 3:-0.0265126 4:-0.201721 5:0.180996 6:-0.58605 
1 1:-0.00312091 2:-0.0287892 3:0.0519715 4:-0.104733 5:0.191383 6:-0.578257 
1 1:0.174775 2:0.0917539 3:0.226063 4:0.025408 5:0.138342 6:-0.537763 
1 1:0.038325 2:-0.0561567 3:0.0986472 4:-0.0981447 5:0.152172 6:-0.577285 
1 1:0.125119 2:0.0714786 3:0.157117 4:0.0425774 5:0.157261 6:-0.618979 
1 1:0.227447 2:0.238959 3:0.298432 4:0.164272 5:0.210397 6:-0.554576 
1 1:0.173278 2:0.118876 3:0.222776 4:0.0371612 5:0.19491 6:-0.534795 
1 1:-0.235609 2:-0.300238 3:-0.182984 4:-0.421658 5:0.162117 6:-0.419352 
1 1:-0.0599919 2:-0.111686 3:0.0188361 4:-0.230828 5:0.125128 6:-0.349818 
1 1:0.0809113 2:0.0103292 3:0.143582 4:-0.0323777 5:0.127545 6:-0.603929 
-1 1:0.104479 2:0.0575397 3:0.0885895 4:-0.0579039 5:0.0965559 6:-0.494793 
1 1:0.0681312 2:0.0235896 3:0.13561 4:-0.0851376 5:0.207644 6:-0.516377 
1 1:0.0721885 2:0.0355784 3:0.135909 4:-0.0642736 5:0.0914665 6:-0.360212 
1 1:-0.0915506 2:-0.141261 3:-0.0443795 4:-0.217232 5:0.162733 6:-0.549213 
1 1:-0.152765 2:-0.215478 3:-0.0743884 4:-0.354968 5:0.157783 6:-0.353303 
-1 1:-0.136833 2:-0.205246 3:-0.248818 4:-0.384321 5:0.158832 6:-0.514628 
1 1:-0.0999594 2:-0.140646 3:-0.0323419 4:-0.282046 5:0.115974 6:-0.4242 
1 1:0.21979 2:0.200886 3:0.249788 4:0.0909306 5:0.908233 6:0.606357 
-1 1:0.197921 2:0.18554 3:0.243575 4:0.0439268 5:0.965354 6:0.815711 
1 1:0.364514 2:0.388405 3:0.404909 4:0.273795 5:0.903873 6:0.576206 
1 1:0.070747 2:0.100773 3:0.142358 4:-0.0843407 5:0.973209 6:0.640116 
0.7376364575948067 1:0.0278835 2:0.0575869 3:0.092536 4:-0.121592 5:0.949676 6:0.595096 
1 1:-0.0196584 2:0.0214354 3:0.0654199 4:-0.171616 5:0.932336 6:0.592357 
1 1:0.0924233 2:0.109898 3:0.162463 4:-0.0480801 5:0.888726 6:0.633377 
1 1:-0.0054699 2:0.0124246 3:0.050297 4:-0.13873 5:0.921314 6:0.584588 
1 1:-0.00888372 2:0.00563644 3:0.0653506 4:-0.186449 5:0.946602 6:0.633063 
1 1:0.281229 2:0.292819 3:0.341599 4:0.175394 5:0.891758 6:0.542828 
1 1:0.569873 2:0.575571 3:0.60545 4:0.546487 5:0.681848 6:0.208039 
-1 1:-0.0406432 2:-0.0883328 3:0.017849 4:-0.18021 5:0.709574 6:0.159881 
-1 1:0.12379 2:0.109539 3:0.175458 4:0.0252211 5:0.705401 6:0.218565 
-1 1:-0.0228833 2:-0.0501433 3:0.0399407 4:-0.179568 5:0.588121 6:0.215394 
1 1:0.24693 2:0.297513 3:0.297999 4:0.236926 5:0.670631 6:0.191746 
1 1:0.542016 2:0.596233 3:0.582293 4:0.582435 5:0.661089 6:0.182301 
-1 1:0.560363 2:0.578095 3:0.566622 4:0.53989 5:0.673644 6:0.156421 
-1 1:0.117439 2:0.116334 3:0.14926 4:0.0235918 5:0.684925 6:0.10456 
1 1:-0.0102805 2:-0.012622 3:0.0347659 4:-0.0982291 5:0.697329 6:0.149707 
1 1:0.304825 2:0.364781 3:0.378064 4:0.220971 5:0.906717 6:0.400095 
1 1:0.295901 2:0.308743 3:0.332305 4:0.201393 5:0.802165 6:0.45451 
1 1:-0.196783 2:-0.127962 3:-0.128449 4:-0.323641 5:0.890744 6:0.370969 
1 1:0.558341 2:0.578016 3:0.583255 4:0.508173 5:0.884717 6:0.477928 
1 1:0.149447 2:0.176527 3:0.192262 4:0.0386876 5:0.824044 6:0.472907 
1 1:0.297321 2:0.287741 3:0.292703 4:0.180261 5:0.821469 6:0.452331 
1 1:-0.295915 2:-0.2353 3:-0.242964 4:-0.372624 5:0.911103 6:0.360723 
1 1:0.552954 2:0.591499 3:0.587377 4:0.52681 5:0.873702 6:0.438386 
1 1:0.465843 2:0.497219 3:0.51968 4:0.403601 5:0.88953 6:0.422935 
-1 1:0.574377 2:0.563307 3:0.472907 4:0.482772 5:0.881024 6:0.45383 
-1 1:-0.227008 2:-0.20946 3:-0.159975 4:-0.400398 5:0.267678 6:0.821362 
1 1:0.102089 2:0.12581 3:0.182357 4:0.0313074 5:0.399442 6:0.503037 
1 1:-0.206878 2:-0.179835 3:-0.126057 4:-0.363714 5:0.399452 6:0.649692 
1 1:0.192089 2:0.223984 3:0.253791 4:0.137569 5:0.391167 6:0.4733 
-1 1:0.0527398 2:0.0634256 3:0.115244 4:-0.0693024 5:0.399689 6:0.532695 
-1 1:0.0612937 2:0.0284331 3:0.0932715 4:-0.119725 5:0.256918 6:0.843977 
1 1:0.409789 2:0.408263 3:0.421976 4:0.343167 5:0.407847 6:0.474615 
-1 1:-0.00449999 2:0.00101047 3:0.0467989 4:-0.160812 5:0.444475 6:0.615629 
-1 1:0.121003 2:0.0752598 3:0.121757 4:-0.0280896 5:0.391439 6:0.562655 
1 1:-0.130743 2:-0.0864348 3:-0.0578118 4:-0.250832 5:0.349352 6:0.687884 
-1 1:-0.265867 2:-0.269047 3:-0.20217 4:-0.442936 5:0.364883 6:0.824005 
1 1:-0.191551 2:-0.182469 3:-0.114797 4:-0.361994 5:0.385458 6:0.761769 
-1 1:0.169491 2:0.17643 3:0.191279 4:0.0521836 5:0.29374 6:0.817058 
-1 1:0.0559685 2:0.0105138 3:0.0661579 4:-0.114581 5:0.37433 6:0.562257 
-1 1:-0.0224219 2:-0.00887813 3:0.0553483 4:-0.168339 5:0.296536 6:0.720706 
0.1624319486463576 1:0.157533 2:0.186707 3:0.228538 4:0.101693 5:0.407418 6:0.562267 
1 1:-0.200658 2:-0.205819 3:-0.112761 4:-0.369786 5:0.382334 6:0.62093 
-1 1:0.0804365 2:0.0825265 3:0.161387 4:-0.0424742 5:0.380452 6:0.534434 
1 1:-0.240994 2:-0.237473 3:-0.147905 4:-0.437824 5:0.416496 6:0.678957 
1 1:0.294697 2:0.2989 3:0.368301 4:0.226609 5:0.342162 6:0.501504 
1 1:-0.0926783 2:-0.0813244 3:0.0019713 4:-0.265228 5:0.399471 6:0.620267 
-1 1:0.112873 2:0.119367 3:0.187542 4:0.00711191 5:0.367015 6:0.416577 
-1 1:0.785878 2:0.767131 3:0.83909 4:0.758612 5:0.447181 6:0.447718 
0.889963549202011 1:-0.136833 2:-0.128704 3:-0.0528845 4:-0.328104 5:0.0885277 6:0.812187 
1 1:0.114901 2:0.113652 3:0.140361 4:-0.0023359 5:0.0655712 6:0.595142 
1 1:0.0341022 2:0.0530052 3:0.0965938 4:-0.0391425 5:0.0749513 6:0.661569 
1 1:-0.118277 2:-0.112794 3:-0.0513004 4:-0.261678 5:0.0125805 6:0.679109 
1 1:-0.120838 2:-0.109008 3:-0.0479146 4:-0.250183 5:0.0260202 6:0.593105 
1 1:0.327191 2:0.369259 3:0.393418 4:0.301405 5:0.100852 6:0.650124 
1 1:-0.067144 2:-0.0566503 3:0.00317793 4:-0.194449 5:0.069661 6:0.565146 
1 1:-0.0513542 2:-0.0476914 3:0.0220297 4:-0.200295 5:0.135323 6:0.564975 
1 1:0.0486683 2:0.0595663 3:0.119159 4:-0.0536627 5:0.11295 6:0.627344 
1 1:-0.246923 2:-0.243961 3:-0.169519 4:-0.417073 5:-0.00320884 6:0.755285 
0.4448991412855173 1:0.633767 2:0.665296 3:0.67852 4:0.623869 5:0.0863674 6:0.676989 
1 1:-0.0868706 2:-0.0790912 3:-0.0159975 4:-0.224717 5:0.156439 6:0.564896 
1 1:-0.177779 2:-0.180603 3:-0.107797 4:-0.338385 5:-0.00901997 6:0.676785 
1 1:-0.0469838 2:-0.0340688 3:0.031706 4:-0.163376 5:0.0772712 6:0.623925 
1 1:-0.0262374 2:-0.0337724 3:0.0213837 4:-0.158364 5:0.00280954 6:0.627328 
1 1:-0.171551 2:-0.171727 3:-0.100482 4:-0.325922 5:0.00560457 6:0.594047 
1 1:-0.0127814 2:-0.00712039 3:0.0264033 4:-0.134137 5:0.0591482 6:0.621243 
1 1:-0.162939 2:-0.176574 3:-0.0906008 4:-0.326131 5:-0.0117934 6:0.594453 
1 1:-0.0650677 2:-0.0670379 3:0.00745057 4:-0.201981 5:0.0340695 6:0.653405 
1 1:-0.18262 2:-0.185702 3:-0.119383 4:-0.323114 5:-0.0115857 6:0.564841 
1 1:0.0557466 2:0.0805205 3:0.123716 4:-0.00612381 5:0.0842462 6:0.647594 
1 1:0.230193 2:0.20874 3:0.268546 4:0.111069 5:0.0462701 6:0.723466 
1 1:-0.165292 2:-0.174812 3:-0.128181 4:-0.329191 5:-0.00284787 6:0.726006 
1 1:-0.148875 2:-0.153921 3:-0.0761872 4:-0.316737 5:0.00840803 6:0.700867 
1 1:-0.0847211 2:-0.0747324 3:-0.0162866 4:-0.205783 5:0.0823044 6:0.593984 
1 1:0.228424 2:0.273353 3:0.30489 4:0.188466 5:0.107056 6:0.679915 
1 1:-0.150149 2:-0.150947 3:-0.0799414 4:-0.290484 5:0.0460994 6:0.590568 
1 1:0.089393 2:0.0740191 3:0.132052 4:-0.0396894 5:0.146416 6:0.591095 
1 1:-0.132164 2:-0.13867 3:-0.0661732 4:-0.293864 5:0.00200085 6:0.653011 
1 1:0.0401058 2:0.0162896 3:0.0903719 4:-0.107176 5:0.161376 6:-0.463454 
1 1:0.0193636 2:-0.0200819 3:0.0855933 4:-0.117018 5:0.259401 6:-0.176925 
1 1:-0.151613 2:-0.20713 3:-0.0779025 4:-0.347551 5:0.180826 6:-0.48929 
1 1:-0.0745535 2:-0.13023 3:-0.0127411 4:-0.276189 5:0.223931 6:-0.32774 
1 1:-0.241592 2:-0.326187 3:-0.176084 4:-0.450979 5:0.237829 6:-0.182021 
1 1:0.0578281 2:-0.0121322 3:0.0715554 4:-0.124062 5:0.177954 6:-0.268225 
1 1:-0.205215 2:-0.27998 3:-0.142409 4:-0.421247 5:0.211937 6:-0.297304 
1 1:-0.221426 2:-0.277379 3:-0.149099 4:-0.433655 5:0.235519 6:-0.306131 
1 1:-0.105138 2:-0.155171 3:-0.0237041 4:-0.277922 5:0.255351 6:-0.416181 
1 1:-0.0697543 2:-0.1172 3:-0.0193131 4:-0.236848 5:0.25242 6:-0.280275 
1 1:0.0204635 2:-0.0493869 3:0.0243888 4:-0.160451 5:0.188014 6:-0.231917 
1 1:-0.0250792 2:-0.0844518 3:0.0338066 4:-0.207237 5:0.193405 6:-0.430976 
1 1:-0.120549 2:-0.180965 3:-0.041866 4:-0.307899 5:0.224938 6:-0.450602 
1 1:-0.232075 2:-0.273355 3:-0.155655 4:-0.439665 5:0.17739 6:-0.463632 
1 1:-0.132744 2:-0.157223 3:-0.048259 4:-0.297918 5:0.257055 6:-0.515162 
1 1:-0.0681153 2:-0.112024 3:-0.023403 4:-0.230071 5:0.216137 6:-0.27023 
-1 1:0.298896 2:0.292451 3:0.32333 4:0.185744 5:0.241253 6:-0.55289 
1 1:0.383255 2:0.385253 3:0.415594 4:0.303959 5:0.193442 6:-0.397354 
1 1:-0.0634091 2:-0.15295 3:-0.0186891 4:-0.291016 5:0.205991 6:-0.325022 
1 1:-0.159434 2:-0.249622 3:-0.14798 4:-0.357205 5:0.190608 6:-0.324087 
1 1:-0.105465 2:-0.143707 3:-0.0265509 4:-0.308902 5:0.240183 6:-0.41794 
1 1:-0.227591 2:-0.329414 3:-0.179413 4:-0.474681 5:0.172555 6:-0.4423 
1 1:-0.15095 2:-0.211013 3:-0.0685654 4:-0.337508 5:0.21535 6:-0.456302 
1 1:0.134238 2:0.1078 3:0.198976 4:-0.00581131 5:0.238487 6:-0.451285 
1 1:-0.201348 2:-0.256999 3:-0.140972 4:-0.428369 5:0.25696 6:-0.355809 
-1 1:0.020587 2:-0.0222327 3:0.0184478 4:-0.150622 5:0.227287 6:-0.220665 
1 1:-0.163476 2:-0.206709 3:-0.0804547 4:-0.322327 5:0.205322 6:-0.457556 
1 1:-0.0840288 2:-0.141879 3:-0.00684352 4:-0.296419 5:0.225954 6:-0.35608 
1 1:0.0487013 2:-0.0254429 3:0.0300864 4:-0.126435 5:0.198598 6:-0.289031 
1 1:-0.00218986 2:-0.0259144 3:0.0634916 4:-0.159187 5:0.193142 6:-0.458706 
-1 1:0.112952 2:0.0820246 3:0.13797 4:-0.0273729 5:0.264065 6:-0.295519 
1 1:0.0481991 2:0.0153798 3:0.0884266 4:-0.100566 5:0.207917 6:-0.366136 
1 1:-0.0327134 2:-0.0769866 3:0.0407626 4:-0.203035 5:0.215399 6:-0.484448 
1 1:-0.0166517 2:-0.0925485 3:0.0289046 4:-0.210752 5:0.226439 6:-0.185974 
1 1:-0.145243 2:-0.207762 3:-0.0887087 4:-0.357954 5:0.222928 6:-0.293279 
1 1:-0.0450157 2:-0.0903873 3:0.0282825 4:-0.221705 5:0.240219 6:-0.356121 
1 1:-0.161486 2:-0.24644 3:-0.114859 4:-0.382372 5:0.259618 6:-0.325887 
1 1:-0.0222161 2:-0.0996817 3:0.0316225 4:-0.209607 5:0.211 6:-0.220275 
1 1:-0.210169 2:-0.234071 3:-0.131415 4:-0.403032 5:0.244878 6:-0.489407 
1 1:0.0289767 2:0.000831986 3:0.0904324 4:-0.137698 5:0.194983 6:-0.489098 
1 1:-0.172657 2:-0.26808 3:-0.137496 4:-0.381598 5:0.198969 6:-0.229412 
1 1:0.145962 2:0.148641 3:0.215927 4:0.0475513 5:0.211012 6:-0.397434 
1 1:-0.0423006 2:-0.0999398 3:0.023693 4:-0.217741 5:0.225172 6:-0.385421 
1 1:-0.260395 2:-0.333773 3:-0.270926 4:-0.461215 5:0.180444 6:-0.345451 
1 1:-0.0489964 2:-0.087689 3:0.0225566 4:-0.224509 5:0.211904 6:-0.426698 
1 1:-0.126018 2:-0.161967 3:-0.0483021 4:-0.313489 5:0.22673 6:-0.418195 
-1 1:0.0148953 2:-0.0714286 3:0.00776781 4:-0.179782 5:0.188094 6:-0.284076 
1 1:-0.117359 2:-0.212633 3:-0.0911996 4:-0.330024 5:0.203047 6:-0.255472 
1 1:-0.0754472 2:-0.130741 3:-0.0474851 4:-0.250492 5:0.211227 6:-0.195819 
1 1:-0.0832565 2:-0.138992 3:-0.0173383 4:-0.282346 5:0.247674 6:-0.185973 
1 1:-0.232075 2:-0.360447 3:-0.265887 4:-0.465668 5:0.195819 6:-0.195592 
1 1:-0.0543046 2:-0.102979 3:0.0137236 4:-0.227366 5:0.24429 6:-0.209618 
1 1:-0.148816 2:-0.193759 3:-0.0771438 4:-0.330241 5:0.205491 6:-0.491679 
1 1:0.0918224 2:0.078481 3:0.134616 4:-0.015089 5:0.179026 6:-0.389428 
1 1:-0.0899722 2:-0.150336 3:-0.0141653 4:-0.27813 5:0.254959 6:-0.449617 
1 1:-0.185905 2:-0.225112 3:-0.120596 4:-0.3756 5:0.23446 6:-0.283549 
1 1:-0.200288 2:-0.263462 3:-0.156901 4:-0.438732 5:0.162533 6:-0.490038 
1 1:-0.0805929 2:-0.128771 3:-0.00919365 4:-0.262809 5:0.243184 6:-0.327383 
1 1:-0.146805 2:-0.201384 3:-0.0838792 4:-0.345846 5:0.219163 6:-0.248223 
1 1:-0.0256474 2:-0.0803198 3:0.00418279 4:-0.199128 5:0.194807 6:-0.353738 
-1 1:-0.0118545 2:-0.040513 3:0.00633585 4:-0.167713 5:0.117314 6:0.270949 
-1 1:-0.211036 2:-0.193564 3:-0.167852 4:-0.362091 5:0.017168 6:0.290933 
1 1:-0.0177852 2:-0.0186261 3:0.0556167 4:-0.136475 5:0.14402 6:0.188817 
1 1:-0.0269802 2:-0.0354984 3:0.0553239 4:-0.191088 5:0.073771 6:-0.0221296 
0.9523618092163613 1:-0.162703 2:-0.174287 3:-0.0890856 4:-0.336771 5:0.0556824 6:0.0443568 
1 1:-0.103421 2:-0.108525 3:-0.0323419 4:-0.253283 5:0.0558298 6:0.108164 
1 1:-0.18632 2:-0.257138 3:-0.106015 4:-0.396471 5:0.208127 6:0.0291239 
1 1:-0.0552557 2:-0.0500567 3:0.0289328 4:-0.210025 5:0.111199 6:0.0888903 
1 1:0.135845 2:0.117647 3:0.180484 4:0.0189768 5:0.22026 6:0.0344007 
1 1:-0.0517925 2:-0.0451889 3:0.0312606 4:-0.188977 5:0.0965192 6:-0.000483963 
1 1:0.12379 2:0.134369 3:0.164381 4:0.029062 5:0.128494 6:0.12917 
1 1:-0.121961 2:-0.120973 3:-0.0546163 4:-0.268892 5:0.109739 6:0.157772 
1 1:-0.235545 2:-0.235486 3:-0.151208 4:-0.411411 5:0.0729948 6:0.0383101 
1 1:-0.165684 2:-0.205298 3:-0.0885475 4:-0.372928 5:0.120914 6:-0.00403311 
-1 1:0.0366464 2:-0.0306415 3:0.0922769 4:-0.132663 5:0.205941 6:-0.0594431 
1 1:-0.133343 2:-0.173763 3:-0.0534156 4:-0.290377 5:0.155899 6:0.123699 
1 1:0.340111 2:0.34385 3:0.388023 4:0.243602 5:0.0912282 6:0.0237675 
-1 1:-0.150589 2:-0.138921 3:-0.0762876 4:-0.31464 5:0.083108 6:0.264522 
1 1:-0.0640756 2:-0.067826 3:0.010536 4:-0.203324 5:0.0751896 6:0.119067 
-1 1:-0.25052 2:-0.22876 3:-0.17307 4:-0.426702 5:0.0249564 6:0.263058 
-1 1:0.0623058 2:0.0358982 3:0.0619907 4:-0.0909615 5:0.0745797 6:0.149565 
1 1:0.00813433 2:0.0071937 3:0.0749646 4:-0.111626 5:0.0754465 6:0.175727 
1 1:-0.000411496 2:-0.00566602 3:0.0780312 4:-0.163195 5:0.0738354 6:0.0111761 
1 1:-0.121603 2:-0.13654 3:-0.0452251 4:-0.307614 5:0.0553261 6:-0.0297615 
1 1:-0.0978573 2:-0.100716 3:-0.0123514 4:-0.242963 5:0.118695 6:0.240705 
1 1:-0.17336 2:-0.234685 3:-0.0966785 4:-0.367952 5:0.19699 6:0.0425952 
1 1:-0.241359 2:-0.282138 3:-0.160692 4:-0.426999 5:0.141344 6:0.101189 
-1 1:-0.312791 2:-0.309095 3:-0.23949 4:-0.515921 5:0.0831428 6:0.290846 
1 1:-0.156285 2:-0.171383 3:-0.0776999 4:-0.31849 5:0.117849 6:0.139794 
-1 1:-0.185199 2:-0.216363 3:-0.104367 4:-0.408542 5:0.159578 6:-0.0242025 
1 1:-0.166733 2:-0.211929 3:-0.0942785 4:-0.32349 5:0.14344 6:0.125609 
1 1:-0.102316 2:-0.16655 3:-0.027164 4:-0.268357 5:0.215148 6:0.0618703 
-1 1:0.068976 2:0.0140591 3:0.00604811 4:-0.101062 5:0.131087 6:0.0716432 
-1 1:-0.274761 2:-0.293768 3:-0.192895 4:-0.462536 5:0.102552 6:0.295454 
-1 1:-0.150149 2:-0.232971 3:-0.074289 4:-0.380403 5:0.178508 6:-0.0266609 
1 1:0.274726 2:0.29094 3:0.348796 4:0.222339 5:0.185272 6:0.152073 
1 1:-0.12409 2:-0.159017 3:-0.0512566 4:-0.264359 5:0.202564 6:0.0774533 
1 1:0.633285 2:0.653013 3:0.699627 4:0.626555 5:0.193472 6:0.140272 
1 1:-0.298498 2:-0.293682 3:-0.225424 4:-0.478898 5:0.133212 6:0.293327 
1 1:0.0484107 2:0.0114182 3:0.107612 4:-0.089045 5:0.224221 6:0.00658819 
1 1:-0.228207 2:-0.224821 3:-0.151435 4:-0.405517 5:0.136014 6:0.237473 
1 1:-0.234967 2:-0.246309 3:-0.154881 4:-0.424979 5:0.0991748 6:0.272912 
0.05064688366415123 1:-0.0463665 2:-0.0356779 3:0.0283391 4:-0.208572 5:0.101874 6:-0.0270389 
1 1:-0.0571138 2:-0.0905777 3:0.0203807 4:-0.243781 5:0.139733 6:0.0288014 
1 1:-0.121143 2:-0.142864 3:-0.0505571 4:-0.239522 5:0.16799 6:0.15118 
1 1:-0.16488 2:-0.252795 3:-0.0916909 4:-0.37353 5:0.19282 6:0.011593 
1 1:-0.0716535 2:-0.0894112 3:0.00233086 4:-0.226501 5:0.107558 6:0.0259928 
-1 1:-0.194033 2:-0.190282 3:-0.173841 4:-0.361226 5:-0.408684 6:0.712919 
-0.6673094451721974 1:-0.270728 2:-0.253136 3:-0.241343 4:-0.443259 5:-0.460683 6:0.966435 
-1 1:-0.398594 2:-0.361956 3:-0.333526 4:-0.570091 5:-0.550175 6:0.789017 
-1 1:0.181946 2:0.203698 3:0.223195 4:0.0913534 5:-0.545086 6:0.871549 
1 1:-0.282274 2:-0.236663 3:-0.225083 4:-0.415354 5:-0.512861 6:0.919244 
-1 1:-0.144952 2:-0.126622 3:-0.0930627 4:-0.27235 5:-0.341229 6:0.783386 
-1 1:-0.167611 2:-0.15183 3:-0.105483 4:-0.288622 5:-0.317249 6:0.868401 
1 1:0.0815004 2:0.0918315 3:0.0864602 4:-0.0452076 5:-0.538806 6:0.723764 
-1 1:-0.197354 2:-0.184032 3:-0.159895 4:-0.350446 5:-0.603981 6:0.98873 
1 1:-0.433022 2:-0.387587 3:-0.378564 4:-0.601464 5:-0.506707 6:0.848734 
1 1:-0.297134 2:-0.260166 3:-0.237292 4:-0.471617 5:-0.565231 6:0.701657 
-1 1:-0.467284 2:-0.443603 3:-0.419415 4:-0.641709 5:-0.527861 6:0.810917 
-1 1:-0.379481 2:-0.350351 3:-0.319665 4:-0.53532 5:-0.67329 6:0.857611 
-1 1:-0.688877 2:-0.649293 3:-0.641545 4:-0.88356 5:-0.435954 6:0.854424 
1 1:-0.270923 2:-0.24809 3:-0.224403 4:-0.396759 5:-0.575753 6:0.949541 
1 1:-0.44428 2:-0.403296 3:-0.387191 4:-0.590517 5:-0.343202 6:0.708944 
-1 1:-0.253977 2:-0.231697 3:-0.218394 4:-0.421732 5:-0.601249 6:0.832742 
-1 1:-0.496542 2:-0.488254 3:-0.429922 4:-0.73267 5:-0.333909 6:0.833002 
1 1:-0.0514579 2:-0.0101 3:0.0226735 4:-0.194617 5:-0.642993 6:0.768189 
-1 1:-0.16219 2:-0.159137 3:-0.113868 4:-0.274515 5:-0.305235 6:0.911599 
-1 1:-0.198475 2:-0.182881 3:-0.161411 4:-0.340205 5:-0.321751 6:0.954589 
-1 1:-0.216271 2:-0.194101 3:-0.171455 4:-0.336749 5:-0.381648 6:0.780075 
1 1:0.0492152 2:0.067158 3:0.113867 4:-0.0653907 5:-0.591229 6:0.75226 
1 1:-0.272891 2:-0.24723 3:-0.210573 4:-0.421712 5:-0.576234 6:0.916873 
1 1:-0.196266 2:-0.164099 3:-0.154032 4:-0.329802 5:-0.379471 6:0.959671 
-1 1:-0.545049 2:-0.538623 3:-0.483936 4:-0.748749 5:-0.29415 6:0.842149 
-1 1:-0.636932 2:-0.597451 3:-0.590446 4:-0.860221 5:-0.143515 6:0.417479 
-1 1:-0.137781 2:-0.10931 3:-0.0828867 4:-0.233482 5:-0.252994 6:0.441648 
-1 1:-0.378124 2:-0.373699 3:-0.306961 4:-0.60649 5:-0.100734 6:0.499274 
-1 1:-0.339552 2:-0.316945 3:-0.264754 4:-0.517411 5:-0.141796 6:0.461225 
-1 1:-0.208281 2:-0.185562 3:-0.150452 4:-0.362181 5:-0.0141832 6:0.411423 
-1 1:-0.203002 2:-0.19671 3:-0.13827 4:-0.357299 5:-0.0428451 6:0.358144 
-1 1:-0.0687488 2:-0.0392663 3:-0.000731642 4:-0.185515 5:-0.00773911 6:0.332082 
-1 1:-0.330054 2:-0.292911 3:-0.256477 4:-0.502418 5:-0.203951 6:0.299788 
-1 1:-0.187767 2:-0.156391 3:-0.120404 4:-0.315088 5:-0.249642 6:0.357864 
-1 1:-0.129278 2:-0.0997963 3:-0.0618982 4:-0.276425 5:-0.134466 6:0.372611 
-1 1:-0.111306 2:-0.0995671 3:-0.0557351 4:-0.228201 5:-0.0227213 6:0.456349 
-1 1:-0.189773 2:-0.17622 3:-0.153571 4:-0.347204 5:-0.254886 6:0.483489 
-1 1:-0.0512735 2:-0.0269561 3:0.0161918 4:-0.164719 5:-0.137569 6:0.32808 
-1 1:-0.439211 2:-0.399353 3:-0.368076 4:-0.593536 5:-0.226496 6:0.348911 
-1 1:0.0391272 2:0.0532588 3:0.0962038 4:-0.06228 5:-0.0256184 6:0.387981 
-1 1:-0.405833 2:-0.396567 3:-0.344988 4:-0.58019 5:-0.203809 6:0.270404 
-1 1:-0.370262 2:-0.34603 3:-0.310553 4:-0.531579 5:-0.15783 6:0.299497 
-1 1:-0.258449 2:-0.22876 3:-0.187271 4:-0.443517 5:-0.141109 6:0.269684 
-1 1:-0.0222259 2:-0.020466 3:0.0383393 4:-0.155678 5:-0.0273235 6:0.277415 
-1 1:-0.44666 2:-0.432163 3:-0.389134 4:-0.649857 5:-0.108176 6:0.414797 
-1 1:-0.465655 2:-0.437888 3:-0.403949 4:-0.645233 5:-0.137875 6:0.297531 
-1 1:-0.388293 2:-0.354297 3:-0.317768 4:-0.598871 5:-0.0916803 6:0.386827 
-1 1:0.0851565 2:0.114594 3:0.138621 4:-0.00476765 5:-0.0912213 6:0.328078 
-1 1:-0.143137 2:-0.124367 3:-0.0796341 4:-0.312883 5:-0.101182 6:0.462527 
-1 1:-0.601072 2:-0.562829 3:-0.536276 4:-0.823493 5:-0.184434 6:0.414304 
-1 1:-0.266783 2:-0.239357 3:-0.198894 4:-0.426868 5:-0.0917629 6:0.357862 
-1 1:-0.322333 2:-0.298378 3:-0.261537 4:-0.462197 5:-0.275199 6:0.356208 
-1 1:-0.167413 2:-0.161438 3:-0.101575 4:-0.34886 5:-0.069259 6:0.477214 
-1 1:0.350116 2:0.368715 3:0.379148 4:0.277778 5:-0.0271501 6:0.321178 
-1 1:0.016789 2:0.0247421 3:0.0669388 4:-0.0915511 5:-0.0593274 6:0.417129 
-1 1:-0.216936 2:-0.19206 3:-0.156044 4:-0.361448 5:-0.0745385 6:0.353668 
-1 1:-0.281318 2:-0.272211 3:-0.231203 4:-0.469672 5:-0.250544 6:0.397945 
-1 1:-0.327408 2:-0.311262 3:-0.261815 4:-0.523724 5:-0.0732716 6:0.372636 
-1 1:-0.345383 2:-0.319607 3:-0.269472 4:-0.555365 5:-0.0112919 6:0.266031 
-1 1:-0.222768 2:-0.211821 3:-0.156667 4:-0.390913 5:-0.0597198 6:0.4466 
-1 1:-0.147591 2:-0.114749 3:-0.0827826 4:-0.264771 5:-0.161041 6:0.269918 
-1 1:-0.452377 2:-0.421595 3:-0.390816 4:-0.620733 5:-0.124821 6:0.458991 
-1 1:-0.132925 2:-0.123218 3:-0.0731002 4:-0.263132 5:-0.0431779 6:0.299868 
-1 1:0.176214 2:0.218683 3:0.204839 4:0.10393 5:-0.00671644 6:0.349003 
-1 1:0.0458682 2:0.0556803 3:0.0992626 4:-0.0719116 5:-0.275125 6:0.411092 
-1 1:-0.10458 2:-0.105834 3:-0.0711359 4:-0.241902 5:-0.0431099 6:0.328606 
-1 1:-0.242425 2:-0.220854 3:-0.184069 4:-0.37637 5:-0.230114 6:0.465653 
-1 1:-0.348552 2:-0.337802 3:-0.282528 4:-0.563791 5:-0.107846 6:0.358125 
-1 1:-0.493541 2:-0.444004 3:-0.45098 4:-0.651767 5:-0.277334 6:0.464262 
-1 1:-0.281525 2:-0.267486 3:-0.217957 4:-0.424173 5:-0.0448768 6:0.417143 
-1 1:-0.614622 2:-0.565204 3:-0.55057 4:-0.789857 5:-0.164695 6:0.416803 
-1 1:-0.265146 2:-0.269272 3:-0.239368 4:-0.443101 5:-0.0222698 6:0.436963 
-1 1:-0.181712 2:-0.18673 3:-0.159499 4:-0.345948 5:-0.0425583 6:0.441748 
-1 1:-0.606319 2:-0.577151 3:-0.561717 4:-0.816515 5:-0.0920295 6:0.416803 
-1 1:-0.133179 2:-0.107474 3:-0.0903836 4:-0.262796 5:-0.791983 6:0.221533 
-1 1:0.499113 2:0.517051 3:0.533302 4:0.46182 5:-0.674776 6:-0.0652415 
-1 1:-0.0657655 2:-0.00143911 3:-0.00766952 4:-0.100308 5:-0.83694 6:0.163674 
-1 1:-0.100156 2:-0.0789382 3:-0.0598665 4:-0.198111 5:-0.686479 6:0.350438 
-1 1:-0.575416 2:-0.571695 3:-0.53503 4:-0.756361 5:-0.718823 6:0.253272 
-1 1:-0.204971 2:-0.185236 3:-0.179413 4:-0.325127 5:-0.784069 6:0.374054 
-1 1:-0.360976 2:-0.358951 3:-0.325084 4:-0.477153 5:-0.745552 6:0.250481 
-1 1:-0.383027 2:-0.371954 3:-0.357687 4:-0.530224 5:-0.794178 6:0.292633 
-1 1:0.351958 2:0.38545 3:0.375166 4:0.320283 5:-0.839447 6:0.30856 
1 1:0.00202673 2:0.048252 3:0.0813861 4:-0.122028 5:0.872816 6:0.581379 
1 1:0.346659 2:0.339447 3:0.38653 4:0.267269 5:0.751797 6:0.209972 
1 1:0.617361 2:0.641173 3:0.651888 4:0.618577 5:0.771657 6:0.335907 
1 1:0.19925 2:0.200477 3:0.265051 4:0.0983758 5:0.743955 6:0.177264 
-1 1:0.607187 2:0.599161 3:0.568713 4:0.561752 5:0.765583 6:0.321452 
1 1:0.342418 2:0.34247 3:0.401614 4:0.265983 5:0.734013 6:0.231016 
1 1:0.195476 2:0.23209 3:0.253601 4:0.159913 5:0.741889 6:0.303158 
1 1:0.431468 2:0.434507 3:0.458698 4:0.379111 5:0.749586 6:0.278834 
1 1:0.511955 2:0.53709 3:0.558723 4:0.484289 5:0.768832 6:0.279331 
1 1:0.474698 2:0.513792 3:0.522803 4:0.47236 5:0.754967 6:0.328022 
1 1:0.450333 2:0.4601 3:0.540032 4:0.373866 5:0.765436 6:0.244287 
1 1:0.141115 2:0.140746 3:0.195179 4:0.0416993 5:0.726184 6:0.219604 
1 1:0.353745 2:0.387986 3:0.398884 4:0.341987 5:0.752568 6:0.302613 
0.0142347297615153 1:0.522137 2:0.533868 3:0.547162 4:0.49546 5:0.763404 6:0.310695 
1 1:-0.432347 2:-0.423909 3:-0.377252 4:-0.639275 5:-0.441421 6:-0.257333 
-0.9951820480018154 1:-0.144738 2:-0.136964 3:-0.0890317 4:-0.296447 5:-0.307956 6:-0.0311428 
-1 1:0.05548 2:0.0622365 3:0.0977783 4:-0.0645185 5:-0.262312 6:-0.202665 
-1 1:-0.436041 2:-0.437694 3:-0.359575 4:-0.639896 5:-0.300097 6:-0.22261 
1 1:-0.0320396 2:-0.030991 3:0.0214719 4:-0.16428 5:-0.440106 6:-0.358059 
1 1:-0.350736 2:-0.39217 3:-0.299128 4:-0.580536 5:-0.313127 6:-0.178199 
-1 1:0.103241 2:0.0878964 3:0.163964 4:0.0197247 5:-0.264753 6:-0.352464 
1 1:-0.0979768 2:-0.0112609 3:-0.0320262 4:-0.124351 5:-0.366959 6:-0.0936311 
1 1:-0.117226 2:-0.126389 3:-0.0545271 4:-0.298306 5:-0.417829 6:-0.404324 
-1 1:0.0825745 2:0.0287522 3:0.0971968 4:-0.075046 5:-0.435888 6:-0.117448 
1 1:-0.360009 2:-0.415339 3:-0.299811 4:-0.617234 5:-0.31861 6:-0.0807341 
-1 1:0.0662921 2:0.0861111 3:0.0872001 4:-0.0725968 5:-0.346386 6:-0.367065 
-1 1:-0.186613 2:-0.185516 3:-0.118431 4:-0.344336 5:-0.269574 6:-0.157616 
-1 1:0.160778 2:0.152416 3:0.22107 4:0.0583294 5:-0.438122 6:-0.0390281 
-1 1:-0.205949 2:-0.212146 3:-0.132916 4:-0.42269 5:-0.397948 6:-0.323807 
1 1:-0.163239 2:-0.174549 3:-0.11648 4:-0.353279 5:-0.389062 6:-0.249526 
1 1:-0.0868846 2:-0.0838219 3:-0.0233278 4:-0.262736 5:-0.342974 6:-0.0342011 
-1 1:0.113306 2:0.108394 3:0.188534 4:-0.136278 5:-0.384487 6:-0.190475 
1 1:0.421243 2:0.431673 3:0.43495 4:0.352589 5:0.775282 6:0.47456 
-1 1:0.104392 2:0.0922871 3:0.146243 4:-0.0514378 5:0.632214 6:0.445214 
-1 1:0.66169 2:0.612949 3:0.444047 4:0.556527 5:0.77949 6:0.326651 
-1 1:0.18411 2:0.160114 3:0.191858 4:0.0404555 5:0.785607 6:0.654801 
1 1:0.132227 2:0.137971 3:0.182393 4:0.0161494 5:0.787341 6:0.444921 
-1 1:0.642968 2:0.638487 3:0.679463 4:0.584081 5:0.605265 6:0.487382 
1 1:0.0390924 2:0.0496742 3:0.100849 4:-0.0988174 5:0.78248 6:0.601914 
-1 1:0.0734748 2:0.0585266 3:0.119709 4:-0.0749362 5:0.763365 6:0.643 
1 1:0.0664057 2:0.0694857 3:0.123648 4:-0.068366 5:0.769736 6:0.448345 
1 1:-0.310678 2:-0.28254 3:-0.228985 4:-0.49093 5:0.75658 6:0.563299 
-1 1:0.193785 2:0.194806 3:0.2444 4:0.0665302 5:0.70172 6:0.591872 
-1 1:0.780041 2:0.74517 3:0.64921 4:0.695647 5:0.776029 6:0.308672 
-1 1:0.142865 2:0.138926 3:0.187649 4:0.0201383 5:0.715358 6:0.500607 
1 1:0.11558 2:0.114858 3:0.160167 4:-0.016159 5:0.758862 6:0.500138 
-1 1:0.724689 2:0.734403 3:0.418891 4:0.730683 5:0.775268 6:0.320362 
-1 1:0.371196 2:0.37132 3:0.420311 4:0.291816 5:0.604947 6:0.535358 
-0.6904323895571978 1:0.38826 2:0.394859 3:0.420668 4:0.309865 5:0.763463 6:0.373299 
-1 1:0.045237 2:0.0430098 3:0.103156 4:-0.063737 5:0.624909 6:0.539096 
-1 1:0.239169 2:0.224641 3:0.291127 4:0.125961 5:0.696436 6:0.547364 
1 1:0.167193 2:0.207205 3:0.229424 4:0.113504 5:0.783244 6:0.37577 
-1 1:0.763034 2:0.757725 3:0.710668 4:0.71618 5:0.779952 6:0.310414 
1 1:0.299485 2:0.297058 3:0.328207 4:0.195196 5:0.791453 6:0.48357 
-1 1:0.446579 2:0.457224 3:0.463103 4:0.392202 5:0.769325 6:0.302468 
1 1:0.387178 2:0.418921 3:0.420321 4:0.358445 5:0.773341 6:0.352017 
-1 1:0.24451 2:0.224177 3:0.280925 4:0.105049 5:0.736384 6:0.63425 
1 1:0.301998 2:0.323653 3:0.350117 4:0.22468 5:0.771954 6:0.492438 
-1 1:0.672479 2:0.691328 3:0.733976 4:0.642116 5:0.820944 6:0.334375 
-1 1:0.213812 2:0.20946 3:0.197816 4:0.0856877 5:0.686869 6:0.461788 
-1 1:0.0522941 2:0.0531019 3:0.102592 4:-0.0816603 5:0.624925 6:0.482653 
-1 1:-0.0529744 2:-0.0470731 3:0.0120904 4:-0.193826 5:0.664606 6:0.477642 
1 1:-0.0298903 2:-0.0931551 3:0.045489 4:-0.172425 5:0.52077 6:-0.0888461 
1 1:-0.193168 2:-0.269796 3:-0.11761 4:-0.386416 5:0.522423 6:-0.040572 
-1 1:-0.030556 2:-0.0801145 3:0.0225859 4:-0.200657 5:0.558732 6:-0.16872 
1 1:-0.0433883 2:-0.112732 3:0.0339714 4:-0.23455 5:0.509298 6:-0.0457354 
-1 1:-0.0661154 2:-0.155918 3:-0.0206786 4:-0.257955 5:0.66962 6:-0.077273 
-1 1:0.00246263 2:-0.0606957 3:0.072869 4:-0.18017 5:0.613354 6:-0.198678 
1 1:0.0332053 2:-0.000242739 3:0.109872 4:-0.117537 5:0.625171 6:-0.247658 
-1 1:0.196852 2:0.152457 3:0.253931 4:0.0889524 5:0.542895 6:-0.133888 
1 1:0.0676569 2:0.0478169 3:0.13234 4:-0.062957 5:0.685822 6:-0.177012 
-1 1:-0.0634707 2:-0.139709 3:-0.0197917 4:-0.238359 5:0.585835 6:-0.0488798 
1 1:0.231005 2:0.193396 3:0.29424 4:0.134441 5:0.519446 6:-0.110674 
1 1:0.0302829 2:-0.00186717 3:0.0976815 4:-0.10111 5:0.588557 6:-0.107416 
-1 1:-0.15095 2:-0.203794 3:-0.11002 4:-0.324072 5:0.682365 6:-0.0712431 
1 1:-0.257793 2:-0.299527 3:-0.1729 4:-0.465821 5:0.429678 6:-0.161668 
-1 1:0.186321 2:0.133811 3:0.238812 4:0.0660518 5:0.507382 6:-0.138264 
-1 1:0.157634 2:0.126593 3:0.17797 4:0.0265128 5:0.665415 6:-0.156434 
-1 1:0.378244 2:0.356315 3:0.377597 4:0.259416 5:0.60372 6:-0.162663 
1 1:-0.126245 2:-0.116348 3:-0.0526637 4:-0.253942 5:0.713282 6:-0.108405 
1 1:-0.0304842 2:-0.0633826 3:0.0463633 4:-0.155947 5:0.543173 6:-0.0881809 
-1 1:0.109359 2:0.0487728 3:0.131441 4:-0.0404664 5:0.647247 6:-0.0895096 
-1 1:0.0075876 2:-0.0606727 3:0.0429451 4:-0.169645 5:0.622945 6:-0.0756316 
-1 1:0.307033 2:0.248088 3:0.355758 4:0.207669 5:0.520614 6:-0.141645 
1 1:-0.211738 2:-0.275278 3:-0.161411 4:-0.393306 5:0.678804 6:-0.0450084 
1 1:-0.252983 2:-0.324749 3:-0.185801 4:-0.454159 5:0.426959 6:-0.137155 
-1 1:0.0282683 2:-0.0327292 3:0.0472079 4:-0.139571 5:0.609802 6:-0.056567 
-1 1:0.109679 2:0.0395746 3:0.139115 4:-0.0660345 5:0.645132 6:-0.060636 
-1 1:0.128166 2:0.0630263 3:0.163181 4:-0.0286816 5:0.602455 6:-0.135321 
-1 1:-0.0414373 2:-0.105538 3:-0.0150971 4:-0.220208 5:0.668895 6:-0.0520887 
-1 1:-0.0799837 2:-0.141008 3:-0.0334112 4:-0.259227 5:0.589416 6:-0.164836 
-1 1:0.158513 2:0.106206 3:0.205365 4:0.0130625 5:0.620091 6:-0.122805 
1 1:-0.20204 2:-0.273279 3:-0.152348 4:-0.403513 5:0.655386 6:-0.165549 
-1 1:0.0404585 2:0.0214499 3:0.0968664 4:-0.0792985 5:0.591582 6:-0.126434 
1 1:0.0652903 2:0.01433 3:0.13341 4:-0.059818 5:0.519149 6:-0.125742 
-1 1:0.0328885 2:-0.0189345 3:0.101362 4:-0.122747 5:0.489991 6:-0.109057 
1 1:-0.0551145 2:-0.0767095 3:0.0284523 4:-0.215828 5:0.441519 6:-0.153963 
-1 1:-0.025398 2:-0.0843992 3:0.00482816 4:-0.200228 5:0.664683 6:-0.0954622 
1 1:-0.117459 2:-0.177506 3:-0.0432442 4:-0.304221 5:0.485904 6:-0.0811161 
1 1:0.103378 2:0.0908681 3:0.172347 4:-0.0109815 5:0.580538 6:-0.140536 
-1 1:0.247975 2:0.175078 3:0.199364 4:0.0965153 5:0.65372 6:-0.190659 
1 1:0.194161 2:0.176184 3:0.18182 4:0.0815481 5:0.593496 6:-0.0772647 
-1 1:-0.00149036 2:-0.0509682 3:0.0258874 4:-0.163346 5:0.694386 6:-0.0599105 
-1 1:-0.19837 2:-0.266895 3:-0.146867 4:-0.405256 5:0.689015 6:-0.0669777 
-1 1:-1.29153e-05 2:-0.0574159 3:0.0415808 4:-0.153298 5:0.59849 6:-0.0491976 
1 1:-0.132834 2:-0.133218 3:-0.0596829 4:-0.27545 5:0.485826 6:-0.143188 
-1 1:0.0771274 2:0.0229604 3:0.137005 4:-0.0672596 5:0.571295 6:-0.166331 
-1 1:0.208446 2:0.137829 3:0.246254 4:0.0517556 5:0.593885 6:-0.196918 
-1 1:0.189999 2:0.127896 3:0.251521 4:0.0705885 5:0.57022 6:-0.0489263 
-1 1:0.226902 2:0.182125 3:0.286857 4:0.11244 5:0.543875 6:-0.112956 
1 1:0.0928985 2:0.0363105 3:0.139547 4:-0.076768 5:0.619969 6:-0.167303 
-1 1:0.0074216 2:-0.0474566 3:0.0438577 4:-0.133347 5:0.580703 6:-0.179951 
1 1:0.0958454 2:0.0422536 3:0.164071 4:-0.0366224 5:0.553399 6:-0.140236 
1 1:0.0195965 2:-0.0376042 3:0.0928743 4:-0.122424 5:0.554233 6:-0.0477537 
-1 1:-0.187644 2:-0.244155 3:-0.132574 4:-0.407556 5:0.43899 6:-0.125063 
1 1:-0.0353179 2:-0.0460967 3:0.0326487 4:-0.167014 5:0.463541 6:-0.149854 
-1 1:-0.359303 2:-0.452223 3:-0.299299 4:-0.590341 5:0.697805 6:-0.0931845 
-1 1:0.151465 2:0.114875 3:0.209199 4:0.0471363 5:0.543506 6:-0.167589 
-1 1:0.0365899 2:-0.0290197 3:0.0627427 4:-0.124845 5:0.618679 6:-0.0515031 
1 1:-0.131119 2:-0.180739 3:-0.0828346 4:-0.292451 5:0.68369 6:-0.0960166 
-1 1:0.212442 2:0.18213 3:0.226771 4:0.0751359 5:0.632828 6:-0.13603 
1 1:0.126206 2:0.0593798 3:0.19994 4:-0.00652355 5:0.521169 6:-0.0651319 
-1 1:0.137095 2:0.0825675 3:0.146954 4:0.00723793 5:0.635848 6:-0.107147 
1 1:0.00092803 2:-0.0634527 3:0.0773614 4:-0.150448 5:0.538848 6:-0.0689087 
1 1:-0.116579 2:-0.175823 3:-0.0502955 4:-0.317322 5:0.480747 6:-0.0904616 
1 1:-0.594069 2:-0.589506 3:-0.534411 4:-0.702361 5:-0.263055 6:0.848339 
-1 1:-0.360653 2:-0.351062 3:-0.280517 4:-0.548327 5:-0.233116 6:0.996339 
1 1:-0.298316 2:-0.347653 3:-0.220929 4:-0.490622 5:-0.152487 6:0.785046 
-1 1:0.149959 2:0.144345 3:0.134664 4:0.0402132 5:-0.0541947 6:0.922851 
1 1:-0.311658 2:-0.388318 3:-0.233329 4:-0.511915 5:-0.124314 6:0.771052 
-1 1:-0.245388 2:-0.237911 3:-0.181011 4:-0.409142 5:-0.227689 6:0.946691 
-1 1:-0.298681 2:-0.284078 3:-0.229916 4:-0.481339 5:-0.0800545 6:0.923131 
-1 1:-0.185856 2:-0.181056 3:-0.114859 4:-0.329625 5:-0.0574236 6:0.994492 
-1 1:-0.263223 2:-0.250225 3:-0.203577 4:-0.429973 5:-0.0616036 6:0.799729 
-1 1:-0.188014 2:-0.236912 3:-0.161812 4:-0.37379 5:-0.138428 6:0.994825 
-1 1:-0.418289 2:-0.447042 3:-0.454938 4:-0.633114 5:-0.181172 6:0.770123 
-1 1:-0.0437745 2:-0.061156 3:0.00382686 4:-0.16017 5:-0.238224 6:0.82961 
1 1:-0.401893 2:-0.37918 3:-0.340017 4:-0.538767 5:-0.0635373 6:0.884009 
-1 1:-0.0314303 2:-0.031614 3:0.0142444 4:-0.154929 5:-0.107209 6:0.843606 
-1 1:-0.11341 2:-0.132596 3:-0.0559147 4:-0.284709 5:-0.0636833 6:0.961135 
-1 1:0.120003 2:0.129479 3:0.148323 4:0.0123805 5:-0.198702 6:0.948602 
-0.8154014587340174 1:-0.0507905 2:-0.0393478 3:0.00614407 4:-0.141419 5:-0.266948 6:0.958978 
1 1:-0.0418629 2:-0.0899799 3:0.0196397 4:-0.220213 5:0.439498 6:0.157517 
-1 1:0.13197 2:0.0972974 3:0.140376 4:-0.0381797 5:0.49007 6:0.198882 
-1 1:0.242927 2:0.241459 3:0.313184 4:0.145118 5:0.534908 6:0.319919 
-0.6948118821519267 1:0.714483 2:0.715067 3:0.754458 4:0.684767 5:0.503718 6:0.384584 
1 1:0.107771 2:0.129808 3:0.160812 4:0.0241858 5:0.456112 6:0.278527 
1 1:0.202416 2:0.22155 3:0.271521 4:0.123133 5:0.469513 6:0.233611 
-1 1:-0.0125121 2:-0.0266714 3:0.0257151 4:-0.153068 5:0.44045 6:0.218354 
0.4533173714191481 1:0.613675 2:0.618433 3:0.639968 4:0.56708 5:0.456029 6:0.252505 
-1 1:0.0644279 2:0.0608428 3:0.131119 4:-0.0637193 5:0.509502 6:0.259222 
-1 1:-0.021483 2:-0.0943467 3:0.0204103 4:-0.168867 5:0.494201 6:0.302379 
-1 1:0.103965 2:0.113524 3:0.16863 4:0.010314 5:0.470439 6:0.352052 
1 1:0.209887 2:0.207104 3:0.270667 4:0.122085 5:0.535439 6:0.287335 
1 1:0.135597 2:0.120691 3:0.197031 4:0.0101554 5:0.472756 6:0.136495 
-1 1:0.0201466 2:0.0119984 3:0.0516478 4:-0.0999522 5:0.442199 6:0.246359 
1 1:-0.174043 2:-0.169502 3:-0.105542 4:-0.325919 5:0.51101 6:0.235405 
-1 1:0.0017184 2:-0.00596944 3:0.0768411 4:-0.140884 5:0.483359 6:0.232722 
1 1:-0.0506298 2:-0.0819455 3:0.000789569 4:-0.215958 5:0.453831 6:0.177786 
-1 1:0.276063 2:0.272415 3:0.317252 4:0.19013 5:0.520041 6:0.353809 
1 1:0.00803505 2:0.0107441 3:0.0803031 4:-0.0981116 5:0.416516 6:0.341256 
-1 1:0.192424 2:0.189126 3:0.263372 4:0.0854219 5:0.51028 6:0.292697 
1 1:-0.172114 2:-0.207762 3:-0.106192 4:-0.355031 5:0.474544 6:0.191832 
-1 1:0.212394 2:0.210357 3:0.26526 4:0.122325 5:0.495584 6:0.325021 
-1 1:-0.0921859 2:-0.147873 3:-0.0363341 4:-0.303712 5:0.0445681 6:-0.09254 
1 1:-0.24532 2:-0.220399 3:-0.158708 4:-0.372726 5:-0.0848853 6:-0.0205821 
-1 1:-0.144777 2:-0.200419 3:-0.102211 4:-0.355448 5:-0.00446302 6:-0.218919 
-1 1:-0.0707271 2:-0.0902242 3:0.00655934 4:-0.195461 5:-0.133135 6:-0.144252 
-1 1:0.0140329 2:-0.0137467 3:0.0715107 4:-0.157575 5:-0.0118292 6:-0.253429 
-1 1:-0.0982608 2:-0.143597 3:-0.0349269 4:-0.28306 5:0.0129442 6:-0.248636 
-1 1:0.23835 2:0.229836 3:0.249215 4:0.115712 5:-0.0898491 6:-0.195605 
-1 1:-0.112015 2:-0.122043 3:-0.0470137 4:-0.277774 5:0.0248015 6:-0.0181797 
-1 1:0.121496 2:0.111164 3:0.198028 4:0.00941204 5:-0.0159783 6:-0.0905327 
1 1:-0.258559 2:-0.217978 3:-0.176258 4:-0.390859 5:-0.0660315 6:-0.0148782 
-1 1:-0.330272 2:-0.360572 3:-0.252212 4:-0.511986 5:-0.138627 6:-0.188343 
1 1:-0.173088 2:-0.214818 3:-0.0994524 4:-0.359887 5:0.0285682 6:-0.147581 
-1 1:-0.12116 2:-0.160425 3:-0.0456494 4:-0.319267 5:-0.0118758 6:-0.163546 
-1 1:0.00124632 2:-0.000536983 3:0.0345197 4:-0.145315 5:-0.12329 6:-0.201439 
-1 1:-0.184206 2:-0.230733 3:-0.124023 4:-0.401379 5:-0.0259747 6:-0.224378 
1 1:0.102353 2:0.117815 3:0.175989 4:0.0084583 5:-0.0432228 6:-0.0135369 
1 1:-0.131083 2:-0.121524 3:-0.0563196 4:-0.240102 5:-0.0714683 6:-0.0871503 
-0.9279618446534491 1:0.0567084 2:0.0125158 3:0.123833 4:-0.111466 5:0.043052 6:-0.174763 
-1 1:-0.0185609 2:-0.0290389 3:0.0639814 4:-0.164345 5:-0.0339544 6:-0.107298 
-1 1:0.0272302 2:-0.0190979 3:0.0917175 4:-0.146522 5:0.0407496 6:-0.241364 
-1 1:-0.172566 2:-0.192592 3:-0.0960055 4:-0.340981 5:-0.0300084 6:-0.248777 
-1 1:-0.163864 2:-0.186262 3:-0.0846139 4:-0.309605 5:0.0105785 6:-0.0153672 
-1 1:0.0537049 2:0.0601941 3:0.128668 4:-0.0525336 5:-0.01681 6:-0.0290247 
1 1:0.157079 2:0.122919 3:0.155685 4:0.0151315 5:-0.0372501 6:-0.0756765 
1 1:0.0751795 2:0.0829965 3:0.150235 4:-0.015524 5:0.0111986 6:-0.0514124 
1 1:0.0756287 2:0.0736538 3:0.154256 4:-0.0316605 5:-0.0683783 6:-0.210595 
1 1:0.0949552 2:0.130917 3:0.172783 4:0.0394544 5:0.000553869 6:-0.0213411 
-1 1:-0.0618389 2:-0.0545064 3:0.00233086 4:-0.14998 5:-0.117984 6:-0.0467669 
1 1:0.16766 2:0.17982 3:0.164233 4:0.0644485 5:-0.971676 6:0.634276 
1 1:0.376527 2:0.417464 3:0.445403 4:0.344242 5:-0.928637 6:0.692959 
1 1:-0.0880257 2:-0.0620341 3:-0.0146306 4:-0.203239 5:-1 6:0.463571 
1 1:0.135528 2:0.174154 3:0.202673 4:0.0498752 5:-0.893832 6:0.585168 
1 1:-0.229074 2:-0.198957 3:-0.168517 4:-0.366787 5:-0.815369 6:0.634356 
1 1:0.408317 2:0.431646 3:0.446661 4:0.337562 5:-0.952178 6:0.588001 
-1 1:-0.251923 2:-0.223258 3:-0.199486 4:-0.361753 5:-0.835275 6:0.712264 
-1 1:0.123764 2:0.144222 3:0.167907 4:0.0216864 5:-0.805857 6:0.726764 
1 1:0.382429 2:0.429321 3:0.429272 4:0.360224 5:-0.959896 6:0.723513 
-1 1:0.153813 2:0.134917 3:0.201679 4:0.0405678 5:0.660626 6:0.244063 
-1 1:0.180714 2:0.167821 3:0.245687 4:0.0645762 5:0.58127 6:0.323572 
-1 1:0.0832344 2:0.0705397 3:0.154057 4:-0.0627866 5:0.615696 6:0.25594 
-1 1:0.434601 2:0.417959 3:0.49438 4:0.363149 5:0.706191 6:0.290105 
-1 1:0.280755 2:0.285472 3:0.341807 4:0.16606 5:0.620598 6:0.294739 
-1 1:0.131912 2:0.136824 3:0.193652 4:0.000516909 5:0.685338 6:0.406246 
-1 1:0.291886 2:0.299504 3:0.353808 4:0.203385 5:0.56545 6:0.331675 
-1 1:0.116668 2:0.105282 3:0.187601 4:-0.00638375 5:0.71416 6:0.332871 
-1 1:0.0751055 2:0.0565355 3:0.122249 4:-0.0562854 5:0.58271 6:0.355504 
-1 1:0.187257 2:0.176623 3:0.259743 4:0.0703644 5:0.616242 6:0.339416 
-1 1:0.0576085 2:0.0503013 3:0.106434 4:-0.083383 5:0.645823 6:0.35975 
-1 1:0.199685 2:0.206735 3:0.260538 4:0.0874954 5:0.558543 6:0.397029 
-1 1:0.379313 2:0.394028 3:0.421746 4:0.310643 5:0.675845 6:0.289902 
1 1:0.537403 2:0.552243 3:0.588425 4:0.491696 5:0.724856 6:0.248061 
-1 1:0.0457341 2:0.0513536 3:0.113725 4:-0.0678697 5:0.610011 6:0.374698 
-1 1:0.405688 2:0.412538 3:0.457184 4:0.322786 5:0.558666 6:0.432433 
-1 1:0.307824 2:0.291901 3:0.364544 4:0.190093 5:0.57474 6:0.248407 
-1 1:-0.308832 2:-0.307232 3:-0.229217 4:-0.481793 5:0.589317 6:0.383303 
-1 1:0.245615 2:0.231315 3:0.30329 4:0.149397 5:0.642747 6:0.248916 
-1 1:-0.152077 2:-0.181374 3:-0.0817961 4:-0.312471 5:0.629141 6:0.248346 
-1 1:0.0685629 2:0.0610508 3:0.123127 4:-0.0886306 5:0.633767 6:0.29 
-1 1:0.212606 2:0.191555 3:0.254145 4:0.0914053 5:0.594595 6:0.310019 
-1 1:0.0920298 2:0.0905556 3:0.160853 4:-0.0285882 5:0.597676 6:0.350124 
-1 1:0.453909 2:0.43383 3:0.499136 4:0.384896 5:0.694806 6:0.258602 
-1 1:0.24088 2:0.237734 3:0.302586 4:0.134969 5:0.550525 6:0.338697 
-1 1:0.239468 2:0.228164 3:0.290784 4:0.146885 5:0.687479 6:0.286029 
-1 1:0.411379 2:0.411485 3:0.463035 4:0.350072 5:0.718122 6:0.306878 
-1 1:0.254525 2:0.257147 3:0.30695 4:0.142174 5:0.666192 6:0.368606 
-1 1:0.0998496 2:0.106929 3:0.166836 4:-0.0230403 5:0.612987 6:0.406907 
-1 1:0.271286 2:0.275534 3:0.333389 4:0.174859 5:0.55341 6:0.365145 
-1 1:0.0850972 2:0.0728885 3:0.146361 4:-0.0481849 5:0.64649 6:0.306393 
-1 1:0.163535 2:0.174653 3:0.218252 4:0.0569696 5:0.727086 6:0.344189 
-1 1:-0.0927944 2:-0.0962477 3:-0.0554659 4:-0.231237 5:0.680247 6:0.341517 
-1 1:0.375803 2:0.36665 3:0.431505 4:0.301116 5:0.728097 6:0.318534 
-1 1:0.229261 2:0.216941 3:0.294213 4:0.0943224 5:0.678621 6:0.326755 
-1 1:0.032939 2:0.02972 3:0.106914 4:-0.0907142 5:0.658903 6:0.288604 
-0.4911169797753145 1:-0.0956763 2:-0.0945693 3:-0.0283964 4:-0.260394 5:0.636538 6:0.402112 
-1 1:0.0280316 2:0.00881497 3:0.0775128 4:-0.114645 5:0.665628 6:0.320073 
-1 1:0.0587601 2:0.0543178 3:0.118123 4:-0.0880759 5:0.65935 6:0.404641 
-1 1:0.0308522 2:0.0203048 3:0.0564925 4:-0.117623 5:0.66603 6:0.336174 
-1 1:0.144001 2:0.150364 3:0.208198 4:0.0401406 5:0.570716 6:0.3733 
-1 1:0.0887396 2:0.102746 3:0.154128 4:-0.0225038 5:0.58805 6:0.408102 
-1 1:0.0350018 2:0.038882 3:0.105769 4:-0.106005 5:0.728138 6:0.394218 
-1 1:0.472228 2:0.484369 3:0.539671 4:0.400666 5:0.581227 6:0.281141 
-1 1:-0.025388 2:-0.00695066 3:0.0404714 4:-0.157718 5:0.702946 6:0.383282 
-1 1:0.429161 2:0.421242 3:0.495335 4:0.36302 5:0.677956 6:0.248483 
1 1:0.0928366 2:0.0849748 3:0.124202 4:0.00400399 5:0.870229 6:0.398803 
1 1:0.302649 2:0.310652 3:0.357347 4:0.227931 5:0.859877 6:0.396408 
1 1:0.188194 2:0.2061 3:0.203152 4:0.0978948 5:0.870985 6:0.382487 
1 1:0.544352 2:0.513169 3:0.547722 4:0.460283 5:0.859773 6:0.412907 
1 1:0.213351 2:0.225696 3:0.246442 4:0.122934 5:0.8583 6:0.372121 
-1 1:-0.0461649 2:-0.119205 3:0.0175187 4:-0.203915 5:0.475696 6:-0.231747 
1 1:-0.192965 2:-0.25665 3:-0.156044 4:-0.391001 5:0.514485 6:-0.336011 
-1 1:0.272331 2:0.218342 3:0.338582 4:0.164253 5:0.469155 6:-0.207057 
1 1:-0.0817354 2:-0.139602 3:-0.0323024 4:-0.234412 5:0.511576 6:-0.312988 
-1 1:0.14751 2:0.132489 3:0.153815 4:0.047981 5:0.537845 6:-0.389782 
-1 1:0.193776 2:0.174956 3:0.240023 4:0.0779973 5:0.564101 6:-0.318785 
-1 1:0.000445225 2:-0.0718933 3:0.0627427 4:-0.150993 5:0.521422 6:-0.192571 
-1 1:0.0397941 2:-0.0380891 3:0.0978364 4:-0.117598 5:0.556735 6:-0.197115 
1 1:-0.0225494 2:-0.0996817 3:0.0165245 4:-0.215436 5:0.554656 6:-0.279182 
0.9018764753172717 1:0.00592061 2:-0.0526735 3:0.0667095 4:-0.167174 5:0.539313 6:-0.348355 
-1 1:-0.00768735 2:-0.0959668 3:0.0127701 4:-0.192135 5:0.584379 6:-0.217984 
-1 1:0.412977 2:0.382016 3:0.459897 4:0.33096 5:0.478599 6:-0.175596 
-1 1:0.123068 2:0.0772101 3:0.177295 4:-0.00445791 5:0.487157 6:-0.237736 
1 1:-0.0976634 2:-0.164306 3:-0.0436218 4:-0.267303 5:0.521968 6:-0.353862 
-1 1:0.220716 2:0.198959 3:0.267709 4:0.100412 5:0.598509 6:-0.258485 
1 1:-0.14306 2:-0.199107 3:-0.0807119 4:-0.332488 5:0.526173 6:-0.382872 
-1 1:0.102651 2:0.0461034 3:0.160894 4:-0.0250976 5:0.537465 6:-0.19301 
-1 1:0.104812 2:0.0232753 3:0.154086 4:-0.0378303 5:0.491508 6:-0.210095 
1 1:-0.0935506 2:-0.180965 3:-0.0531499 4:-0.282868 5:0.553391 6:-0.237567 
-1 1:0.276781 2:0.274082 3:0.344275 4:0.197117 5:0.51747 6:-0.259448 
-1 1:0.0150704 2:-0.0516003 3:0.0561281 4:-0.16201 5:0.584879 6:-0.24412 
-1 1:-0.000793578 2:-0.0847939 3:0.0390616 4:-0.174395 5:0.573714 6:-0.200172 
-1 1:0.0908442 2:0.0352713 3:0.157828 4:-0.0422309 5:0.453993 6:-0.187344 
1 1:0.178653 2:0.122234 3:0.218042 4:0.017162 5:0.534131 6:-0.298006 
-1 1:0.18575 2:0.12079 3:0.226111 4:0.0596853 5:0.466129 6:-0.175971 
-1 1:0.405569 2:0.388008 3:0.408435 4:0.309168 5:0.530321 6:-0.2483 
-1 1:0.348009 2:0.300258 3:0.401676 4:0.250611 5:0.492025 6:-0.172349 
-1 1:0.187303 2:0.145302 3:0.208852 4:0.0358469 5:0.548847 6:-0.257962 
1 1:0.0296016 2:-0.0397966 3:0.081492 4:-0.155371 5:0.571956 6:-0.283244 
-1 1:0.22915 2:0.18798 3:0.281583 4:0.128282 5:0.520558 6:-0.169111 
1 1:-0.378837 2:-0.374375 3:-0.314959 4:-0.597368 5:-0.0934966 6:0.568505 
1 1:-0.0712926 2:-0.0571679 3:-0.0130961 4:-0.20642 5:-0.0832947 6:0.627124 
-1 1:-0.426852 2:-0.427713 3:-0.390534 4:-0.650177 5:-0.202761 6:0.523579 
-1 1:-0.549428 2:-0.562437 3:-0.605332 4:-0.83057 5:-0.115883 6:0.599456 
1 1:-0.456621 2:-0.463288 3:-0.37673 4:-0.705425 5:-0.145807 6:0.740839 
1 1:-0.31684 2:-0.308908 3:-0.24334 4:-0.528368 5:-0.0638438 6:0.664915 
-1 1:-0.337498 2:-0.379319 3:-0.326069 4:-0.569849 5:-0.185955 6:0.737474 
1 1:-0.229074 2:-0.231577 3:-0.163182 4:-0.422488 5:-0.0595339 6:0.70786 
-1 1:-0.335749 2:-0.361703 3:-0.33832 4:-0.541773 5:-0.17504 6:0.690078 
1 1:-0.354127 2:-0.393071 3:-0.287415 4:-0.598418 5:-0.0861236 6:0.54105 
1 1:-0.31553 2:-0.325261 3:-0.245995 4:-0.526664 5:-0.116204 6:0.71156 
1 1:-0.391943 2:-0.380577 3:-0.320813 4:-0.616265 5:-0.114081 6:0.682497 
1 1:-0.283027 2:-0.280856 3:-0.216759 4:-0.497806 5:-0.115102 6:0.524714 
1 1:-0.308204 2:-0.308441 3:-0.232144 4:-0.521879 5:-0.0450472 6:0.64977 
1 1:-0.31913 2:-0.300863 3:-0.259743 4:-0.515785 5:-0.108945 6:0.638499 
1 1:-0.136722 2:-0.0901971 3:-0.0840364 4:-0.23685 5:-0.143654 6:0.625525 
1 1:-0.199892 2:-0.222625 3:-0.122075 4:-0.396845 5:-0.0645582 6:0.536328 
-1 1:-0.41191 2:-0.417573 3:-0.38609 4:-0.597076 5:-0.201926 6:0.566824 
1 1:-0.412254 2:-0.400134 3:-0.345426 4:-0.620939 5:-0.0954594 6:0.597618 
1 1:-0.540423 2:-0.513426 3:-0.463541 4:-0.740377 5:-0.168346 6:0.588309 
1 1:-0.172159 2:-0.169587 3:-0.128048 4:-0.348132 5:-0.0424486 6:0.594031 
1 1:-0.274801 2:-0.261663 3:-0.210573 4:-0.466958 5:-0.0509365 6:0.56454 
1 1:-0.347829 2:-0.414658 3:-0.269327 4:-0.581509 5:-0.116706 6:0.741222 
1 1:-0.303591 2:-0.310694 3:-0.242089 4:-0.497349 5:-0.0593994 6:0.741027 
-1 1:-0.0729351 2:-0.0524101 3:-0.0521347 4:-0.214416 5:-0.23997 6:0.640138 
-1 1:-0.482395 2:-0.504161 3:-0.446722 4:-0.728281 5:-0.171002 6:0.556973 
-1 1:0.155226 2:0.175876 3:0.195757 4:0.0544851 5:-0.243734 6:0.592961 
1 1:-0.376426 2:-0.366172 3:-0.310916 4:-0.578593 5:-0.142344 6:0.682112 
-1 1:-0.223518 2:-0.290029 3:-0.305897 4:-0.475256 5:-0.23409 6:0.536025 
1 1:-0.491255 2:-0.457127 3:-0.431675 4:-0.698131 5:-0.148745 6:0.652657 
-1 1:-0.292616 2:-0.311072 3:-0.31001 4:-0.524407 5:-0.169867 6:0.523195 
1 1:-0.255049 2:-0.250024 3:-0.195967 4:-0.434371 5:-0.140018 6:0.536861 
-1 1:-0.496679 2:-0.51432 3:-0.493074 4:-0.754787 5:-0.203091 6:0.675207 
1 1:0.153446 2:0.15372 3:0.212377 4:0.0572074 5:0.41409 6:-0.0727399 
-1 1:0.147452 2:0.109635 3:0.195474 4:0.0270182 5:0.390679 6:-0.153606 
-1 1:0.0277278 2:-0.06042 3:0.0889149 4:-0.15328 5:0.415883 6:-0.0480544 
-1 1:-0.0627204 2:-0.102484 3:0.0111282 4:-0.183978 5:0.312261 6:-0.0597617 
-1 1:-0.0337757 2:-0.120489 3:0.0250243 4:-0.233166 5:0.432974 6:-0.041446 
-1 1:-0.237321 2:-0.337802 3:-0.167024 4:-0.461552 5:0.366538 6:-0.0355015 
-1 1:-0.00363241 2:-0.08179 3:0.0506482 4:-0.195655 5:0.452133 6:-0.0884789 
-1 1:-0.119957 2:-0.174287 3:-0.0555108 4:-0.298982 5:0.239748 6:-0.0982466 
-1 1:-0.0408387 2:-0.115186 3:-0.00735933 4:-0.228626 5:0.229836 6:-0.150667 
-1 1:-0.128197 2:-0.234193 3:-0.0628292 4:-0.365036 5:0.388284 6:-0.0498722 
-1 1:-0.0274737 2:-0.0700417 3:0.0268321 4:-0.185611 5:0.313819 6:-0.149519 
-1 1:-0.102178 2:-0.205819 3:-0.0308866 4:-0.30064 5:0.438327 6:-0.0588854 
-1 1:0.114783 2:0.0670128 3:0.177345 4:-0.0403861 5:0.461813 6:-0.0676372 
-1 1:-0.145535 2:-0.258681 3:-0.0676047 4:-0.324984 5:0.360291 6:-0.133501 
-1 1:-0.260284 2:-0.395039 3:-0.202671 4:-0.542918 5:0.448612 6:-0.0379329 
-1 1:-0.0435537 2:-0.12699 3:-0.0002342 4:-0.231832 5:0.244548 6:-0.149462 
-1 1:-0.0484741 2:-0.10628 3:0.0205581 4:-0.220893 5:0.273176 6:-0.150107 
-1 1:0.0713122 2:0.0231466 3:0.139316 4:-0.0836084 5:0.458188 6:-0.0454952 
-1 1:-0.0763321 2:-0.144038 3:-0.0439582 4:-0.261965 5:0.234317 6:-0.117666 
-1 1:-0.115061 2:-0.191481 3:-0.0502084 4:-0.296519 5:0.298325 6:-0.0991115 
-1 1:-0.259548 2:-0.305481 3:-0.195291 4:-0.44416 5:0.289876 6:-0.0584288 
-1 1:-0.0351178 2:-0.112763 3:-0.00290303 4:-0.220277 5:0.222013 6:-0.10271 
1 1:0.0251058 2:-0.0416859 3:0.0910761 4:-0.126751 5:0.30119 6:-0.147714 
-1 1:-0.206796 2:-0.243961 3:-0.156355 4:-0.408478 5:0.297602 6:-0.122582 
-1 1:-0.0141996 2:-0.0619877 3:0.0416072 4:-0.17555 5:0.329618 6:-0.154719 
-1 1:-0.110119 2:-0.208928 3:-0.0336099 4:-0.267579 5:0.350215 6:-0.0376204 
-1 1:-0.0669554 2:-0.102542 3:-0.013951 4:-0.206649 5:0.323317 6:-0.127193 
-1 1:0.101858 2:0.0689342 3:0.155981 4:-0.0196319 5:0.312384 6:-0.114654 
-1 1:-0.251923 2:-0.311167 3:-0.184614 4:-0.414252 5:0.392438 6:-0.12318 
1 1:-0.00722725 2:-0.0904961 3:0.0621084 4:-0.173276 5:0.412191 6:-0.128839 
-1 1:0.189156 2:0.169655 3:0.207319 4:0.059959 5:0.301604 6:-0.0404717 
-1 1:-0.338294 2:-0.363732 3:-0.270634 4:-0.509978 5:0.33778 6:-0.142616 
-1 1:-0.106935 2:-0.182652 3:-0.0443374 4:-0.287572 5:0.398386 6:-0.0712005 
-1 1:-0.0914209 2:-0.187765 3:-0.0210494 4:-0.284475 5:0.375648 6:-0.0532627 
-1 1:-0.277786 2:-0.332914 3:-0.200972 4:-0.471116 5:0.284415 6:-0.11299 
1 1:-0.339495 2:-0.42571 3:-0.262232 4:-0.585404 5:0.382936 6:-0.0351794 
-1 1:0.0987196 2:0.0357917 3:0.131232 4:-0.0536211 5:0.3682 6:-0.0704895 
1 1:0.0909172 2:0.0683367 3:0.159589 4:-0.0268991 5:0.402578 6:-0.0951363 
-1 1:0.0400227 2:0.00805295 3:0.0933508 4:-0.0927661 5:0.319667 6:-0.0379816 
-1 1:-0.0883085 2:-0.178801 3:-0.0324209 4:-0.262207 5:0.402898 6:-0.0457163 
1 1:0.587245 2:0.578611 3:0.612365 4:0.5213 5:0.212917 6:-0.151042 
-1 1:-0.212528 2:-0.278478 3:-0.136864 4:-0.412389 5:0.285481 6:-0.0401156 
-1 1:0.186395 2:0.179673 3:0.253494 4:0.0996456 5:0.334284 6:-0.0428218 
-1 1:0.0111119 2:-0.0425344 3:0.0548837 4:-0.134787 5:0.217679 6:-0.125077 
-1 1:-0.332134 2:-0.410622 3:-0.254732 4:-0.52414 5:0.369407 6:-0.108129 
-1 1:0.0199609 2:-0.024092 3:0.0869949 4:-0.137076 5:0.358292 6:-0.10945 
-1 1:-0.0692572 2:-0.134156 3:0.00511783 4:-0.242676 5:0.369657 6:-0.0884346 
-1 1:0.0561965 2:0.0134555 3:0.0967691 4:-0.0843843 5:0.00962577 6:-0.435417 
-1 1:-0.153435 2:-0.181602 3:-0.0947782 4:-0.255245 5:-0.237353 6:-0.394391 
-0.9148274407791135 1:-0.127298 2:-0.133253 3:-0.0566802 4:-0.247234 5:-0.0377267 6:-0.74882 
1 1:-0.250206 2:-0.261305 3:-0.172134 4:-0.37021 5:-0.0978813 6:-0.283424 
-1 1:-0.0873204 2:-0.135695 3:-0.0181037 4:-0.200189 5:-0.0126269 6:-0.59806 
-1 1:-0.242058 2:-0.284648 3:-0.198403 4:-0.390088 5:-0.244076 6:-0.245227 
-1 1:0.302423 2:0.279673 3:0.299332 4:0.186034 5:-0.0549614 6:-0.500741 
1 1:-0.319283 2:-0.328471 3:-0.252872 4:-0.475372 5:-0.0875842 6:-0.565686 
-1 1:0.310239 2:0.303414 3:0.35001 4:0.262072 5:0.0171194 6:-0.658291 
1 1:-0.23548 2:-0.310978 3:-0.188382 4:-0.428435 5:-0.0809552 6:-0.837699 
1 1:-0.0784365 2:-0.0984537 3:0.00476372 4:-0.229023 5:-0.0799977 6:-0.522148 
-1 1:-0.0437524 2:-0.107444 3:-0.0110115 4:-0.212903 5:-0.059833 6:-0.601998 
-1 1:0.328545 2:0.255988 3:0.351075 4:0.184436 5:-0.0540174 6:-0.912938 
-1 1:-0.212274 2:-0.242863 3:-0.184887 4:-0.371136 5:-0.223835 6:-0.205871 
-1 1:-0.0920557 2:-0.108887 3:-0.0197917 4:-0.182829 5:0.0438187 6:-0.613223 
-1 1:0.0514643 2:0.0127132 3:0.108179 4:-0.0899099 5:0.0266089 6:-0.433445 
-1 1:-0.24951 2:-0.285302 3:-0.177653 4:-0.417471 5:-0.151261 6:-0.205675 
-1 1:-0.344201 2:-0.38979 3:-0.303787 4:-0.493721 5:-0.244116 6:-0.284317 
-1 1:-0.173565 2:-0.22148 3:-0.106015 4:-0.348968 5:-0.124839 6:-0.438728 
1 1:0.270543 2:0.304788 3:0.341038 4:0.240984 5:-0.0232319 6:-0.319674 
-1 1:-0.328483 2:-0.345224 3:-0.254732 4:-0.502076 5:-0.153646 6:-0.169354 
-1 1:-0.0744224 2:-0.138742 3:-0.0104852 4:-0.199723 5:-0.0211511 6:-0.620125 
-1 1:-0.140486 2:-0.186215 3:-0.0632497 4:-0.298037 5:-0.0931682 6:-0.423719 
1 1:-0.410201 2:-0.437694 3:-0.348303 4:-0.581228 5:-0.139316 6:-0.475863 
1 1:-0.00963095 2:-0.0242603 3:0.0492142 4:-0.12452 5:-0.0456578 6:-0.281471 
-1 1:0.122963 2:0.0809442 3:0.0549816 4:-0.0406386 5:-0.066335 6:-0.470922 
1 1:-0.346214 2:-0.361326 3:-0.2863 4:-0.484149 5:-0.233174 6:-0.469236 
-1 1:-0.345264 2:-0.381844 3:-0.306074 4:-0.466884 5:-0.193875 6:-0.526505 
-1 1:-0.22864 2:-0.284322 3:-0.190625 4:-0.39108 5:-0.189955 6:-0.283581 
-1 1:-0.417756 2:-0.480684 3:-0.39394 4:-0.618493 5:-0.303914 6:-0.466342 
-1 1:-0.279666 2:-0.28794 3:-0.22531 4:-0.448841 5:-0.235741 6:-0.0580792 
-1 1:-0.0832289 2:-0.120457 3:-0.0386085 4:-0.205926 5:-0.236046 6:-0.168828 
-1 1:-0.0730391 2:-0.14615 3:-0.00922843 4:-0.231453 5:-0.0506926 6:-0.665734 
-1 1:-0.375512 2:-0.43847 3:-0.30839 4:-0.585863 5:-0.17164 6:-0.282942 
-1 1:-0.195776 2:-0.299705 3:-0.152424 4:-0.397856 5:-0.135261 6:-0.721088 
1 1:-0.167149 2:-0.261663 3:-0.106192 4:-0.361029 5:-0.0919738 6:-0.783594 
-1 1:-0.0577454 2:-0.0956304 3:0.0128626 4:-0.224783 5:-0.102714 6:-0.391654 
-1 1:0.48601 2:0.455945 3:0.496199 4:0.383265 5:-0.364578 6:-0.439023 
-1 1:-0.0799702 2:-0.141334 3:-0.0203455 4:-0.259792 5:-0.0357347 6:-0.482183 
-1 1:-0.0234052 2:-0.0641545 3:0.0398875 4:-0.173655 5:-0.00654215 6:-0.285636 
-1 1:-0.457062 2:-0.48697 3:-0.389693 4:-0.631175 5:-0.136267 6:-0.252523 
-1 1:-0.252876 2:-0.276364 3:-0.179413 4:-0.391152 5:0.0247728 6:-0.320424 
-1 1:-0.119637 2:-0.154155 3:-0.0412016 4:-0.261907 5:-0.00805385 6:-0.444672 
1 1:-0.161763 2:-0.240179 3:-0.123111 4:-0.351663 5:-0.112611 6:-0.683944 
-1 1:-0.163154 2:-0.202252 3:-0.10996 4:-0.288748 5:-0.23736 6:-0.357139 
-1 1:-0.313832 2:-0.367079 3:-0.264332 4:-0.448722 5:-0.190036 6:-0.319967 
1 1:-0.12656 2:-0.141988 3:-0.0485609 4:-0.280358 5:-0.107026 6:-0.561857 
1 1:-0.313584 2:-0.366301 3:-0.259058 4:-0.482296 5:-0.053171 6:-0.70193 
-1 1:-0.138154 2:-0.189756 3:-0.0787662 4:-0.28712 5:-0.00207001 6:-0.541943 
-1 1:0.0333419 2:-0.000406147 3:0.0656509 4:-0.0963275 5:-0.208623 6:-0.244648 
-1 1:-0.292219 2:-0.324749 3:-0.219052 4:-0.468108 5:-0.168584 6:-0.206946 
-1 1:-0.208917 2:-0.247627 3:-0.128516 4:-0.381272 5:-0.077366 6:-0.444584 
-1 1:-0.268706 2:-0.304566 3:-0.195098 4:-0.408482 5:-0.135123 6:-0.226485 
-1 1:0.789407 2:0.790593 3:0.816555 4:0.798217 5:0.0186249 6:-0.6003 
1 1:-0.23217 2:-0.279188 3:-0.157763 4:-0.377064 5:-0.134569 6:-0.32013 
-1 1:-0.315681 2:-0.340241 3:-0.269472 4:-0.412085 5:-0.154027 6:-0.096289 
-1 1:0.379644 2:0.292513 3:0.411925 4:0.228863 5:-0.0800027 6:-0.89212 
-1 1:-0.0534283 2:-0.100543 3:-0.00585039 4:-0.183455 5:-0.22688 6:-0.284152 
-1 1:-0.0228047 2:-0.0534 3:0.0374255 4:-0.155018 5:0.0126453 6:-0.322675 
-1 1:-0.037182 2:-0.0754806 3:-0.0120685 4:-0.229534 5:0.0173355 6:-0.477124 
-1 1:-0.448335 2:-0.500255 3:-0.444819 4:-0.64776 5:-0.333956 6:-0.465771 
-1 1:-0.239411 2:-0.273126 3:-0.162778 4:-0.378717 5:-0.0796747 6:-0.315332 
-1 1:-0.143022 2:-0.197606 3:-0.0847191 4:-0.277534 5:-0.0231748 6:-0.677266 
0.5320060155524662 1:-0.327622 2:-0.42753 3:-0.280056 4:-0.512181 5:-0.0974248 6:-0.837089 
-1 1:-0.0930848 2:-0.133391 3:-0.0173747 4:-0.226696 5:-0.139968 6:-0.357286 
1 1:-0.143888 2:-0.226926 3:-0.088279 4:-0.303616 5:-0.0686798 6:-0.680552 
-1 1:0.0508004 2:0.0204792 3:0.10989 4:-0.0617481 5:-0.0128607 6:-0.369242 
1 1:-0.17869 2:-0.160264 3:-0.111172 4:-0.295209 5:-0.0983264 6:-0.592404 
-1 1:-0.719928 2:-0.82886 3:-0.913246 4:-0.80292 5:-0.059917 6:-0.847415 
1 1:-0.570988 2:-0.585887 3:-0.52244 4:-0.754101 5:-0.171355 6:-0.319515 
1 1:0.0122392 2:0.0257038 3:0.070052 4:-0.0975493 5:-0.121113 6:-0.582983 
-1 1:-0.349035 2:-0.36656 3:-0.280056 4:-0.529992 5:-0.135286 6:-0.546797 
-1 1:-0.300656 2:-0.342829 3:-0.22668 4:-0.436963 5:-0.13505 6:-0.28392 
-1 1:0.0667283 2:0.0392221 3:0.123464 4:-0.0767803 5:0.0123536 6:-0.27898 
-1 1:-0.090387 2:-0.139064 3:-0.035609 4:-0.227562 5:-0.227043 6:-0.24511 
1 1:-0.318618 2:-0.447655 3:-0.274464 4:-0.522448 5:-0.112344 6:-0.727851 
-1 1:-0.0692572 2:-0.145443 3:0.000492937 4:-0.228426 5:-0.0359474 6:-0.640188 
-1 1:-0.178269 2:-0.236725 3:-0.10637 4:-0.328554 5:-0.0366106 6:-0.562363 
-1 1:0.0790043 2:0.0392482 3:0.15009 4:-0.020653 5:0.0391228 6:-0.575667 
-1 1:-0.0564489 2:-0.118725 3:0.00317793 4:-0.232764 5:-0.0234224 6:-0.457959 
1 1:-0.160552 2:-0.158657 3:-0.0782069 4:-0.293364 5:-0.0976671 6:-0.528761 
1 1:-1 2:-1 3:-1 4:-1 5:-0.27013 6:-0.432666 
-1 1:-0.167611 2:-0.255748 3:-0.156433 4:-0.363178 5:-0.000368316 6:-0.50672 
-1 1:-0.183748 2:-0.221937 3:-0.106192 4:-0.372107 5:0.0551908 6:-0.352247 
-1 1:0.0400989 2:0.00593637 3:0.0768845 4:-0.049936 5:-0.00274176 6:-0.690739 
-1 1:-0.0229128 2:-0.150259 3:-0.0215698 4:-0.247074 5:-0.155446 6:-0.693894 
-1 1:-0.446036 2:-0.486459 3:-0.369824 4:-0.660969 5:-0.137853 6:-0.512468 
1 1:0.183927 2:0.20204 3:0.244296 4:0.167105 5:-0.215481 6:-0.428964 
-1 1:-0.211569 2:-0.252047 3:-0.140114 4:-0.357043 5:-0.176732 6:-0.394084 
-1 1:-0.0830364 2:-0.126856 3:-0.00639765 4:-0.233238 5:-0.0637651 6:-0.278557 
-1 1:-0.475046 2:-0.487483 3:-0.395089 4:-0.658431 5:-0.172001 6:-0.243767 
-1 1:-0.0943978 2:-0.130128 3:-0.030378 4:-0.224361 5:-0.158201 6:-0.39357 
-1 1:-0.194135 2:-0.226456 3:-0.158392 4:-0.347137 5:-0.242298 6:-0.206372 
-1 1:-0.0310801 2:-0.078226 3:0.0400735 4:-0.184052 5:0.0384849 6:-0.520975 
-1 1:0.219132 2:0.200923 3:0.26485 4:0.122537 5:-0.21105 6:-0.133088 
-0.1343879829909729 1:-0.327569 2:-0.39247 3:-0.296422 4:-0.557928 5:-0.293512 6:-0.588371 
1 1:0.170096 2:0.204726 3:0.234929 4:0.127983 5:-0.211249 6:-0.169241 
-1 1:-0.373006 2:-0.398886 3:-0.342378 4:-0.496581 5:-0.197938 6:-0.473662 
1 1:-0.446764 2:-0.482921 3:-0.385269 4:-0.660411 5:-0.137299 6:-0.601636 
-1 1:-0.104239 2:-0.158537 3:-0.0340478 4:-0.282461 5:0.0306935 6:-0.283091 
-1 1:-0.134346 2:-0.198555 3:-0.0923481 4:-0.290949 5:-0.274215 6:-0.476789 
1 1:-0.211232 2:-0.272592 3:-0.163911 4:-0.348843 5:-0.0441114 6:-0.729823 
1 1:-0.585513 2:-0.562437 3:-0.523021 4:-0.693751 5:-0.172604 6:-0.096305 
1 1:-0.132526 2:-0.102979 3:-0.0595454 4:-0.183063 5:-0.0172848 6:-0.344294 
-1 1:-0.159161 2:-0.218763 3:-0.0867296 4:-0.311657 5:-0.143007 6:-0.433643 
-1 1:-0.214062 2:-0.290703 3:-0.148576 4:-0.395236 5:0.0614499 6:-0.4704 
-1 1:-0.272614 2:-0.29558 3:-0.200674 4:-0.468351 5:-0.102252 6:-0.490815 
-1 1:-0.0878562 2:-0.112147 3:-0.0263215 4:-0.193448 5:-0.176501 6:-0.356675 
-1 1:-0.0400256 2:-0.0966416 3:0.0316782 4:-0.193109 5:0.062812 6:-0.437142 
