svm_type c_svc
kernel_type rbf
gamma 0.1
nr_class 3
total_sv 10
rho 0 -0.5 -0.5
label 0 1 2
probA 6.43775 5.38155 5.38155
probB 1.17297e-16 -3.4725 -3.4725
nr_sv 4 4 2
SV
1 0.5 1:100 2:10 
1 0.5 1:150 2:10 
1 0.5 1:10 2:100 
1 0.5 1:30 2:150 
-1 0.5 1:600 2:200 
-1 0.5 1:600 2:10 
-1 0.5 1:345 2:255 
-1 0.5 1:401 2:255 
-1 -1 1:455 2:10 
-1 -1 1:10 2:501 
