svm_type c_svc
kernel_type rbf
gamma 0.03125
nr_class 2
total_sv 349
rho 0.266341
label 1 -1
nr_sv 175 174
SV
8 1:0.176471 2:0.155779 3:-1 4:-1 5:-1 6:0.052161 7:-0.952178 8:-0.733333 
8 1:-0.529412 2:0.105528 3:0.508197 4:-1 5:-1 6:0.120715 7:-0.903501 8:-0.7 
8 1:0.176471 2:0.396985 3:0.311475 4:-1 5:-1 6:-0.19225 7:0.163962 8:0.2 
8 1:-0.882353 2:0.0351759 3:-0.508197 4:-0.232323 5:-0.803783 6:0.290611 7:-0.910333 8:-0.6 
8 1:-0.647059 2:0.266332 3:0.442623 4:-0.171717 5:-0.444444 6:0.171386 7:-0.465414 8:-0.8 
8 1:-0.0588235 2:-0.00502513 3:0.377049 4:-1 5:-1 6:0.0551417 7:-0.735269 8:-0.0333333 
8 1:0.529412 2:0.457286 3:0.344262 4:-0.616162 5:-0.739953 6:-0.338301 7:-0.857387 8:0.2 
8 1:-0.411765 2:0.175879 3:0.508197 4:-1 5:-1 6:0.0163934 7:-0.778822 8:-0.433333 
8 1:-0.411765 2:0.0954774 3:0.229508 4:-0.474747 5:-1 6:0.0730254 7:-0.600342 8:0.3 
8 1:0.176471 2:0.226131 3:0.278689 4:-0.373737 5:-1 6:-0.177347 7:-0.629377 8:-0.2 
8 1:0.294118 2:0.386935 3:0.245902 4:-1 5:-1 6:-0.0104321 7:-0.707942 8:-0.533333 
8 1:-0.647059 2:0.809045 3:0.0491803 4:-0.494949 5:-0.834515 6:0.0134128 7:-0.835184 8:-0.833333 
8 1:-0.176471 2:0.336683 3:0.377049 4:-1 5:-1 6:0.198212 7:-0.472246 8:-0.466667 
8 1:-0.176471 2:0.59799 3:0.0491803 4:-1 5:-1 6:-0.183308 7:-0.815542 8:-0.366667 
8 1:-0.882353 2:0.467337 3:-0.0819672 4:-1 5:-1 6:-0.114754 7:-0.58497 8:-0.733333 
8 1:-0.176471 2:0.507538 3:0.0819672 4:-0.151515 5:-0.191489 6:0.0342773 7:-0.453459 8:-0.3 
8 1:-1 2:0.00502513 3:0.442623 4:0.212121 5:-0.739953 6:0.394933 7:-0.24509 8:-0.666667 
8 1:-1 2:0.467337 3:0.344262 4:-1 5:-1 6:0.207154 7:0.454313 8:-0.233333 
8 1:-0.764706 2:0.417085 3:-0.0491803 4:-0.313131 5:-0.6974 6:-0.242921 7:-0.469684 8:-0.9 
8 1:-0.764706 2:0.0954774 3:0.508197 4:-1 5:-1 6:0.272727 7:-0.345004 8:0.1 
8 1:-0.529412 2:0.467337 3:0.393443 4:-0.454545 5:-0.763593 6:-0.138599 7:-0.905209 8:-0.8 
8 1:-0.411765 2:0.396985 3:0.0491803 4:-0.292929 5:-0.669031 6:-0.147541 7:-0.715628 8:-0.833333 
8 1:-0.529412 2:0.296482 3:0.409836 4:-0.59596 5:-0.361702 6:0.0461997 7:-0.869342 8:-0.933333 
8 1:-0.764706 2:0.105528 3:0.213115 4:-0.414141 5:-0.704492 6:-0.0342771 7:-0.470538 8:-0.8 
8 1:0.529412 2:0.0653266 3:0.180328 4:0.0909091 5:-1 6:0.0909091 7:-0.914603 8:-0.2 
8 1:-0.529412 2:0.236181 3:0.311475 4:-0.69697 5:-0.583924 6:-0.0461997 7:-0.688301 8:-0.566667 
8 1:-0.176471 2:-0.18593 3:0.278689 4:-0.191919 5:-0.886525 6:0.391952 7:-0.843723 8:-0.3 
8 1:-0.764706 2:0.427136 3:0.344262 4:-0.636364 5:-0.8487 6:-0.263785 7:-0.416738 8:-1 
8 1:-0.294118 2:0.447236 3:0.180328 4:-0.454545 5:-0.460993 6:0.0104323 7:-0.848847 8:-0.366667 
8 1:-0.882353 2:0.517588 3:-0.0163934 4:-1 5:-1 6:-0.222057 7:-0.913749 8:-0.966667 
8 1:-0.764706 2:-0.145729 3:0.0655738 4:-1 5:-1 6:0.180328 7:-0.272417 8:-0.8 
8 1:-0.882353 2:0.266332 3:-0.0819672 4:-0.414141 5:-0.640662 6:-0.14456 7:-0.382579 8:-1 
8 1:-0.529412 2:0.447236 3:-0.0491803 4:-0.434343 5:-0.669031 6:-0.120715 7:-0.82152 8:-0.466667 
8 1:-0.294118 2:0.115578 3:0.0491803 4:-0.212121 5:-1 6:0.0193741 7:-0.844577 8:-0.9 
7.050248657393105 1:-0.411765 2:0.326633 3:0.311475 4:-1 5:-1 6:-0.201192 7:-0.907771 8:0.6 
8 1:-0.647059 2:0.20603 3:0.147541 4:-0.393939 5:-0.680851 6:0.278689 7:-0.680615 8:-0.7 
8 1:-0.0588235 2:-0.155779 3:0.213115 4:-0.373737 5:-1 6:0.14158 7:-0.676345 8:-0.4 
8 1:-0.764706 2:0.256281 3:-0.0163934 4:-0.59596 5:-0.669031 6:0.00745157 7:-0.99146 8:-0.666667 
8 1:-1 2:0.296482 3:0.311475 4:-1 5:-1 6:-0.0700447 7:-0.466268 8:-0.733333 
8 1:-0.411765 2:0.0552764 3:0.180328 4:-0.414141 5:-0.231678 6:0.0998511 7:-0.930828 8:-0.766667 
8 1:-0.411765 2:0.0653266 3:0.344262 4:-0.393939 5:-1 6:0.177347 7:-0.822374 8:-0.433333 
8 1:-0.529412 2:0.547739 3:0.0163934 4:-0.373737 5:-0.328605 6:-0.0223547 7:-0.864219 8:-0.933333 
8 1:-0.764706 2:0.0653266 3:0.0491803 4:-0.292929 5:-0.718676 6:-0.0909091 7:0.12895 8:-0.566667 
8 1:-0.411765 2:0.477387 3:0.278689 4:-1 5:-1 6:0.004471 7:-0.880444 8:0.466667 
8 1:-0.882353 2:0.366834 3:0.213115 4:0.010101 5:-0.51773 6:0.114754 7:-0.725875 8:-0.9 
8 1:-0.882353 2:0.537688 3:0.344262 4:-0.151515 5:0.146572 6:0.210134 7:-0.479932 8:-0.933333 
8 1:-0.529412 2:0.517588 3:0.47541 4:-0.232323 5:-1 6:-0.114754 7:-0.815542 8:-0.5 
8 1:-0.176471 2:0.0251256 3:0.213115 4:-0.191919 5:-0.751773 6:0.108793 7:-0.8924 8:-0.2 
8 1:-1 2:0.145729 3:0.311475 4:-0.313131 5:-0.326241 6:0.317437 7:-0.923997 8:-0.8 
8 1:-0.647059 2:0.487437 3:0.0819672 4:-0.494949 5:-1 6:-0.0312965 7:-0.847993 8:-0.966667 
8 1:-0.529412 2:0.20603 3:0.114754 4:-1 5:-1 6:-0.117735 7:-0.461144 8:-0.566667 
8 1:-0.529412 2:0.105528 3:0.0819672 4:-1 5:-1 6:-0.0491803 7:-0.664389 8:-0.733333 
1.936412102532232 1:-0.764706 2:-0.125628 3:-1 4:-0.535354 5:-1 6:-0.138599 7:-0.40649 8:-0.866667 
8 1:-0.411765 2:0.437186 3:0.278689 4:-1 5:-1 6:0.341282 7:-0.904355 8:-0.133333 
8 1:-1 2:0.19598 3:0.0491803 4:-0.636364 5:-0.782506 6:0.0402385 7:-0.447481 8:-0.933333 
8 1:-0.529412 2:0.417085 3:0.213115 4:-1 5:-1 6:-0.177347 7:-0.858241 8:-0.366667 
8 1:0.0588235 2:0.236181 3:0.147541 4:-0.111111 5:-0.777778 6:-0.0134128 7:-0.747225 8:-0.366667 
8 1:-0.882353 2:0.386935 3:0.344262 4:-1 5:-1 6:0.195231 7:-0.865073 8:-0.766667 
8 1:-0.294118 2:0.0351759 3:0.180328 4:-0.353535 5:-0.550827 6:0.123696 7:-0.789923 8:0.133333 
8 1:-1 2:0.477387 3:0.393443 4:0.0909091 5:-1 6:0.275708 7:-0.746371 8:-0.9 
8 1:-0.176471 2:0.798995 3:0.557377 4:-0.373737 5:-1 6:0.0193741 7:-0.926558 8:0.3 
8 1:-0.294118 2:0.256281 3:0.114754 4:-0.393939 5:-0.716312 6:-0.105812 7:-0.670367 8:-0.633333 
8 1:-0.176471 2:0.19598 3:-1 4:-1 5:-1 6:-0.248882 7:-0.88813 8:-0.466667 
8 1:-0.176471 2:0.427136 3:-0.0163934 4:-0.333333 5:-0.550827 6:-0.14158 7:-0.479932 8:0.333333 
8 1:-0.529412 2:0.979899 3:0.147541 4:-0.212121 5:0.758865 6:0.0938898 7:0.922289 8:-0.666667 
8 1:-1 2:0.175879 3:0.311475 4:-0.373737 5:-0.874704 6:0.347243 7:-0.990606 8:-0.9 
8 1:-0.529412 2:0.226131 3:0.114754 4:-1 5:-1 6:0.0432191 7:-0.730145 8:-0.733333 
8 1:-0.764706 2:0.467337 3:0.245902 4:-0.292929 5:-0.541371 6:0.138599 7:-0.785653 8:-0.733333 
8 1:0.176471 2:0.226131 3:0.114754 4:-1 5:-1 6:-0.0700447 7:-0.846285 8:-0.333333 
8 1:-1 2:0.658291 3:0.47541 4:-0.333333 5:0.607565 6:0.558867 7:-0.701964 8:-0.933333 
8 1:0.0588235 2:0.246231 3:0.147541 4:-0.333333 5:-0.0496454 6:0.0551417 7:-0.82579 8:-0.566667 
8 1:0.0588235 2:0.0653266 3:-0.147541 4:-1 5:-1 6:-0.0700447 7:-0.742101 8:-0.3 
8 1:-0.764706 2:0.296482 3:0.377049 4:-1 5:-1 6:-0.165425 7:-0.824082 8:-0.8 
2.894903796829216 1:-0.647059 2:0.115578 3:-0.0819672 4:-0.212121 5:-1 6:-0.102832 7:-0.590948 8:-0.7 
8 1:-0.882353 2:0.939698 3:-0.180328 4:-0.676768 5:-0.113475 6:-0.228018 7:-0.507259 8:-0.9 
8 1:-0.647059 2:0.919598 3:0.114754 4:-0.69697 5:-0.692671 6:-0.0789866 7:-0.811272 8:-0.566667 
8 1:-0.647059 2:0.427136 3:0.311475 4:-0.69697 5:-1 6:-0.0342771 7:-0.895816 8:0.4 
8 1:-0.411765 2:-0.0351759 3:0.213115 4:-0.636364 5:-0.841608 6:0.00149028 7:-0.215201 8:-0.266667 
8 1:-0.764706 2:0.286432 3:0.0491803 4:-0.151515 5:-1 6:0.19225 7:-0.126388 8:-0.9 
8 1:0.529412 2:0.0653266 3:0.147541 4:-1 5:-1 6:0.0193741 7:-0.852263 8:0.0333333 
8 1:-0.764706 2:0.00502513 3:0.147541 4:0.0505051 5:-0.865248 6:0.207154 7:-0.488471 8:-0.866667 
8 1:0.176471 2:0.296482 3:0.245902 4:-0.434343 5:-0.711584 6:0.0700448 7:-0.827498 8:-0.4 
8 1:-0.176471 2:0.336683 3:0.442623 4:-0.69697 5:-0.63357 6:-0.0342771 7:-0.842869 8:-0.466667 
8 1:-0.411765 2:0.557789 3:0.377049 4:-0.111111 5:0.288416 6:0.153502 7:-0.538002 8:-0.566667 
8 1:-0.411765 2:0.0854271 3:0.180328 4:-0.131313 5:-0.822695 6:0.0760059 7:-0.842015 8:-0.6 
8 1:-1 2:0.61809 3:-0.180328 4:-1 5:-1 6:-0.347243 7:-0.849701 8:0.466667 
8 1:-0.294118 2:0.517588 3:0.0163934 4:-0.373737 5:-0.716312 6:0.0581222 7:-0.475662 8:-0.766667 
8 1:-0.0588235 2:0.125628 3:0.180328 4:-1 5:-1 6:-0.296572 7:-0.349274 8:0.233333 
8 1:-0.647059 2:0.507538 3:0.245902 4:-1 5:-1 6:-0.374069 7:-0.889838 8:-0.466667 
8 1:-0.764706 2:0.20603 3:0.245902 4:-0.252525 5:-0.751773 6:0.183309 7:-0.883006 8:-0.733333 
5.197585280464104 1:-1 2:0.0653266 3:0.147541 4:-0.252525 5:-0.650118 6:0.174367 7:-0.549957 8:-0.966667 
8 1:-0.647059 2:0.135678 3:-0.180328 4:-0.79798 5:-0.799054 6:-0.120715 7:-0.532024 8:-0.866667 
8 1:-0.647059 2:0.155779 3:0.0819672 4:-0.212121 5:-0.669031 6:0.135618 7:-0.938514 8:-0.766667 
8 1:-0.529412 2:0.296482 3:-0.0163934 4:-0.757576 5:-0.453901 6:-0.180328 7:-0.616567 8:-0.666667 
8 1:-0.882353 2:0.577889 3:0.180328 4:-0.575758 5:-0.602837 6:-0.23696 7:-0.961571 8:-0.9 
8 1:0.176471 2:0.798995 3:0.147541 4:-1 5:-1 6:0.0461997 7:-0.895816 8:-0.466667 
8 1:-0.0588235 2:0.18593 3:0.180328 4:-0.616162 5:-1 6:-0.311475 7:0.193851 8:-0.166667 
8 1:-1 2:0.658291 3:0.245902 4:-0.131313 5:-0.397163 6:0.42772 7:-0.845431 8:-0.833333 
8 1:-1 2:0.175879 3:-1 4:-1 5:-1 6:0.00745157 7:-0.270709 8:-0.233333 
8 1:-0.411765 2:0.226131 3:0.409836 4:-1 5:-1 6:0.0342773 7:-0.818958 8:-0.6 
8 1:-0.0588235 2:-0.0452261 3:0.180328 4:-1 5:-1 6:0.0968703 7:-0.652434 8:0.2 
8 1:-0.0588235 2:0.266332 3:0.442623 4:-0.272727 5:-0.744681 6:0.147541 7:-0.768574 8:-0.0666667 
8 1:-0.882353 2:0.396985 3:-0.245902 4:-0.616162 5:-0.803783 6:-0.14456 7:-0.508113 8:-0.966667 
8 1:-0.647059 2:0.165829 3:-1 4:-1 5:-1 6:-0.299553 7:-0.906917 8:-0.933333 
8 1:-0.529412 2:-0.0753769 3:0.311475 4:-1 5:-1 6:0.257824 7:-0.864219 8:-0.733333 
8 1:-0.529412 2:0.376884 3:0.377049 4:-1 5:-1 6:-0.0700447 7:-0.851409 8:-0.7 
8 1:-0.647059 2:-0.0954774 3:0.278689 4:-1 5:-1 6:0.272727 7:-0.58924 8:-1 
8 1:0.411765 2:-0.115578 3:0.213115 4:-0.191919 5:-0.87234 6:0.052161 7:-0.743809 8:-0.1 
8 1:-0.411765 2:0.58794 3:0.147541 4:-1 5:-1 6:-0.111773 7:-0.889838 8:0.4 
1.638166923208831 1:-0.411765 2:0.0351759 3:0.770492 4:-0.252525 5:-1 6:0.168405 7:-0.806149 8:0.466667 
8 1:-0.529412 2:0.477387 3:0.213115 4:-0.494949 5:-0.307329 6:0.0402385 7:-0.737831 8:-0.7 
8 1:-0.411765 2:-0.00502513 3:-0.114754 4:-0.434343 5:-0.803783 6:0.0134128 7:-0.640478 8:-0.7 
8 1:-0.764706 2:0.226131 3:-0.147541 4:-0.131313 5:-0.626478 6:0.0789866 7:-0.369769 8:-0.766667 
8 1:-1 2:-0.0653266 3:0.639344 4:-0.212121 5:-0.829787 6:0.293592 7:-0.194705 8:-0.533333 
8 1:-0.647059 2:0.00502513 3:0.114754 4:-0.535354 5:-0.808511 6:-0.0581222 7:-0.256191 8:-0.766667 
8 1:-0.764706 2:0.276382 3:-0.0491803 4:-0.515152 5:-0.349882 6:-0.174367 7:0.299744 8:-0.866667 
8 1:-0.764706 2:0.236181 3:-0.213115 4:-0.353535 5:-0.609929 6:0.254843 7:-0.622545 8:-0.833333 
8 1:-0.294118 2:0.0251256 3:0.47541 4:-0.212121 5:-1 6:0.0640835 7:-0.491033 8:-0.766667 
8 1:-0.882353 2:0.437186 3:0.377049 4:-0.535354 5:-0.267139 6:0.263785 7:-0.147737 8:-0.966667 
8 1:-0.882353 2:0.437186 3:0.213115 4:-0.555556 5:-0.855792 6:-0.219076 7:-0.847993 8:-1 
8 1:-0.882353 2:0.19598 3:0.442623 4:-0.171717 5:-0.598109 6:0.350224 7:-0.633646 8:-0.833333 
8 1:-1 2:0.356784 3:0.540984 4:-0.0707071 5:-0.65721 6:0.210134 7:-0.824082 8:-0.833333 
8 1:-0.764706 2:0.396985 3:0.229508 4:-1 5:-1 6:-0.23696 7:-0.923997 8:-0.733333 
8 1:0.411765 2:0.407035 3:0.393443 4:-0.333333 5:-1 6:0.114754 7:-0.858241 8:-0.333333 
8 1:-0.411765 2:0.477387 3:0.229508 4:-1 5:-1 6:-0.108793 7:-0.695986 8:-0.766667 
8 1:-0.294118 2:0.0753769 3:0.442623 4:-1 5:-1 6:0.0968703 7:-0.445773 8:-0.666667 
8 1:-0.529412 2:0.175879 3:0.0491803 4:-0.454545 5:-0.716312 6:-0.0104321 7:-0.870196 8:-0.9 
6.846948766705593 1:-0.764706 2:0.19598 3:-1 4:-1 5:-1 6:-0.415797 7:-0.356106 8:0.7 
8 1:-0.764706 2:0.00502513 3:-0.114754 4:-0.434343 5:-0.751773 6:0.126677 7:-0.641332 8:-0.9 
8 1:-0.882353 2:0.356784 3:-0.114754 4:-1 5:-1 6:-0.204173 7:-0.479932 8:0.366667 
8 1:0.0588235 2:0.346734 3:0.213115 4:-0.333333 5:-0.858156 6:-0.228018 7:-0.673783 8:1 
8 1:0.0588235 2:0.20603 3:0.180328 4:-0.555556 5:-0.867612 6:-0.38003 7:-0.440649 8:-0.1 
8 1:0.176471 2:0.155779 3:0.606557 4:-1 5:-1 6:-0.28465 7:-0.193851 8:-0.566667 
8 1:-0.294118 2:0.547739 3:0.278689 4:-0.171717 5:-0.669031 6:0.374069 7:-0.578992 8:-0.8 
8 1:-0.882353 2:0.447236 3:0.344262 4:-0.191919 5:-1 6:0.230999 7:-0.548249 8:-0.766667 
8 1:-1 2:0.376884 3:0.147541 4:-0.232323 5:-1 6:-0.0104321 7:-0.921435 8:-0.966667 
8 1:-1 2:0.19598 3:0.0819672 4:-0.454545 5:-1 6:0.156483 7:-0.845431 8:-0.966667 
8 1:-0.176471 2:0.366834 3:0.47541 4:-1 5:-1 6:-0.108793 7:-0.887276 8:-0.0333333 
8 1:-0.0588235 2:0.266332 3:0.213115 4:-0.232323 5:-0.822695 6:-0.228018 7:-0.928266 8:-0.4 
8 1:-0.529412 2:0.326633 3:0.409836 4:-0.373737 5:-1 6:-0.165425 7:-0.708796 8:0.4 
8 1:-0.882353 2:0.396985 3:0.0163934 4:-0.171717 5:0.134752 6:0.213115 7:-0.608881 8:-1 
8 1:-1 2:0.738693 3:0.278689 4:-0.353535 5:-0.373522 6:0.385991 7:-0.0768574 8:0.233333 
8 1:-0.0588235 2:0.949749 3:0.311475 4:-1 5:-1 6:-0.222057 7:-0.596072 8:0.533333 
8 1:-0.294118 2:0.668342 3:0.213115 4:-1 5:-1 6:-0.207153 7:-0.807003 8:0.5 
8 1:-0.294118 2:0.547739 3:0.213115 4:-0.353535 5:-0.543735 6:-0.126677 7:-0.350128 8:-0.4 
8 1:-0.176471 2:-0.0552764 3:0.0491803 4:-0.494949 5:-0.813239 6:-0.00745157 7:-0.436379 8:-0.333333 
8 1:-0.882353 2:0.306533 3:-0.0163934 4:-0.535354 5:-0.598109 6:-0.147541 7:-0.475662 8:-1 
8 1:-0.0588235 2:0.20603 3:0.278689 4:-1 5:-1 6:-0.254843 7:-0.717336 8:0.433333 
8 1:-0.294118 2:0.296482 3:0.47541 4:-0.858586 5:-0.229314 6:-0.415797 7:-0.569599 8:0.3 
8 1:-0.647059 2:0.246231 3:0.311475 4:-0.333333 5:-0.692671 6:-0.0104321 7:-0.806149 8:-0.833333 
8 1:-0.647059 2:0.256281 3:-0.0491803 4:-1 5:-1 6:-0.0581222 7:-0.93766 8:-0.9 
8 1:-0.764706 2:0.226131 3:-0.0163934 4:-0.636364 5:-0.749409 6:-0.111773 7:-0.454313 8:-0.966667 
8 1:-1 2:0.0753769 3:0.245902 4:-1 5:-1 6:0.350224 7:-0.480786 8:-0.9 
8 1:-0.294118 2:-0.0854271 3:-1 4:-1 5:-1 6:-0.111773 7:-0.63877 8:-0.666667 
8 1:-1 2:0.276382 3:0.311475 4:-0.252525 5:-0.503546 6:0.0819672 7:-0.380017 8:-0.933333 
8 1:-0.529412 2:0.316583 3:0.114754 4:-0.575758 5:-0.607565 6:-0.0134128 7:-0.929974 8:-0.766667 
8 1:-0.882353 2:0.648241 3:0.344262 4:-0.131313 5:-0.841608 6:-0.0223547 7:-0.775406 8:-0.0333333 
8 1:-0.529412 2:0.899497 3:0.803279 4:-0.373737 5:-1 6:-0.150522 7:-0.485909 8:-0.466667 
8 1:-0.176471 2:0.246231 3:0.147541 4:-0.333333 5:-0.491726 6:-0.23994 7:-0.92912 8:-0.466667 
8 1:0.294118 2:0.0351759 3:0.114754 4:-0.191919 5:-1 6:0.377049 7:-0.959009 8:-0.3 
8 1:-0.529412 2:0.547739 3:0.180328 4:-0.414141 5:-0.702128 6:-0.0670641 7:-0.777968 8:-0.466667 
8 1:-0.882353 2:0.437186 3:0.409836 4:-0.393939 5:-0.219858 6:-0.102832 7:-0.304868 8:-0.933333 
8 1:-0.882353 2:0.19598 3:-0.278689 4:-0.0505051 5:-0.851064 6:0.0581222 7:-0.827498 8:-0.866667 
8 1:-0.294118 2:0.0854271 3:-0.278689 4:-0.59596 5:-0.692671 6:-0.28465 7:-0.372331 8:-0.533333 
8 1:0.176471 2:0.336683 3:0.114754 4:-1 5:-1 6:-0.195231 7:-0.857387 8:-0.5 
8 1:0.411765 2:0.21608 3:0.278689 4:-0.656566 5:-1 6:-0.210134 7:-0.845431 8:0.366667 
8 1:-0.0588235 2:0.00502513 3:0.245902 4:-1 5:-1 6:0.153502 7:-0.904355 8:-0.3 
2.680297901896355 1:-0.764706 2:-0.175879 3:-0.147541 4:-0.555556 5:-0.728132 6:-0.150522 7:0.384287 8:-0.866667 
8 1:-0.294118 2:0.236181 3:0.180328 4:-0.0909091 5:-0.456265 6:0.00149028 7:-0.440649 8:-0.566667 
8 1:-0.882353 2:0.246231 3:-0.0163934 4:-0.353535 5:-1 6:0.0670641 7:-0.627669 8:-1 
8 1:-1 2:0.527638 3:0.344262 4:-0.212121 5:-0.356974 6:0.23696 7:-0.836038 8:-0.8 
8 1:-0.294118 2:0.0552764 3:0.311475 4:-0.434343 5:-1 6:-0.0312965 7:-0.316823 8:-0.833333 
8 1:-0.294118 2:0.839196 3:0.540984 4:-1 5:-1 6:0.216095 7:0.181042 8:-0.2 
8 1:-1 2:0.326633 3:0.278689 4:-1 5:-1 6:-0.0342771 7:-0.730999 8:-1 
8 1:-0.411765 2:0.286432 3:0.311475 4:-1 5:-1 6:0.0312965 7:-0.943638 8:-0.2 
-8 1:-0.294118 2:0.487437 3:0.180328 4:-0.292929 5:-1 6:0.00149028 7:-0.53117 8:-0.0333333 
-8 1:-0.0588235 2:0.839196 3:0.0491803 4:-1 5:-1 6:-0.305514 7:-0.492741 8:-0.633333 
-8 1:-0.647059 2:-0.21608 3:-0.180328 4:-0.353535 5:-0.791962 6:-0.0760059 7:-0.854825 8:-0.833333 
-8 1:-0.764706 2:0.979899 3:0.147541 4:-0.0909091 5:0.283688 6:-0.0909091 7:-0.931682 8:0.0666667 
-8 1:-0.0588235 2:0.256281 3:0.57377 4:-1 5:-1 6:-1 7:-0.868488 8:0.1 
-6.884497598776055 1:-0.882353 2:0.899497 3:-0.0163934 4:-0.535354 5:1 6:-0.102832 7:-0.726729 8:0.266667 
-8 1:-0.176471 2:0.00502513 3:-1 4:-1 5:-1 6:-0.105812 7:-0.653288 8:-0.633333 
-8 1:-1 2:0.18593 3:0.377049 4:-0.0505051 5:-0.456265 6:0.365127 7:-0.596072 8:-0.666667 
-8 1:-0.176471 2:0.0753769 3:0.213115 4:-1 5:-1 6:-0.117735 7:-0.849701 8:-0.666667 
-8 1:-0.882353 2:0.155779 3:0.147541 4:-0.393939 5:-0.77305 6:0.0312965 7:-0.614859 8:-0.633333 
-8 1:0.0588235 2:0.19598 3:0.311475 4:-0.292929 5:-1 6:-0.135618 7:-0.842015 8:-0.733333 
-8 1:0.176471 2:0.256281 3:0.147541 4:-0.474747 5:-0.728132 6:-0.0730253 7:-0.891546 8:-0.333333 
-8 1:-0.176471 2:0.477387 3:0.245902 4:-1 5:-1 6:0.174367 7:-0.847139 8:-0.266667 
-8 1:-0.647059 2:0.58794 3:0.245902 4:-0.272727 5:-0.420804 6:-0.0581222 7:-0.33988 8:-0.766667 
-8 1:0.0588235 2:0.0251256 3:0.245902 4:-0.252525 5:-1 6:-0.019374 7:-0.498719 8:-0.166667 
-8 1:-0.764706 2:-0.0954774 3:0.114754 4:-0.151515 5:-1 6:0.138599 7:-0.637062 8:-0.8 
-8 1:-0.529412 2:0.115578 3:0.180328 4:-0.0505051 5:-0.510638 6:0.105812 7:0.12041 8:0.166667 
-8 1:-0.176471 2:0.0351759 3:0.0819672 4:-0.353535 5:-1 6:0.165425 7:-0.772844 8:-0.666667 
-8 1:-0.0588235 2:0.336683 3:0.180328 4:-1 5:-1 6:-0.019374 7:-0.836038 8:-0.4 
-8 1:-0.176471 2:0.145729 3:0.0819672 4:-1 5:-1 6:-0.0223547 7:-0.846285 8:-0.3 
-8 1:-1 2:0.0954774 3:0.442623 4:-0.393939 5:-1 6:-0.0312965 7:-0.336465 8:-0.433333 
-8 1:-0.764706 2:0.00502513 3:0.0819672 4:-0.59596 5:-0.787234 6:-0.019374 7:-0.326217 8:-0.766667 
-8 1:0.529412 2:0.266332 3:0.47541 4:-1 5:-1 6:0.293592 7:-0.568745 8:-0.3 
-8 1:-1 2:0.316583 3:-1 4:-1 5:-1 6:0.28763 7:-0.836038 8:-0.833333 
-8 1:-0.411765 2:0.376884 3:0.770492 4:-1 5:-1 6:0.454545 7:-0.872758 8:-0.466667 
-8 1:0.764706 2:0.366834 3:0.147541 4:-0.353535 5:-0.739953 6:0.105812 7:-0.935952 8:-0.266667 
-8 1:-0.529412 2:0.346734 3:0.180328 4:-1 5:-1 6:-0.290611 7:-0.83006 8:0.3 
-8 1:-0.882353 2:0.226131 3:0.47541 4:0.030303 5:-0.479905 6:0.481371 7:-0.789069 8:-0.666667 
-1.304660695427768 1:-0.882353 2:0.638191 3:0.180328 4:-1 5:-1 6:0.162444 7:-0.0230572 8:-0.6 
-8 1:-1 2:-0.0452261 3:0.393443 4:-0.494949 5:-0.914894 6:0.114754 7:-0.855679 8:-0.9 
-8 1:-0.647059 2:0.718593 3:0.180328 4:-0.333333 5:-0.680851 6:-0.00745157 7:-0.89667 8:-0.9 
-8 1:-0.0588235 2:0.557789 3:0.0163934 4:-0.474747 5:0.170213 6:0.0134128 7:-0.602904 8:-0.166667 
-8 1:-0.176471 2:0.60804 3:-0.114754 4:-0.353535 5:-0.586288 6:-0.0909091 7:-0.564475 8:-0.4 
-8 1:-0.529412 2:0.467337 3:0.508197 4:-1 5:-1 6:-0.0700447 7:-0.606319 8:0.333333 
-8 1:-0.411765 2:0.246231 3:0.213115 4:-1 5:-1 6:0.0134128 7:-0.878736 8:-0.433333 
-8 1:-1 2:0.135678 3:0.245902 4:-1 5:-1 6:-0.00745157 7:-0.829206 8:-0.933333 
-8 1:-0.882353 2:-0.115578 3:-0.508197 4:-0.151515 5:-0.765957 6:0.639344 7:-0.64304 8:-0.833333 
-8 1:-0.882353 2:0.175879 3:0.442623 4:-0.515152 5:-0.65721 6:0.028316 7:-0.722459 8:-0.366667 
-8 1:-1 2:0.0552764 3:0.377049 4:-1 5:-1 6:-0.168405 7:-0.433817 8:0.366667 
-8 1:-0.529412 2:0.738693 3:0.147541 4:-0.717172 5:-0.602837 6:-0.114754 7:-0.758326 8:-0.6 
-8 1:0.0588235 2:0.226131 3:-0.0819672 4:-1 5:-1 6:-0.00745157 7:-0.115286 8:-0.6 
-8 1:-0.647059 2:0.708543 3:0.0491803 4:-0.252525 5:-0.468085 6:0.028316 7:-0.762596 8:-0.7 
-8 1:0.176471 2:0.0854271 3:0.0819672 4:-1 5:-1 6:-0.0342771 7:-0.83433 8:-0.3 
-5.479269546056739 1:-0.176471 2:0.527638 3:0.442623 4:-0.111111 5:-1 6:0.490313 7:-0.778822 8:-0.5 
-8 1:-1 2:0.316583 3:0.442623 4:-1 5:-1 6:-0.0581222 7:-0.432109 8:-0.633333 
-8 1:-0.294118 2:0.0452261 3:0.213115 4:-0.636364 5:-0.631206 6:-0.108793 7:-0.450043 8:-0.333333 
-8 1:-0.294118 2:0.0251256 3:0.344262 4:-1 5:-1 6:-0.0819672 7:-0.912895 8:-0.5 
-8 1:-0.294118 2:0.346734 3:0.147541 4:-0.535354 5:-0.692671 6:0.0551417 7:-0.603757 8:-0.733333 
-8 1:-1 2:0.296482 3:0.803279 4:-0.0707071 5:-0.692671 6:1 7:-0.794193 8:-0.833333 
-8 1:-0.411765 2:0.306533 3:0.344262 4:-1 5:-1 6:0.165425 7:-0.250213 8:-0.466667 
-8 1:-0.882353 2:0.286432 3:0.606557 4:-0.171717 5:-0.862884 6:-0.0461997 7:0.0614859 8:-0.6 
-8 1:-0.0588235 2:0.0954774 3:0.245902 4:-0.212121 5:-0.730496 6:-0.168405 7:-0.520068 8:-0.666667 
-8 1:-0.411765 2:0.396985 3:0.311475 4:-0.292929 5:-0.621749 6:-0.0581222 7:-0.758326 8:-0.866667 
-8 1:-0.176471 2:0.59799 3:0.0819672 4:-1 5:-1 6:-0.0938897 7:-0.739539 8:-0.5 
-8 1:-0.411765 2:0.58794 3:0.377049 4:-0.171717 5:-0.503546 6:0.174367 7:-0.729291 8:-0.733333 
-8 1:-0.647059 2:0.0753769 3:0.0163934 4:-0.737374 5:-0.886525 6:-0.317437 7:-0.487617 8:-0.933333 
-8 1:-0.529412 2:0.0954774 3:0.0491803 4:-0.111111 5:-0.765957 6:0.0372578 7:-0.293766 8:-0.833333 
-8 1:-0.529412 2:0.487437 3:-0.0163934 4:-0.454545 5:-0.248227 6:-0.0789866 7:-0.938514 8:-0.733333 
-8 1:-0.411765 2:0.628141 3:0.704918 4:-1 5:-1 6:0.123696 7:-0.93766 8:0.0333333 
-8 1:-1 2:0.407035 3:0.0655738 4:-0.474747 5:-0.692671 6:0.269747 7:-0.698548 8:-0.9 
-8 1:0.0588235 2:0.125628 3:0.344262 4:-0.353535 5:-0.586288 6:0.0193741 7:-0.844577 8:-0.5 
-8 1:-0.411765 2:0.0954774 3:0.0163934 4:-0.171717 5:-0.695035 6:0.0670641 7:-0.627669 8:-0.866667 
-8 1:-0.411765 2:-0.145729 3:0.213115 4:-0.555556 5:-1 6:-0.135618 7:-0.0213493 8:-0.633333 
-8 1:-0.411765 2:0.125628 3:0.0819672 4:-1 5:-1 6:0.126677 7:-0.843723 8:-0.333333 
-8 1:-1 2:0.778894 3:-0.0163934 4:-0.414141 5:0.130024 6:0.0312965 7:-0.151153 8:-1 
-8 1:-0.764706 2:0.58794 3:0.47541 4:-1 5:-1 6:-0.0581222 7:-0.379163 8:0.5 
-8 1:-0.647059 2:0.628141 3:-0.147541 4:-0.232323 5:-1 6:0.108793 7:-0.509821 8:-0.9 
-8 1:-0.529412 2:0.427136 3:0.409836 4:-1 5:-1 6:0.311475 7:-0.515798 8:-0.966667 
-8 1:-0.294118 2:0.346734 3:0.311475 4:-0.252525 5:-0.125296 6:0.377049 7:-0.863365 8:-0.166667 
-6.744744337984696 1:-1 2:0.798995 3:0.47541 4:-0.454545 5:-1 6:0.314456 7:-0.480786 8:-0.933333 
-8 1:0.0588235 2:0.648241 3:0.377049 4:-0.575758 5:-1 6:-0.0819672 7:-0.35696 8:-0.633333 
-8 1:-0.647059 2:0.396985 3:-0.114754 4:-1 5:-1 6:-0.23696 7:-0.723313 8:-0.966667 
-8 1:-0.294118 2:0.19598 3:-0.180328 4:-0.555556 5:-0.583924 6:-0.19225 7:0.058924 8:-0.6 
-8 1:0.411765 2:-0.0753769 3:0.0163934 4:-0.858586 5:-0.390071 6:-0.177347 7:-0.275833 8:-0.233333 
-8 1:-0.882353 2:0.135678 3:0.0491803 4:-0.292929 5:-1 6:0.00149028 7:-0.602904 8:-1 
-8 1:-0.647059 2:0.417085 3:-1 4:-1 5:-1 6:-0.105812 7:-0.416738 8:-0.8 
-8 1:-0.529412 2:0.236181 3:0.0163934 4:-1 5:-1 6:-0.0461997 7:-0.873612 8:-0.533333 
-8 1:-1 2:0.386935 3:-1 4:-1 5:-1 6:0.0819672 7:-0.269855 8:-0.866667 
-8 1:-0.764706 2:0.467337 3:-1 4:-1 5:-1 6:-0.180328 7:-0.861657 8:-0.766667 
-8 1:0.176471 2:0.0150754 3:0.409836 4:-0.252525 5:-1 6:0.359165 7:-0.0964987 8:-0.433333 
-8 1:-0.176471 2:0.0653266 3:-0.0163934 4:-0.515152 5:-1 6:-0.210134 7:-0.813834 8:-0.733333 
-8 1:-1 2:0.467337 3:0.147541 4:-1 5:-1 6:0.129657 7:-0.781383 8:-0.766667 
-8 1:-0.176471 2:0.61809 3:0.409836 4:-1 5:-1 6:-0.0938897 7:-0.925705 8:-0.133333 
-8 1:-0.764706 2:0.0854271 3:0.311475 4:-1 5:-1 6:-0.195231 7:-0.845431 8:0.0333333 
-8 1:-0.882353 2:0.19598 3:0.409836 4:-0.212121 5:-0.479905 6:0.359165 7:-0.376601 8:-0.733333 
-8 1:-1 2:0.0753769 3:0.0163934 4:-0.393939 5:-0.825059 6:0.0909091 7:-0.420154 8:-0.866667 
-8 1:-0.764706 2:0.286432 3:0.278689 4:-0.252525 5:-0.56974 6:0.290611 7:-0.0213493 8:-0.666667 
-8 1:-0.882353 2:0.286432 3:-0.213115 4:-0.0909091 5:-0.541371 6:0.207154 7:-0.543126 8:-0.9 
-8 1:-0.764706 2:0.467337 3:0.147541 4:-0.232323 5:-0.148936 6:-0.165425 7:-0.778822 8:-0.733333 
-8 1:0.647059 2:0.00502513 3:0.278689 4:-0.494949 5:-0.565012 6:0.0909091 7:-0.714774 8:-0.166667 
-8 1:-0.764706 2:0.447236 3:-0.0491803 4:-0.333333 5:-0.680851 6:-0.0581222 7:-0.706234 8:-0.866667 
-8 1:-0.411765 2:0.155779 3:0.606557 4:-1 5:-1 6:0.576751 7:-0.88813 8:-0.766667 
-8 1:0.176471 2:0.61809 3:0.114754 4:-0.535354 5:-0.687943 6:-0.23994 7:-0.788215 8:-0.133333 
-8 1:-1 2:0.286432 3:0.114754 4:-0.616162 5:-0.574468 6:-0.0909091 7:0.121264 8:-0.866667 
-8 1:-0.764706 2:0.246231 3:0.114754 4:-0.434343 5:-0.515366 6:-0.019374 7:-0.319385 8:-0.7 
-8 1:-0.764706 2:0.557789 3:0.213115 4:-0.656566 5:-0.77305 6:-0.207153 7:-0.69684 8:-0.8 
-8 1:-0.176471 2:0.0954774 3:0.311475 4:-0.373737 5:-1 6:0.0700448 7:-0.104184 8:-0.266667 
-8 1:-0.647059 2:0.829146 3:0.213115 4:-1 5:-1 6:-0.0909091 7:-0.77199 8:-0.733333 
-8 1:-0.294118 2:0.949749 3:0.278689 4:-1 5:-1 6:-0.299553 7:-0.956447 8:0.266667 
-8 1:-0.647059 2:0.125628 3:0.213115 4:-0.393939 5:-1 6:-0.0581222 7:-0.898377 8:-0.866667 
-8 1:-1 2:0.246231 3:0.147541 4:-0.59596 5:-1 6:-0.183308 7:-0.849701 8:-0.5 
-8 1:0.529412 2:0.527638 3:0.47541 4:-0.333333 5:-0.931442 6:-0.201192 7:-0.442357 8:-0.266667 
-8 1:-0.882353 2:0.226131 3:0.0491803 4:-0.353535 5:-0.631206 6:0.0461997 7:-0.475662 8:-0.7 
-8 1:-0.764706 2:0.0251256 3:0.409836 4:-0.272727 5:-0.716312 6:0.356185 7:-0.958155 8:-0.933333 
-8 1:-0.411765 2:0.155779 3:0.245902 4:-1 5:-1 6:-0.0700447 7:-0.773698 8:-0.233333 
-8 1:0.0588235 2:0.527638 3:0.278689 4:-0.313131 5:-0.595745 6:0.0193741 7:-0.304014 8:-0.6 
-8 1:-0.411765 2:-1 3:0.311475 4:-0.353535 5:-1 6:0.222057 7:-0.771136 8:-0.466667 
-8 1:0.0588235 2:0.658291 3:0.442623 4:-1 5:-1 6:-0.0938897 7:-0.808711 8:-0.0666667 
-8 1:-0.882353 2:0.256281 3:-0.180328 4:-0.191919 5:-0.605201 6:-0.00745157 7:-0.24509 8:-0.766667 
-8 1:-0.529412 2:0.467337 3:0.278689 4:-1 5:-1 6:0.147541 7:-0.622545 8:0.533333 
-8 1:-0.294118 2:0.246231 3:0.180328 4:-1 5:-1 6:-0.177347 7:-0.752348 8:-0.733333 
-8 1:-0.882353 2:0.336683 3:0.672131 4:-0.434343 5:-0.669031 6:-0.0223547 7:-0.866781 8:-0.2 
-8 1:0.411765 2:0.407035 3:0.344262 4:-0.131313 5:-0.231678 6:0.168405 7:-0.615713 8:0.233333 
-8 1:-0.529412 2:0.567839 3:0.229508 4:-1 5:-1 6:0.439642 7:-0.863365 8:-0.633333 
-8 1:-0.411765 2:0.165829 3:0.213115 4:-0.414141 5:-1 6:-0.0372578 7:-0.502989 8:-0.533333 
-8 1:-0.0588235 2:0.0552764 3:0.639344 4:-0.272727 5:-1 6:0.290611 7:-0.862511 8:-0.2 
-8 1:-0.411765 2:0.447236 3:0.344262 4:-0.474747 5:-0.326241 6:-0.0461997 7:-0.680615 8:0.233333 
-8 1:-0.529412 2:0.58794 3:0.278689 4:-1 5:-1 6:-0.019374 7:-0.380871 8:-0.666667 
-8 1:-1 2:0.316583 3:0.0819672 4:-0.191919 5:-1 6:0.0223547 7:-0.899231 8:-0.966667 
-8 1:-0.647059 2:0.939698 3:0.147541 4:-0.373737 5:-1 6:0.0402385 7:-0.860803 8:-0.866667 
-8 1:-0.529412 2:-0.0452261 3:0.0491803 4:-1 5:-1 6:-0.0461997 7:-0.92912 8:-0.666667 
-8 1:-0.411765 2:0.366834 3:0.377049 4:-0.171717 5:-0.791962 6:0.0432191 7:-0.822374 8:-0.533333 
-8 1:-0.411765 2:0.688442 3:0.0491803 4:-1 5:-1 6:-0.019374 7:-0.951324 8:-0.333333 
-8 1:-0.529412 2:0.155779 3:0.180328 4:-1 5:-1 6:-0.138599 7:-0.745517 8:-0.166667 
-8 1:-0.882353 2:0.728643 3:0.114754 4:-0.010101 5:0.368794 6:0.263785 7:-0.467122 8:-0.766667 
-8 1:-1 2:0.386935 3:-0.0163934 4:-0.292929 5:-0.605201 6:0.0312965 7:-0.610589 8:-1 
-8 1:-0.647059 2:0.738693 3:0.377049 4:-0.333333 5:0.120567 6:0.0640835 7:-0.846285 8:-0.966667 
-8 1:-0.529412 2:0.447236 3:0.344262 4:-0.353535 5:-1 6:0.147541 7:-0.59351 8:-0.466667 
-8 1:-0.647059 2:0.296482 3:0.0491803 4:-0.414141 5:-0.728132 6:-0.213115 7:-0.87959 8:-0.766667 
-8 1:-0.0588235 2:0.517588 3:0.278689 4:-0.353535 5:-0.503546 6:0.278689 7:-0.625961 8:-0.5 
-8 1:-0.529412 2:0.849246 3:0.278689 4:-0.212121 5:-0.345154 6:0.102832 7:-0.841161 8:-0.666667 
-8 1:-0.882353 2:0.819095 3:0.0491803 4:-0.393939 5:-0.574468 6:0.0163934 7:-0.786507 8:-0.433333 
-8 1:-0.882353 2:-0.0452261 3:0.344262 4:-0.494949 5:-0.574468 6:0.0432191 7:-0.867635 8:-0.266667 
-8 1:-1 2:0.417085 3:-1 4:-1 5:-1 6:0.263785 7:-0.891546 8:-0.733333 
-8 1:-1 2:0.899497 3:0.704918 4:-0.494949 5:-1 6:0.0223547 7:-0.695132 8:-0.333333 
-8 1:-0.0588235 2:0.0854271 3:0.147541 4:-1 5:-1 6:-0.0909091 7:-0.251067 8:-0.6 
-8 1:-0.529412 2:0.175879 3:0.0163934 4:-0.757576 5:-1 6:-0.114754 7:-0.742101 8:-0.7 
-8 1:-1 2:0.0452261 3:0.0491803 4:-0.252525 5:-0.8487 6:0.00149028 7:-0.631085 8:-0.966667 
-8 1:-0.764706 2:0.346734 3:0.147541 4:-1 5:-1 6:-0.138599 7:-0.603757 8:-0.933333 
-8 1:-0.0588235 2:0.20603 3:-1 4:-1 5:-1 6:-0.105812 7:-0.910333 8:-0.433333 
-8 1:-0.764706 2:0.0552764 3:0.311475 4:-0.0909091 5:-0.548463 6:0.004471 7:-0.459436 8:-0.733333 
-8 1:-0.647059 2:0.58794 3:0.147541 4:-0.393939 5:-0.224586 6:0.0581222 7:-0.772844 8:-0.533333 
-4.341642503302326 1:-1 2:0.457286 3:-1 4:-1 5:-1 6:0.317437 7:-0.528608 8:-0.666667 
-8 1:-1 2:0.356784 3:0.114754 4:-0.151515 5:-0.408983 6:0.260805 7:-0.75491 8:-0.9 
-8 1:-0.529412 2:0.256281 3:0.147541 4:-0.636364 5:-0.711584 6:-0.138599 7:-0.089667 8:-0.2 
-8 1:-0.176471 2:0.959799 3:0.147541 4:-0.333333 5:-0.65721 6:-0.251863 7:-0.927412 8:0.133333 
-8 1:-0.294118 2:-1 3:0.114754 4:-0.171717 5:-1 6:0.162444 7:-0.445773 8:-0.333333 
-8 1:-1 2:0.809045 3:0.47541 4:-0.474747 5:-0.787234 6:0.0879285 7:-0.798463 8:-0.533333 
-8 1:0.411765 2:-0.155779 3:0.180328 4:-0.373737 5:-1 6:-0.114754 7:-0.81298 8:-0.166667 
-8 1:-0.647059 2:0.638191 3:0.147541 4:-0.636364 5:-0.751773 6:-0.0581222 7:-0.837746 8:-0.766667 
-8 1:0.0588235 2:0.457286 3:0.442623 4:-0.313131 5:-0.609929 6:-0.0968703 7:-0.408198 8:0.0666667 
-8 1:0.0588235 2:0.306533 3:0.147541 4:-1 5:-1 6:0.0193741 7:-0.509821 8:-0.2 
-8 1:-0.529412 2:0.326633 3:-1 4:-1 5:-1 6:-0.019374 7:-0.808711 8:-0.933333 
-8 1:-0.647059 2:0.296482 3:0.508197 4:-0.010101 5:-0.63357 6:0.0849479 7:-0.239966 8:-0.633333 
-8 1:-0.0588235 2:0.00502513 3:0.213115 4:-0.191919 5:-0.491726 6:0.174367 7:-0.502135 8:-0.266667 
-8 1:-0.647059 2:0.286432 3:0.180328 4:-0.494949 5:-0.550827 6:-0.0342771 7:-0.59778 8:-0.8 
-8 1:0.176471 2:-0.0954774 3:0.393443 4:-0.353535 5:-1 6:0.0402385 7:-0.362084 8:0.166667 
-8 1:-0.294118 2:0.256281 3:0.245902 4:-1 5:-1 6:0.00745157 7:-0.963279 8:0.1 
-8 1:-1 2:0.21608 3:0.0819672 4:-0.393939 5:-0.609929 6:0.0223547 7:-0.893254 8:-0.6 
-8 1:-0.764706 2:0.18593 3:0.311475 4:-1 5:-1 6:0.278689 7:-0.474808 8:-1 
-3.489748747481847 1:-0.764706 2:0.979899 3:0.147541 4:1 5:-1 6:0.0342773 7:-0.575576 8:0.366667 
-8 1:-1 2:0.517588 3:0.47541 4:-0.0707071 5:-1 6:0.254843 7:-0.749787 8:-1 
-8 1:-0.0588235 2:0.246231 3:0.245902 4:-0.515152 5:0.41844 6:-0.14456 7:-0.479932 8:0.0333333 
-8 1:-0.0588235 2:0.437186 3:0.0819672 4:-1 5:-1 6:0.0402385 7:-0.956447 8:-0.333333 
-8 1:0.294118 2:0.115578 3:0.377049 4:-0.191919 5:-1 6:0.394933 7:-0.276687 8:-0.2 
-8 1:-0.647059 2:0.326633 3:0.311475 4:-1 5:-1 6:0.0253354 7:-0.723313 8:-0.233333 
-8 1:-1 2:0.889447 3:0.344262 4:-0.717172 5:-0.562648 6:-0.0461997 7:-0.484202 8:-0.966667 
-8 1:-0.882353 2:0.738693 3:0.213115 4:-1 5:-1 6:0.0968703 7:-0.99146 8:-0.433333 
-8 1:-0.176471 2:0.507538 3:0.278689 4:-0.414141 5:-0.702128 6:0.0491804 7:-0.475662 8:0.1 
-8 1:-0.647059 2:0.748744 3:-0.0491803 4:-0.555556 5:-0.541371 6:-0.019374 7:-0.560205 8:-0.5 
-8 1:0.294118 2:0.386935 3:0.213115 4:-0.474747 5:-0.659574 6:0.0760059 7:-0.590948 8:-0.0333333 
-8 1:0.0588235 2:0.125628 3:0.344262 4:-0.515152 5:-1 6:-0.159463 7:0.028181 8:-0.0333333 
-8 1:-1 2:0.19598 3:-1 4:-1 5:-1 6:-0.0342771 7:-0.9462 8:-0.9 
-8 1:-0.176471 2:0.145729 3:0.0491803 4:-1 5:-1 6:-0.183308 7:-0.441503 8:-0.566667 
