svm_type c_svc
kernel_type rbf
gamma 2
nr_class 11
total_sv 1665
rho -0.19791 -0.255484 -0.133677 -0.366827 -1.64528 -0.436288 -0.413789 -0.254796 -0.257417 0.594376 0.0267658 0.0403361 -0.0322467 -0.00279749 -0.0681794 -0.0852857 -0.115946 0.0725938 -0.0501313 0.0879374 -0.439006 0.218584 -1.0197 -0.321916 0.339992 -0.164871 -0.345877 -0.0657989 -0.0212752 -0.13063 -0.0868495 -0.0730973 -0.103055 -0.0298718 -0.00307721 -1.02977 -1.37479 0.28311 0.624649 1.26278 -0.213017 -0.180127 0.0583122 0.0800614 1.11002 0.304633 -0.225538 0.113735 -0.298244 -0.210445 0.491325 2.64642 -1.70184 -0.539196 -0.40288
label 2 7 4 11 6 10 3 1 8 5 9
nr_sv 176 67 125 37 234 159 155 123 166 222 201
SV
0 0 0.2831713403069099 0 0 0 0 0 0 0 1:0.703129 2:0.542885 3:0.715294 4:0.898704 5:0.917625 6:0.789236 7:0.494376 8:0.484713 9:0.472221 10:0.315446 11:0.31529 12:0.315077 13:0.0106227 14:0.0205271 15:0.0337965 16:0.0141126 17:0.0169152 18:0.0327976 19:0.365502 20:0.365462 21:0.365341 22:0.366489 23:0.366472 24:0.366351 25:0.35825 26:0.487495 27:0.451869 28:0.393233 29:0.556185 30:0.544101 31:0.375558 32:0.383405 33:0.387032 34:0.605506 35:0.61068 36:0.61646 37:3.99595e-05 38:0.00542643 39:0.0139192 40:6.22055e-05 41:0.0033366 42:0.03603 43:0.248895 44:0.248217 45:0.227273 46:0.117264 47:0.125806 48:0.117264 
0 0 0 0.942448815581263 0 0 0 0.01194232080927799 0 4.663053203204895 1:0.703707 2:0.548491 3:0.743217 4:0.897867 5:0.914918 6:0.761894 7:0.584106 8:0.575901 9:0.563095 10:0.337474 11:0.337364 12:0.337746 13:0.0103767 14:0.020383 15:0.0352264 16:0.0129573 17:0.0157398 18:0.0312255 19:0.312696 20:0.312653 21:0.312431 22:0.313262 23:0.313302 24:0.313208 25:0.357756 26:0.508969 27:0.579367 28:0.39371 29:0.548902 30:0.521593 31:0.439767 32:0.445587 33:0.443634 34:0.618542 35:0.623851 36:0.629893 37:4.537e-05 38:0.0114465 39:0.048729 40:4.92415e-05 41:0.00285553 42:0.0139773 43:0.40648 44:0.403709 45:0.3739 46:0.112921 47:0.121505 48:0.112921 
0 0 0 0 32 0 0 0 0 0 1:0.703344 2:0.542658 3:0.722145 4:0.897066 5:0.909252 6:0.788042 7:0.553979 8:0.545477 9:0.533884 10:0.345328 11:0.345308 12:0.345116 13:0.0039962 14:0.0111363 15:0.0142813 16:0.00480553 17:0.0110131 18:0.0237753 19:0.553997 20:0.553968 21:0.554231 22:0.553671 23:0.553742 24:0.553941 25:0.358472 26:0.487677 27:0.417752 28:0.394949 29:0.475853 30:0.572691 31:0.35898 32:0.366706 33:0.370394 34:0.630607 35:0.63617 36:0.642256 37:2.33448e-05 38:0.0152528 39:0.0198915 40:4.14277e-05 41:0.0606864 42:0.0885978 43:0.407953 44:0.405136 45:0.381232 46:0.121607 47:0.130108 48:0.120521 
0 0 0 0 0 0 0 0 0 15.43303742665614 1:0.703221 2:0.548144 3:0.717639 4:0.897598 5:0.910326 6:0.759461 7:0.581532 8:0.573292 9:0.56283 10:0.337376 11:0.33734 12:0.337774 13:0.0104518 14:0.0200831 15:0.0215301 16:0.0131508 17:0.0152257 18:0.0346998 19:0.31162 20:0.311576 21:0.311418 22:0.312818 23:0.312857 24:0.312763 25:0.357919 26:0.509042 27:0.458863 28:0.394113 29:0.543896 30:0.505129 31:0.458287 32:0.46404 33:0.466988 34:0.610593 35:0.615889 36:0.62216 37:3.95437e-05 38:0.00681782 39:0.00916484 40:4.32442e-05 41:0.00169131 42:0.0325896 43:0.409426 44:0.405136 45:0.379765 46:0.116721 47:0.124731 48:0.117264 
0 0 0 0 32 0 0 0 0 0 1:0.703784 2:0.544388 3:0.730927 4:0.898584 5:0.913154 6:0.759439 7:0.483018 8:0.473068 9:0.458806 10:0.336314 11:0.336232 12:0.336666 13:0.0107721 14:0.0207666 15:0.0267157 16:0.0136923 17:0.0173116 18:0.0526792 19:0.370251 20:0.370275 21:0.370157 22:0.369474 23:0.369521 24:0.369402 25:0.358398 26:0.497593 27:0.476108 28:0.393546 29:0.533102 30:0.50459 31:0.301891 32:0.310304 33:0.317749 34:0.617818 35:0.623135 36:0.629452 37:5.50132e-05 38:0.00333176 39:0.00825663 40:6.15328e-05 41:0.00251663 42:0.0468067 43:0.375552 44:0.373752 45:0.35044 46:0.102606 47:0.11129 48:0.102606 
0 0 0 0 0 0.6471061311325149 0 0 0 0 1:0.703255 2:0.544509 3:0.725146 4:0.897919 5:0.910609 6:0.780669 7:0.563515 8:0.555103 9:0.543469 10:0.347869 11:0.347829 12:0.347798 13:0.000518558 14:0.00228899 15:0.00436057 16:0.000618743 17:0.00145335 18:0.00211569 19:0.665371 20:0.665413 21:0.665879 22:0.665333 23:0.665417 24:0.665885 25:0.358455 26:0.493332 27:0.58329 28:0.394312 29:0.534874 30:0.547538 31:0.346906 32:0.354531 33:0.35795 34:0.631469 35:0.63698 36:0.643279 37:0.000105126 38:0.0210774 39:0.0883426 40:0.000123232 41:0.00701644 42:0.0519471 43:0.412371 44:0.409415 45:0.38563 46:0.121607 47:0.130108 48:0.121064 
0 0 0 0.6380800162547499 0 0 0.1053103570469981 0 0 0 1:0.704415 2:0.549776 3:0.699427 4:0.897582 5:0.911553 6:0.783601 7:0.570227 8:0.561691 9:0.552645 10:0.335575 11:0.335517 12:0.335423 13:0.0105446 14:0.0206829 15:0.0587512 16:0.0133878 17:0.0159303 18:0.0357053 19:0.309151 20:0.30917 21:0.308693 22:0.312055 23:0.312095 24:0.312127 25:0.357497 26:0.494488 27:0.365596 28:0.393744 29:0.5293 30:0.550757 31:0.379327 32:0.38607 33:0.387891 34:0.635759 35:0.641349 36:0.647805 37:4.72971e-05 38:0.00813322 39:0.0370979 40:6.68028e-05 41:0.00177046 42:0.0188795 43:0.251841 44:0.253923 45:0.240469 46:0.129207 47:0.137634 48:0.130293 
0 0 0 0 21.0713094648072 0 0 0 0 0 1:0.703355 2:0.544455 3:0.723106 4:0.897793 5:0.910364 6:0.778794 7:0.574117 8:0.565914 9:0.554745 10:0.346257 11:0.34622 12:0.346231 13:0.000273894 14:0.000989007 15:0.00266655 16:0.000344085 17:0.0013403 18:0.00335615 19:0.174666 20:0.174677 21:0.174804 22:0.175813 23:0.175835 24:0.175964 25:0.358449 26:0.49401 27:0.564498 28:0.394248 29:0.542793 30:0.52541 31:0.351846 32:0.359452 33:0.362971 34:0.636164 35:0.641723 36:0.648077 37:8.35692e-05 38:0.00817026 39:0.0874892 40:9.89595e-05 41:0.00817643 42:0.0192597 43:0.416789 44:0.415121 45:0.388563 46:0.123779 47:0.132258 48:0.123236 
0.4047162075032499 0.1622175010590069 0.2790839977188383 0.7674112078436639 0 0.5334898579843733 0.1592097957673392 0.2484021715467215 0.3576971145692474 0.4823125746214814 1:0.703138 2:0.543387 3:0.728226 4:0.897705 5:0.906688 6:0.771742 7:0.556338 8:0.547847 9:0.535739 10:0.333266 11:0.333288 12:0.333454 13:0.000487413 14:0.0101582 15:0.0207983 16:0.000616243 17:0.00761532 18:0.0193876 19:0.65505 20:0.655155 21:0.655741 22:0.655234 23:0.655317 24:0.655777 25:0.358578 26:0.256681 27:0.48784 28:0.394437 29:0.21171 30:0.460252 31:0.344398 32:0.352136 33:0.356472 34:0.631529 35:0.637146 36:0.643558 37:0.000109897 38:0.309327 39:0.0447752 40:0.000122965 41:0.133973 42:0.129009 43:0.400589 44:0.398003 45:0.372434 46:0.117807 47:0.126344 48:0.117807 
0 0 0 0.5794938808865342 0 0 0 0 0 0 1:0.70265 2:0.548221 3:0.662344 4:0.898551 5:0.913898 6:0.781371 7:0.554754 8:0.545999 9:0.540044 10:0.310815 11:0.310719 12:0.310678 13:0.0135847 14:0.0269666 15:0.107446 16:0.0166444 17:0.0198141 18:0.0538318 19:0.664991 20:0.66497 21:0.664041 22:0.664063 23:0.664083 24:0.664105 25:0.358574 26:0.503062 27:0.371166 28:0.393234 29:0.537624 30:0.551737 31:0.245504 32:0.254106 33:0.261992 34:0.613766 35:0.619151 36:0.624701 37:6.63917e-05 38:0.0120753 39:0.0372112 40:7.55208e-05 41:0.00211945 42:0.0442195 43:0.385862 44:0.383738 45:0.370968 46:0.117807 47:0.126882 48:0.119435 
0 6.954496589794933 0 0 32 0 0 0 0 0 1:0.704228 2:0.551225 3:0.705736 4:0.897649 5:0.912812 6:0.782582 7:0.575313 8:0.566802 9:0.557295 10:0.347994 11:0.347918 12:0.347845 13:0.0106131 14:0.0198358 15:0.0310275 16:0.0132008 17:0.0177576 18:0.0362784 19:0.309151 20:0.30917 21:0.3092 22:0.311039 23:0.311015 24:0.310792 25:0.358005 26:0.518198 27:0.419181 28:0.393814 29:0.528995 30:0.544526 31:0.435519 32:0.441484 33:0.443395 34:0.635235 35:0.640793 36:0.646908 37:4.34553e-05 38:0.00969579 39:0.0203745 40:5.68401e-05 41:0.00446907 42:0.0227544 43:0.384389 44:0.383738 45:0.36217 46:0.100977 47:0.109677 48:0.102063 
0 0 0 0 32 0 0 0 0 0 1:0.704037 2:0.547872 3:0.702689 4:0.897992 5:0.913912 6:0.817883 7:0.516422 8:0.506944 9:0.496202 10:0.346877 11:0.346784 12:0.345939 13:0.0163096 14:0.0288827 15:0.0566773 16:0.0200908 17:0.0242121 18:0.0651285 19:0.935923 20:0.935919 21:0.935875 22:0.941311 23:0.941367 24:0.941517 25:0.358082 26:0.499447 27:0.3942 28:0.393445 29:0.541732 30:0.550847 31:0.354583 32:0.362121 33:0.365827 34:0.651589 35:0.657233 36:0.663338 37:9.81074e-05 38:0.00524152 39:0.0192201 40:0.000102418 41:0.00220165 42:0.0355307 43:0.254786 44:0.256776 45:0.225806 46:0.127036 47:0.135484 48:0.126493 
0 0 0.1307607653776256 0 0 0 0 0 0 0 1:0.703305 2:0.561036 3:0.761681 4:0.900341 5:0.896994 6:0.803758 7:0.514858 8:0.504711 9:0.488362 10:0.315582 11:0.315757 12:0.315228 13:0.0161859 14:0.0392869 15:0.0686908 16:0.0211748 17:0.0344545 18:0.0436377 19:0.955995 20:0.955865 21:0.956278 22:0.952744 23:0.952674 24:0.952959 25:0.35855 26:0.577344 27:0.530044 28:0.394298 29:0.460707 30:0.547083 31:0.282718 32:0.290217 33:0.294099 34:0.639945 35:0.645884 36:0.651259 37:9.28513e-05 38:0.0404167 39:0.0278448 40:0.000106476 41:0.0191974 42:0.0129454 43:0.399116 44:0.39515 45:0.368035 46:0.119435 47:0.127419 48:0.117807 
0 0 0 0 32 0 0 0 0 0 1:0.703304 2:0.543669 3:0.721602 4:0.898176 5:0.913516 6:0.781196 7:0.549769 8:0.541137 9:0.529484 10:0.346161 11:0.346075 12:0.346032 13:0.00371421 14:0.0125253 15:0.0172627 16:0.00466297 17:0.00884536 18:0.0202575 19:0.551274 20:0.551309 21:0.551759 22:0.552528 23:0.552535 24:0.552733 25:0.358456 26:0.506121 27:0.586483 28:0.394138 29:0.552143 30:0.547478 31:0.346127 32:0.353796 33:0.357913 34:0.630621 35:0.63603 36:0.642033 37:3.43947e-05 38:0.0614809 39:0.108791 40:3.81649e-05 41:0.00611114 42:0.0325712 43:0.381443 44:0.379458 45:0.357771 46:0.126493 47:0.134409 48:0.125407 
0 0 0 0 19.81538595726085 0 0 0 0 0 1:0.702644 2:0.54478 3:0.719517 4:0.897545 5:0.911925 6:0.77992 7:0.564993 8:0.5566 9:0.545535 10:0.35153 11:0.351469 12:0.351455 13:0.00393803 14:0.0151739 15:0.021003 16:0.00490088 17:0.0119816 18:0.0214152 19:0.552983 20:0.553019 21:0.553153 22:0.553989 23:0.553996 24:0.554259 25:0.358595 26:0.470409 27:0.460378 28:0.394333 29:0.553788 30:0.535794 31:0.352247 32:0.359864 33:0.363447 34:0.630296 35:0.635806 36:0.642 37:2.03296e-05 38:0.0833818 39:0.0207495 40:4.2882e-05 41:0.0178634 42:0.0248332 43:0.412371 44:0.409415 45:0.38563 46:0.118893 47:0.126882 48:0.11835 
0 0 0 0 9.939587580289299 0 0 0 0 0 1:0.704117 2:0.545667 3:0.704933 4:0.898769 5:0.921085 6:0.855286 7:0.527144 8:0.517979 9:0.507308 10:0.342078 11:0.341869 12:0.340208 13:0.0164959 14:0.0309819 15:0.0662761 16:0.0206453 17:0.0290391 18:0.107153 19:0.943395 20:0.943391 21:0.943479 22:0.950775 23:0.950769 24:0.950671 25:0.35822 26:0.493296 27:0.418293 28:0.393025 29:0.565149 30:0.583108 31:0.320759 32:0.328907 33:0.332566 34:0.661116 35:0.666812 36:0.673863 37:9.34688e-05 38:0.010604 39:0.0325086 40:0.000101029 41:0.0115672 42:0.0542699 43:0.325479 44:0.32525 45:0.304985 46:0.150923 47:0.15914 48:0.148208 
0 0 0.3943224523735942 0 0 0 0 0 0 0 1:0.704051 2:0.542917 3:0.69763 4:0.898184 5:0.907563 6:0.788142 7:0.519039 8:0.50985 9:0.499657 10:0.323126 11:0.323132 12:0.322942 13:0.0162279 14:0.0313032 15:0.0523761 16:0.0207712 17:0.0312257 18:0.0711229 19:0.954539 20:0.954536 21:0.954631 22:0.95357 23:0.953691 24:0.953659 25:0.357947 26:0.497761 27:0.396618 28:0.393246 29:0.392468 30:0.577456 31:0.305142 32:0.313445 33:0.318531 34:0.63982 35:0.645603 36:0.651913 37:9.1208e-05 38:0.00665432 39:0.0269181 40:0.000103246 41:0.04119 42:0.0464207 43:0.405007 44:0.402282 45:0.382698 46:0.116178 47:0.125269 48:0.115092 
0 0 0 0 3.786062962697329 0 0 0 0 0 1:0.702899 2:0.54544 3:0.7073 4:0.898858 5:0.917898 6:0.786723 7:0.492462 8:0.48264 9:0.470846 10:0.330353 11:0.330193 12:0.330032 13:0.0112139 14:0.0210334 15:0.0334142 16:0.0136868 17:0.0157321 18:0.0268327 19:0.371961 20:0.371984 21:0.371741 22:0.372523 23:0.37257 24:0.37258 25:0.358355 26:0.499408 27:0.377358 28:0.393722 29:0.539676 30:0.552055 31:0.320888 32:0.328939 33:0.331297 34:0.628619 35:0.633939 36:0.640025 37:4.94459e-05 38:0.0105769 39:0.0305294 40:5.77634e-05 41:0.00211361 42:0.0166888 43:0.366716 44:0.365193 45:0.346041 46:0.122693 47:0.131183 48:0.122693 
0 0 0 0 32 0 0 0 0 0 1:0.703253 2:0.544909 3:0.721737 4:0.897852 5:0.910213 6:0.779382 7:0.566366 8:0.55799 9:0.546755 10:0.34617 11:0.346136 12:0.346133 13:0.000231705 14:0.00134711 15:0.00113318 16:0.000308908 17:0.000943862 18:0.00191921 19:0.176375 20:0.176323 21:0.176451 22:0.176321 23:0.176344 24:0.176472 25:0.358534 26:0.50284 27:0.444141 28:0.39444 29:0.532659 30:0.515046 31:0.333957 32:0.341714 33:0.345318 34:0.640001 35:0.645607 36:0.652044 37:7.74317e-05 38:0.0235424 39:0.0149977 40:7.52212e-05 41:0.00586679 42:0.0580205 43:0.447717 44:0.443652 45:0.419355 46:0.124864 47:0.133333 48:0.124321 
0 0 0 0 18.46432635298906 0 0 0 0 0 1:0.702876 2:0.541002 3:0.722895 4:0.897241 5:0.914632 6:0.783832 7:0.53156 8:0.522704 9:0.510463 10:0.341257 11:0.341151 12:0.341053 13:0.0138431 14:0.0267563 15:0.0558972 16:0.0167509 17:0.0208548 18:0.0390581 19:0.656127 20:0.656041 21:0.656121 22:0.661839 23:0.66186 24:0.662071 25:0.357841 26:0.495796 27:0.417449 28:0.393896 29:0.529066 30:0.561356 31:0.318594 32:0.326889 33:0.329983 34:0.637143 35:0.642705 36:0.649089 37:6.66905e-05 38:0.0102802 39:0.0226286 40:8.24114e-05 41:0.00139172 42:0.045748 43:0.251841 44:0.252496 45:0.231672 46:0.135722 47:0.144086 48:0.134636 
0.5723806378745674 2.194055770028583 0 4.392091077521818 0 6.885883281657152 2.568889194594638 2.45386079561283 3.28073053218191 8.769346553398693 1:0.703232 2:0.54973 3:0.712808 4:0.897301 5:0.914336 6:0.772746 7:0.599909 8:0.591944 9:0.582411 10:0.337451 11:0.33735 12:0.337494 13:0.00397411 14:0.0180074 15:0.0179077 16:0.00493976 17:0.010279 18:0.0179549 19:0.559062 20:0.559034 21:0.55911 22:0.557863 23:0.557871 24:0.558009 25:0.358486 26:0.568594 27:0.354604 28:0.39462 29:0.567422 30:0.479225 31:0.347926 32:0.354854 33:0.360285 34:0.633153 35:0.638628 36:0.645267 37:2.1831e-05 38:0.0789621 39:0.0487894 40:2.61105e-05 41:0.0134682 42:0.0387101 43:0.375552 44:0.372325 45:0.343109 46:0.134093 47:0.142473 48:0.133008 
0 0 0 0 29.48803961632922 0 0 0 0 0 1:0.703184 2:0.545091 3:0.728037 4:0.898331 5:0.910186 6:0.781836 7:0.552224 8:0.543566 9:0.531369 10:0.338497 11:0.338462 12:0.338406 13:0.004047 14:0.00989377 15:0.0137136 16:0.00475554 17:0.0106386 18:0.0246593 19:0.55444 20:0.554475 21:0.554737 22:0.554243 23:0.55425 24:0.554386 25:0.358742 26:0.484744 27:0.526161 28:0.394036 29:0.514122 30:0.593129 31:0.353398 32:0.360949 33:0.363134 34:0.631363 35:0.636939 36:0.643079 37:2.34967e-05 38:0.0103003 39:0.0315176 40:4.38761e-05 41:0.0173839 42:0.0690008 43:0.388807 44:0.386591 45:0.359238 46:0.12215 47:0.130645 48:0.121064 
0 0 0.2345107693548022 0 0 0 0 0 0 0 1:0.703573 2:0.547305 3:0.728687 4:0.898397 5:0.911282 6:0.80871 7:0.502256 8:0.492534 9:0.478977 10:0.321351 11:0.321297 12:0.320658 13:0.0108251 14:0.0250291 15:0.0351192 16:0.0137923 17:0.0151374 18:0.0394253 19:0.364489 20:0.364449 21:0.364327 22:0.36795 23:0.367996 24:0.367813 25:0.358145 26:0.516878 27:0.486495 28:0.393779 29:0.530641 30:0.611699 31:0.44831 32:0.454622 33:0.456209 34:0.593478 35:0.598606 36:0.60395 37:5.0143e-05 38:0.0134759 39:0.0157375 40:4.4862e-05 41:0.0017371 42:0.0495968 43:0.300442 44:0.298146 45:0.272727 46:0.15798 47:0.166129 48:0.157438 
0 0 0 0 25.19048465730437 0 0 0 0 0 1:0.703636 2:0.545125 3:0.720992 4:0.898441 5:0.89557 6:0.767539 7:0.608631 8:0.601058 9:0.590982 10:0.317709 11:0.317907 12:0.318169 13:0.0160424 14:0.0285673 15:0.0256546 16:0.0200566 17:0.0413023 18:0.101271 19:0.942698 20:0.942695 21:0.943035 22:0.941502 23:0.941367 24:0.941326 25:0.358052 26:0.486452 27:0.445777 28:0.39446 29:0.453856 30:0.450695 31:0.445594 32:0.452164 33:0.455233 34:0.617132 35:0.622863 36:0.629765 37:9.05532e-05 38:0.00554011 39:0.0114567 40:9.60345e-05 41:0.0272051 42:0.0794307 43:0.33137 44:0.332382 45:0.306452 46:0.150923 47:0.158065 48:0.153637 
0 0 0 0 31.37224285578478 0 0 0 0 0 1:0.702072 2:0.541924 3:0.704263 4:0.898841 5:0.907426 6:0.792516 7:0.517661 8:0.508495 9:0.497647 10:0.329689 11:0.329697 12:0.32941 13:0.0140603 14:0.0263494 15:0.0359331 16:0.0165287 17:0.0215609 18:0.0691312 19:0.664611 20:0.66459 21:0.664485 22:0.661649 23:0.661669 24:0.661562 25:0.357074 26:0.489043 27:0.416053 28:0.393357 29:0.531292 30:0.513065 31:0.277045 32:0.285758 33:0.289126 34:0.631886 35:0.637403 36:0.644828 37:9.78759e-05 38:0.0106906 39:0.0109533 40:7.40311e-05 41:0.0029347 42:0.0304309 43:0.416789 44:0.413695 45:0.392962 46:0.105863 47:0.113978 48:0.10532 
0 0 0 0 32 0 0 0 0 0 1:0.703418 2:0.552876 3:0.71525 4:0.897421 5:0.9126 6:0.78443 7:0.61641 8:0.608612 9:0.599272 10:0.32665 11:0.326574 12:0.326464 13:0.0161432 14:0.0336204 15:0.0453899 16:0.0202315 17:0.0236314 18:0.0605758 19:0.939722 20:0.939719 21:0.940184 22:0.943725 23:0.943844 24:0.943996 25:0.358155 26:0.518105 27:0.418887 28:0.393302 29:0.53655 30:0.545406 31:0.440559 32:0.446495 33:0.448944 34:0.608058 35:0.61334 36:0.619312 37:9.86477e-05 38:0.0113267 39:0.0195611 40:0.000101841 41:0.00333323 42:0.0425072 43:0.354934 44:0.352354 45:0.332845 46:0.158523 47:0.166667 48:0.15798 
0 0 0 0 32 0 0 0 0 0 1:0.703662 2:0.542785 3:0.725845 4:0.898361 5:0.914965 6:0.795673 7:0.526292 8:0.517248 9:0.504593 10:0.342549 11:0.342438 12:0.342079 13:0.0138269 14:0.0269997 15:0.0312119 16:0.0166981 17:0.0216059 18:0.0418762 19:0.658912 20:0.658828 21:0.658782 22:0.665396 23:0.665481 24:0.665503 25:0.357932 26:0.49859 27:0.460169 28:0.393774 29:0.538057 30:0.543422 31:0.331351 32:0.339614 33:0.343739 34:0.637976 35:0.643483 36:0.649617 37:6.67154e-05 38:0.0151024 39:0.00874717 40:8.31576e-05 41:0.00567274 42:0.0327257 43:0.273932 44:0.273894 45:0.243402 46:0.12215 47:0.130645 48:0.121607 
0 0 0.220258548717748 0 32 0 0 0 0 0 1:0.703076 2:0.545151 3:0.720853 4:0.897774 5:0.910553 6:0.779312 7:0.522948 8:0.513727 9:0.501448 10:0.315838 11:0.315796 12:0.3158 13:0.00029797 14:0.00150483 15:0.00276049 16:0.000307335 17:0.000713743 18:0.00292505 19:0.173146 20:0.173157 21:0.173283 22:0.173844 23:0.173866 24:0.173993 25:0.358755 26:0.511032 27:0.43316 28:0.394648 29:0.539185 30:0.557069 31:0.315601 32:0.323624 33:0.327585 34:0.631916 35:0.637441 36:0.64372 37:7.11399e-05 38:0.03532 39:0.0340625 40:8.74526e-05 41:0.00256245 42:0.043293 43:0.455081 44:0.450785 45:0.426686 46:0.119978 47:0.128495 48:0.119978 
0 0 0.3074907749767044 0 0 0 0 0 0 0 1:0.703445 2:0.548837 3:0.726164 4:0.897811 5:0.912159 6:0.780592 7:0.592264 8:0.584196 9:0.573206 10:0.302973 11:0.302903 12:0.302881 13:0.0159496 14:0.0303256 15:0.0530964 16:0.0206638 17:0.0236887 18:0.0746497 19:0.949853 20:0.94985 21:0.950069 22:0.95484 23:0.954961 24:0.954866 25:0.358251 26:0.494975 27:0.415252 28:0.393695 29:0.537833 30:0.508704 31:0.415755 32:0.422357 33:0.421994 34:0.617529 35:0.622921 36:0.629277 37:9.70866e-05 38:0.00562921 39:0.0184731 40:9.67371e-05 41:0.00309348 42:0.0215989 43:0.26215 44:0.263909 45:0.234604 46:0.126493 47:0.134946 48:0.125407 
0 0 0 0 32 0 0 0 0.3143061483438816 6.990417394193651 1:0.70404 2:0.540794 3:0.725732 4:0.898365 5:0.908468 6:0.80261 7:0.530101 8:0.521227 9:0.508678 10:0.352901 11:0.352896 12:0.352384 13:0.0164952 14:0.0333711 15:0.0500976 16:0.0201288 17:0.0248672 18:0.0536041 19:0.935923 20:0.935983 21:0.936192 22:0.941374 23:0.941367 24:0.941581 25:0.357861 26:0.489465 27:0.468166 28:0.393863 29:0.517066 30:0.543062 31:0.310129 32:0.318606 33:0.322738 34:0.64203 35:0.647824 36:0.654066 37:9.27468e-05 38:0.0108662 39:0.0132527 40:0.000102378 41:0.00283948 42:0.0633474 43:0.276878 44:0.278174 45:0.252199 46:0.124864 47:0.133333 48:0.124321 
0.2982042005361677 0 0 0 32 0 0 0 0 2.267715981180672 1:0.703241 2:0.542764 3:0.709834 4:0.89778 5:0.90943 6:0.783189 7:0.566811 8:0.558551 9:0.548445 10:0.345324 11:0.345303 12:0.345216 13:0.000294068 14:0.0053818 15:0.0154486 16:0.000322516 17:0.00317011 18:0.0141493 19:0.178275 20:0.178286 21:0.178225 22:0.178989 23:0.179012 24:0.179078 25:0.358627 26:0.430317 27:0.313359 28:0.394334 29:0.509891 30:0.552705 31:0.332979 32:0.341027 33:0.347651 34:0.637129 35:0.642733 36:0.649102 37:7.59528e-05 38:0.0481897 39:0.0502886 40:9.64321e-05 41:0.0113298 42:0.0238596 43:0.421208 44:0.417974 45:0.390029 46:0.128664 47:0.137097 48:0.127579 
0 0 0 0 32 0 0 0 0 0 1:0.703156 2:0.542944 3:0.72787 4:0.897715 5:0.911433 6:0.789279 7:0.525752 8:0.516692 9:0.503828 10:0.318165 11:0.318109 12:0.317894 13:0.00490476 14:0.0186052 15:0.0166458 16:0.0064931 17:0.0091303 18:0.0151432 19:0.840822 20:0.840812 21:0.841335 22:0.8414 23:0.841507 24:0.841969 25:0.358558 26:0.478536 27:0.529776 28:0.394189 29:0.55346 30:0.577693 31:0.325704 32:0.33393 33:0.337011 34:0.627782 35:0.633233 36:0.639362 37:2.50553e-05 38:0.106474 39:0.0662511 40:1.52354e-05 41:0.00809681 42:0.0474525 43:0.368189 44:0.366619 45:0.343109 46:0.130836 47:0.139247 48:0.130293 
0 0 0 0 26.5752071290511 0 0 0 0 0 1:0.703555 2:0.545386 3:0.727615 4:0.897858 5:0.913173 6:0.781625 7:0.533177 8:0.524138 9:0.511488 10:0.31306 11:0.312974 12:0.312928 13:0.00537966 14:0.0169442 15:0.0216663 16:0.0062052 17:0.0158761 18:0.0177464 19:0.842468 20:0.842458 21:0.842983 22:0.841082 23:0.841189 24:0.841588 25:0.358246 26:0.510449 27:0.484796 28:0.394244 29:0.553117 30:0.519001 31:0.352193 32:0.359603 33:0.362832 34:0.631767 35:0.637246 36:0.643641 37:7.80567e-06 38:0.0510383 39:0.018944 40:1.62105e-05 41:0.0444297 42:0.02599 43:0.407953 44:0.405136 45:0.382698 46:0.115092 47:0.123656 48:0.115635 
0 0 0 0 32 0 0 0 0 0 1:0.703488 2:0.547036 3:0.720171 4:0.897776 5:0.910277 6:0.778211 7:0.522302 8:0.512976 9:0.500748 10:0.320447 11:0.320409 12:0.320437 13:0.00475235 14:0.015289 15:0.021199 16:0.00614688 17:0.00893502 18:0.0185446 19:0.838162 20:0.838215 21:0.838674 22:0.840003 23:0.840109 24:0.840634 25:0.358258 26:0.518515 27:0.433951 28:0.394325 29:0.51989 30:0.522943 31:0.345984 32:0.35348 33:0.356605 34:0.631283 35:0.636815 36:0.64313 37:2.61085e-05 38:0.0745678 39:0.0205418 40:2.75077e-05 41:0.00993213 42:0.0484929 43:0.362297 44:0.360913 45:0.335777 46:0.123236 47:0.13172 48:0.123236 
0 0 0 0 32 0 0 0 0 0 1:0.70255 2:0.55328 3:0.719721 4:0.897537 5:0.912066 6:0.785982 7:0.505825 8:0.495879 9:0.483252 10:0.329558 11:0.329493 12:0.329347 13:0.0108516 14:0.025588 15:0.0230141 16:0.0139774 17:0.0139404 18:0.027526 19:0.369618 20:0.369641 21:0.369523 22:0.370808 23:0.370855 24:0.370864 25:0.35876 26:0.550113 27:0.429456 28:0.393563 29:0.533657 30:0.527455 31:0.301804 32:0.3092 33:0.314476 34:0.600697 35:0.605874 36:0.611995 37:4.73892e-05 38:0.0284987 39:0.0266817 40:5.37026e-05 41:0.000441536 42:0.0279838 43:0.360825 44:0.35806 45:0.331378 46:0.0944625 47:0.103226 48:0.0955483 
0 0 0 0 32 0 0 0 0 0 1:0.703419 2:0.547813 3:0.72263 4:0.897874 5:0.909304 6:0.78821 7:0.553668 8:0.544907 9:0.533254 10:0.346542 11:0.346523 12:0.346327 13:0.00374881 14:0.0113367 15:0.0132415 16:0.00507954 17:0.00948709 18:0.0433269 19:0.55425 20:0.554285 21:0.554547 22:0.553925 23:0.553932 24:0.554195 25:0.358271 26:0.527176 27:0.506906 28:0.395161 29:0.520376 30:0.495139 31:0.355022 32:0.362439 33:0.36623 34:0.634296 35:0.639833 36:0.646469 37:2.49956e-05 38:0.0218566 39:0.0377475 40:6.2023e-05 41:0.00595628 42:0.0568827 43:0.382916 44:0.380884 45:0.354839 46:0.129207 47:0.137097 48:0.129207 
0 3.46312779684957 0 0 0 0 0 0 0 0 1:0.703864 2:0.546388 3:0.7413 4:0.898445 5:0.910822 6:0.78995 7:0.578633 8:0.57042 9:0.55766 10:0.341448 11:0.341403 12:0.34117 13:0.0105645 14:0.0215455 15:0.0308576 16:0.0132193 17:0.0147781 18:0.0325265 19:0.314026 20:0.313919 21:0.313635 22:0.315422 23:0.315462 24:0.315369 25:0.357884 26:0.498393 27:0.500117 28:0.394135 29:0.534317 30:0.568734 31:0.420242 32:0.426921 33:0.428815 34:0.610574 35:0.616001 36:0.622049 37:4.27332e-05 38:0.00766122 39:0.0131643 40:4.11035e-05 41:0.000923128 42:0.0482246 43:0.335788 44:0.333809 45:0.307918 46:0.150923 47:0.159677 48:0.149294 
0.2265667034898746 0.5126838768296077 0 2.709621958923322 32 0.3193041029220197 0.3689069166526872 0.08010120651627367 0.4771567081801698 9.082110806967101 1:0.704162 2:0.546765 3:0.712018 4:0.897485 5:0.899431 6:0.812887 7:0.523843 8:0.514556 9:0.503133 10:0.356224 11:0.356362 12:0.355626 13:0.0164996 14:0.0283025 15:0.040746 16:0.0203065 17:0.0554238 18:0.0634259 19:0.934214 20:0.93421 21:0.934418 22:0.941692 23:0.941558 24:0.941581 25:0.357902 26:0.495373 27:0.432679 28:0.393698 29:0.461839 30:0.545082 31:0.304652 32:0.312758 33:0.316743 34:0.642245 35:0.648183 36:0.654252 37:8.75779e-05 38:0.00664697 39:0.017108 40:9.91747e-05 41:0.0220901 42:0.0156569 43:0.260677 44:0.262482 45:0.23607 46:0.130293 47:0.13871 48:0.130293 
0 0 0 0 0 0 1.003564624837174 0 0 0 1:0.703127 2:0.545374 3:0.717092 4:0.897449 5:0.910098 6:0.780479 7:0.574322 8:0.566075 9:0.55548 10:0.32408 11:0.324046 12:0.324024 13:0.00278945 14:0.00645181 15:0.00704025 16:0.00329941 17:0.0050346 18:0.00650135 19:0.251659 20:0.251675 21:0.251728 22:0.252033 23:0.252065 24:0.252182 25:0.358602 26:0.505847 27:0.420252 28:0.394222 29:0.526711 30:0.545184 31:0.348903 32:0.356474 33:0.360455 34:0.635991 35:0.641568 36:0.647936 37:5.96766e-05 38:0.00667571 39:0.0249956 40:6.91478e-05 41:0.00566848 42:0.0200527 43:0.351988 44:0.352354 45:0.325513 46:0.121607 47:0.12957 48:0.120521 
0 0 0 0 32 0 0 0 0 0 1:0.703633 2:0.549228 3:0.707614 4:0.898131 5:0.912208 6:0.832428 7:0.495878 8:0.485937 9:0.474201 10:0.333182 11:0.333115 12:0.331954 13:0.0161712 14:0.0342065 15:0.0573831 16:0.0208564 17:0.0225273 18:0.0890895 19:0.952006 20:0.952003 21:0.95197 22:0.951156 23:0.951277 24:0.951116 25:0.358095 26:0.507147 27:0.403802 28:0.393141 29:0.526636 30:0.597147 31:0.311536 32:0.319129 33:0.323001 34:0.643415 35:0.649032 36:0.655481 37:8.5464e-05 38:0.0115659 39:0.0267995 40:9.7832e-05 41:0.00364125 42:0.0504369 43:0.385862 44:0.382311 45:0.365103 46:0.121064 47:0.12957 48:0.12215 
0 0 0 0 32 0 0 0 0 0 1:0.702808 2:0.548067 3:0.691689 4:0.897763 5:0.914174 6:0.794507 7:0.560864 8:0.552231 9:0.543674 10:0.345005 11:0.344907 12:0.344573 13:0.0105991 14:0.0190667 15:0.0436753 16:0.0133285 17:0.01565 18:0.0478118 19:0.308581 20:0.308537 21:0.308059 22:0.313961 23:0.313937 24:0.313716 25:0.35796 26:0.495318 27:0.364627 28:0.393879 29:0.550437 30:0.576924 31:0.387671 32:0.394656 33:0.401463 34:0.634145 35:0.639648 36:0.645852 37:4.19091e-05 38:0.00300241 39:0.0269158 40:5.31143e-05 41:0.00300578 42:0.0297531 43:0.297496 44:0.296719 45:0.268328 46:0.124864 47:0.133333 48:0.125407 
0 0 0 0 9.547817203624083 0 0 0 0 0 1:0.705138 2:0.548898 3:0.731543 4:0.897615 5:0.933118 6:0.765717 7:0.56073 8:0.552055 9:0.539744 10:0.342569 11:0.342165 12:0.342462 13:0.0162014 14:0.0272315 15:0.0460793 16:0.0207379 17:0.037564 18:0.117581 19:0.951056 20:0.951116 21:0.951399 22:0.948361 23:0.948164 24:0.948446 25:0.357895 26:0.503267 27:0.529594 28:0.393445 29:0.592851 30:0.444463 31:0.459027 32:0.464972 33:0.466105 34:0.644483 35:0.649678 36:0.65552 37:9.64417e-05 38:0.00430663 39:0.0315962 40:0.00012145 41:0.0122263 42:0.0926546 43:0.419735 44:0.416548 45:0.395894 46:0.111292 47:0.11828 48:0.109663 
0 0 0 0 32 0 0 0 0 0 1:0.703558 2:0.545003 3:0.760461 4:0.897498 5:0.907877 6:0.803176 7:0.543937 8:0.535125 9:0.519663 10:0.340872 11:0.340875 12:0.340353 13:0.0160865 14:0.0304658 15:0.0579238 16:0.0211109 17:0.0256399 18:0.0970078 19:0.945927 20:0.945924 21:0.946077 22:0.94544 23:0.945433 24:0.946285 25:0.357887 26:0.496438 27:0.547644 28:0.393596 29:0.489338 30:0.51873 31:0.465966 32:0.471926 33:0.476196 34:0.647713 35:0.653526 36:0.662142 37:9.54134e-05 38:0.00616731 39:0.0433175 40:0.000111112 41:0.00951833 42:0.0692167 43:0.346097 44:0.343795 45:0.315249 46:0.11835 47:0.126882 48:0.119435 
0.05254950681983796 0 0.3475944565276264 0 0 0 0 0 0 0 1:0.703264 2:0.555251 3:0.746802 4:0.897718 5:0.91259 6:0.77905 7:0.533062 8:0.523548 9:0.509073 10:0.322102 11:0.322027 12:0.322036 13:0.000587105 14:0.0301076 15:0.0747115 16:0.000562182 17:0.0108994 18:0.00314239 19:0.659039 20:0.659081 21:0.658655 22:0.659299 23:0.659383 24:0.659782 25:0.358593 26:0.757036 27:0.468973 28:0.39449 29:0.756053 30:0.532603 31:0.339975 32:0.347153 33:0.350499 34:0.63573 35:0.641228 36:0.647665 37:9.40714e-05 38:0.225776 39:0.0370941 40:0.000125421 41:0.129897 42:0.0515368 43:0.396171 44:0.392297 45:0.366569 46:0.123236 47:0.131183 48:0.122693 
0 0 0 0 32 0 0 0 0 0 1:0.70333 2:0.544086 3:0.72004 4:0.897326 5:0.911261 6:0.770898 7:0.564204 8:0.555825 9:0.544695 10:0.345503 11:0.345453 12:0.345636 13:0.00345946 14:0.0117335 15:0.0225931 16:0.00491939 17:0.0115891 18:0.0208894 19:0.553617 20:0.553652 21:0.553787 22:0.55545 23:0.55552 24:0.555721 25:0.35874 26:0.505828 27:0.345042 28:0.394383 29:0.571495 30:0.463704 31:0.362986 32:0.370351 33:0.375774 34:0.631173 35:0.636677 36:0.643176 37:5.84342e-05 38:0.0282771 39:0.0798912 40:3.37772e-05 41:0.0197791 42:0.0703618 43:0.354934 44:0.35378 45:0.325513 46:0.13355 47:0.141935 48:0.133008 
0 0 0 0 32 0 0 0 0 0 1:0.703434 2:0.545428 3:0.720202 4:0.8984 5:0.91123 6:0.772179 7:0.566639 8:0.558244 9:0.547155 10:0.343339 11:0.343287 12:0.343443 13:0.0160232 14:0.0279831 15:0.042844 16:0.0208777 17:0.0236841 18:0.0637968 19:0.94732 20:0.94738 21:0.947598 22:0.944804 23:0.944924 24:0.945141 25:0.35788 26:0.493516 27:0.48261 28:0.393881 29:0.534687 30:0.552655 31:0.458763 32:0.464994 33:0.467792 34:0.64744 35:0.653117 36:0.659415 37:9.80053e-05 38:0.00706181 39:0.0253985 40:0.000117199 41:0.00425639 42:0.0480368 43:0.382916 44:0.380884 45:0.356305 46:0.111835 47:0.12043 48:0.113464 
0 0 0 0 32 0 0 0 0 0 1:0.703527 2:0.546055 3:0.718226 4:0.897841 5:0.905387 6:0.810223 7:0.572811 8:0.564505 9:0.55376 10:0.338251 11:0.338294 12:0.337619 13:0.0106764 14:0.0214657 15:0.0335117 16:0.0133174 17:0.015506 18:0.0342316 19:0.314089 20:0.314046 21:0.313889 22:0.317073 23:0.31705 24:0.316895 25:0.357848 26:0.50317 27:0.44373 28:0.39413 29:0.506099 30:0.592612 31:0.389249 32:0.396234 33:0.401664 34:0.600546 35:0.606083 36:0.611806 37:4.63908e-05 38:0.00590321 39:0.0163168 40:4.42492e-05 41:0.00276188 42:0.0639755 43:0.312224 44:0.310984 45:0.277126 46:0.162866 47:0.17043 48:0.161238 
0 0 0 0 13.85216022462084 0 0 0 0 0 1:0.70312 2:0.544853 3:0.722052 4:0.897638 5:0.910534 6:0.780194 7:0.569926 8:0.561618 9:0.550445 10:0.341313 11:0.341274 12:0.341254 13:0.000254014 14:0.000964082 15:0.00347687 16:0.000311315 17:0.00118978 18:0.00337431 19:0.174729 20:0.17474 21:0.174804 22:0.17594 23:0.175962 24:0.176091 25:0.358622 26:0.497461 27:0.484936 28:0.394411 29:0.541911 30:0.525081 31:0.341298 32:0.349047 33:0.352963 34:0.6356 35:0.641158 36:0.647471 37:7.97523e-05 38:0.00842766 39:0.113976 40:9.30931e-05 41:0.0058185 42:0.0329311 43:0.42268 44:0.419401 45:0.394428 46:0.117264 47:0.126344 48:0.117264 
0 0 0 0.1707631532369958 0 0 0.2582296665873135 0 0 7.121858479913475 1:0.702969 2:0.545303 3:0.715959 4:0.898353 5:0.911223 6:0.786099 7:0.588106 8:0.580129 9:0.569996 10:0.327389 11:0.327337 12:0.327191 13:0.00357431 14:0.0162256 15:0.030539 16:0.00477128 17:0.00880726 18:0.0147569 19:0.545259 20:0.545293 21:0.54555 22:0.547637 23:0.547707 24:0.548093 25:0.358589 26:0.516428 27:0.411442 28:0.393806 29:0.51309 30:0.555231 31:0.308022 32:0.316125 33:0.322577 34:0.648689 35:0.654316 36:0.660629 37:4.10227e-05 38:0.098388 39:0.0909936 40:2.89048e-05 41:0.0144789 42:0.0680454 43:0.407953 44:0.405136 45:0.382698 46:0.141151 47:0.149462 48:0.140608 
0 0 0 0 32 0 0 0 0 0 1:0.703554 2:0.550594 3:0.727634 4:0.897097 5:0.909928 6:0.777321 7:0.562859 8:0.554142 9:0.542249 10:0.345674 11:0.345644 12:0.345687 13:0.00401534 14:0.015125 15:0.0213901 16:0.00496012 17:0.0102033 18:0.0227737 19:0.559442 20:0.559351 21:0.559363 22:0.558308 23:0.558379 24:0.558581 25:0.358221 26:0.581301 27:0.485778 28:0.394488 29:0.52138 30:0.514326 31:0.359475 32:0.366192 33:0.368566 34:0.631947 35:0.637458 36:0.643624 37:1.79742e-05 38:0.0500898 39:0.017182 40:2.75976e-05 41:0.0248132 42:0.049869 43:0.388807 44:0.383738 45:0.356305 46:0.124321 47:0.133333 48:0.123779 
0 0 0.4716076371358493 0 0 0 0 0 0 0 1:0.703149 2:0.544343 3:0.722096 4:0.897684 5:0.91025 6:0.781936 7:0.531536 8:0.522519 9:0.510343 10:0.310394 11:0.310356 12:0.310304 13:0.000324181 14:0.00206759 15:0.00279052 16:0.0003464 17:0.000638327 18:0.00496514 19:0.177388 20:0.1774 21:0.177528 22:0.178227 23:0.178249 24:0.178379 25:0.358617 26:0.521571 27:0.456999 28:0.394479 29:0.53043 30:0.464478 31:0.328382 32:0.336252 33:0.340293 34:0.636277 35:0.641855 36:0.648244 37:7.31865e-05 38:0.0780998 39:0.0174444 40:8.13655e-05 41:0.0050055 42:0.339073 43:0.440353 44:0.437946 45:0.41349 46:0.135179 47:0.143548 48:0.134636 
0 0 0 0 32 0.8606288706016554 0 0 0.03810808707945657 0 1:0.704269 2:0.551365 3:0.713392 4:0.89723 5:0.90716 6:0.766754 7:0.599038 8:0.590979 9:0.581366 10:0.344116 11:0.344131 12:0.344404 13:0.0160372 14:0.0306761 15:0.0331689 16:0.0200316 17:0.0247077 18:0.0544202 19:0.941369 20:0.941365 21:0.941641 22:0.939469 23:0.939461 24:0.939801 25:0.357567 26:0.494405 27:0.413081 28:0.394529 29:0.526475 30:0.50382 31:0.476214 32:0.482045 33:0.487578 34:0.624023 35:0.629566 36:0.635314 37:9.40191e-05 38:0.00698836 39:0.0123894 40:9.92265e-05 41:0.00320993 42:0.0237097 43:0.435935 44:0.43224 45:0.407625 46:0.10152 47:0.110215 48:0.10152 
0 0 0 0 18.34120417097528 0 0 0 0 0 1:0.703397 2:0.542516 3:0.723315 4:0.897695 5:0.908668 6:0.780162 7:0.52412 8:0.515049 9:0.502573 10:0.314816 11:0.314803 12:0.31479 13:0.00494599 14:0.0128386 15:0.0150701 16:0.00612837 17:0.00883622 18:0.0146302 19:0.841138 20:0.841191 21:0.841652 22:0.840701 23:0.840745 24:0.841333 25:0.358295 26:0.410965 27:0.4366 28:0.394214 29:0.517993 30:0.527285 31:0.35755 32:0.36535 33:0.369371 34:0.633391 35:0.638974 36:0.645382 37:2.00881e-05 38:0.0668843 39:0.0280076 40:3.09911e-05 41:0.00460091 42:0.019806 43:0.377025 44:0.375178 45:0.35044 46:0.119978 47:0.128495 48:0.119435 
0 0 0.02795552976131173 0 13.63819882001542 0 0 0 0 0 1:0.703069 2:0.546309 3:0.72193 4:0.898791 5:0.913715 6:0.808668 7:0.480047 8:0.469947 9:0.456456 10:0.334274 11:0.334183 12:0.333542 13:0.01075 14:0.0217539 15:0.0352766 16:0.0137414 17:0.0197894 18:0.0729944 19:0.366832 20:0.366792 21:0.366672 22:0.366489 23:0.366472 24:0.36616 25:0.358447 26:0.499748 27:0.446835 28:0.393437 29:0.53533 30:0.659931 31:0.29252 32:0.300872 33:0.301111 34:0.611776 35:0.61699 36:0.623167 37:5.088e-05 38:0.00391208 39:0.0209424 40:5.91769e-05 41:0.00516125 42:0.110616 43:0.382916 44:0.380884 45:0.360704 46:0.107492 47:0.115054 48:0.108578 
0 0 0 0 32 0 0 0 0 0 1:0.70375 2:0.542769 3:0.707575 4:0.898044 5:0.904802 6:0.788233 7:0.57482 8:0.566709 9:0.557025 10:0.342269 11:0.342321 12:0.342126 13:0.0106146 14:0.02271 15:0.0371303 16:0.0132758 17:0.0186372 18:0.0248205 19:0.31162 20:0.311576 21:0.311608 22:0.315676 23:0.315589 24:0.31556 25:0.358033 26:0.489075 27:0.420317 28:0.394007 29:0.511701 30:0.553825 31:0.435931 32:0.442913 33:0.449745 34:0.603643 35:0.609091 36:0.614987 37:4.37815e-05 38:0.00985003 39:0.00902889 40:4.61748e-05 41:0.00355456 42:0.0307725 43:0.360825 44:0.356633 45:0.332845 46:0.140608 47:0.147312 48:0.136808 
0 0 0 0 6.679265653569623 0 0 0 0 0 1:0.703309 2:0.545196 3:0.720576 4:0.897731 5:0.910646 6:0.780137 7:0.531436 8:0.522373 9:0.510343 10:0.319723 11:0.319679 12:0.319665 13:0.000439555 14:0.00174376 15:0.00342126 16:0.000442951 17:0.00097948 18:0.0112275 19:0.374557 20:0.37458 21:0.374846 22:0.374873 23:0.374921 24:0.375187 25:0.358575 26:0.50895 27:0.460822 28:0.394309 29:0.542451 30:0.593743 31:0.331334 32:0.339117 33:0.343454 34:0.635666 35:0.64123 36:0.647604 37:9.10288e-05 38:0.0340905 39:0.0219095 40:0.000104178 41:0.00529869 42:0.35479 43:0.407953 44:0.405136 45:0.381232 46:0.124864 47:0.133333 48:0.124321 
0 0 0 0 32 0 0 0 0 0 1:0.70364 2:0.548199 3:0.737713 4:0.899121 5:0.912423 6:0.753531 7:0.5239 8:0.514546 9:0.500703 10:0.332431 11:0.33236 12:0.332925 13:0.0137378 14:0.0262851 15:0.0487122 16:0.016575 17:0.0198869 18:0.0768026 19:0.664928 20:0.66497 21:0.665118 22:0.664444 23:0.664528 24:0.664232 25:0.357968 26:0.545909 27:0.464954 28:0.393821 29:0.540098 30:0.480252 31:0.268269 32:0.276426 33:0.277551 34:0.634124 35:0.63962 36:0.646674 37:6.06925e-05 38:0.029222 39:0.0318602 40:7.13511e-05 41:0.00340757 42:0.0550211 43:0.37408 44:0.373752 45:0.354839 46:0.128664 47:0.137097 48:0.131922 
0 0 0 0 32 0 0 0 0 0 1:0.703186 2:0.543149 3:0.700588 4:0.899394 5:0.91091 6:0.793675 7:0.491902 8:0.482177 9:0.471006 10:0.333133 11:0.333087 12:0.332773 13:0.0109231 14:0.02116 15:0.0397429 16:0.014058 17:0.0192412 18:0.0389993 19:0.369618 20:0.369578 21:0.369523 22:0.369601 23:0.369521 24:0.369338 25:0.358137 26:0.488262 27:0.416075 28:0.393517 29:0.473059 30:0.581109 31:0.292293 32:0.301168 33:0.309704 34:0.619397 35:0.624926 36:0.631501 37:4.9533e-05 38:0.00353071 39:0.0211532 40:5.05569e-05 41:0.0112335 42:0.0327741 43:0.388807 44:0.386591 45:0.357771 46:0.108035 47:0.116129 48:0.109121 
0 1.294226818102453 0 0 8.561422305372089 0 0 0 0 0 1:0.703266 2:0.544647 3:0.72219 4:0.897764 5:0.910004 6:0.780727 7:0.571763 8:0.563505 9:0.552365 10:0.34398 11:0.343949 12:0.343917 13:0.000201886 14:0.000824854 15:0.00134288 16:0.000316499 17:0.00107178 18:0.00629757 19:0.174919 20:0.17493 21:0.174994 22:0.176766 23:0.176788 24:0.176917 25:0.35847 26:0.500433 27:0.448329 28:0.394226 29:0.497423 30:0.592254 31:0.349984 32:0.357585 33:0.361567 34:0.631471 35:0.637017 36:0.643349 37:8.68135e-05 38:0.00633848 39:0.0167194 40:8.09516e-05 41:0.0111805 42:0.156052 43:0.446244 44:0.442225 45:0.417889 46:0.115635 47:0.124194 48:0.115092 
0 0 0 0 13.6096330538566 0 0 0 0 0 1:0.703562 2:0.543909 3:0.711307 4:0.897669 5:0.909065 6:0.7902 7:0.569543 8:0.561277 9:0.551105 10:0.34698 11:0.346964 12:0.346725 13:0.00395055 14:0.00948348 15:0.0261731 16:0.0047935 17:0.00721346 18:0.0281874 19:0.553553 20:0.553588 21:0.553534 22:0.554688 23:0.554758 24:0.555022 25:0.358292 26:0.493621 27:0.373607 28:0.394685 29:0.49002 30:0.631287 31:0.379336 32:0.386572 33:0.392306 34:0.622108 35:0.627553 36:0.633601 37:2.29539e-05 38:0.00988708 39:0.0324984 40:4.55402e-05 41:0.0111014 42:0.112219 43:0.42268 44:0.419401 45:0.392962 46:0.123779 47:0.132258 48:0.122693 
0 0 0 0 3.848605354173395 0 0 0 0 0 1:0.702294 2:0.540187 3:0.727015 4:0.898522 5:0.909842 6:0.784166 7:0.500031 8:0.490608 9:0.477161 10:0.328213 11:0.328183 12:0.32808 13:0.0108089 14:0.0222524 15:0.0314002 16:0.0139821 17:0.0167294 18:0.0496999 19:0.369491 20:0.369452 21:0.369396 22:0.371443 23:0.371427 24:0.371182 25:0.358586 26:0.474493 27:0.596227 28:0.39347 29:0.527928 30:0.541703 31:0.288201 32:0.297315 33:0.297788 34:0.604837 35:0.610172 36:0.61676 37:5.10767e-05 38:0.0260694 39:0.071825 40:5.27412e-05 41:0.00286991 42:0.0444525 43:0.368189 44:0.365193 45:0.347507 46:0.110206 47:0.11828 48:0.109663 
0 0 0.1094269291978568 0 0 0 0 0 0 0 1:0.703315 2:0.550563 3:0.713538 4:0.898157 5:0.913854 6:0.792912 7:0.506854 8:0.49706 9:0.485047 10:0.318515 11:0.318419 12:0.318125 13:0.0105476 14:0.0215922 15:0.0315933 16:0.0138053 17:0.0154038 18:0.0366506 19:0.368985 20:0.369008 21:0.368763 22:0.369728 23:0.369712 24:0.369656 25:0.358011 26:0.501025 27:0.39631 28:0.393642 29:0.543072 30:0.562094 31:0.459832 32:0.465681 33:0.468962 34:0.619284 35:0.624617 36:0.630612 37:5.4062e-05 38:0.0047983 39:0.014284 40:4.81275e-05 41:0.00171954 42:0.0570521 43:0.434462 44:0.430813 45:0.414956 46:0.0939197 47:0.102151 48:0.0917481 
0 0 0.6008688896764725 0 4.582566706235331 0 0 0 0 0 1:0.704102 2:0.548722 3:0.736196 4:0.899381 5:0.907673 6:0.811822 7:0.448729 8:0.437904 9:0.422259 10:0.348734 11:0.348741 12:0.348029 13:0.0167197 14:0.0372072 15:0.0589732 16:0.0207036 17:0.0218753 18:0.0620111 19:0.948207 20:0.948204 21:0.948104 22:0.953189 23:0.953246 24:0.953468 25:0.358257 26:0.510029 27:0.534862 28:0.393113 29:0.524466 30:0.576511 31:0.330417 32:0.33777 33:0.340729 34:0.650907 35:0.656685 36:0.664025 37:9.56599e-05 38:0.028643 39:0.0584568 40:0.000116031 41:0.0021363 42:0.0349752 43:0.297496 44:0.298146 45:0.266862 46:0.161781 47:0.169892 48:0.161781 
0 0 0 0 29.32704879552018 0 0 0 0 0 1:0.703531 2:0.547632 3:0.728807 4:0.898009 5:0.91201 6:0.782716 7:0.538665 8:0.529624 9:0.517003 10:0.338316 11:0.338252 12:0.338179 13:0.00344915 14:0.0118028 15:0.0216469 16:0.00498512 17:0.00774416 18:0.0164391 19:0.562481 20:0.562517 21:0.562595 22:0.565041 23:0.565112 24:0.56532 25:0.358158 26:0.524156 27:0.521965 28:0.39423 29:0.549423 30:0.630327 31:0.405431 32:0.411939 33:0.414559 34:0.642127 35:0.647695 36:0.653956 37:4.20884e-05 38:0.0213006 39:0.0290562 40:3.13724e-05 41:0.0138253 42:0.107881 43:0.391753 44:0.389444 45:0.366569 46:0.111835 47:0.12043 48:0.111292 
0 0 0.1933312858775575 0 0 0 0 0 0 0 1:0.703404 2:0.536045 3:0.695572 4:0.897716 5:0.910235 6:0.777344 7:0.537603 8:0.529107 9:0.519598 10:0.322256 11:0.32222 12:0.322265 13:0.000613758 14:0.0312817 15:0.0515989 16:0.000636053 17:0.00139047 18:0.00413506 19:0.659672 20:0.659777 21:0.659986 22:0.65968 23:0.659764 24:0.660164 25:0.358344 26:0.257786 27:0.254828 28:0.394383 29:0.532381 30:0.476068 31:0.346139 32:0.353921 33:0.363493 34:0.634779 35:0.640337 36:0.6467 37:0.000100318 38:0.220146 39:0.0758657 40:0.000135019 41:0.00260254 42:0.0571267 43:0.409426 44:0.406562 45:0.382698 46:0.122693 47:0.131183 48:0.122693 
0 0 0 0 5.669137475025471 0 0 0 0 0 1:0.702758 2:0.540166 3:0.732277 4:0.898571 5:0.918147 6:0.794369 7:0.502361 8:0.492983 9:0.479102 10:0.334363 11:0.334199 12:0.333871 13:0.0140235 14:0.0218532 15:0.029475 16:0.0163204 17:0.0200619 18:0.0615608 19:0.658216 20:0.658194 21:0.658338 22:0.662856 23:0.662876 24:0.662833 25:0.358189 26:0.495895 27:0.467457 28:0.393581 29:0.546603 30:0.500505 31:0.320265 32:0.328683 33:0.331007 34:0.652534 35:0.658074 36:0.664339 37:7.22653e-05 38:0.00327533 39:0.0102471 40:8.06601e-05 41:0.00265139 42:0.0343857 43:0.341679 44:0.340942 45:0.313783 46:0.167752 47:0.175269 48:0.170467 
0 0 0 0 32 0 0 0 0 0 1:0.703204 2:0.545924 3:0.692575 4:0.898288 5:0.9125 6:0.787206 7:0.503538 8:0.493905 9:0.483787 10:0.335027 11:0.334955 12:0.334783 13:0.0138983 14:0.023261 15:0.0563211 16:0.0162732 17:0.0203066 18:0.0280159 19:0.658976 20:0.659018 21:0.658465 22:0.661268 23:0.661288 24:0.661371 25:0.357953 26:0.504937 27:0.399106 28:0.393668 29:0.533839 30:0.547423 31:0.315495 32:0.323419 33:0.33059 34:0.649227 35:0.654842 36:0.661039 37:8.00735e-05 38:0.00685615 39:0.0167568 40:8.34436e-05 41:0.00208105 42:0.0193028 43:0.33137 44:0.332382 45:0.309384 46:0.156352 47:0.164516 48:0.155809 
0.09961146308204002 1.475174374747618 0 0 32 0 0 0 0.3900725817513345 0 1:0.70369 2:0.54541 3:0.723161 4:0.897841 5:0.912695 6:0.790107 7:0.575609 8:0.567392 9:0.556255 10:0.343974 11:0.3439 12:0.343663 13:0.00352867 14:0.00813988 15:0.00924154 16:0.00484071 17:0.00952194 18:0.0229848 19:0.557289 20:0.557324 21:0.557589 22:0.559705 23:0.559713 24:0.559916 25:0.358102 26:0.497573 27:0.477218 28:0.394035 29:0.540057 30:0.625444 31:0.337223 32:0.344916 33:0.348599 34:0.630646 35:0.636079 36:0.642233 37:3.49027e-05 38:0.00913725 39:0.0269245 40:3.30174e-05 41:0.0156748 42:0.115674 43:0.360825 44:0.359486 45:0.332845 46:0.131379 47:0.139785 48:0.130836 
0 0 0.6958575133207376 0 0 0 0 0 0 0 1:0.704054 2:0.544033 3:0.703396 4:0.898458 5:0.914525 6:0.812887 7:0.537526 8:0.528639 9:0.518383 10:0.314579 11:0.314472 12:0.313743 13:0.0137003 14:0.0246689 15:0.0521377 16:0.0170841 17:0.0208966 18:0.0502845 19:0.65752 20:0.657561 21:0.657198 22:0.661268 23:0.661352 24:0.661244 25:0.358529 26:0.490833 27:0.465218 28:0.393651 29:0.544422 30:0.561092 31:0.375905 32:0.383286 33:0.388917 34:0.613652 35:0.618932 36:0.625252 37:6.45318e-05 38:0.0103029 39:0.0162428 40:7.08118e-05 41:0.00250844 42:0.0274145 43:0.275405 44:0.276748 45:0.247801 46:0.124321 47:0.132796 48:0.12595 
0 0 0 0 5.824156402667009 0 0 0 0 0 1:0.703308 2:0.544884 3:0.722846 4:0.897564 5:0.910011 6:0.779786 7:0.573614 8:0.565378 9:0.554225 10:0.343269 11:0.343237 12:0.343226 13:0.000304523 14:0.00113836 15:0.00162007 16:0.00038602 17:0.000586294 18:0.00245596 19:0.180997 20:0.181009 21:0.18114 22:0.181402 23:0.181425 24:0.181558 25:0.358476 26:0.494917 27:0.488078 28:0.394538 29:0.505544 30:0.536959 31:0.349473 32:0.357076 33:0.361304 34:0.640559 35:0.646156 36:0.652639 37:7.49842e-05 38:0.0214663 39:0.0274932 40:9.19873e-05 41:0.00687619 42:0.0239943 43:0.394698 44:0.392297 45:0.366569 46:0.128122 47:0.136559 48:0.127579 
0 0 0 0 5.059980533364691 0 0 0 0 0 1:0.703261 2:0.54367 3:0.729182 4:0.897366 5:0.912408 6:0.79041 7:0.560553 8:0.552129 9:0.540039 10:0.339827 11:0.339756 12:0.339514 13:0.00342338 14:0.0172655 15:0.019323 16:0.00500086 17:0.00731412 18:0.0228735 19:0.55292 20:0.552955 21:0.553217 22:0.554942 23:0.554949 24:0.555149 25:0.358363 26:0.500751 27:0.439046 28:0.394455 29:0.584292 30:0.583273 31:0.353567 32:0.361197 33:0.364496 34:0.629809 35:0.63521 36:0.641441 37:3.66107e-05 38:0.0907652 39:0.0563307 40:2.87278e-05 41:0.00864233 42:0.054425 43:0.359352 44:0.35806 45:0.332845 46:0.126493 47:0.134946 48:0.125407 
0 0 0 0 20.1078411644741 0 0 0 0 0 1:0.704622 2:0.513484 3:0.702309 4:0.898286 5:0.935482 6:0.772948 7:0.569519 8:0.56273 9:0.55344 10:0.340692 11:0.340251 12:0.34039 13:0.0159643 14:0.0666321 15:0.052352 16:0.0199668 17:0.0315849 18:0.050131 19:0.945484 20:0.945164 21:0.945 22:0.940295 23:0.940351 24:0.940691 25:0.35802 26:0.381701 27:0.430957 28:0.394106 29:0.59874 30:0.504886 31:0.471624 32:0.479906 33:0.486472 34:0.638374 35:0.643411 36:0.649729 37:0.000104481 38:0.0834585 39:0.0069402 40:0.000100408 41:0.00868029 42:0.0284248 43:0.409426 44:0.402282 45:0.375367 46:0.104777 47:0.112903 48:0.104777 
1.183588598300669 3.288629700217033 0 4.220435525958719 5.133097580672497 0 1.829245273249082 1.61937522468074 4.647297034759926 20.52922245926425 1:0.703323 2:0.550391 3:0.696264 4:0.897623 5:0.912977 6:0.807226 7:0.635573 8:0.628264 9:0.621207 10:0.327345 11:0.327264 12:0.326655 13:0.0161683 14:0.0309273 15:0.0547107 16:0.020151 17:0.0271204 18:0.0486509 19:0.958211 20:0.958208 21:0.957926 22:0.959159 23:0.959217 24:0.959571 25:0.358109 26:0.505206 27:0.403265 28:0.394194 29:0.542855 30:0.550302 31:0.447022 32:0.45327 33:0.459015 34:0.61052 35:0.615941 36:0.62185 37:0.000100806 38:0.00886868 39:0.0203469 40:9.5773e-05 41:0.00582221 42:0.014788 43:0.335788 44:0.336662 45:0.297654 46:0.148208 47:0.156989 48:0.149837 
0 0 0 0 0 0.4129926952842087 0 0 0 0 1:0.703226 2:0.546222 3:0.742262 4:0.897889 5:0.90031 6:0.785054 7:0.598196 8:0.590369 9:0.578021 10:0.323716 11:0.323837 12:0.323714 13:0.0137592 14:0.0274807 15:0.0443067 16:0.0170332 17:0.026998 18:0.0347344 19:0.666131 20:0.666173 21:0.666196 22:0.665777 23:0.665671 24:0.665758 25:0.357687 26:0.508628 27:0.450937 28:0.394235 29:0.428891 30:0.521219 31:0.403993 32:0.410761 33:0.416408 34:0.606612 35:0.612224 36:0.618702 37:7.02336e-05 38:0.0247649 39:0.0336992 40:7.07819e-05 41:0.0210244 42:0.0217827 43:0.324006 44:0.323823 45:0.294721 46:0.155266 47:0.162366 48:0.15418 
0 0 0 0 32 0 0 0 0 0 1:0.703279 2:0.551373 3:0.714617 4:0.897547 5:0.911279 6:0.782339 7:0.50116 8:0.491218 9:0.478952 10:0.33189 11:0.331837 12:0.331772 13:0.0109621 14:0.0192185 15:0.0235374 16:0.0137053 17:0.0145706 18:0.0387844 19:0.369871 20:0.369831 21:0.369776 22:0.369792 23:0.369839 24:0.369656 25:0.358276 26:0.522483 27:0.434875 28:0.393817 29:0.535902 30:0.532583 31:0.262647 32:0.270607 33:0.27722 34:0.609964 35:0.61526 36:0.620873 37:4.77304e-05 38:0.00895043 39:0.0105481 40:5.14203e-05 41:0.000965024 42:0.0421761 43:0.413844 44:0.409415 45:0.38563 46:0.0879479 47:0.0967742 48:0.0884908 
0 0 0 0 32 0 0 0 0 0 1:0.703327 2:0.550881 3:0.724171 4:0.897291 5:0.910549 6:0.762175 7:0.518145 8:0.508548 9:0.495827 10:0.326078 11:0.326036 12:0.326414 13:0.0109039 14:0.0246261 15:0.0274601 16:0.0137923 17:0.0146821 18:0.0282078 19:0.367022 20:0.366919 21:0.366925 22:0.368521 23:0.368505 24:0.368448 25:0.358059 26:0.507495 27:0.454367 28:0.394401 29:0.530253 30:0.500888 31:0.394539 32:0.400849 33:0.403358 34:0.598306 35:0.60358 36:0.610293 37:4.22253e-05 38:0.00818495 39:0.00721285 40:5.1995e-05 41:0.000845331 42:0.0154044 43:0.326951 44:0.32525 45:0.303519 46:0.152009 47:0.159677 48:0.151466 
0.303859552368109 0 0.1670285246927825 0 0 0 0 0 0.4235588819436057 0 1:0.704367 2:0.545245 3:0.75315 4:0.898572 5:0.936128 6:0.755023 7:0.593168 8:0.585288 9:0.571791 10:0.340888 11:0.340435 12:0.340967 13:0.0160188 14:0.030902 15:0.0781862 16:0.020001 17:0.0378613 18:0.0953128 19:0.954792 20:0.954789 21:0.955075 22:0.949949 23:0.949879 24:0.949336 25:0.357834 26:0.497591 27:0.523818 28:0.393975 29:0.711531 30:0.552759 31:0.481923 32:0.488131 33:0.497861 34:0.641082 35:0.646157 36:0.65277 37:9.84361e-05 38:0.00397071 39:0.0263456 40:0.00010201 41:0.0398627 42:0.0564763 43:0.413844 44:0.410842 45:0.390029 46:0.10152 47:0.109677 48:0.0993485 
0 0 0 1.735926922545522 0 2.596551430528626 0.7652834674707353 0.008974659949700928 0.7208283583930283 7.518422454315025 1:0.703114 2:0.541093 3:0.797993 4:0.897703 5:0.911322 6:0.777335 7:0.606028 8:0.598605 9:0.581221 10:0.317132 11:0.317078 12:0.317125 13:0.0136075 14:0.0263942 15:0.0989015 16:0.0164361 17:0.0183956 18:0.0302226 19:0.660875 20:0.660854 21:0.659859 22:0.66311 23:0.66313 24:0.663342 25:0.358039 26:0.461002 27:0.552268 28:0.394587 29:0.531768 30:0.503926 31:0.407878 32:0.415221 33:0.409345 34:0.603773 35:0.609043 36:0.615029 37:6.436e-05 38:0.0226457 39:0.0295166 40:7.06321e-05 41:0.00096197 42:0.0365535 43:0.369661 44:0.368046 45:0.351906 46:0.148751 47:0.156989 48:0.149294 
0 0 0 0 23.98741140527829 0 0 0 0 0 1:0.703679 2:0.548392 3:0.720788 4:0.897935 5:0.912892 6:0.779417 7:0.572834 8:0.564417 9:0.55343 10:0.345012 11:0.344935 12:0.344932 13:0.0105144 14:0.0209691 15:0.0240114 16:0.0132165 17:0.0159551 18:0.0297736 19:0.310607 20:0.310563 21:0.310467 22:0.313961 23:0.313937 24:0.313843 25:0.358053 26:0.509254 27:0.456273 28:0.393874 29:0.536117 30:0.522125 31:0.39312 32:0.399968 33:0.400884 34:0.633748 35:0.639223 36:0.645817 37:4.57086e-05 38:0.00977115 39:0.00846659 40:5.37816e-05 41:0.00140796 42:0.0210833 43:0.309278 44:0.308131 45:0.27566 46:0.115092 47:0.123118 48:0.113464 
0 0.3207957973414217 0 2.221915859048383 0 0 0.783981185154528 0.458773335055095 0.8567238077592145 2.328731149476301 1:0.703503 2:0.546154 3:0.713821 4:0.898592 5:0.915252 6:0.830446 7:0.583556 8:0.575452 9:0.565405 10:0.338505 11:0.338389 12:0.33727 13:0.011582 14:0.0216662 15:0.0273413 16:0.0135951 17:0.0156097 18:0.0603749 19:0.314659 20:0.314616 21:0.314523 22:0.31612 23:0.316161 24:0.316005 25:0.359159 26:0.509029 27:0.44869 28:0.396064 29:0.542674 30:0.595467 31:0.413439 32:0.419878 33:0.426514 34:0.59677 35:0.601891 36:0.60716 37:0.00211717 38:0.0111907 39:0.00820905 40:0.00021852 41:0.00129581 42:0.0425732 43:0.329897 44:0.328103 45:0.304985 46:0.149837 47:0.158065 48:0.148208 
0 1.070901047531883 0 0 32 1.877209964082514 0 0 0 0 1:0.703442 2:0.550223 3:0.743598 4:0.898324 5:0.908728 6:0.771932 7:0.576853 8:0.568425 9:0.555395 10:0.349895 11:0.349884 12:0.350044 13:0.0105144 14:0.0201552 15:0.0280761 16:0.0131017 17:0.0232133 18:0.0350683 19:0.311113 20:0.31107 21:0.310784 22:0.312945 23:0.312921 24:0.312826 25:0.358217 26:0.518464 27:0.496352 28:0.393846 29:0.567958 30:0.533311 31:0.376955 32:0.383648 33:0.385155 34:0.636884 35:0.642496 36:0.649259 37:4.48795e-05 38:0.0114356 39:0.00978831 40:5.79295e-05 41:0.01944 42:0.0173516 43:0.349043 44:0.348074 45:0.318182 46:0.107492 47:0.116129 48:0.106949 
0.4914362737318876 0.4057927522072166 0 0.1432026003468393 0 1.011188650134059 0.8257714738145812 0.6537083379634587 0.3649903988989651 0.7193454562310964 1:0.703192 2:0.539502 3:0.709295 4:0.897902 5:0.907191 6:0.762723 7:0.574351 8:0.566392 9:0.55654 10:0.334832 11:0.334847 12:0.33521 13:0.000265353 14:0.0101979 15:0.0210242 16:0.000342049 17:0.00440092 18:0.0293617 19:0.177768 20:0.177779 21:0.177655 22:0.1781 23:0.178122 24:0.178443 25:0.358563 26:0.445159 27:0.343588 28:0.394164 29:0.437939 30:0.238877 31:0.336372 32:0.345141 33:0.353691 34:0.640695 35:0.646395 36:0.654195 37:8.10022e-05 38:0.095054 39:0.0486308 40:8.21472e-05 41:0.0242585 42:0.300723 43:0.428571 44:0.42368 45:0.391496 46:0.121064 47:0.130108 48:0.124321 
0 0 0 0 0 0 0.7342629485737726 0 0 0 1:0.703535 2:0.550857 3:0.722794 4:0.897483 5:0.9082 6:0.764093 7:0.581599 8:0.573234 9:0.56228 10:0.339246 11:0.339243 12:0.339576 13:0.0103922 14:0.0215416 15:0.0381865 16:0.0132748 17:0.0165296 18:0.0437209 19:0.311936 20:0.311893 21:0.311734 22:0.311547 23:0.311523 24:0.311428 25:0.35793 26:0.510438 27:0.470689 28:0.393775 29:0.526374 30:0.584093 31:0.442886 32:0.448485 33:0.44927 34:0.615667 35:0.621128 36:0.626799 37:4.5858e-05 38:0.00678781 39:0.0368902 40:4.74194e-05 41:0.00267418 42:0.0712778 43:0.410898 44:0.406562 45:0.375367 46:0.0993485 47:0.107527 48:0.102606 
0 0 0 0.004721236020326503 22.65927982533141 0.6564014655774392 0.06091678731327731 0.5817863613961791 0 5.790838601072557 1:0.703906 2:0.547251 3:0.721718 4:0.897949 5:0.913924 6:0.748956 7:0.575035 8:0.566714 9:0.5557 10:0.342038 11:0.341944 12:0.342608 13:0.0105196 14:0.0189596 15:0.0312052 16:0.0133822 17:0.0165668 18:0.041944 19:0.310227 20:0.310183 21:0.30996 22:0.312818 23:0.312857 24:0.312572 25:0.358 26:0.493742 27:0.474539 28:0.393544 29:0.540201 30:0.450706 31:0.366281 32:0.373688 33:0.376773 34:0.63239 35:0.637794 36:0.645142 37:5.8123e-05 38:0.0097009 39:0.00696626 40:5.76817e-05 41:0.00199964 42:0.0617724 43:0.235641 44:0.238231 45:0.208211 46:0.133008 47:0.14086 48:0.131379 
0.06351727510311712 0 0 1.382122624439523 1.289422274799312 0 0 0.9744504937397196 0 3.818327702569829 1:0.703205 2:0.543307 3:0.731498 4:0.899427 5:0.906762 6:0.798239 7:0.529799 8:0.520798 9:0.507698 10:0.321241 11:0.32126 12:0.320849 13:0.0159283 14:0.0297473 15:0.0374112 16:0.0209175 17:0.0225273 18:0.089014 19:0.953462 20:0.953523 21:0.953871 22:0.950076 23:0.950133 24:0.950417 25:0.358505 26:0.505617 27:0.529987 28:0.393723 29:0.529876 30:0.562278 31:0.262786 32:0.271648 33:0.277773 34:0.630478 35:0.636034 36:0.644077 37:0.000101372 38:0.0159774 39:0.0243306 40:0.000101642 41:0.0021619 42:0.0464763 43:0.42268 44:0.420827 45:0.395894 46:0.108578 47:0.117204 48:0.109121 
0 0 0 0 19.82782760423695 0 0 0 0 0 1:0.703179 2:0.550194 3:0.727136 4:0.897425 5:0.916203 6:0.780171 7:0.564768 8:0.556108 9:0.544314 10:0.344382 11:0.344252 12:0.344232 13:0.0103812 14:0.0190375 15:0.0385389 16:0.0131702 17:0.0150491 18:0.025139 19:0.309784 20:0.309803 21:0.309707 22:0.312119 23:0.312095 24:0.312063 25:0.357888 26:0.511257 27:0.378151 28:0.394032 29:0.543524 30:0.550355 31:0.413287 32:0.419287 33:0.426962 34:0.634891 35:0.640288 36:0.64651 37:4.90101e-05 38:0.00471993 39:0.036286 40:6.16635e-05 41:0.00188936 42:0.0371652 43:0.33137 44:0.329529 45:0.312317 46:0.123236 47:0.131183 48:0.122693 
0.0003036232608023184 0 0 0.06893491161088076 0 1.930988450493117 0 0.643650434551727 0.7544537050687055 2.33112335132289 1:0.703322 2:0.544258 3:0.723541 4:0.897887 5:0.910419 6:0.780423 7:0.579858 8:0.571771 9:0.560715 10:0.339542 11:0.339502 12:0.339478 13:0.000429763 14:0.00176693 15:0.00133168 16:0.000568292 17:0.00132234 18:0.00435956 19:0.652644 20:0.652685 21:0.653143 22:0.654662 23:0.654745 24:0.655142 25:0.358489 26:0.490635 27:0.508746 28:0.394218 29:0.532403 30:0.599122 31:0.326764 32:0.334654 33:0.338477 34:0.636856 35:0.642424 36:0.648751 37:0.000121051 38:0.0149165 39:0.0412292 40:0.000121374 41:0.00436621 42:0.224763 43:0.43299 44:0.429387 45:0.404692 46:0.111835 47:0.12043 48:0.111292 
0 0 0 0 18.56003765114859 0 0 0 0 0 1:0.703133 2:0.544625 3:0.722768 4:0.897557 5:0.910038 6:0.777141 7:0.566974 8:0.558624 9:0.547305 10:0.344998 11:0.344966 12:0.345013 13:0.000278606 14:0.000600726 15:0.0013117 16:0.000340568 17:0.00093581 18:0.0051427 19:0.180491 20:0.180502 21:0.18057 22:0.181466 23:0.181489 24:0.181621 25:0.358515 26:0.492476 27:0.478219 28:0.394519 29:0.492446 30:0.449745 31:0.345227 32:0.3529 33:0.356495 34:0.634 35:0.639545 36:0.645923 37:8.03349e-05 38:0.00822264 39:0.0154177 40:9.44984e-05 41:0.017759 42:0.117009 43:0.438881 44:0.435093 45:0.410557 46:0.133008 47:0.141935 48:0.132465 
0 0 0 0 32 1.006668600692029 0 0 0 0 1:0.703119 2:0.545997 3:0.753437 4:0.897921 5:0.9146 6:0.805789 7:0.607306 8:0.599668 9:0.586506 10:0.330078 11:0.329971 12:0.329393 13:0.0159835 14:0.0338151 15:0.0943444 16:0.0198834 17:0.0268478 18:0.0740881 19:0.943268 20:0.943201 21:0.942718 22:0.942518 23:0.94251 24:0.943106 25:0.358067 26:0.504252 27:0.541966 28:0.394527 29:0.533386 30:0.566529 31:0.442893 32:0.44936 33:0.449018 34:0.619238 35:0.624672 36:0.630989 37:9.1086e-05 38:0.0334754 39:0.0487554 40:9.97848e-05 41:0.00310606 42:0.0398938 43:0.36377 44:0.36234 45:0.33871 46:0.137894 47:0.146237 48:0.137894 
0 0 0 0 19.99168145461654 0 0 0 0 0 1:0.703828 2:0.549467 3:0.711433 4:0.897865 5:0.914132 6:0.774997 7:0.541655 8:0.532584 9:0.521668 10:0.325319 11:0.325221 12:0.325318 13:0.0106322 14:0.0215144 15:0.0170841 16:0.0135711 17:0.0150182 18:0.0316911 19:0.365882 20:0.365906 21:0.365911 22:0.366171 23:0.366154 24:0.36616 25:0.358061 26:0.500428 27:0.416791 28:0.394081 29:0.535991 30:0.534752 31:0.480115 32:0.485688 33:0.489314 34:0.627191 35:0.632607 36:0.639084 37:4.50662e-05 38:0.00394606 39:0.0169112 40:5.67911e-05 41:0.00107461 42:0.00726981 43:0.424153 44:0.419401 45:0.398827 46:0.0977199 47:0.106452 48:0.0982628 
0 0 0 0 0 0 0 0 0 6.989885973663857 1:0.704635 2:0.552339 3:0.734572 4:0.89856 5:0.905786 6:0.775114 7:0.535722 8:0.526396 9:0.513148 10:0.3526 11:0.352637 12:0.352726 13:0.0161616 14:0.0419643 15:0.0426374 16:0.0204565 17:0.0238869 18:0.0365944 19:0.951246 20:0.95118 21:0.951083 22:0.955285 23:0.955342 24:0.955502 25:0.357806 26:0.513639 27:0.513282 28:0.393904 29:0.521478 30:0.534783 31:0.37149 32:0.378436 33:0.380337 34:0.647612 35:0.653367 36:0.65975 37:9.00005e-05 38:0.0369295 39:0.0238053 40:0.000104674 41:0.0022021 42:0.0113364 43:0.251841 44:0.252496 45:0.219941 46:0.125407 47:0.133871 48:0.125407 
0 0 0 0 32 0 0 0 0 0 1:0.702539 2:0.542657 3:0.728748 4:0.900003 5:0.911546 6:0.796178 7:0.48674 8:0.47694 9:0.462986 10:0.331219 11:0.331161 12:0.330793 13:0.0111027 14:0.0186402 15:0.0261026 16:0.0137414 17:0.0151715 18:0.0274927 19:0.367465 20:0.367425 21:0.367242 22:0.369157 23:0.369203 24:0.369148 25:0.358258 26:0.492381 27:0.458452 28:0.393382 29:0.529733 30:0.553045 31:0.294518 32:0.303013 33:0.305539 34:0.633459 35:0.638912 36:0.645169 37:5.31358e-05 38:0.00492824 39:0.00757425 40:5.07912e-05 41:0.00162059 42:0.0220477 43:0.365243 44:0.363766 45:0.332845 46:0.119435 47:0.127419 48:0.118893 
0 0 0 0 32 0 0 0 0 0 1:0.703283 2:0.543846 3:0.738556 4:0.897829 5:0.915678 6:0.81377 7:0.486176 8:0.476306 9:0.461416 10:0.354865 11:0.354743 12:0.353986 13:0.0164805 14:0.0290327 15:0.0429975 16:0.0209128 17:0.0238916 18:0.0423815 19:0.942445 20:0.942441 21:0.942782 22:0.945757 23:0.94575 24:0.946158 25:0.358382 26:0.48799 27:0.455964 28:0.39345 29:0.569847 30:0.555576 31:0.359505 32:0.367283 33:0.370657 34:0.648996 35:0.654541 36:0.660372 37:9.63396e-05 38:0.00819006 39:0.0192348 40:0.000104205 41:0.00652168 42:0.0166528 43:0.248895 44:0.25107 45:0.225806 46:0.15038 47:0.158065 48:0.149837 
0 0 0 0 32 0 0 0 0 0 1:0.703486 2:0.558459 3:0.716571 4:0.897926 5:0.912401 6:0.797319 7:0.568744 8:0.55976 9:0.549055 10:0.343612 11:0.343543 12:0.343148 13:0.0106484 14:0.0313752 15:0.0395952 16:0.0132572 17:0.0155679 18:0.0420387 19:0.314279 20:0.314046 21:0.313826 22:0.317454 23:0.317431 24:0.317149 25:0.358298 26:0.535718 27:0.442486 28:0.394093 29:0.535995 30:0.573549 31:0.407295 32:0.41254 33:0.413707 34:0.605802 35:0.611074 36:0.616952 37:4.62165e-05 38:0.0236455 39:0.014511 40:4.1542e-05 41:0.00260164 42:0.0236659 43:0.337261 44:0.330956 45:0.309384 46:0.168295 47:0.176344 48:0.166667 
0 0 0 0 0 0.5346021653548382 0 0 0 0 1:0.703358 2:0.543828 3:0.726293 4:0.897455 5:0.909894 6:0.785727 7:0.552855 8:0.544273 9:0.532259 10:0.310152 11:0.31012 12:0.309983 13:0.00521473 14:0.018576 15:0.0184145 16:0.00609689 17:0.00872442 18:0.0265333 19:0.838606 20:0.838595 21:0.839117 22:0.836827 23:0.83687 24:0.837456 25:0.35862 26:0.481331 27:0.481487 28:0.39473 29:0.525623 30:0.503368 31:0.350501 32:0.358312 33:0.361696 34:0.630255 35:0.635786 36:0.64224 37:1.52503e-05 38:0.0738397 39:0.04152 40:1.98763e-05 41:0.00427492 42:0.0613929 43:0.394698 44:0.392297 45:0.369501 46:0.11835 47:0.126882 48:0.118893 
0 0 0 0 32 0 0 0 0 0 1:0.703232 2:0.551063 3:0.730333 4:0.89775 5:0.907521 6:0.780559 7:0.563883 8:0.555162 9:0.543039 10:0.343848 11:0.343858 12:0.343829 13:0.00370905 14:0.013361 15:0.0236474 16:0.00491662 17:0.010195 18:0.0157342 19:0.555136 20:0.555108 21:0.555371 22:0.555196 23:0.555203 24:0.55553 25:0.358383 26:0.531512 27:0.441544 28:0.394239 29:0.503712 30:0.514825 31:0.376821 32:0.383497 33:0.386119 34:0.630633 35:0.636257 36:0.642587 37:2.6985e-05 38:0.0317423 39:0.0712737 40:2.67968e-05 41:0.0169527 42:0.0346448 43:0.359352 44:0.35806 45:0.332845 46:0.139522 47:0.147312 48:0.138979 
0 0 0 0 3.426069875153579 0 0 0 0 0 1:0.703556 2:0.552859 3:0.714071 4:0.897666 5:0.915441 6:0.773219 7:0.485448 8:0.47513 9:0.462511 10:0.326179 11:0.326059 12:0.326195 13:0.0106153 14:0.0234869 15:0.0228828 16:0.0141191 17:0.0176771 18:0.0536309 19:0.368288 20:0.368312 21:0.368129 22:0.371253 23:0.371236 24:0.371182 25:0.35831 26:0.526755 27:0.421609 28:0.393515 29:0.558169 30:0.499574 31:0.383215 32:0.38923 33:0.39391 34:0.610048 35:0.615264 36:0.622575 37:4.45981e-05 38:0.0106356 39:0.00939972 40:5.82046e-05 41:0.00470871 42:0.062413 43:0.241532 44:0.243937 45:0.215543 46:0.127579 47:0.136022 48:0.128122 
0 0 0 0 32 0 0 0 0 0 1:0.703481 2:0.547439 3:0.719872 4:0.897066 5:0.917152 6:0.74693 7:0.568098 8:0.559633 9:0.548615 10:0.347896 11:0.34775 12:0.348456 13:0.0104275 14:0.0209243 15:0.0344125 16:0.0131323 17:0.0158591 18:0.0349787 19:0.311177 20:0.311196 21:0.310847 22:0.313389 23:0.313429 24:0.313144 25:0.357835 26:0.498845 27:0.475321 28:0.394127 29:0.537856 30:0.484418 31:0.387223 32:0.394147 33:0.394214 34:0.64137 35:0.646736 36:0.65414 37:4.7078e-05 38:0.0113027 39:0.0131779 40:6.11842e-05 41:0.00129335 42:0.0207109 43:0.329897 44:0.330956 45:0.29912 46:0.115092 47:0.123118 48:0.112378 
0 0 0 0 32 0 0 0 0 0 1:0.703134 2:0.547066 3:0.727766 4:0.897564 5:0.90867 6:0.790021 7:0.554601 8:0.545897 9:0.533784 10:0.342948 11:0.342939 12:0.342704 13:0.00406025 14:0.0115641 15:0.0172173 16:0.0043075 17:0.00768733 18:0.0296393 19:0.557669 20:0.557641 21:0.557906 22:0.558371 23:0.558442 24:0.558645 25:0.358262 26:0.50966 27:0.483767 28:0.394285 29:0.52245 30:0.594399 31:0.354856 32:0.362202 33:0.365811 34:0.632711 35:0.638288 36:0.644573 37:2.40967e-05 38:0.0249494 39:0.0693288 40:4.06024e-05 41:0.00919538 42:0.121216 43:0.391753 44:0.389444 45:0.363636 46:0.12975 47:0.138172 48:0.12975 
0.6157758793074819 0.3688621906510335 0 0.2571771173975798 0.1817938180518003 0 0 0.4545400007824326 0.3795626327201879 1.011533014966064 1:0.70316 2:0.543076 3:0.735153 4:0.897505 5:0.908688 6:0.790679 7:0.571433 8:0.563242 9:0.55088 10:0.34179 11:0.34178 12:0.341529 13:0.000278385 14:0.00428355 15:0.0168398 16:0.000344641 17:0.00351095 18:0.0190218 19:0.178085 20:0.178033 21:0.178289 22:0.178227 23:0.178186 24:0.178252 25:0.358559 26:0.47297 27:0.702297 28:0.394552 29:0.5012 30:0.657199 31:0.345769 32:0.353715 33:0.355422 34:0.632283 35:0.637819 36:0.643383 37:7.93041e-05 38:0.0249217 39:0.132348 40:8.35661e-05 41:0.00798104 42:0.119567 43:0.444772 44:0.440799 45:0.419355 46:0.138979 47:0.147312 48:0.136808 
0.802481800226457 0.7445377220538252 0.8662754745243187 0.6330469636849099 0 0.5638247720619609 0.5867003088014769 0.7456601683108195 0.7424099420652439 1.593947406573258 1:0.724344 2:0.817982 3:0.596019 4:0.904985 5:0.875959 6:0.840412 7:0.634791 8:0.614496 9:0.616523 10:0.00934841 11:0.00982212 12:0.00854252 13:0.156893 14:0.681138 15:0.980401 16:0.199671 17:0.459157 18:0.717639 19:0.660495 20:0.662627 21:0.659796 22:0.66076 23:0.661987 24:0.662198 25:0.819378 26:0.747596 27:0.290525 28:0.707398 29:0.63208 30:0.644083 31:0.181923 32:0.210766 33:0.166301 34:0.893659 35:0.904395 36:0.910785 37:0.354756 38:0.261217 39:0.220775 40:1 41:0.268691 42:0.606744 43:0.220913 44:0.138374 45:0.313783 46:0.229642 47:0.256452 48:0.250271 
0 0 0 0 32 0 0 0 0 0 1:0.704558 2:0.548046 3:0.723367 4:0.896569 5:0.916134 6:0.820332 7:0.554003 8:0.545238 9:0.533524 10:0.346749 11:0.346619 12:0.34572 13:0.0104371 14:0.0178633 15:0.0251555 16:0.0131249 17:0.0202261 18:0.0377879 19:0.3101 20:0.31012 21:0.309834 22:0.312436 23:0.312349 24:0.312063 25:0.358202 26:0.498592 27:0.470324 28:0.394315 29:0.506813 30:0.58956 31:0.413972 32:0.420737 33:0.422254 34:0.634993 35:0.640426 36:0.645824 37:5.21573e-05 38:0.000738173 39:0.0166994 40:5.02846e-05 41:0.00984791 42:0.0249183 43:0.365243 44:0.36234 45:0.341642 46:0.113464 47:0.120968 48:0.112921 
0.9379914345043133 0 0 1.530447211149926 32 3.32761579282093 0 0 0.9807246677555377 0 1:0.702583 2:0.548915 3:0.723025 4:0.897695 5:0.907417 6:0.778248 7:0.575169 8:0.566772 9:0.555635 10:0.3465 11:0.346511 12:0.346532 13:0.0104437 14:0.0188836 15:0.0241804 16:0.0133396 17:0.014645 18:0.0730916 19:0.307758 20:0.307714 21:0.307679 22:0.312373 23:0.312349 24:0.312254 25:0.357915 26:0.500058 27:0.458814 28:0.393594 29:0.523303 30:0.491204 31:0.375167 32:0.381812 33:0.384014 34:0.631563 35:0.637221 36:0.644196 37:5.66888e-05 38:0.00312153 39:0.0088767 40:8.32938e-05 41:0.000981857 42:0.0410716 43:0.248895 44:0.249643 45:0.22434 46:0.120521 47:0.127957 48:0.12215 
0 0 0 0 32 0 0 0 0 0 1:0.703973 2:0.554495 3:0.717463 4:0.897675 5:0.914119 6:0.78684 7:0.553621 8:0.544536 9:0.533359 10:0.354623 11:0.354528 12:0.354361 13:0.0162176 14:0.0339047 15:0.106925 16:0.0204176 17:0.0285017 18:0.0801362 19:0.938329 20:0.938326 21:0.938346 22:0.939405 23:0.939461 24:0.939356 25:0.357945 26:0.51754 27:0.450026 28:0.393712 29:0.529629 30:0.51444 31:0.430263 32:0.436371 33:0.448308 34:0.651114 35:0.656845 36:0.664325 37:8.77023e-05 38:0.0154664 39:0.0311615 40:0.000107509 41:0.00310359 42:0.0409407 43:0.354934 44:0.35378 45:0.344575 46:0.117807 47:0.126344 48:0.117807 
0 0 0 0 0 0 0 0 0 0.7351848794301196 1:0.702819 2:0.546568 3:0.732332 4:0.897732 5:0.910045 6:0.795962 7:0.579695 8:0.571493 9:0.5596 10:0.328523 11:0.328489 12:0.328127 13:0.0135817 14:0.0243359 15:0.0383844 16:0.0170823 17:0.0203794 18:0.0546249 19:0.667714 20:0.667629 21:0.667653 22:0.666032 23:0.666053 24:0.666012 25:0.358088 26:0.497146 27:0.475696 28:0.393742 29:0.535429 30:0.549526 31:0.469443 32:0.475619 33:0.479425 34:0.632299 35:0.637821 36:0.643605 37:7.61818e-05 38:0.00564039 39:0.00776948 40:6.93193e-05 41:0.00428323 42:0.0284078 43:0.403535 44:0.400856 45:0.379765 46:0.109121 47:0.11828 48:0.108578 
0 0 0.05802561910673378 0 0 0 0 0 0 0 1:0.702754 2:0.542305 3:0.700811 4:0.898362 5:0.914184 6:0.763155 7:0.568198 8:0.559984 9:0.55077 10:0.308548 11:0.308446 12:0.308805 13:0.013651 14:0.0234207 15:0.0452026 16:0.0168027 17:0.0197568 18:0.0441916 19:0.656633 20:0.656611 21:0.656754 22:0.663427 23:0.663448 24:0.663406 25:0.358092 26:0.49264 27:0.426378 28:0.3942 29:0.541126 30:0.528612 31:0.432829 32:0.439473 33:0.444377 34:0.609506 35:0.614764 36:0.621585 37:6.82766e-05 38:0.00430436 39:0.0286473 40:6.06939e-05 41:0.00142336 42:0.0319836 43:0.318115 44:0.318117 45:0.293255 46:0.144951 47:0.152688 48:0.144408 
0 0 0 0 32 0 0 0 0 0 1:0.703034 2:0.544089 3:0.728962 4:0.898211 5:0.921387 6:0.775721 7:0.508849 8:0.49941 9:0.486002 10:0.326755 11:0.326539 12:0.32662 13:0.0104717 14:0.0216974 15:0.0383729 16:0.0141274 17:0.0193248 18:0.0727104 19:0.365946 20:0.365906 21:0.365721 22:0.372205 23:0.372189 24:0.371881 25:0.358552 26:0.49427 27:0.498469 28:0.393306 29:0.552516 30:0.49894 31:0.423124 32:0.430174 33:0.437658 34:0.606856 35:0.611959 36:0.618987 37:5.14502e-05 38:0.00296601 39:0.0150261 40:6.14129e-05 41:0.00426347 42:0.0329128 43:0.240059 44:0.241084 45:0.209677 46:0.140065 47:0.148387 48:0.138979 
0 0 0 0 32 0 0 0 0 0 1:0.703364 2:0.544566 3:0.722502 4:0.897495 5:0.909929 6:0.780441 7:0.572471 8:0.564227 9:0.553075 10:0.347959 11:0.347931 12:0.347903 13:0.000250407 14:0.000726907 15:0.000954374 16:0.000315851 17:0.00118745 18:0.00246006 19:0.175362 20:0.175373 21:0.175501 22:0.17721 23:0.177233 24:0.177298 25:0.358371 26:0.493496 27:0.457442 28:0.394678 29:0.531496 30:0.552169 31:0.34628 32:0.354006 33:0.357871 34:0.635721 35:0.641279 36:0.647672 37:7.69338e-05 38:0.0101528 39:0.0195792 40:8.59193e-05 41:0.00960682 42:0.0407431 43:0.434462 44:0.430813 45:0.406158 46:0.113464 47:0.122043 48:0.112921 
0 0 0 0 24.3664749435526 0 0 0 0 0 1:0.703213 2:0.54524 3:0.721334 4:0.897727 5:0.910458 6:0.779089 7:0.52523 8:0.516048 9:0.503783 10:0.315961 11:0.31592 12:0.315928 13:0.000335594 14:0.000962719 15:0.0024386 16:0.000372967 17:0.000637707 18:0.00352974 19:0.176312 20:0.176323 21:0.176451 22:0.17721 23:0.177233 24:0.177362 25:0.358465 26:0.531822 27:0.447396 28:0.394538 29:0.534588 30:0.495774 31:0.311659 32:0.31959 33:0.324032 34:0.639082 35:0.644672 36:0.651217 37:7.53129e-05 38:0.0250989 39:0.0191929 40:8.45112e-05 41:0.00330179 42:0.0753542 43:0.427099 44:0.42368 45:0.398827 46:0.124864 47:0.133333 48:0.124321 
0 0 0 2.190998410606662 0 0.4244403053564595 0 0 1.505162292035628 0 1:0.703716 2:0.546916 3:0.738787 4:0.898309 5:0.90902 6:0.781386 7:0.580279 8:0.572073 9:0.55959 10:0.347064 11:0.347048 12:0.347001 13:0.0106138 14:0.020013 15:0.0412017 16:0.0131748 17:0.0160898 18:0.0469739 19:0.311303 20:0.311323 21:0.311037 22:0.312373 23:0.312349 24:0.311936 25:0.358481 26:0.49584 27:0.496476 28:0.393582 29:0.538709 30:0.525551 31:0.397414 32:0.404257 33:0.405611 34:0.634963 35:0.640646 36:0.647797 37:5.17714e-05 38:0.00615007 39:0.0174399 40:5.67584e-05 41:0.00166894 42:0.0106285 43:0.332842 44:0.332382 45:0.313783 46:0.109121 47:0.117204 48:0.107492 
0.1352384024696344 9.644202973762283 0 1.419484874767593 0 5.603581830867814 1.733752616667171 1.864254109081519 2.453719029387302 0.6887857170359818 1:0.703097 2:0.544948 3:0.720784 4:0.897618 5:0.910024 6:0.779264 7:0.578743 8:0.570605 9:0.559775 10:0.344312 11:0.344282 12:0.344281 13:0.000241351 14:0.000902938 15:0.00236812 16:0.000324368 17:0.00127526 18:0.00254129 19:0.175995 20:0.176006 21:0.176134 22:0.175622 23:0.175645 24:0.175709 25:0.358708 26:0.502747 27:0.44382 28:0.394416 29:0.521385 30:0.523519 31:0.348345 32:0.355965 33:0.359783 34:0.636803 35:0.642424 36:0.648841 37:8.48689e-05 38:0.00787742 39:0.0107894 40:8.39148e-05 41:0.00614988 42:0.0343307 43:0.418262 44:0.415121 45:0.390029 46:0.129207 47:0.137634 48:0.128664 
0 0 0 0.6634210872787093 0 0 0 0 0 0 1:0.704243 2:0.551869 3:0.734217 4:0.898389 5:0.916877 6:0.825117 7:0.578614 8:0.570137 9:0.558035 10:0.344057 11:0.343916 12:0.342914 13:0.010538 14:0.0200072 15:0.0478452 16:0.0131989 17:0.0162028 18:0.0600846 19:0.31105 20:0.311006 21:0.310847 22:0.313834 23:0.31381 24:0.313398 25:0.357894 26:0.523816 27:0.516047 28:0.393643 29:0.550033 30:0.623523 31:0.407486 32:0.413259 33:0.41932 34:0.636022 35:0.641327 36:0.64761 37:5.43583e-05 38:0.0107353 39:0.033993 40:6.2486e-05 41:0.00283431 42:0.0784296 43:0.343152 44:0.339515 45:0.316716 46:0.117264 47:0.125806 48:0.119435 
0 0 0 0 20.33634614417778 0 0 0 0 0 1:0.703293 2:0.546509 3:0.752602 4:0.897392 5:0.918054 6:0.759202 7:0.497084 8:0.487302 9:0.471361 10:0.350343 11:0.350182 12:0.350621 13:0.0163155 14:0.028022 15:0.0646493 16:0.0199038 17:0.0272148 18:0.0378595 19:0.93529 20:0.935349 21:0.935432 22:0.941438 23:0.941431 24:0.941771 25:0.358073 26:0.497942 27:0.647648 28:0.393672 29:0.546528 30:0.522078 31:0.307058 32:0.315271 33:0.322378 34:0.645275 35:0.65081 36:0.657479 37:9.70716e-05 38:0.00460768 39:0.0871606 40:0.000109587 41:0.00572417 42:0.0169342 43:0.316642 44:0.31669 45:0.300587 46:0.12595 47:0.133871 48:0.124864 
0 0 0 0 32 0 0 0 0 0 1:0.703278 2:0.544871 3:0.722075 4:0.897757 5:0.910353 6:0.780371 7:0.566696 8:0.558326 9:0.54707 10:0.341417 11:0.341381 12:0.341358 13:0.000307247 14:0.000610657 15:0.00199284 16:0.000374911 17:0.00106651 18:0.00326558 19:0.181377 20:0.181389 21:0.181457 22:0.181466 23:0.181425 24:0.181558 25:0.358287 26:0.504286 27:0.472633 28:0.394448 29:0.564992 30:0.532338 31:0.339983 32:0.347693 33:0.351326 34:0.635883 35:0.641415 36:0.647807 37:8.34372e-05 38:0.0142123 39:0.0205327 40:9.17286e-05 41:0.0108252 42:0.0503577 43:0.424153 44:0.420827 45:0.395894 46:0.12975 47:0.137634 48:0.128664 
0 0 0 0 27.11554880814005 0 0 0 0 0 1:0.70303 2:0.547522 3:0.72036 4:0.897657 5:0.907412 6:0.786967 7:0.617224 8:0.609699 9:0.599907 10:0.315947 11:0.315953 12:0.31579 13:0.0161852 14:0.0323625 15:0.0560092 16:0.0200343 17:0.0241347 18:0.0713672 19:0.938709 20:0.938705 21:0.938473 22:0.94201 23:0.942066 24:0.942153 25:0.358213 26:0.502495 27:0.415533 28:0.394037 29:0.534799 30:0.516704 31:0.427205 32:0.433848 33:0.434701 34:0.609434 35:0.614802 36:0.620953 37:9.1823e-05 38:0.00645409 39:0.0231063 40:0.000100645 41:0.00254808 42:0.0392859 43:0.326951 44:0.326676 45:0.297654 46:0.165038 47:0.173656 48:0.165581 
0 0 0 0 6.425890792579038 2.091097929913859 0.945899676207989 0 0 1.244941516624334 1:0.703288 2:0.546264 3:0.72467 4:0.897259 5:0.910644 6:0.77808 7:0.577136 8:0.568903 9:0.557665 10:0.338103 11:0.338061 12:0.338088 13:0.00261569 14:0.00784526 15:0.00834848 16:0.00380577 17:0.00511141 18:0.00771929 19:0.249443 20:0.249395 21:0.249447 22:0.250445 23:0.250476 24:0.250529 25:0.35836 26:0.516948 27:0.518293 28:0.394618 29:0.532302 30:0.508329 31:0.273905 32:0.28223 33:0.28505 34:0.610867 35:0.61617 36:0.622455 37:5.47542e-05 38:0.013869 39:0.0433628 40:4.3473e-05 41:0.00236077 42:0.03571 43:0.419735 44:0.416548 45:0.388563 46:0.143322 47:0.151613 48:0.14278 
0.1444504803069912 0 0 2.470269006876415 0 1.017578160891516 2.683618377412678 0.2925778819849855 0.3865701190689549 2.448504540059443 1:0.703572 2:0.550176 3:0.720113 4:0.897866 5:0.909899 6:0.795016 7:0.601732 8:0.593778 9:0.583606 10:0.318592 11:0.318559 12:0.318219 13:0.0136915 14:0.0224296 15:0.0345921 16:0.0170702 17:0.0200805 18:0.0685325 19:0.664168 20:0.66421 21:0.664168 22:0.667429 23:0.66745 24:0.667347 25:0.357864 26:0.504985 27:0.446443 28:0.394398 29:0.531193 30:0.64396 31:0.394427 32:0.400997 33:0.402883 34:0.600745 35:0.606107 36:0.611634 37:6.67428e-05 38:0.00276872 39:0.0125514 40:6.79821e-05 41:0.00440451 42:0.119017 43:0.310751 44:0.312411 45:0.28739 46:0.17101 47:0.179032 48:0.169924 
0 0 0 0 32 0 0 0 0 0 1:0.703021 2:0.547328 3:0.720631 4:0.897946 5:0.912621 6:0.777387 7:0.564849 8:0.556332 9:0.545155 10:0.342499 11:0.342426 12:0.342468 13:0.00354486 14:0.009826 15:0.023967 16:0.00477591 17:0.00800308 18:0.0149257 19:0.558239 20:0.558274 21:0.558476 22:0.559896 23:0.559967 24:0.560298 25:0.358545 26:0.540657 27:0.472326 28:0.394153 29:0.585276 30:0.509092 31:0.369312 32:0.376341 33:0.379935 34:0.626359 35:0.631801 36:0.638234 37:4.2066e-05 38:0.0379418 39:0.0450811 40:3.22276e-05 41:0.0124015 42:0.0399049 43:0.371134 44:0.368046 45:0.344575 46:0.131922 47:0.140323 48:0.131922 
0 0 0 0 32 0 0 0 0 0 1:0.704268 2:0.551287 3:0.750463 4:0.897751 5:0.916698 6:0.764804 7:0.523522 8:0.51401 9:0.498952 10:0.346387 11:0.346248 12:0.346565 13:0.0162029 14:0.0308358 15:0.0423332 16:0.02101 17:0.0228726 18:0.0417995 19:0.949473 20:0.949407 21:0.949562 22:0.945185 23:0.945242 24:0.945649 25:0.357472 26:0.51117 27:0.534314 28:0.39362 29:0.525845 30:0.521299 31:0.470138 32:0.475786 33:0.481233 34:0.644677 35:0.650276 36:0.656959 37:9.27542e-05 38:0.00775543 39:0.020916 40:0.00010631 41:0.00399722 42:0.0166718 43:0.382916 44:0.380884 45:0.357771 46:0.127036 47:0.135484 48:0.127036 
0 0 0 0 32 0 0 0 0 0 1:0.703338 2:0.547719 3:0.730376 4:0.897862 5:0.914569 6:0.756265 7:0.508648 8:0.49903 9:0.485482 10:0.326638 11:0.326532 12:0.327038 13:0.0137548 14:0.0273288 15:0.0399495 16:0.0164954 17:0.0200728 18:0.0330612 19:0.660685 20:0.660664 21:0.66062 22:0.660696 23:0.66078 24:0.660863 25:0.358375 26:0.498562 27:0.511565 28:0.393743 29:0.533909 30:0.502452 31:0.297258 32:0.305468 33:0.310993 34:0.635816 35:0.641305 36:0.647931 37:6.45941e-05 38:0.0139441 39:0.0390465 40:7.07029e-05 41:0.00107351 42:0.0247894 43:0.381443 44:0.379458 45:0.353372 46:0.108035 47:0.116667 48:0.107492 
0 0 0 0 32 0 0 0 0 0 1:0.703317 2:0.544754 3:0.729379 4:0.898475 5:0.910735 6:0.76216 7:0.583461 8:0.575423 9:0.56391 10:0.323331 11:0.323286 12:0.323665 13:0.0161624 14:0.0333887 15:0.0509289 16:0.0201426 17:0.0240015 18:0.0517658 19:0.951056 20:0.951053 21:0.951083 22:0.953887 23:0.953945 24:0.953849 25:0.358153 26:0.508081 27:0.446876 28:0.394139 29:0.53351 30:0.479829 31:0.440808 32:0.447334 33:0.447789 34:0.604067 35:0.609379 36:0.615544 37:0.000100157 38:0.0158704 39:0.0120035 40:9.94743e-05 41:0.00131319 42:0.0501385 43:0.318115 44:0.318117 45:0.284457 46:0.162324 47:0.17043 48:0.160152 
0 0 0 0 32 0 0 0 0 0 1:0.703284 2:0.546403 3:0.72774 4:0.898865 5:0.913818 6:0.796899 7:0.541181 8:0.532248 9:0.519793 10:0.344969 11:0.344877 12:0.344491 13:0.0104872 14:0.0210353 15:0.0247799 16:0.0130952 17:0.014727 18:0.0480587 19:0.309784 20:0.30974 21:0.309643 22:0.311865 23:0.311841 24:0.311555 25:0.357703 26:0.502431 27:0.461667 28:0.393447 29:0.536191 30:0.546471 31:0.428226 32:0.434599 33:0.435317 34:0.628902 35:0.63434 36:0.640305 37:4.44363e-05 38:0.00596133 39:0.0129283 40:5.66413e-05 41:0.00183996 42:0.0202582 43:0.396171 44:0.39087 45:0.363636 46:0.100434 47:0.108602 48:0.10152 
0 0 0 0 32 0 0 0 0 0 1:0.702978 2:0.541468 3:0.719756 4:0.897813 5:0.912021 6:0.78495 7:0.549721 8:0.541191 9:0.529714 10:0.344818 11:0.344755 12:0.344629 13:0.00395129 14:0.0148867 15:0.0160182 16:0.00488977 17:0.0159613 18:0.0132768 19:0.558049 20:0.558021 21:0.558222 22:0.559578 23:0.559586 24:0.559853 25:0.358536 26:0.467977 27:0.437584 28:0.394286 29:0.574871 30:0.541453 31:0.362241 32:0.369935 33:0.374585 34:0.632889 35:0.638379 36:0.644674 37:2.40469e-05 38:0.045801 39:0.0296378 40:2.92126e-05 41:0.047228 42:0.0206174 43:0.396171 44:0.392297 45:0.368035 46:0.123779 47:0.13172 48:0.123779 
0 0 0 0 32 0 0 0 0 0 1:0.703123 2:0.546273 3:0.733845 4:0.898096 5:0.911271 6:0.786473 7:0.549305 8:0.540533 9:0.527714 10:0.339437 11:0.339385 12:0.339227 13:0.0038055 14:0.00920756 15:0.0282537 16:0.00441766 17:0.00928407 18:0.023375 19:0.545132 20:0.545103 21:0.545169 22:0.543826 23:0.543832 24:0.544024 25:0.358442 26:0.508758 27:0.507929 28:0.394329 29:0.520667 30:0.598727 31:0.349689 32:0.357086 33:0.359563 34:0.627962 35:0.633439 36:0.639352 37:4.1695e-05 38:0.0130646 39:0.0631961 40:4.08421e-05 41:0.0199666 42:0.0871844 43:0.372607 44:0.370899 45:0.346041 46:0.12215 47:0.130645 48:0.121064 
0 0 0 0 32 0 0 0 0 0 1:0.703244 2:0.547126 3:0.717547 4:0.898541 5:0.91127 6:0.778763 7:0.570729 8:0.56233 9:0.551595 10:0.343188 11:0.343137 12:0.343147 13:0.0103539 14:0.019053 15:0.018904 16:0.0129925 17:0.0152412 18:0.0515177 19:0.313329 20:0.313349 21:0.313319 22:0.315485 23:0.315462 24:0.315242 25:0.357955 26:0.495282 27:0.442106 28:0.393711 29:0.539702 30:0.532842 31:0.465527 32:0.471507 33:0.474387 34:0.623076 35:0.628486 36:0.634598 37:5.92135e-05 38:0.00386076 39:0.00705802 40:5.13903e-05 41:0.00146959 42:0.0214811 43:0.430044 44:0.426534 45:0.406158 46:0.106406 47:0.113978 48:0.10532 
0 0 0 0 32 0 0 0 0 0 1:0.703061 2:0.543067 3:0.738636 4:0.897636 5:0.910989 6:0.784025 7:0.555099 8:0.546599 9:0.533479 10:0.343871 11:0.343825 12:0.343721 13:0.00372378 14:0.0138319 15:0.0376903 16:0.00460188 17:0.00657746 18:0.0144205 19:0.551084 20:0.551119 21:0.551189 22:0.552337 23:0.552344 24:0.552606 25:0.358453 26:0.505592 27:0.511355 28:0.393894 29:0.543372 30:0.547053 31:0.346894 32:0.354729 33:0.362389 34:0.631406 35:0.636927 36:0.643249 37:3.07621e-05 38:0.0607113 39:0.0481626 40:3.35648e-05 41:0.00383933 42:0.0398781 43:0.379971 44:0.376605 45:0.360704 46:0.118893 47:0.127419 48:0.118893 
0 0 0 0 23.84689656859797 0 0 0 0 0 1:0.70359 2:0.547327 3:0.730002 4:0.897221 5:0.918084 6:0.784513 7:0.490974 8:0.481031 9:0.467066 10:0.358034 11:0.357875 12:0.357757 13:0.0163155 14:0.0327578 15:0.0309097 16:0.0211989 17:0.0220085 18:0.0884358 19:0.949916 20:0.949913 21:0.950449 22:0.951029 23:0.95115 24:0.95137 25:0.357949 26:0.503532 27:0.541795 28:0.393692 29:0.536765 30:0.504858 31:0.388533 32:0.395554 33:0.398746 34:0.637127 35:0.642606 36:0.649715 37:8.98984e-05 38:0.0156187 39:0.0638872 40:0.00012023 41:0.00270809 42:0.0703487 43:0.265096 44:0.268188 45:0.240469 46:0.12215 47:0.130645 48:0.124864 
0 0 0 0 32 0 0 0 0 0 1:0.703682 2:0.54687 3:0.709502 4:0.898349 5:0.90291 6:0.72766 7:0.544875 8:0.535993 9:0.525344 10:0.353067 11:0.353151 12:0.35428 13:0.0161565 14:0.0305165 15:0.0483202 16:0.0203963 17:0.0248006 18:0.0702799 19:0.938836 20:0.938895 21:0.93879 22:0.940422 23:0.940414 24:0.940309 25:0.357784 26:0.497341 27:0.422239 28:0.394253 29:0.514466 30:0.466837 31:0.405371 32:0.412263 33:0.412565 34:0.648062 35:0.65384 36:0.659781 37:9.08644e-05 38:0.00570745 39:0.0165683 40:0.000113846 41:0.00244915 42:0.0571961 43:0.307806 44:0.308131 45:0.282991 46:0.119978 47:0.128495 48:0.120521 
0 0 0.1716953299901622 0 5.765553098244344 0 0 0 0 0 1:0.702832 2:0.549718 3:0.714382 4:0.899449 5:0.918049 6:0.740241 7:0.483984 8:0.473789 9:0.461106 10:0.328133 11:0.327971 12:0.328828 13:0.0110055 14:0.0190336 15:0.0242045 16:0.0138969 17:0.0169957 18:0.0505519 19:0.371518 20:0.371478 21:0.371487 22:0.370554 23:0.370601 24:0.370483 25:0.358429 26:0.513021 27:0.37847 28:0.393636 29:0.557704 30:0.474585 31:0.255071 32:0.26322 33:0.269455 34:0.615957 35:0.621216 36:0.627267 37:4.37242e-05 38:0.00532328 39:0.0552545 40:4.96173e-05 41:0.0055865 42:0.0434147 43:0.381443 44:0.378031 45:0.35044 46:0.100977 47:0.109677 48:0.103149 
0 0 0 0 32 0 0 0 0 0 1:0.703176 2:0.551726 3:0.723125 4:0.898036 5:0.91493 6:0.789862 7:0.572945 8:0.564363 9:0.55316 10:0.343783 11:0.343673 12:0.343441 13:0.0106286 14:0.0201338 15:0.0222813 16:0.01326 17:0.0149299 18:0.0373465 19:0.313646 20:0.313666 21:0.313635 22:0.316247 23:0.316288 24:0.316195 25:0.358086 26:0.528344 27:0.486893 28:0.393973 29:0.538158 30:0.550157 31:0.398577 32:0.404673 33:0.4065 34:0.600993 35:0.606156 36:0.612066 37:4.73394e-05 38:0.0116036 39:0.0125877 40:4.42955e-05 41:0.000918164 42:0.0313365 43:0.343152 44:0.342368 45:0.318182 46:0.158523 47:0.166667 48:0.156895 
0 0 0 0 32 0 0 0 0 0 1:0.703825 2:0.550494 3:0.726742 4:0.897589 5:0.909436 6:0.788228 7:0.554774 8:0.545901 9:0.533889 10:0.341889 11:0.341867 12:0.341671 13:0.0160762 14:0.0428756 15:0.0743842 16:0.0201565 17:0.0236655 18:0.0329588 19:0.941305 20:0.941302 21:0.941388 22:0.939596 23:0.939652 24:0.940055 25:0.357673 26:0.485726 27:0.357631 28:0.394066 29:0.533873 30:0.554837 31:0.482685 32:0.489245 33:0.493139 34:0.646865 35:0.652659 36:0.658983 37:9.35361e-05 38:0.0362588 39:0.0377512 40:0.000107465 41:0.0027118 42:0.0435874 43:0.402062 44:0.400856 45:0.376833 46:0.110206 47:0.118817 48:0.109121 
0 0 0 0 32 0 0 0 0 0 1:0.702904 2:0.545918 3:0.720424 4:0.897899 5:0.911854 6:0.780365 7:0.51669 8:0.50731 9:0.494907 10:0.315651 11:0.315588 12:0.315569 13:0.00482303 14:0.0122092 15:0.0141993 16:0.00629129 17:0.0111865 18:0.0160758 19:0.837466 20:0.837519 21:0.837977 22:0.838669 23:0.838712 24:0.839236 25:0.35851 26:0.51065 27:0.410223 28:0.39463 29:0.48511 30:0.534168 31:0.353051 32:0.360492 33:0.364049 34:0.635403 35:0.640974 36:0.647313 37:2.29763e-05 38:0.0245688 39:0.0517463 40:3.8489e-05 41:0.0151852 42:0.0338504 43:0.381443 44:0.379458 45:0.354839 46:0.12215 47:0.130645 48:0.12215 
0 0 0 0 32 0 0 0 0 0 1:0.703286 2:0.551436 3:0.726551 4:0.898949 5:0.91685 6:0.792669 7:0.477837 8:0.467445 9:0.453455 10:0.333264 11:0.333122 12:0.332831 13:0.0112765 14:0.0195398 15:0.0273896 16:0.0135164 17:0.0156345 18:0.0348943 19:0.368162 20:0.368185 21:0.368066 22:0.369665 23:0.369712 24:0.36972 25:0.357949 26:0.511113 27:0.437235 28:0.392927 29:0.54009 30:0.604799 31:0.345166 32:0.352291 33:0.355354 34:0.635382 35:0.640766 36:0.648341 37:5.66091e-05 38:0.00705382 39:0.0209466 40:5.50807e-05 41:0.00322285 42:0.0410153 43:0.351988 44:0.352354 45:0.326979 46:0.153637 47:0.161828 48:0.154723 
0 0 0 0 0 0 0.2996141090257322 0 0 0 1:0.703823 2:0.54763 3:0.744842 4:0.897221 5:0.911771 6:0.772464 7:0.583977 8:0.575808 9:0.56285 10:0.342075 11:0.342014 12:0.342165 13:0.0104791 14:0.0193685 15:0.0309648 16:0.0132072 17:0.0172543 18:0.0329959 19:0.310227 20:0.310247 21:0.310024 22:0.312564 23:0.312476 24:0.312381 25:0.357952 26:0.505157 27:0.507952 28:0.393667 29:0.544595 30:0.483741 31:0.410037 32:0.416554 33:0.417918 34:0.634978 35:0.640516 36:0.64757 37:4.83254e-05 38:0.00636435 39:0.024468 40:5.07149e-05 41:0.00283948 42:0.0457716 43:0.371134 44:0.370899 45:0.35044 46:0.109663 47:0.117204 48:0.108578 
0 0 0 0 31.52118370470104 0 0 0 0 0 1:0.702942 2:0.549011 3:0.720378 4:0.89687 5:0.903081 6:0.788063 7:0.564012 8:0.555391 9:0.544214 10:0.337238 11:0.337317 12:0.337127 13:0.0106101 14:0.0211424 15:0.029617 16:0.0132739 17:0.0210592 18:0.0402286 19:0.314596 20:0.314616 21:0.314586 22:0.318343 23:0.318257 24:0.318102 25:0.358189 26:0.498761 27:0.399682 28:0.39436 29:0.434614 30:0.529383 31:0.411453 32:0.417592 33:0.420547 34:0.606248 35:0.611887 36:0.617807 37:4.84001e-05 38:0.00662685 39:0.0470221 40:4.26478e-05 41:0.0205169 42:0.0198191 43:0.33137 44:0.329529 45:0.309384 46:0.165038 47:0.172043 48:0.161781 
0 0 0.5649528237100108 0 0 0 0 0 0 0 1:0.703208 2:0.543328 3:0.720896 4:0.897707 5:0.909868 6:0.780535 7:0.526068 8:0.516994 9:0.504793 10:0.310906 11:0.310874 12:0.310853 13:0.000250554 14:0.00314539 15:0.00200761 16:0.000328811 17:0.000910877 18:0.00179448 19:0.171943 20:0.171954 21:0.172079 22:0.172637 23:0.172659 24:0.172785 25:0.358609 26:0.35401 27:0.437779 28:0.394219 29:0.522673 30:0.552017 31:0.342772 32:0.350736 33:0.354794 34:0.639978 35:0.64558 36:0.651998 37:7.30172e-05 38:0.25834 39:0.0290929 40:8.87926e-05 41:0.00847883 42:0.0315309 43:0.441826 44:0.439372 45:0.414956 46:0.125407 47:0.133871 48:0.124864 
0 0 0.3924303358853444 0 0 0 0 0 0 0 1:0.703109 2:0.544912 3:0.723407 4:0.897955 5:0.912353 6:0.790182 7:0.514709 8:0.505345 9:0.492612 10:0.304618 11:0.304545 12:0.304313 13:0.00485028 14:0.0111523 15:0.0154438 16:0.00657826 17:0.00919395 18:0.0171746 19:0.840315 20:0.840305 21:0.840892 22:0.84159 23:0.841697 24:0.84216 25:0.358626 26:0.505522 27:0.44493 28:0.394313 29:0.535783 30:0.534839 31:0.343388 32:0.351014 33:0.355128 34:0.633243 35:0.638771 36:0.645081 37:2.38926e-05 38:0.00914204 39:0.0250616 40:1.86344e-05 41:0.0060542 42:0.0587959 43:0.37408 44:0.372325 45:0.348974 46:0.12595 47:0.133871 48:0.125407 
0 0 0 0 5.706587878943889 0 0 0 0 0 1:0.703156 2:0.545947 3:0.697935 4:0.898964 5:0.909782 6:0.764431 7:0.503978 8:0.494353 9:0.483742 10:0.331069 11:0.33104 12:0.331368 13:0.0106749 14:0.022893 15:0.040493 16:0.0140422 17:0.015794 18:0.0344952 19:0.368732 20:0.368755 21:0.368509 22:0.37049 23:0.370474 24:0.370228 25:0.35822 26:0.501128 27:0.426091 28:0.39392 29:0.538029 30:0.524154 31:0.284541 32:0.292892 33:0.296597 34:0.603697 35:0.608939 36:0.615414 37:4.79719e-05 38:0.00790105 39:0.0171737 40:4.89473e-05 41:0.00128186 42:0.0172188 43:0.452135 44:0.447932 45:0.434018 46:0.104235 47:0.112366 48:0.102606 
0 0 0 0 22.94525707366371 0 0 0 0 0 1:0.703001 2:0.550828 3:0.721993 4:0.897515 5:0.915641 6:0.754481 7:0.559041 8:0.550237 9:0.538779 10:0.342411 11:0.342289 12:0.342832 13:0.0104172 14:0.019386 15:0.0229214 16:0.012974 17:0.0190987 18:0.0455898 19:0.31257 20:0.312526 21:0.312558 22:0.312373 23:0.312413 24:0.312445 25:0.358318 26:0.508491 27:0.397782 28:0.394344 29:0.576692 30:0.415152 31:0.445851 32:0.451405 33:0.454551 34:0.610782 35:0.61603 36:0.623233 37:4.72548e-05 38:0.0048043 39:0.0512251 40:5.05978e-05 41:0.0110502 42:0.0891605 43:0.409426 44:0.405136 45:0.384164 46:0.115092 47:0.123656 48:0.119435 
0 0 0 0 32 0 0 0 0 0 1:0.704426 2:0.542988 3:0.729634 4:0.898602 5:0.903061 6:0.735429 7:0.605976 8:0.598454 9:0.587501 10:0.318716 11:0.318793 12:0.319756 13:0.0160748 14:0.0334042 15:0.0542298 16:0.0201084 17:0.030072 18:0.11374 19:0.943521 20:0.943455 21:0.943479 22:0.942327 23:0.94232 24:0.942153 25:0.35797 26:0.486051 27:0.486983 28:0.394058 29:0.514755 30:0.511023 31:0.443765 32:0.450552 33:0.452728 34:0.613573 35:0.618954 36:0.623436 37:9.51843e-05 38:0.0135848 39:0.0434724 40:9.14807e-05 41:0.00461741 42:0.0314085 43:0.33137 44:0.329529 45:0.29912 46:0.147123 47:0.155376 48:0.150923 
0 0 0 0 32 0 0 0 0 0 1:0.702977 2:0.554196 3:0.713003 4:0.898948 5:0.920819 6:0.756069 7:0.596129 8:0.587877 9:0.578221 10:0.324421 11:0.324214 12:0.324724 13:0.0161712 14:0.0343798 15:0.0468951 16:0.020263 17:0.0265149 18:0.0666277 19:0.95074 20:0.950736 21:0.950702 22:0.956047 23:0.956041 24:0.956265 25:0.358465 26:0.508344 27:0.402892 28:0.393905 29:0.542678 30:0.532799 31:0.454488 32:0.460252 33:0.464275 34:0.602011 35:0.607212 36:0.613371 37:0.000109611 38:0.0206491 39:0.0176162 40:0.000101144 41:0.00525591 42:0.037001 43:0.318115 44:0.318117 45:0.284457 46:0.159066 47:0.167204 48:0.159609 
0 0 0 0 19.38579493887514 0 0 0 0 0 1:0.703037 2:0.543831 3:0.719005 4:0.897476 5:0.91879 6:0.772488 7:0.571562 8:0.563339 9:0.552495 10:0.342479 11:0.342307 12:0.342455 13:0.00408897 14:0.0103673 15:0.0174133 16:0.00481664 17:0.0119396 18:0.0237383 19:0.556086 20:0.556121 21:0.556258 22:0.555386 23:0.555393 24:0.555594 25:0.358519 26:0.486562 27:0.406839 28:0.39428 29:0.633728 30:0.51336 31:0.351642 32:0.359197 33:0.362965 34:0.631627 35:0.637086 36:0.643798 37:1.87286e-05 38:0.0220775 39:0.025011 40:3.94803e-05 41:0.0241956 42:0.0534082 43:0.384389 44:0.382311 45:0.357771 46:0.122693 47:0.130645 48:0.12215 
0 0 0 0 32 0 0 0 0 0 1:0.703361 2:0.549955 3:0.72628 4:0.898047 5:0.9151 6:0.732466 7:0.585484 8:0.577232 9:0.566055 10:0.342849 11:0.342736 12:0.343759 13:0.0159739 14:0.0297395 15:0.0366476 16:0.0198899 17:0.0268075 18:0.123777 19:0.944028 20:0.944024 21:0.944303 22:0.941247 23:0.941176 24:0.940691 25:0.35778 26:0.50046 27:0.457474 28:0.394197 29:0.5562 30:0.468128 31:0.46642 32:0.472439 33:0.475528 34:0.629761 35:0.635237 36:0.639101 37:9.73878e-05 38:0.00632315 39:0.0170453 40:0.000106536 41:0.0073705 42:0.0705057 43:0.410898 44:0.407989 45:0.38563 46:0.114007 47:0.122581 48:0.119435 
0 0 0 0 13.53611259209573 0 0 0 0 0 1:0.703532 2:0.545053 3:0.721622 4:0.897561 5:0.910363 6:0.779939 7:0.561481 8:0.553006 9:0.541649 10:0.342325 11:0.342289 12:0.342275 13:0.00027706 14:0.000483696 15:0.00189697 16:0.000343252 17:0.000784668 18:0.00178118 19:0.180997 20:0.181009 21:0.181077 22:0.181593 23:0.181616 24:0.181748 25:0.358247 26:0.502781 27:0.461186 28:0.394536 29:0.540661 30:0.539188 31:0.345035 32:0.352682 33:0.356778 34:0.637205 35:0.642775 36:0.649179 37:8.02926e-05 38:0.00919824 39:0.0208779 40:8.1518e-05 41:0.00545422 42:0.0336352 43:0.455081 44:0.450785 45:0.426686 46:0.128664 47:0.137097 48:0.128122 
0 0 0 0 17.17800061479235 0 0 0 0 0 1:0.703254 2:0.543791 3:0.722976 4:0.897823 5:0.910911 6:0.778332 7:0.545143 8:0.536412 9:0.524514 10:0.351553 11:0.351507 12:0.351526 13:0.000525552 14:0.00229191 15:0.00301451 16:0.000679099 17:0.00271699 18:0.00283474 19:0.666574 20:0.666679 21:0.667083 22:0.667556 23:0.667641 24:0.66811 25:0.358465 26:0.44954 27:0.479852 28:0.394289 29:0.684092 30:0.511671 31:0.370203 32:0.37761 33:0.381232 34:0.629296 35:0.634771 36:0.64112 37:0.000113527 38:0.0469314 39:0.045606 40:0.000128872 41:0.049676 42:0.0669396 43:0.405007 44:0.402282 45:0.376833 46:0.123779 47:0.132258 48:0.123236 
0 0 0 0 32 0 0 0 0 0 1:0.704488 2:0.539547 3:0.705454 4:0.897907 5:0.91353 6:0.778212 7:0.525178 8:0.516272 9:0.505508 10:0.33905 11:0.338963 12:0.338986 13:0.0139035 14:0.029132 15:0.0397603 16:0.0167814 17:0.0187394 18:0.0508333 19:0.660622 20:0.660537 21:0.660493 22:0.662919 23:0.663003 24:0.662833 25:0.358804 26:0.468503 27:0.432798 28:0.393783 29:0.534212 30:0.529241 31:0.383775 32:0.392041 33:0.397583 34:0.643349 35:0.648937 36:0.656073 37:7.89929e-05 38:0.019737 39:0.0104484 40:8.92284e-05 41:0.000731536 42:0.018727 43:0.312224 44:0.310984 45:0.282991 46:0.113464 47:0.122043 48:0.112378 
0 0 0 0 32 0 0 0 0 0 1:0.703388 2:0.548672 3:0.727432 4:0.897024 5:0.916565 6:0.778664 7:0.563309 8:0.554694 9:0.542834 10:0.338397 11:0.338261 12:0.338275 13:0.0107066 14:0.0216409 15:0.028945 16:0.0133655 17:0.0169493 18:0.0274953 19:0.317318 20:0.317339 21:0.317184 22:0.320312 23:0.320353 24:0.320264 25:0.358091 26:0.497518 27:0.42828 28:0.393803 29:0.573311 30:0.515464 31:0.38988 32:0.396288 33:0.401293 34:0.601251 35:0.606268 36:0.612476 37:4.95977e-05 38:0.0108247 39:0.0178421 40:4.49982e-05 41:0.00749178 42:0.0203615 43:0.329897 44:0.329529 45:0.302053 46:0.161781 47:0.169892 48:0.162324 
0 0.5522067308712538 0 2.693663503436685 0 0.2902578283511393 3.827662496477624 2.269346268595844 0.2113558164572583 7.513257705602813 1:0.703378 2:0.54403 3:0.743538 4:0.897604 5:0.916619 6:0.781282 7:0.635607 8:0.628606 9:0.617111 10:0.317366 11:0.317226 12:0.317187 13:0.0161263 14:0.0335113 15:0.0658252 16:0.0200649 17:0.029979 18:0.0827574 19:0.953336 20:0.953333 21:0.953554 22:0.955983 23:0.955914 24:0.95582 25:0.358265 26:0.495315 27:0.493659 28:0.394098 29:0.5422 30:0.538681 31:0.436676 32:0.443283 33:0.452535 34:0.607637 35:0.612976 36:0.61967 37:9.20197e-05 38:0.0149133 39:0.0286571 40:9.38883e-05 41:0.00361756 42:0.0527944 43:0.328424 44:0.329529 45:0.313783 46:0.160152 47:0.167742 48:0.162324 
0.1485866839552223 0.727077009164777 0 0 32 0 0 0 0 0 1:0.702946 2:0.542882 3:0.72612 4:0.897684 5:0.913492 6:0.776015 7:0.536148 8:0.527288 9:0.514858 10:0.379599 11:0.379516 12:0.379581 13:0.00408308 14:0.0143294 15:0.0155268 16:0.00479998 17:0.00846131 18:0.0207257 19:0.547792 20:0.547763 21:0.548021 22:0.556784 23:0.556854 24:0.557183 25:0.358788 26:0.495371 27:0.489579 28:0.393973 29:0.524023 30:0.439869 31:0.40292 32:0.410203 33:0.413025 34:0.608959 35:0.614262 36:0.620588 37:2.55707e-05 38:0.0509361 39:0.051784 40:3.98017e-05 41:0.00750862 42:0.0798495 43:0.555228 44:0.547789 45:0.527859 46:0.092291 47:0.100538 48:0.092291 
0 0 0 0 2.072096565688009 0 0 0 0 0 1:0.703809 2:0.551856 3:0.746981 4:0.897625 5:0.91234 6:0.809429 7:0.567194 8:0.558497 9:0.5449 10:0.356658 11:0.35659 12:0.355929 13:0.0160092 14:0.0335717 15:0.0437467 16:0.0201593 17:0.0241455 18:0.0457535 19:0.955805 20:0.955739 21:0.956152 22:0.954967 23:0.955025 24:0.955184 25:0.358023 26:0.503593 27:0.520671 28:0.394165 29:0.538258 30:0.555085 31:0.479347 32:0.484929 33:0.485719 34:0.63302 35:0.63855 36:0.644264 37:9.85606e-05 38:0.0118753 39:0.0284452 40:0.000109647 41:0.00224399 42:0.027404 43:0.4757 44:0.46933 45:0.450147 46:0.0955483 47:0.104301 48:0.0955483 
0 0 0 0 0 0 0.4542569927537448 0 0 0 1:0.702969 2:0.549839 3:0.698024 4:0.899622 5:0.918066 6:0.763954 7:0.559477 8:0.550729 9:0.541539 10:0.312808 11:0.312644 12:0.312985 13:0.0159805 14:0.0380757 15:0.0460098 16:0.0205065 17:0.0265768 18:0.07231 19:0.95036 20:0.950356 21:0.950639 22:0.948933 23:0.94899 24:0.949145 25:0.358259 26:0.523901 27:0.361058 28:0.393886 29:0.54824 30:0.471826 31:0.307647 32:0.315499 33:0.321112 34:0.62178 35:0.62712 36:0.633231 37:9.10836e-05 38:0.0461682 39:0.035814 40:0.00010774 41:0.00543019 42:0.0468231 43:0.350515 44:0.349501 45:0.328446 46:0.120521 47:0.129032 48:0.122693 
0 0 0 0 32 0 0 0 0 0 1:0.703178 2:0.545285 3:0.716101 4:0.897883 5:0.910187 6:0.78339 7:0.515738 8:0.506369 9:0.494352 10:0.328399 11:0.328363 12:0.328276 13:0.00510724 14:0.0124131 15:0.0361069 16:0.00643478 17:0.0105548 18:0.0256251 19:0.836706 20:0.836696 21:0.83709 22:0.835747 23:0.835853 24:0.836375 25:0.358508 26:0.496079 27:0.45101 28:0.393961 29:0.508666 30:0.568281 31:0.36022 32:0.3677 33:0.371262 34:0.630504 35:0.636027 36:0.64238 37:1.90274e-05 38:0.0124725 39:0.0480984 40:1.78528e-05 41:0.0120298 42:0.108018 43:0.369661 44:0.368046 45:0.343109 46:0.130836 47:0.139247 48:0.130293 
0 0 0 0.8028833511141348 24.4303335450398 0.8449621511375929 0.5318630741736985 0 0 0 1:0.703419 2:0.523937 3:0.703335 4:0.897381 5:0.909593 6:0.784525 7:0.618989 8:0.612644 9:0.604527 10:0.318954 11:0.318926 12:0.318816 13:0.0162323 14:0.046922 15:0.0507522 16:0.0201621 17:0.0220549 18:0.0469931 19:0.940292 20:0.940099 21:0.940247 22:0.943725 23:0.943781 24:0.943996 25:0.35821 26:0.416924 27:0.433367 28:0.394621 29:0.529224 30:0.545484 31:0.429939 32:0.438416 33:0.44318 34:0.609248 35:0.614649 36:0.620412 37:9.1096e-05 38:0.0423648 39:0.0293697 40:9.01952e-05 41:0.0017563 42:0.0172901 43:0.315169 44:0.312411 45:0.282991 46:0.169381 47:0.177419 48:0.170467 
0 0 0 0 0.6404276973177474 0 0 0 0 0 1:0.70491 2:0.549513 3:0.764282 4:0.897025 5:0.908421 6:0.799581 7:0.53732 8:0.528161 9:0.512163 10:0.356255 11:0.356252 12:0.355805 13:0.0163126 14:0.0313655 15:0.0514222 16:0.0203491 17:0.0280681 18:0.0785014 19:0.950043 20:0.95004 21:0.950639 22:0.955158 23:0.955152 24:0.955311 25:0.357542 26:0.513841 27:0.510915 28:0.394105 29:0.525405 30:0.53772 31:0.361711 32:0.368694 33:0.370262 34:0.648523 35:0.654238 36:0.661877 37:8.42664e-05 38:0.00806456 39:0.0185279 40:0.000107133 41:0.00598312 42:0.0390104 43:0.268041 44:0.269615 45:0.243402 46:0.119978 47:0.127957 48:0.116178 
0 0 0 0 32 0 0 0 0 0 1:0.70291 2:0.543666 3:0.724354 4:0.897751 5:0.910757 6:0.763837 7:0.555132 8:0.546604 9:0.534829 10:0.345223 11:0.34518 12:0.345519 13:0.0106941 14:0.0202876 15:0.028526 16:0.0131832 17:0.0147874 18:0.0414797 19:0.314849 20:0.314806 21:0.314586 22:0.316057 23:0.316034 24:0.315814 25:0.358206 26:0.500933 27:0.451968 28:0.393808 29:0.531701 30:0.530361 31:0.386785 32:0.3943 33:0.398283 34:0.604096 35:0.609498 36:0.616573 37:4.54322e-05 38:0.00579272 39:0.00675252 40:5.05896e-05 41:0.00176553 42:0.0235082 43:0.337261 44:0.335235 45:0.313783 46:0.159609 47:0.167204 48:0.157438 
0.4722957667818385 0.2559140174717936 0.5759135862165802 0 3.47770030611926 0 0.117197231435969 0.5154719485414839 0.1404488093023949 0.6676673893628692 1:0.703242 2:0.544759 3:0.734718 4:0.89762 5:0.911245 6:0.770225 7:0.519484 8:0.510216 9:0.496542 10:0.339624 11:0.339572 12:0.339772 13:0.000522607 14:0.00580085 15:0.0350758 16:0.000567273 17:0.00335191 18:0.0210583 19:0.659672 20:0.659714 21:0.660113 22:0.662792 23:0.662876 24:0.663469 25:0.358633 26:0.501531 27:0.675939 28:0.394436 29:0.588652 30:0.112158 31:0.383142 32:0.390345 33:0.390719 34:0.630751 35:0.636252 36:0.642964 37:0.000106824 38:0.0865019 39:0.105702 40:0.000114909 41:0.0227728 42:0.583346 43:0.425626 44:0.422254 45:0.404692 46:0.0939197 47:0.103226 48:0.0944625 
0 0 0 0 32 0 0 0 0 0 1:0.703348 2:0.546161 3:0.671586 4:0.898311 5:0.904993 6:0.764138 7:0.537593 8:0.528605 9:0.521338 10:0.351654 11:0.351704 12:0.352034 13:0.016144 14:0.0297882 15:0.0736533 16:0.0201963 17:0.0239396 18:0.0385899 19:0.937316 20:0.937249 21:0.937142 22:0.942518 23:0.942574 24:0.942916 25:0.357884 26:0.512264 27:0.416051 28:0.393779 29:0.517812 30:0.522631 31:0.3583 32:0.365592 33:0.368072 34:0.651192 35:0.657073 36:0.663965 37:9.08869e-05 38:0.0069775 39:0.0179327 40:0.000110268 41:0.00251057 42:0.0188186 43:0.240059 44:0.242511 45:0.221408 46:0.129207 47:0.137634 48:0.12975 
0 0 0 0 32 0 0 0 0 0 1:0.704381 2:0.552833 3:0.687486 4:0.898092 5:0.914274 6:0.776053 7:0.584111 8:0.575696 9:0.568131 10:0.348318 11:0.348218 12:0.348288 13:0.0159467 14:0.0291592 15:0.0513759 16:0.0199779 17:0.0236639 18:0.0479602 19:0.955425 20:0.955422 21:0.955455 22:0.949886 23:0.949943 24:0.950226 25:0.357921 26:0.50433 27:0.38993 28:0.394327 29:0.530713 30:0.518965 31:0.478015 32:0.483672 33:0.486142 34:0.640537 35:0.64613 36:0.652458 37:0.000104828 38:0.00499639 39:0.0184138 40:0.0001074 41:0.00162379 42:0.031911 43:0.435935 44:0.43224 45:0.410557 46:0.105863 47:0.114516 48:0.106406 
