svm_type c_svc
kernel_type rbf
gamma 0.5
nr_class 26
total_sv 4693
rho -0.151107 0.0609712 -0.445492 0.209581 -0.156321 -0.0920675 0.933942 0.306001 -0.32937 1.04233 -0.137402 -0.0293191 0.386329 0.562237 0.0393106 -0.0992793 0.920011 -0.00622497 0.0242855 -0.831576 0.230797 -0.0530992 -0.0272915 0.512311 0.0816923 0.485533 -0.1135 -0.827263 0.345403 -0.160819 0.402214 -0.233147 0.369315 0.6373 0.304011 -1.68496 0.33595 0.87395 0.241259 0.145594 -1.06642 0.121576 1.19293 -1.04329 -0.0792675 0.128386 -0.215959 -1.07429 -1.43926 0.0748496 -0.574734 -0.192563 -0.813164 -0.183326 -0.409716 0.401304 0.381451 -1.59652 -0.471048 0.226747 0.267439 -0.230604 -0.257819 -0.859281 0.593376 -0.464795 -1.6167 -0.625992 0.0667285 -1.65639 -0.638034 -0.429695 -0.315872 0.0288605 0.140352 -0.159077 -3.57784 1.15328 0.504387 -0.268189 -1.07591 0.743983 0.180589 0.171123 0.590416 0.266926 0.0529804 0.0942629 -0.300988 0.323926 0.628068 0.518233 -0.252105 -0.869945 0.0689644 -0.117302 -2.35452 -0.596056 -0.0412801 0.248604 0.385695 -1.27576 0.377221 0.239144 -0.102885 -0.0909843 -0.910999 0.280418 0.284369 -1.22712 -0.651282 0.00146453 -0.340155 -0.0762706 -2.102 -0.609261 0.529616 0.200135 0.33385 0.241662 -0.31977 0.0494206 0.669063 0.209676 0.408361 0.763081 -0.155209 0.457147 -0.302798 -1.084 0.197114 0.145602 -1.30318 -0.316951 -0.0763558 0.329193 0.51897 0.954133 0.421875 0.136955 -0.459159 1.2701 0.100119 1.8109 0.526892 -1.33334 0.446765 1.81035 -0.871486 -1.2488 0.265477 0.358267 -0.179241 0.875042 0.411597 -0.24108 0.0649217 -0.0303742 -0.932262 0.430348 -0.367849 -0.216239 -0.533879 -1.04855 0.066068 -0.182182 -2.00749 -1.17078 -0.394176 0.156211 -1.25872 -1.82138 0.892727 0.458864 -0.478611 -1.17627 0.358574 0.767021 0.0718922 0.096572 -2.02154 0.0772056 0.659227 -0.938233 -0.528684 0.185727 -1.09773 -1.34861 -2.01465 0.868051 -0.520725 -0.360939 0.351489 -0.412633 0.0355937 -0.211479 -1.13365 -0.11605 0.086148 -1.32087 -1.12855 0.53448 -0.1885 -0.325303 0.000123537 -0.885063 -1.96873 0.232361 -0.517536 -0.574601 -0.300637 -0.648741 -0.265531 -0.173347 -0.963727 -0.421062 -0.0301917 -1.03884 -1.19032 -0.827231 -0.769314 0.227371 0.479011 -0.121835 0.385787 -0.774407 1.04588 0.123967 -0.350764 0.123905 0.0930435 0.42519 -1.32777 0.208574 0.684254 0.583511 0.495958 0.250543 0.848362 0.758481 0.411345 0.9998 0.343401 0.437632 -0.549248 0.426833 -0.34282 -0.0593365 -0.675645 -0.683736 -0.36499 -0.10723 -0.00490356 -0.358688 -1.36633 -0.73945 -0.104359 -0.212677 -0.475952 -0.254329 -0.325903 -1.91775 0.357096 -0.0201654 -1.0398 0.785236 -0.493735 -1.0084 -1.00658 -1.53978 -0.429019 -0.429483 0.14292 0.246938 -0.254297 -0.156987 0.537492 0.244943 -0.00981754 -0.0491037 -0.131029 -0.0782336 0.13257 -0.977935 0.335229 -0.103117 0.237617 -0.254971 0.315451 0.32697 0.847513 0.0435738 1.13205 0.441765 -0.1071 -0.300692 -0.47584 0.56283 -0.948314 -0.355472 0.0263747 -0.626763 -0.258847 -0.196302 -0.60897 -1.20954 -0.0291814 0.639928 0.0317506 -0.440848 0.951846 1.04611 0.432006 0.121975 1.00005 1.29734 0.235511 -0.0921478 0.906638 0.0138777 -0.255059 -0.132164 0.0269722 0.248836 -1.46901
label 22 12 9 3 11 10 4 8 7 1 25 24 20 13 17 21 14 18 26 19 2 15 23 6 5 16
nr_sv 166 140 120 154 225 152 208 252 219 119 178 193 174 168 183 172 199 223 130 246 209 189 129 183 213 149
SV
0 0 0 0 0 0 0 0 0.02023685525457284 0 0 0 9.742432252320892 0.7442348713838189 1.494426774099337 3.80520405267305 0.01138856580699616 0 0 0 0.1331149016996042 9.032135378973926 0 0 0 1:0.0666667 2:0.2 3:0.333333 4:0.0666667 5:0.6 6:-0.0666667 7:-0.2 8:-0.333333 9:-0.333333 10:-0.0666667 11:-0.2 12:0.0666667 13:-0.0666667 14:0.333333 15:-0.2 16:0.2 
0 0 0 0 0 0 0 0 0 0 0 0.7936156231342885 0 0 0 0 0 0 0 0 0 0 0 0 0 1:-0.2 2:0.466667 3:-0.2 4:0.0666667 5:-0.466667 6:-0.6 7:0.466667 8:-0.6 9:-0.466667 10:0.2 11:0.466667 12:0.0666667 13:-0.6 14:0.466667 15:-0.866667 16:-0.0666667 
0 0 0 0 0 0 0 7.145495667943837 0 0 0 0 0.9062522994069293 0 0 14.37127463694777 14.90411234570685 0 0 21.83709203087961 0 4.362337562615826 0 0 0 1:-0.0666667 2:0.0666667 3:0.2 4:-0.0666667 5:0.333333 6:0.0666667 7:-0.0666667 8:-0.466667 9:-0.333333 10:-0.0666667 11:-0.2 12:0.0666667 13:0.0666667 14:0.333333 15:0.2 16:-0.466667 
0 0 0.5962957305691697 0.5626208142177027 0 0 3.545878283566157 11.11868799143044 0 0 0 0 0 1.213414801994658 0 0 0 0 0 0 0 0 0 2.904231192704418 2.248907065030608 1:-0.2 2:0.333333 3:0.0666667 4:0.0666667 5:-0.2 6:0.0666667 7:0.6 8:-0.6 9:-0.733333 10:-0.2 11:0.333333 12:0.2 13:-0.0666667 14:0.466667 15:-0.0666667 16:0.0666667 
0 0 0 0 0 0 0 0 0 0 0 0 0 0 0 0 0 0 0 0 0 0 1.404581593828646 0 0 1:-0.733333 2:-0.6 3:-0.6 4:-0.733333 5:-0.866667 6:-0.333333 7:0.6 8:-0.466667 9:-0.6 10:0.333333 11:0.466667 12:-0.0666667 13:-0.733333 14:0.333333 15:-1 16:0.0666667 
0.2815436176965062 0 0 0 0 0 0 0 0.09538007345564267 0 0 12.34831923500712 0 0 3.332558457134355 0 0 0 0 0 0 0.4125524962216843 0 0 0 1:-0.733333 2:-0.2 3:-0.466667 4:-0.466667 5:-0.733333 6:0.2 7:0.466667 8:-0.6 9:-0.466667 10:-0.466667 11:0.466667 12:0.0666667 13:-0.733333 14:0.333333 15:-0.866667 16:0.0666667 
0 0 0 0 0 0 0 0 0 10.32919001741719 0 0 0 0 0 0 0 0 0 0 0 0 0 0 0 1:-0.333333 2:0.0666667 3:-0.333333 4:-0.2 5:-0.733333 6:-0.6 7:0.466667 8:-0.6 9:-0.466667 10:0.333333 11:0.6 12:-0.0666667 13:-0.733333 14:0.333333 15:-0.866667 16:0.0666667 
0 0 0 0 0 0 0 0.3491699638497043 0 0 0 0.105161686569935 0 0 1.041874146771791 0 0 0 0 0 0 0 0 0 0 1:0.333333 2:0.866667 3:0.0666667 4:0.0666667 5:-0.333333 6:0.0666667 7:0.0666667 8:-0.0666667 9:-0.333333 10:-0.2 11:0.333333 12:-0.0666667 13:-0.0666667 14:0.733333 15:-0.6 16:-0.0666667 
0 0 0 0 0 0 0 0 0 0 0 0 0 0 0 0 0 0 0 0 0 0.1079280961172512 0 0 0 1:-0.6 2:-0.2 3:-0.333333 4:-0.466667 5:-0.733333 6:0.2 7:0.2 8:-0.466667 9:-0.866667 10:-0.2 11:0.6 12:0.0666667 13:-0.733333 14:0.333333 15:-1 16:0.0666667 
0 0 0 0 0 0 0 0 0 25.97703983156847 0 0 0 0 0 0 0 0 0 0 0 0 0 0 0 1:-0.866667 2:-1 3:-0.733333 4:-1 5:-1 6:0.0666667 7:0.2 8:-0.6 9:-0.866667 10:-0.2 11:0.6 12:0.0666667 13:-0.733333 14:0.466667 15:-1 16:0.0666667 
0 0.5503863845562138 0 0 0.3416671148189526 0 0 7.257492701777481 0 0 0 0 3.620667367241295 0 0 0 0 0.6568744971186651 5.647527767280556 0.8853092607457275 0 0 27.78839844237685 6.271673839395527 6.783161312812925 1:-0.2 2:0.2 3:0.0666667 4:0.0666667 5:0.2 6:-0.0666667 7:0.0666667 8:-0.2 9:-0.333333 10:-0.0666667 11:-0.2 12:-0.0666667 13:-0.2 14:0.466667 15:0.0666667 16:0.466667 
0 0 0 0 0.00263040741560295 0 0 0 0 0 0 0 0 0 0 0 0 0 0 0 0 0.8939921030359496 0 0 0 1:-0.0666667 2:0.6 3:-0.0666667 4:-0.0666667 5:-0.466667 6:-0.0666667 7:0.0666667 8:-0.466667 9:-0.466667 10:-0.0666667 11:-0.0666667 12:-0.2 13:-0.2 14:0.6 15:-0.733333 16:0.2 
0 0 0 0 0 0 0 0 0 6.449016400312725 0 0 0 0 0 0 0 0 0 0 0 0 1.260655562084717 0 0 1:-0.466667 2:0.0666667 3:-0.466667 4:-0.2 5:-0.6 6:-0.466667 7:0.466667 8:-0.866667 9:-0.733333 10:0.2 11:0.333333 12:-0.0666667 13:-0.733333 14:0.466667 15:-0.866667 16:-0.0666667 
0 0 0 0 0 0 0 0 0 0 0 0 0 0 0 0 0 0 0 0 0 15.94084386192346 0 0 0 1:-0.0666667 2:0.0666667 3:-0.0666667 4:-0.2 5:-0.466667 6:-0.466667 7:0.6 8:-0.866667 9:-0.733333 10:0.2 11:0.333333 12:-0.0666667 13:-0.2 14:0.466667 15:-0.733333 16:-0.0666667 
0 0 0 0 0 0 0 0 0 7.765340985613804 0 0 0 0 0 0 0 0 0 0 0 0 0 0 0 1:-0.733333 2:-0.866667 3:-0.466667 4:-0.733333 5:-0.866667 6:-0.2 7:0.6 8:-0.733333 9:-0.6 10:0.0666667 11:0.466667 12:0.0666667 13:-0.733333 14:0.466667 15:-0.866667 16:0.0666667 
0 0 1.716978314034089 0 0 0 0 1.460494343827925 2.138677531415296 0.4990813639634307 0 1.34722696903693 0 0 2.19751363096142 0.9743760432198775 0 0 0 0 0 0 0 0 0 1:0.0666667 2:0.333333 3:-0.0666667 4:-0.2 5:-0.6 6:0.0666667 7:0.333333 8:-0.333333 9:-0.333333 10:-0.333333 11:0.333333 12:-0.0666667 13:-0.466667 14:0.466667 15:-0.6 16:-0.333333 
0 0 0 0 0 0 0 0 0 0 0 0 0 0 0 0 0 0 0 0 0 0.7325526993253983 0 0 0 1:-0.733333 2:-0.6 3:-0.466667 4:-0.466667 5:-0.866667 6:0.2 7:0.0666667 8:-0.466667 9:-0.733333 10:-0.2 11:0.733333 12:0.0666667 13:-0.6 14:0.333333 15:-1 16:0.0666667 
0 0 3.829139877589542 0 0 0 0 2.739044367911084 1.301701832211487 16.71570390283365 0 0 0 4.689304830513024 0 0 0 0.7699380119692147 0.1233009222516261 0 0 0 0 1.749144008155698 0 1:-0.466667 2:-0.2 3:-0.333333 4:-0.333333 5:-0.2 6:0.0666667 7:-0.0666667 8:-0.333333 9:-0.466667 10:-0.0666667 11:-0.2 12:0.2 13:-0.2 14:0.0666667 15:0.0666667 16:-0.466667 
0 0 0 3.548838386993858 0 0 7.651894771589007 0 0 0 0 0 0 0 2.017238050968035 1.024850635385187 11.20733632676889 0 0 0 0 0 0 0 0 1:-0.466667 2:0.2 3:-0.2 4:-0.0666667 5:-0.0666667 6:-0.0666667 7:0.0666667 8:-0.6 9:-0.733333 10:-0.0666667 11:0.0666667 12:0.0666667 13:0.0666667 14:0.2 15:-0.2 16:-0.0666667 
0.8323526669407397 0 13.67214091642702 0 0 0 0 11.74879111035029 0 0 0 0 0 2.668582203782698 0 0 0 0 0 0 0 0 0 0 1.372676341454738 1:-0.6 2:0.0666667 3:-0.333333 4:-0.2 5:-0.2 6:-0.2 7:-0.2 8:-0.333333 9:-0.733333 10:0.0666667 11:0.0666667 12:0.2 13:-0.333333 14:0.2 15:-0.333333 16:0.0666667 
0 0 0 0 0 0 0 0 0 17.08196756717078 0 0 0 0 0 0 0 0 0 0 0 0 0 0 0 1:-0.466667 2:0.0666667 3:-0.2 4:-0.2 5:-0.6 6:-0.0666667 7:0.466667 8:-0.6 9:-0.466667 10:-0.2 11:0.6 12:0.2 13:-0.733333 14:0.333333 15:-0.866667 16:0.0666667 
0 0 0 0 0 0 1.492110104436955 0 0 0 0 0 3.10478311058216 0 0 0 0 0 0 0 0 1.627733163706468 0 0 0 1:0.0666667 2:0.333333 3:-0.0666667 4:-0.333333 5:-0.6 6:0.0666667 7:0.0666667 8:-0.0666667 9:-0.333333 10:-0.0666667 11:0.333333 12:-0.2 13:-0.0666667 14:0.6 15:-0.466667 16:0.0666667 
0 0 0 0 0 0 0 0 0 0 0 0 0.4832457536026706 0 0 0 0 0 0 0 0 0 0 0 0 1:-0.6 2:-0.2 3:-0.466667 4:-0.466667 5:-0.733333 6:-0.733333 7:0.466667 8:-0.466667 9:-0.6 10:0.466667 11:0.6 12:0.0666667 13:-0.733333 14:0.333333 15:-0.866667 16:0.0666667 
0 0 0 0 0 0 0 0 0 0 0 0 0 0 0 0 0 0 0 0 0 0 0.03929290494632695 0 0 1:-0.2 2:0.6 3:-0.2 4:-0.0666667 5:-0.6 6:-0.333333 7:0.466667 8:-0.466667 9:-0.6 10:0.333333 11:0.0666667 12:-0.333333 13:-0.466667 14:0.466667 15:-0.733333 16:0.0666667 
7.640302382325014 1.121788514048481 2.387613607763762 0 3.17233801156191 2.511187802612855 8.257175239572673 5.829612118178097 0 0 0.7154917629185064 10.94357238897626 2.807001473981978 3.314801192374396 0 0 1.458760468393375 0 2.614496726037468 0 6.381762949841511 5.018584194459876 10.70620016423644 3.757082215724301 20.7622109913122 1:-0.333333 2:-0.0666667 3:-0.0666667 4:-0.2 5:-0.0666667 6:-0.2 7:0.2 8:-0.2 9:-0.2 10:0.0666667 11:-0.0666667 12:0.0666667 13:-0.333333 14:0.2 15:-0.2 16:0.466667 
0 0 0 0 0 0 0 0 0 0 0 0 0 0 0 0 0 0 0 0.2931807848348779 0 0 0 0 0 1:-0.0666667 2:1 3:-0.2 4:0.0666667 5:-0.6 6:-0.0666667 7:0.466667 8:-0.333333 9:-0.333333 10:0.2 11:0.333333 12:-0.333333 13:-0.333333 14:0.6 15:-0.466667 16:0.0666667 
0 0 0 0 0 0 0 0 3.58110412112489 0 0 0 0 0 0 0 0 0 0 0 0 0 0 0 0 1:-0.6 2:-0.733333 3:-0.2 4:-0.466667 5:-0.733333 6:-0.0666667 7:0.6 8:-0.733333 9:-0.6 10:-0.2 11:0.466667 12:0.2 13:-0.466667 14:0.6 15:-0.733333 16:-0.0666667 
0 0 0 9.022361322918307 0 0 8.337222415941204 0 0 0 0 0 0 0 0 0 0 0 0 0.4921002213007213 0 0 0 15.8567854720907 31.48131648489706 1:-0.466667 2:-0.0666667 3:-0.2 4:-0.2 5:-0.0666667 6:-0.2 7:-0.0666667 8:-0.333333 9:-0.466667 10:-0.0666667 11:-0.2 12:0.0666667 13:-0.2 14:0.2 15:-0.0666667 16:0.333333 
0 0 1.093106740891571 0 0.6694605967410371 0 0 0 0 0 2.629358923826934 0 0 0 0 0 0 1.618622064480043 6.916047218707983 32 0 0 14.41330345735086 22.09103576259593 4.080327641664734 1:-0.466667 2:-0.0666667 3:-0.2 4:-0.2 5:-0.2 6:-0.2 7:0.0666667 8:-0.333333 9:-0.333333 10:0.0666667 11:-0.2 12:0.0666667 13:-0.2 14:0.2 15:0.0666667 16:-0.0666667 
0 0 0 0 0 0 0 0 0 0 0 0 0 0 0 0.2656924602188531 0 0 0 0 0 0 0 0 0 1:0.0666667 2:0.333333 3:0.0666667 4:0.0666667 5:-0.466667 6:-0.6 7:0.6 8:-0.6 9:-0.466667 10:0.466667 11:0.6 12:0.0666667 13:-0.6 14:0.2 15:-0.866667 16:-0.0666667 
0 0 6.473690520899561 0 0 0 0 5.643099037741474 0 0 0 0 7.049186591311916 0 7.457220268845829 0 0 0 0 0 16.36459367295019 9.464495361290403 0 0 0 1:-0.466667 2:-0.2 3:-0.333333 4:-0.466667 5:-0.2 6:0.0666667 7:-0.2 8:-0.466667 9:-0.733333 10:0.0666667 11:-0.0666667 12:0.2 13:-0.0666667 14:0.2 15:-0.466667 16:0.0666667 
0 0 0 0 0 0 0.7542436679685449 0 0 0 0.8068594272376548 4.920806166212079 0 0 0 0 0 0 0 0 0 0 0 0 0 1:-0.6 2:-0.733333 3:-0.333333 4:-0.6 5:-0.866667 6:-0.2 7:0.6 8:-0.6 9:-0.466667 10:0.0666667 11:0.466667 12:0.0666667 13:-0.733333 14:0.333333 15:-0.866667 16:0.0666667 
0 0 0 0 0 0 0 0 0 0 0 0 0 0.1036745046880855 0 0 0 0 0 0 0 0 0 0 0 1:0.466667 2:0.866667 3:0.2 4:0.0666667 5:-0.466667 6:0.0666667 7:0.2 8:-0.2 9:-0.333333 10:-0.0666667 11:0.333333 12:-0.333333 13:-0.0666667 14:0.733333 15:-0.6 16:0.0666667 
1.472593872252777 0 0 2.810293139621825 0.5856182385923525 0.13724166956573 3.131524309878841 0 1.074636683165511 0 0 0 0.7673955868798589 0 0.216079433910714 0 1.665995323533962 0 0 0 0 2.264860521047452 0 0 0 1:0.333333 2:0.866667 3:0.2 4:0.0666667 5:-0.333333 6:0.2 7:-0.0666667 8:-0.466667 9:-0.333333 10:-0.2 11:0.0666667 12:-0.2 13:-0.0666667 14:0.6 15:-0.6 16:0.0666667 
0 0 0 0 0 0 0 0 0 1.69379654784462 0 0 0 0 0 0 0 0 0 0 0 0 0.05426230943531177 0 0 1:-0.2 2:0.2 3:-0.2 4:-0.0666667 5:-0.6 6:-0.866667 7:0.6 8:-0.466667 9:-0.466667 10:0.6 11:0.6 12:0.0666667 13:-0.733333 14:0.333333 15:-0.866667 16:-0.0666667 
0 0 0 0 0 0 15.2507915730129 32 0 0 0 0 0 0 0 0 0 0 0 32 0 0 0 0 0 1:-0.466667 2:-0.2 3:-0.2 4:-0.333333 5:-0.2 6:-0.0666667 7:-0.0666667 8:-0.333333 9:-0.466667 10:-0.0666667 11:-0.2 12:0.0666667 13:-0.2 14:0.2 15:-0.0666667 16:0.0666667 
0 0 0 0 0 0 0 0 0 0 0 0 0 0 0 0 0 0 0 0 0.1600285663682967 0 0 0 0 1:0.0666667 2:0.333333 3:0.0666667 4:0.0666667 5:-0.466667 6:-0.733333 7:0.733333 8:-0.333333 9:-0.466667 10:0.466667 11:0.6 12:-0.0666667 13:-0.6 14:0.2 15:-0.733333 16:-0.0666667 
5.532432100021817 0 0 0 0 0 7.729996621377963 0 0 0 0 8.332123553029877 29.13535473907347 0 0 0 19.44267744221664 0 0 32 0 0 0 0 0 1:-0.466667 2:-0.0666667 3:-0.2 4:-0.2 5:-0.0666667 6:-0.0666667 7:0.0666667 8:-0.333333 9:-0.333333 10:-0.0666667 11:-0.2 12:0.0666667 13:-0.2 14:0.2 15:-0.0666667 16:0.0666667 
0 0 0 0 0 0 0 0 0 0 0 0 0 0.02541232932460644 0 0 0 0 0 0 0 0 0 0.7094400192589388 0.2976562407514703 1:-0.733333 2:-0.866667 3:-0.466667 4:-0.733333 5:-0.866667 6:-0.333333 7:0.6 8:-0.6 9:-0.6 10:0.2 11:0.466667 12:0.0666667 13:-0.733333 14:0.466667 15:-0.866667 16:0.0666667 
0 0 0 0 0 0 0 0 0 19.77623738031768 0 0 0 0 0 0 0 0 0 0 0 0 0 0 0 1:-0.733333 2:-0.866667 3:-0.6 4:-0.866667 5:-1 6:-0.0666667 7:0.2 8:-0.466667 9:-0.733333 10:-0.0666667 11:0.733333 12:0.0666667 13:-0.733333 14:0.333333 15:-1 16:0.0666667 
0 0 0 0 0 0 0 0 7.681019001796832 0 0 0 0 0 0 3.667738008300405 16.55780841945441 0 0 19.10892850007462 0 0 0 0 0 1:-0.2 2:-0.0666667 3:0.0666667 4:-0.2 5:0.0666667 6:0.0666667 7:-0.0666667 8:-0.466667 9:-0.466667 10:-0.0666667 11:-0.2 12:0.0666667 13:-0.0666667 14:0.2 15:0.0666667 16:-0.466667 
0 0 0 1.408926380724306 0 0 2.743206459177096 0 0 0 0 0 0 0 0 3.188543283437492 0 0 0 0 0 2.87425196566857 0 0 0 1:-0.0666667 2:0.0666667 3:-0.2 4:-0.2 5:-0.466667 6:-0.6 7:0.466667 8:-0.866667 9:-0.6 10:0.2 11:0.333333 12:0.0666667 13:-0.466667 14:0.2 15:-0.866667 16:0.0666667 
0 0 0 0 0 0 0 0 0 2.40879713740554 0 0 0 0 0 0 0 0 0 0 0 0 0 0 0 1:-0.733333 2:-0.6 3:-0.6 4:-0.733333 5:-0.866667 6:-0.466667 7:0.6 8:-0.6 9:-0.733333 10:0.2 11:0.466667 12:-0.0666667 13:-0.733333 14:0.466667 15:-1 16:-0.0666667 
0 0 0 0.709807830722799 1.099276089739851 0 2.869281011052645 0 0 0 3.748758538237392 0 2.661551831210502 0 0 0 4.947681815938933 1.789539729911836 1.733656279096904 8.962441477082738 0 0 0 0 0 1:-0.466667 2:-0.333333 3:-0.2 4:-0.466667 5:-0.333333 6:-0.0666667 7:0.0666667 8:-0.333333 9:-0.333333 10:-0.0666667 11:-0.2 12:0.0666667 13:-0.2 14:0.2 15:-0.0666667 16:-0.2 
0 0 0 0 0 0 0 0 0 0 0.3266224386314282 0 0 0 0 0 0 0.1658298517321624 0 0 0 0 1.667027552989137 0.3926617838058266 0 1:-0.0666667 2:0.466667 3:-0.0666667 4:0.0666667 5:-0.333333 6:-0.733333 7:0.6 8:-0.733333 9:-0.6 10:0.2 11:0.466667 12:0.0666667 13:-0.6 14:0.2 15:-0.733333 16:-0.2 
0 0.3623230847384161 0 0.09476865501128499 0 0 0 0 0 0 0.3348372071824874 1.193175056768735 0 0.3769842497125027 0 0 0 0.4860494859811666 1.531521548761584 0 0.168822078928045 0 0 0.1184402099408209 0 1:0.2 2:0.866667 3:-0.0666667 4:0.0666667 5:-0.6 6:-0.0666667 7:0.466667 8:-0.333333 9:-0.2 10:0.333333 11:0.333333 12:-0.333333 13:-0.466667 14:0.466667 15:-0.6 16:0.0666667 
0 0 0 0 0 0 0 0 0 0 0 0 0 0 0 0 0 0 0 0 0 22.10552746577157 0 0 0 1:-0.466667 2:0.0666667 3:-0.2 4:-0.2 5:-0.0666667 6:-0.0666667 7:-0.0666667 8:-0.466667 9:-0.866667 10:0.0666667 11:-0.0666667 12:0.2 13:-0.0666667 14:0.333333 15:-0.466667 16:-0.0666667 
0 0 0 0 0 0 0 0 0 0 0 0 0 0 0 0 0 0 0 0 0.1549013872425186 0 0 0 0 1:-0.2 2:0.466667 3:-0.2 4:0.0666667 5:-0.6 6:-0.6 7:0.6 8:-0.333333 9:-0.466667 10:0.466667 11:0.6 12:-0.0666667 13:-0.6 14:0.2 15:-0.866667 16:0.0666667 
0 0 0 0 0 0.1571167937279819 0.09564035851612716 0.6347331645278057 0 0 0 0 0 0 0.4140366349314699 0 0 0 0 0 0 0.5787257912047065 3.341769807475435 0 0 1:-0.333333 2:-0.2 3:-0.333333 4:-0.466667 5:-0.733333 6:-0.733333 7:0.6 8:-0.333333 9:-0.466667 10:0.6 11:0.466667 12:-0.0666667 13:-0.733333 14:0.333333 15:-0.866667 16:-0.0666667 
0 0.262234718753434 0 0 0.2891422449216424 0 0 0 0 0 0 0 0 1.253132150996417 0 0 0 0.4024380770200021 0.6609340574600704 0 0.71636179690448 0 0 0 0 1:-0.866667 2:-1 3:-0.733333 4:-1 5:-1 6:0.0666667 7:0.2 8:-0.6 9:-0.733333 10:-0.0666667 11:0.6 12:0.0666667 13:-0.733333 14:0.333333 15:-1 16:0.0666667 
0 0 0 0 0 0 0 0 0 5.663822083635953 0 0 0 0 0 0 0 0 0 0 0 0 2.236270867776726 0 0 1:-0.6 2:-0.466667 3:-0.466667 4:-0.6 5:-0.866667 6:-0.466667 7:0.6 8:-0.733333 9:-0.6 10:0.2 11:0.466667 12:-0.0666667 13:-0.733333 14:0.333333 15:-0.866667 16:-0.0666667 
0 0 0 0 0 0 0 0 0 0 0 0 0 0 0 0 0 0 0 0 0 0 4.305038100924657 0 0 1:-0.466667 2:0.0666667 3:-0.466667 4:-0.2 5:-0.733333 6:-0.6 7:0.466667 8:-0.6 9:-0.6 10:0.333333 11:0.466667 12:-0.0666667 13:-0.733333 14:0.333333 15:-0.866667 16:-0.0666667 
0 0 0 0 0 0 0 0 0 0 0 0 0 0 0 1.953248860986844 0 0 0 0 0 6.503983185088618 0 0 0.5241231362933371 1:-0.333333 2:0.333333 3:-0.333333 4:-0.333333 5:-0.6 6:-0.2 7:0.2 8:-0.466667 9:-0.6 10:0.2 11:-0.0666667 12:-0.333333 13:-0.333333 14:0.6 15:-0.733333 16:0.0666667 
0 0.08841435367885886 0 0 1.034790487315067 0 0 0 0 0 0 0 0 1.379009191789912 0 0 0 0 0.006159520933963538 0 0 0 0 0 0 1:-0.733333 2:-0.866667 3:-0.466667 4:-0.6 5:-0.866667 6:-0.0666667 7:0.6 8:-0.733333 9:-0.6 10:-0.0666667 11:0.466667 12:0.2 13:-0.733333 14:0.333333 15:-0.866667 16:0.0666667 
0 0 0 0 0 0 0 0 0 0 0 0 0 0 0 0 0 0 0 0 0 1.233580982934308 0 0 0 1:-0.466667 2:-0.0666667 3:-0.466667 4:-0.333333 5:-0.733333 6:-0.733333 7:0.466667 8:-0.6 9:-0.6 10:0.466667 11:0.466667 12:0.0666667 13:-0.733333 14:0.466667 15:-1 16:0.0666667 
0 0 0 0 0 0 0 0 0 0 0 0 0.1781450544845594 0 0 0 0 0 0 0 0 0 0 0 0 1:-0.466667 2:0.0666667 3:-0.2 4:-0.2 5:-0.866667 6:-0.2 7:0.0666667 8:-0.333333 9:-0.6 10:0.0666667 11:0.866667 12:0.0666667 13:-0.6 14:0.2 15:-1 16:0.0666667 
0 0 0 0 0 0 0 0 0 0 0 0 0 0 0 1.721437087937654 0 0 0 0 0 26.87891732475702 0 0 0 1:0.0666667 2:0.333333 3:-0.0666667 4:0.0666667 5:-0.333333 6:-0.6 7:0.6 8:-0.733333 9:-0.6 10:0.2 11:0.466667 12:0.0666667 13:-0.0666667 14:0.466667 15:-0.733333 16:-0.2 
0 0.2830715131596394 1.933252170285379 0.6765916638384305 0 0.08980399837154741 3.474656766187475 1.239720559941542 0 2.479653571125032 0 0 1.160168027438661 1.096733640370819 3.251871841418876 5.972868006774787 0 0.5490827046948494 1.770009700356395 0 0.8056318011310504 1.07235666389381 0.9780424400860726 1.239834749650383 0 1:-0.333333 2:0.0666667 3:-0.333333 4:-0.2 5:-0.733333 6:-0.733333 7:0.466667 8:-0.2 9:-0.466667 10:0.733333 11:0.6 12:0.0666667 13:-0.733333 14:0.333333 15:-0.866667 16:-0.0666667 
0 0 0 0 0 0 0 0 0 11.64172188415055 0 0 0 0 0 0 0 0 0 0 0 0 0 0 0 1:-0.866667 2:-0.866667 3:-0.733333 4:-0.733333 5:-0.866667 6:-0.0666667 7:0.6 8:-0.733333 9:-0.733333 10:-0.0666667 11:0.466667 12:0.0666667 13:-0.733333 14:0.466667 15:-1 16:0.0666667 
0 0 0 0 0 0 0 15.67107350996062 0 0 0 0 0 0 0 0 0 0 0 0 0 0 0 0 0 1:-0.466667 2:-0.0666667 3:-0.2 4:-0.333333 5:-0.0666667 6:-0.0666667 7:0.0666667 8:-0.466667 9:-0.866667 10:0.0666667 11:-0.0666667 12:0.0666667 13:-0.333333 14:0.333333 15:-0.333333 16:0.0666667 
0 0 0 0.9218572945066984 0 1.768582235095487 1.789852281553755 0 0 0 1.261972741820328 7.261506594556371 0 0 0 0 0 0.01939736230218847 0 0 0 0 0 0 0 1:-0.333333 2:0.2 3:-0.466667 4:-0.466667 5:-0.733333 6:-0.0666667 7:0.333333 8:-0.466667 9:-0.466667 10:0.0666667 11:0.2 12:-0.2 13:-0.6 14:0.333333 15:-0.733333 16:-0.0666667 
0 0 0 0 0 0 0 0 0 0 0 0 0.8788498742491083 0 10.8037738987503 18.20819470214943 0 0 0 0 4.714702024356297 10.78488870553435 0 0 0 1:-0.466667 2:0.2 3:-0.2 4:-0.0666667 5:-0.0666667 6:0.0666667 7:-0.2 8:-0.466667 9:-0.733333 10:0.0666667 11:-0.0666667 12:0.0666667 13:0.0666667 14:0.2 15:-0.466667 16:-0.0666667 
0.6349887872082728 0 0.2492406629885826 0 0 0 0 0 4.164582855435616 0 0 0 0 0 0.6140637770174452 0 0 0 0 0 2.084496227699603 0 0 0 0 1:-0.6 2:-0.0666667 3:-0.333333 4:-0.333333 5:-0.333333 6:0.0666667 7:-0.333333 8:-0.466667 9:-0.866667 10:-0.0666667 11:-0.0666667 12:0.0666667 13:-0.333333 14:0.2 15:-0.6 16:-0.0666667 
0 0 0 0 0 0 0 0 0 2.655722992383257 0 19.00598531044916 0 0 0 0 0.5946776994913714 0 0 0 0 0 0 0 0 1:-0.866667 2:-0.6 3:-0.733333 4:-0.866667 5:-0.866667 6:-0.2 7:0.6 8:-0.733333 9:-0.6 10:0.0666667 11:0.466667 12:0.0666667 13:-0.733333 14:0.466667 15:-1 16:0.0666667 
0 0 0 0 0 0 0 0 0 0 0 0 0 0 0 0 0 0 0 0 0 2.982821018729724 0 0 0 1:-0.333333 2:0.333333 3:-0.0666667 4:0.0666667 5:-0.466667 6:0.2 7:0.2 8:-0.466667 9:-0.733333 10:-0.333333 11:0.733333 12:0.0666667 13:-0.466667 14:0.2 15:-0.866667 16:-0.0666667 
0 0 0 0 0 0 0 0 0 0 0 0 0 0 0 0 0 0 0 0 0 0 0 0 0.7650610103427906 1:-0.733333 2:-0.866667 3:-0.6 4:-0.6 5:-0.866667 6:-0.0666667 7:0.6 8:-0.733333 9:-0.733333 10:-0.0666667 11:0.466667 12:0.0666667 13:-0.733333 14:0.333333 15:-0.866667 16:0.0666667 
0 0 0 0 0 0 0 0 0 0 0 0 0 0 0 0 0 0.2010897739090645 0 0 0.05120509394253098 1.371276830895086 0 0 0 1:-0.733333 2:-0.0666667 3:-0.466667 4:-0.333333 5:-0.6 6:0.2 7:0.6 8:-0.733333 9:-0.6 10:-0.466667 11:0.333333 12:0.2 13:-0.733333 14:0.466667 15:-0.866667 16:0.2 
0 0 0 0 0 0 0 0 0 0 0 0 0 0 0 4.383301254422265 0 0 0 0 0 0 0 0 0 1:-0.466667 2:-0.0666667 3:-0.2 4:-0.333333 5:-0.2 6:-0.0666667 7:-0.0666667 8:-0.466667 9:-0.733333 10:0.0666667 11:-0.0666667 12:0.0666667 13:-0.0666667 14:0.333333 15:-0.333333 16:-0.0666667 
0.263422823384789 0 0 0 0 0 0 5.605730540550297 0 0 0 0 0 0.1171946469510483 0 0 0 0 0 1.219199053495827 0 0 0 0 0 1:-0.6 2:-0.2 3:-0.333333 4:-0.466667 5:-0.6 6:0.0666667 7:0.466667 8:-0.6 9:-0.733333 10:-0.333333 11:0.333333 12:0.2 13:-0.6 14:0.333333 15:-0.6 16:0.333333 
1.279142768476212 0 1.440217904401786 2.765364410682023 0 0 17.47854649393809 15.99412999649438 0 0 0 0 0 10.74587148044749 0 0 3.581330808897563 0 0 5.222115289665743 7.721681687800089 11.42178870192188 0 2.955378233578982 10.29356154030398 1:-0.466667 2:-0.2 3:-0.2 4:-0.2 5:-0.2 6:-0.0666667 7:-0.2 8:-0.333333 9:-0.466667 10:-0.2 11:-0.333333 12:0.0666667 13:-0.0666667 14:0.2 15:-0.0666667 16:0.2 
0 0 0 0 0 0 0 0 0 0 0 0 0 0 0 0 0 0 0 0 0 0 0.94740684887326 0 0 1:0.333333 2:1 3:0.2 4:0.0666667 5:-0.333333 6:-0.2 7:0.2 8:-0.466667 9:-0.466667 10:0.2 11:0.0666667 12:-0.333333 13:-0.333333 14:0.6 15:-0.6 16:0.0666667 
0 0 0 0 0 0 0 0 0 2.769313226668247 0 0 0 0 0 0 0 0 0 0 0 0 0 0 0 1:-0.6 2:-0.333333 3:-0.466667 4:-0.466667 5:-0.733333 6:-0.333333 7:0.6 8:-0.733333 9:-0.6 10:0.0666667 11:0.466667 12:-0.0666667 13:-0.733333 14:0.466667 15:-0.866667 16:0.0666667 
0 0 0 0 0 0 0 0 0 0 0 0 0 0 0 0 0.2766963310780116 0 0 0 0 0 0 0 0 1:-0.733333 2:-0.2 3:-0.466667 4:-0.466667 5:-0.733333 6:0.2 7:0.6 8:-0.733333 9:-0.6 10:-0.466667 11:0.333333 12:0.2 13:-0.733333 14:0.466667 15:-0.866667 16:0.2 
0 0 0 0 0 0 0 0 0 0 0 0 0 0 0 0 0 0 0.2350001284535977 0 0 0 0 0 0 1:-0.333333 2:0.333333 3:-0.333333 4:0.0666667 5:-0.6 6:-0.6 7:0.466667 8:-0.333333 9:-0.466667 10:0.6 11:0.6 12:0.0666667 13:-0.733333 14:0.333333 15:-0.866667 16:0.0666667 
0 0 0 0 0 0 0 0 0 0 0 0 0 1.671792086147664 0 0 0 0 0 0 0 0 0 0 0 1:-0.466667 2:-0.466667 3:-0.2 4:-0.0666667 5:-0.866667 6:0.2 7:0.0666667 8:-0.333333 9:-0.6 10:-0.2 11:0.866667 12:0.0666667 13:-0.6 14:0.2 15:-1 16:0.0666667 
0 0 0 0 0 0 0 0 0 0 0.3143788189427728 0 0 0 0 0 0 0 0 0 0 0 0 0 0 1:-0.2 2:0.333333 3:0.0666667 4:0.0666667 5:-0.333333 6:-0.0666667 7:0.466667 8:-0.6 9:-0.733333 10:-0.333333 11:0.333333 12:0.2 13:-0.6 14:0.466667 15:-0.466667 16:0.0666667 
0 0 0.9250265932249684 0 0 0 0 0 0 0 0 0 0 0 0 0 0 0 0 0 0 0 0 0 0 1:-0.6 2:-0.2 3:-0.466667 4:-0.466667 5:-0.733333 6:0.2 7:0.466667 8:-0.6 9:-0.6 10:-0.466667 11:0.466667 12:0.2 13:-0.733333 14:0.333333 15:-0.866667 16:0.0666667 
0 0 0 0 0 1.248739082281303 0 1.968087513231279 0 1.122854919146678 0 0 0 1.691951464047292 0 0 0 4.191029761515349 1.44492275842725 32 0 0 0 0 0 1:-0.466667 2:0.0666667 3:-0.2 4:-0.0666667 5:-0.0666667 6:0.0666667 7:0.0666667 8:-0.333333 9:-0.466667 10:-0.0666667 11:-0.2 12:0.0666667 13:-0.0666667 14:-0.0666667 15:0.333333 16:-0.466667 
0 0 0 0 0 0 0 0 0 0 0 3.870021851712927 0 0 0 0 0 0 0 0 0 0 0 0 0 1:-0.6 2:0.0666667 3:-0.333333 4:-0.2 5:-0.6 6:-0.333333 7:0.466667 8:-0.6 9:-0.466667 10:0.0666667 11:0.6 12:0.2 13:-0.733333 14:0.333333 15:-0.866667 16:0.0666667 
0 0 0 0 0 0 0 2.781225076121589 0 0 0 0 0 0 0 0 0 0 0 0 2.234139340004948 3.650567320527896 0 0 0 1:-0.2 2:0.2 3:-0.466667 4:-0.333333 5:-0.6 6:0.0666667 7:0.2 8:-0.2 9:-0.6 10:-0.0666667 11:0.2 12:-0.2 13:-0.2 14:0.6 15:-0.6 16:0.0666667 
0 0 0 0 0 0 0 0 1.639194732864285 0 0 0 0 0 0 0 0 0 0 0 0 0 0 0 0 1:-0.6 2:-0.733333 3:-0.2 4:-0.466667 5:-0.733333 6:-0.0666667 7:0.6 8:-0.733333 9:-0.6 10:-0.0666667 11:0.466667 12:0.2 13:-0.6 14:0.333333 15:-0.866667 16:0.0666667 
0 0 0 0 0.2473997131906385 0 0 0 0 0 0 0 0.7121811628914241 0 0 0 0.3876524750175721 0.8944238675742232 0 0 0 0 0 0 0 1:0.0666667 2:0.6 3:-0.2 4:-0.2 5:-0.6 6:0.0666667 7:0.466667 8:-0.466667 9:-0.333333 10:-0.333333 11:0.333333 12:-0.2 13:-0.466667 14:0.333333 15:-0.6 16:-0.333333 
2.72705231709311 0 1.901729044297826 2.816018584639662 0 0 8.462690308507149 12.15353876781901 0 0 0 0.696579028936026 0.6321855308937163 0.06480688988526712 1.770333408577961 0 1.173785632713948 0 0 0 9.791528957853799 3.256588886961656 0 5.448391718375118 10.60521133956642 1:-0.333333 2:0.466667 3:-0.0666667 4:0.0666667 5:0.0666667 6:0.0666667 7:-0.333333 8:-0.333333 9:-0.6 10:0.0666667 11:-0.0666667 12:0.2 13:0.2 14:0.2 15:-0.2 16:0.466667 
0 0 0 0 1.208084040715275 0 11.37803248587197 0 3.099184999181043 0 0 0 6.841429365045404 0 0 2.731715679460851 5.341264184947035 1.549875905947383 1.073976093033629 27.37220003956283 0 1.630350163366868 2.854544023104115 0 0 1:-0.6 2:-0.333333 3:-0.466667 4:-0.466667 5:-0.333333 6:0.0666667 7:0.0666667 8:-0.333333 9:-0.466667 10:-0.0666667 11:-0.2 12:0.0666667 13:-0.2 14:0.0666667 15:-0.0666667 16:-0.466667 
2.158065273030642 0 0 8.11076564016439 0 0 6.166806389821997 0 0 0 0 0 3.915322741379439 0 6.739093665890842 0 12.91010716718223 0 0 0 0 0 0 0 0 1:-0.466667 2:-0.0666667 3:-0.2 4:-0.333333 5:-0.2 6:0.0666667 7:-0.333333 8:-0.466667 9:-0.733333 10:-0.0666667 11:-0.0666667 12:0.0666667 13:-0.0666667 14:0.0666667 15:-0.333333 16:0.0666667 
0 0 0 0 0 0 0 0 0.8782042785708992 0 0 0 0 0 0 1.351640992014281 1.161558163136201 0 0 0 0 0 0 0 0 1:-0.333333 2:0.466667 3:0.0666667 4:0.0666667 5:-0.333333 6:-0.0666667 7:0.6 8:-0.733333 9:-0.6 10:-0.333333 11:0.333333 12:0.2 13:-0.466667 14:0.466667 15:-0.733333 16:-0.0666667 
0 0 0 0 0 0 0 0 4.195213312240579 0 0 0 0 0 0 0 0 0 0 0 0 0 0 0 0 1:-0.2 2:-0.0666667 3:-0.2 4:-0.333333 5:-0.6 6:-0.466667 7:0.466667 8:-0.866667 9:-0.6 10:0.0666667 11:0.333333 12:0.0666667 13:-0.333333 14:0.466667 15:-0.733333 16:-0.0666667 
0 0 0 0 0 0 0 0 0 32 0 0 0 0 0 0 0 0 0 0 0 0 0 0 0 1:-0.733333 2:-0.0666667 3:-0.466667 4:-0.333333 5:-0.733333 6:0.2 7:0.2 8:-0.6 9:-0.866667 10:-0.333333 11:0.6 12:0.0666667 13:-0.733333 14:0.466667 15:-1 16:0.0666667 
1.506259253117372 0 0 0 0 0 0 0 7.963326666576505 2.098137657197293 0 1.636572149679298 0 0 4.899868785149271 8.428224052677805 3.618492557642804 0 0 0 0 0.01900700732624024 0 0 0 1:-0.333333 2:0.466667 3:0.0666667 4:0.0666667 5:0.2 6:-0.0666667 7:-0.2 8:-0.466667 9:-0.733333 10:-0.0666667 11:0.0666667 12:0.0666667 13:-0.333333 14:0.2 15:-0.466667 16:-0.0666667 
0 0 0 0.6563053707140138 0 0.504859500259587 2.197576494401403 0 0 0 1.387294546406654 0.9106461374475717 0 0 0 0 0 0 0 0 0 0 1.208000030474034 0 0.4907601469910798 1:0.333333 2:0.866667 3:0.2 4:0.0666667 5:-0.333333 6:0.0666667 7:0.2 8:-0.466667 9:-0.2 10:0.0666667 11:0.2 12:-0.333333 13:-0.2 14:0.6 15:-0.466667 16:0.0666667 
0 0 0 0 0 0 0 0 0 0 0 0 0 0 0.2556564023240658 0 0 0 0 0 0 0 0 0 0 1:-0.733333 2:-1 3:-0.6 4:-0.866667 5:-1 6:-0.0666667 7:0.2 8:-0.466667 9:-0.733333 10:-0.0666667 11:0.733333 12:0.0666667 13:-0.733333 14:0.333333 15:-1 16:0.0666667 
0 0 0 0 0 0 0 0 0 0 0 0 0 0 0 0 0 0 0 0 0 1.920643438672983 0 0 0 1:-0.733333 2:-0.866667 3:-0.466667 4:-0.733333 5:-0.866667 6:-0.0666667 7:0.6 8:-0.733333 9:-0.733333 10:-0.2 11:0.466667 12:0.2 13:-0.466667 14:0.466667 15:-0.733333 16:-0.0666667 
0 0.2171062434921577 0 0 0.7868307949624276 0 2.912757621200158 0 0 0 0 0 0 0 0 0 0 0 1.811020657117127 0 0 0 1.865230425673017 0 5.585182023491967 1:-0.333333 2:0.333333 3:-0.0666667 4:-0.0666667 5:-0.466667 6:-0.333333 7:0.333333 8:-0.6 9:-0.733333 10:0.2 11:0.466667 12:-0.0666667 13:-0.466667 14:0.2 15:-0.333333 16:0.0666667 
0 0 0 0 0 0 0 0 0 0 0 0 0 0 0 0 0 0 0 0 0 0.05616310136271692 0 0 0 1:-0.733333 2:-0.866667 3:-0.466667 4:-0.866667 5:-0.866667 6:-0.0666667 7:0.6 8:-0.6 9:-0.733333 10:-0.2 11:0.466667 12:0.2 13:-0.733333 14:0.466667 15:-1 16:-0.0666667 
0 0 0 0 0 0 0.07547692428576798 0 0 0 0 0 0 0 0 0 0 0 0 0 0 0 0 0 0 1:-0.466667 2:-0.0666667 3:-0.2 4:-0.333333 5:-0.466667 6:0.0666667 7:0.466667 8:-0.733333 9:-0.733333 10:-0.2 11:0.333333 12:0.0666667 13:-0.466667 14:0.333333 15:-0.466667 16:0.2 
0 0 0 0.4418725052141139 0 0 1.583731182925057 0 0 0 0 0 0 0.5526536507765166 0 0 0 0.4423307468537894 0 0 0 0 0 0 0 1:-0.733333 2:-0.866667 3:-0.466667 4:-0.733333 5:-0.866667 6:0.0666667 7:0.6 8:-0.6 9:-0.6 10:-0.333333 11:0.466667 12:0.2 13:-0.733333 14:0.333333 15:-0.866667 16:0.0666667 
0 1.946833774341968 0 0 3.162173321660473 6.163941279483613 6.887684002211514 0 6.631910862064527 6.69929953014941 1.368925306593176 0 0 9.245514777523324 7.270331918832444 6.610999960970606 3.343638738239096 0.54673831361139 2.787727116118901 0.1338211741100261 0.5792197203270903 16.90791551891592 0 0 13.944808276438 1:-0.6 2:-0.2 3:-0.333333 4:-0.466667 5:-0.333333 6:0.0666667 7:-0.333333 8:-0.333333 9:-0.733333 10:-0.0666667 11:-0.0666667 12:-0.0666667 13:-0.466667 14:0.2 15:-0.466667 16:-0.2 
0 0 0.769840148287096 0 0 0 0 0 0 0 0 0 0 0 0 0 0 0 0 0 0 0 0 0 0 1:-0.0666667 2:0.466667 3:-0.2 4:-0.2 5:-0.6 6:0.2 7:0.0666667 8:-0.2 9:-0.466667 10:-0.0666667 11:0.333333 12:-0.0666667 13:-0.0666667 14:0.6 15:-0.6 16:0.0666667 
0 0 0 0 0 0 0 0 0 0 0 0 0 0 0 0 0 0 0 0 0 1.914471477709317 0 0.6505408038705436 0.7867473451101096 1:-0.733333 2:-0.6 3:-0.733333 4:-0.866667 5:-0.866667 6:-0.333333 7:0.6 8:-0.6 9:-0.733333 10:0.2 11:0.333333 12:-0.0666667 13:-0.733333 14:0.466667 15:-0.866667 16:0.0666667 
0 0 0 0 0 6.106942075790816 0 1.46033443483371 1.396736411619197 7.470914050716519 0 2.964179138600043 8.695561664640705 0 0 4.10916903540509 0 0.04602400446872135 0 9.633757063881388 0 0 0 0 0 1:-0.2 2:0.2 3:0.0666667 4:0.0666667 5:0.2 6:0.0666667 7:-0.0666667 8:-0.333333 9:-0.333333 10:-0.0666667 11:-0.2 12:0.0666667 13:0.0666667 14:0.0666667 15:0.333333 16:-0.6 
0 0 0 0 0 0 0 0 0 1.211558376010726 0 0 0 0 0 0 0 0 0 0 0 2.447546744604708 0 0 0 1:-0.333333 2:0.466667 3:0.0666667 4:0.0666667 5:0.333333 6:0.0666667 7:-0.333333 8:-0.333333 9:-0.733333 10:0.0666667 11:0.0666667 12:0.0666667 13:-0.2 14:0.2 15:-0.466667 16:0.0666667 
0 0 2.49439842183715 5.923627698649127 0 0 1.860311930702338 2.301998377020613 0 0 0 0 11.69928979283457 0 0 0.7183771894908744 24.15347880541885 0 0 2.183369974865006 0 0 0 0 0 1:-0.333333 2:0.2 3:-0.0666667 4:0.0666667 5:0.2 6:-0.0666667 7:-0.2 8:-0.333333 9:-0.466667 10:-0.2 11:-0.333333 12:0.0666667 13:-0.0666667 14:0.333333 15:-0.0666667 16:0.2 
0 0.2837292954296454 0 0 0 0 0 0 0 0 0 0 0 2.062245795002164 0 0 0 0.02016615137576168 0.373306341114709 0 0 0 0 0.001580688553976988 0 1:-0.333333 2:0.2 3:-0.2 4:-0.0666667 5:-0.466667 6:0.0666667 7:0.466667 8:-0.6 9:-0.733333 10:-0.333333 11:0.333333 12:0.2 13:-0.733333 14:0.333333 15:-0.6 16:0.2 
0 0 0 0.4096094280858881 0 0 0 0 0 4.997212867958766 0 0.395064733906639 0 0 0 0 0 0 0 0 0 0 0 0.9631432449257793 0 1:0.0666667 2:0.866667 3:-0.0666667 4:0.0666667 5:-0.6 6:0.2 7:0.333333 8:-0.466667 9:-0.2 10:-0.2 11:0.466667 12:-0.2 13:-0.466667 14:0.466667 15:-0.6 16:-0.2 
0 0 0 0 0 0 4.409571875938142 0 0 0 0 0 0 0 0 0.1869021986001823 0 0 0 0 0 0 0 0 0 1:0.0666667 2:0.466667 3:0.0666667 4:-0.2 5:-0.466667 6:-0.0666667 7:0.333333 8:-0.466667 9:-0.333333 10:0.0666667 11:0.2 12:-0.2 13:-0.333333 14:0.466667 15:-0.6 16:-0.0666667 
2.331564534277237 2.004925472058631 0.4098430602709115 2.13949315991895 1.188710937385419 0 0 0 0.7389208926360697 0 0.6395955169281874 3.255146110212552 0 0 0 0 0 0.1841027602031631 0 0 0 0 0.4188773817968773 1.520247535199089 0 1:-0.466667 2:0.466667 3:-0.2 4:0.2 5:-0.466667 6:-0.0666667 7:0.466667 8:-0.733333 9:-0.466667 10:-0.2 11:0.466667 12:0.2 13:-0.6 14:0.2 15:-0.733333 16:0.0666667 
0 0 0 0 0 0 0 0 0 11.93377231983145 0 0 0 0 0 0 0 0 0 0 0 0 0 0 0 1:-0.466667 2:0.466667 3:-0.2 4:0.0666667 5:-0.6 6:-0.0666667 7:0.2 8:-0.466667 9:-0.733333 10:-0.0666667 11:0.733333 12:0.0666667 13:-0.733333 14:0.333333 15:-1 16:0.0666667 
0 0 0 0 0 0 0 1.143159730160527 0 0 0 0 0 0 0 0 0 0 1.227009098840805 11.84185397938243 6.62522681488569 0 3.073208252661815 0 8.764237997073755 1:-0.333333 2:0.333333 3:-0.0666667 4:-0.0666667 5:0.0666667 6:0.0666667 7:-0.0666667 8:-0.333333 9:-0.733333 10:0.0666667 11:-0.0666667 12:0.0666667 13:-0.333333 14:0.333333 15:-0.333333 16:0.0666667 
0 0 0 0 0 0 0.2244805802295111 0 0 0 0 0 0 0 0 0 0 0 0 0 0 0 0 0 0 1:0.0666667 2:0.466667 3:0.0666667 4:0.0666667 5:-0.333333 6:-0.6 7:0.6 8:-0.733333 9:-0.6 10:0.2 11:0.466667 12:0.0666667 13:-0.2 14:0.466667 15:-0.6 16:-0.2 
0.01666540360826949 1.312358529423497 0.2493241882120725 16.44129397746876 3.814876519990142 7.389187803086823 15.36029012987776 0 2.56366360388962 0 2.283203368657946 5.169620292763524 14.32982003733537 0 0 2.020049654238219 13.16987717998177 0.5522286624841687 0.7861116349400608 32 3.023351937457032 7.471995720405815 2.467142164005717 3.219989702721321 10.90663760892121 1:-0.0666667 2:0.2 3:0.2 4:0.0666667 5:0.333333 6:-0.0666667 7:0.0666667 8:-0.333333 9:-0.2 10:0.0666667 11:-0.2 12:0.0666667 13:-0.0666667 14:-0.0666667 15:0.0666667 16:0.0666667 
0 0 0 0 0 0 0 0 0 0 0 0 1.369480646038867 0 0 0 0 0 0 0 0 0 0 0 0 1:0.0666667 2:0.466667 3:0.0666667 4:0.0666667 5:-0.466667 6:-0.466667 7:0.6 8:-0.733333 9:-0.466667 10:0.0666667 11:0.466667 12:-0.0666667 13:-0.2 14:0.333333 15:-0.866667 16:-0.0666667 
0 0 0 0 0 0 0 0 0 0 0 0 0 0 0 0 0 0 0 0 0 0 0 0 0.02982996670936637 1:-0.6 2:-0.6 3:-0.466667 4:-0.733333 5:-0.866667 6:-0.333333 7:0.733333 8:-0.466667 9:-0.6 10:0.333333 11:0.466667 12:-0.2 13:-0.733333 14:0.333333 15:-0.866667 16:0.0666667 
0 0 0 0 0 0 0 0 0 15.90183785223361 0 0 0 0 0 0 0 0 0 0 0 0 0 0 0 1:-0.6 2:-0.0666667 3:-0.333333 4:-0.333333 5:-0.6 6:0.2 7:0.466667 8:-0.733333 9:-0.733333 10:-0.466667 11:0.333333 12:0.0666667 13:-0.733333 14:0.6 15:-0.866667 16:0.0666667 
0.2794421822476208 0 0 0 0 0 0 0 0.7261488819078459 0 0 0 0 0 0 0 0 0 0 0 0 0 0 0 0 1:-0.466667 2:0.2 3:-0.333333 4:-0.0666667 5:-0.466667 6:0.2 7:0.466667 8:-0.733333 9:-0.6 10:-0.466667 11:0.333333 12:0.0666667 13:-0.6 14:0.333333 15:-0.733333 16:0.0666667 
0 0 0 0 0 0 0 0 0 9.467710653848398 0 0 0 0 0 0 0 0 0 0 0 0 0 0 0 1:-0.6 2:0.2 3:-0.333333 4:-0.0666667 5:-0.866667 6:0.333333 7:0.0666667 8:-0.466667 9:-0.6 10:-0.333333 11:0.866667 12:0.0666667 13:-0.6 14:0.333333 15:-1 16:0.0666667 
6.456666222615333 7.342286304760358 0 21.53254910248246 3.578700011503187 0 15.75506680586462 0 0 0 1.94518445603853 0 0 0 0 0 17.63745868914253 0 1.382915612253962 32 0 0 3.97228000692371 0.009411683282526678 0 1:-0.466667 2:0.0666667 3:-0.2 4:-0.0666667 5:-0.0666667 6:0.0666667 7:-0.0666667 8:-0.466667 9:-0.466667 10:-0.0666667 11:-0.2 12:0.0666667 13:-0.0666667 14:-0.0666667 15:0.2 16:-0.333333 
0 0 0 0 0 0 0 0 0 0 0 0 0 0 0 0.2232487158313562 0 0 0 0 0 0 0 0 0 1:-0.466667 2:0.2 3:-0.2 4:-0.2 5:-0.6 6:-0.466667 7:0.466667 8:-0.6 9:-0.466667 10:0.2 11:0.6 12:0.2 13:-0.6 14:0.333333 15:-0.866667 16:0.0666667 
0 0 2.444900906556279 0.9634878340989144 0 0 0 0.07261802657326148 0 0 1.235063385331875 0 0 0 1.252813591230619 0 0 0.3435345542988132 0.6674855344022882 0 1.355604992623408 0 0 1.022322743779695 0 1:-0.0666667 2:0.333333 3:-0.2 4:0.0666667 5:-0.6 6:-0.733333 7:0.466667 8:-0.333333 9:-0.333333 10:0.6 11:0.6 12:0.0666667 13:-0.733333 14:0.333333 15:-0.866667 16:0.0666667 
0.7030746678271728 0 5.26118745292846 0.7383125436354556 0 0 8.970428887647326 5.118686714547115 7.82737857864222 0 3.857782286051738 0 0 0 0 1.825637431914746 0 0 0 1.951332286277958 0 0 1.925772443660181 1.077092392189599 0 1:-0.733333 2:-0.2 3:-0.466667 4:-0.466667 5:-0.466667 6:0.0666667 7:-0.0666667 8:-0.466667 9:-0.733333 10:0.0666667 11:-0.0666667 12:0.0666667 13:-0.333333 14:0.333333 15:-0.466667 16:-0.0666667 
0 0 0 0 0 0 0 0 0 0 2.676890194477857 0 0 0 0 0 30.25221243079402 0 0.2936543673616227 32 0 0 0 0 0 1:-0.466667 2:-0.2 3:-0.2 4:-0.333333 5:-0.2 6:-0.0666667 7:-0.0666667 8:-0.466667 9:-0.466667 10:-0.0666667 11:-0.2 12:0.0666667 13:-0.2 14:0.333333 15:-0.0666667 16:-0.0666667 
9.263283242603004 0 0.3235882134469657 0 0 0 0 0 0 12.86476457635236 0 0 3.028112001016104 0 21.76139980226384 0 0 0 0 22.47289563595483 0 2.058515042911453 0 0 0 1:-0.333333 2:-0.0666667 3:-0.0666667 4:-0.2 5:-0.0666667 6:0.0666667 7:-0.2 8:-0.333333 9:-0.333333 10:-0.0666667 11:-0.2 12:0.0666667 13:-0.0666667 14:0.333333 15:-0.2 16:-0.0666667 
0 0 0 0 0 0 0 0 0 8.987126136049621 0 0 0 0 0 0 0 0 0 0 0 0 0 0 0 1:-0.6 2:-0.466667 3:-0.333333 4:-0.2 5:-0.866667 6:0.2 7:0.0666667 8:-0.466667 9:-0.6 10:-0.2 11:0.866667 12:0.0666667 13:-0.6 14:0.333333 15:-1 16:0.0666667 
0.5185917745593179 0.980458527161073 1.298447776347434 1.425922666905121 0 1.099729290060266 0.8792899991699119 0.7772777486549071 0.6531402905212472 0 1.43421939332994 0 2.025241851961094 0 2.666988631589321 1.456365078083702 0.9538310538416855 0.191770458283877 0 0 0.4045472412358593 0 0.8639077625563224 0.2350224619166211 0 1:-0.866667 2:-1 3:-0.733333 4:-1 5:-1 6:-0.0666667 7:0.2 8:-0.6 9:-0.733333 10:-0.0666667 11:0.6 12:0.0666667 13:-0.733333 14:0.333333 15:-1 16:0.0666667 
0 0 0 0 0 0 0 0 0 9.864713575250912 0 0 0 0 0 0 0 0 0 0 0 0 0 0.02003686379825019 0 1:-0.866667 2:-1 3:-0.733333 4:-0.866667 5:-1 6:0.0666667 7:0.2 8:-0.6 9:-0.733333 10:-0.0666667 11:0.6 12:0.0666667 13:-0.733333 14:0.466667 15:-1 16:0.0666667 
0 0 0 0 0 0 0 0 0 0 0 0 0 0.4621816534387173 0 0 0 0 0 0 0 0 0 0 0 1:0.2 2:1 3:0.0666667 4:0.2 5:-0.466667 6:0.2 7:0.333333 8:-0.2 9:-0.466667 10:-0.2 11:0.333333 12:-0.2 13:-0.2 14:0.733333 15:-0.6 16:-0.2 
0 0 0 0 0 0 0 0 0 0 0 0 0 0 0 0 0 0 0 0 0 3.559084025594037 0 0 0 1:-0.333333 2:0.2 3:0.0666667 4:-0.2 5:0.0666667 6:0.0666667 7:-0.0666667 8:-0.466667 9:-0.733333 10:-0.0666667 11:0.0666667 12:0.0666667 13:-0.333333 14:0.333333 15:-0.466667 16:0.0666667 
0 0 0 0 0 0 0 0 0 3.513868413260655 1.161545700225068 0 0 0 0 0 0 0 0 0 0 0 0 0 0 1:-0.333333 2:0.466667 3:0.0666667 4:0.0666667 5:-0.466667 6:-0.2 7:0.466667 8:-0.733333 9:-0.466667 10:0.0666667 11:0.6 12:0.2 13:-0.6 14:0.333333 15:-0.733333 16:0.0666667 
0 0 0 0 0 0 0 0 0 0 0 0 0 0 0 0 0 0 0.1157884101985286 0 0 0 0 0 2.505160773853887 1:-0.0666667 2:0.333333 3:-0.333333 4:-0.333333 5:-0.733333 6:-0.2 7:0.466667 8:-0.333333 9:-0.466667 10:0.466667 11:0.2 12:-0.466667 13:-0.466667 14:0.466667 15:-0.6 16:0.333333 
0 0 0 0 0 0 0 0 0 0.8528750101407548 0 0 0 0 0 0 0 0 0 0 0 0 0 0 0 1:-0.733333 2:-0.466667 3:-0.466667 4:-0.6 5:-0.866667 6:-0.0666667 7:0.6 8:-0.733333 9:-0.6 10:-0.2 11:0.466667 12:0.2 13:-0.733333 14:0.333333 15:-0.866667 16:0.0666667 
0 0 0 0 0 0 0 0 0 0 0 0 0 0 0 0 0 0 0 32 0 0 0 0 0 1:-0.466667 2:-0.333333 3:-0.2 4:-0.466667 5:-0.2 6:-0.0666667 7:-0.0666667 8:-0.333333 9:-0.466667 10:-0.0666667 11:-0.2 12:0.0666667 13:-0.2 14:0.2 15:-0.0666667 16:-0.0666667 
0 0 0 0 0 0 0 0 0 10.50007215383588 0 0 0 0 0 0 0 0 0 0 0 0 0 0 0 1:-0.466667 2:-0.0666667 3:-0.333333 4:-0.333333 5:-0.733333 6:0.2 7:0.6 8:-0.733333 9:-0.6 10:-0.466667 11:0.466667 12:0.2 13:-0.6 14:0.6 15:-0.866667 16:-0.0666667 
0 0.6015990254272473 0.9840652048776404 0 0 0 0 0.3773029917018277 0 0 1.994790266353595 0 0 1.908871140061985 0 0 0 0 1.236561950717729 0 0 0 0 3.512983167909278 0 1:-0.6 2:-0.2 3:-0.466667 4:-0.466667 5:-0.733333 6:-0.0666667 7:0.466667 8:-0.6 9:-0.733333 10:-0.0666667 11:0.333333 12:0.2 13:-0.733333 14:0.333333 15:-0.6 16:0.0666667 
0.2622609497344353 0 0.8223141891072803 0 0 0 0 0 0 0 0 2.393540880755155 0 0 0.4716276542715954 0 0 0 0 0 0 0 0 0 0 1:-0.466667 2:0.466667 3:-0.2 4:0.0666667 5:-0.333333 6:0.0666667 7:0.466667 8:-0.733333 9:-0.6 10:-0.466667 11:0.333333 12:0.2 13:-0.466667 14:0.6 15:-0.733333 16:0.0666667 
7.537830114234369 4.166149765221094 3.739766351943889 0 14.43143597970557 22.13809241327896 0 0 22.88290650807915 2.300716231936483 0 21.27775964214788 1.894948238112375 5.320289345792874 20.01715020679577 29.68934453954923 0 0 0 11.80500829126134 7.499593160385214 10.71573007984657 10.38594454296186 0 8.542777005403515 1:-0.466667 2:-0.2 3:-0.333333 4:-0.2 5:-0.2 6:-0.0666667 7:0.0666667 8:-0.333333 9:-0.333333 10:-0.0666667 11:-0.2 12:0.0666667 13:-0.2 14:0.0666667 15:-0.2 16:-0.2 
0 0 0 0 0 0 0 2.664506820641041 0 0 0 0 0 0 0 0 0 0 0 0 0 0 0 0 0 1:-0.466667 2:-0.0666667 3:-0.2 4:-0.333333 5:-0.2 6:0.0666667 7:0.0666667 8:-0.466667 9:-0.733333 10:0.0666667 11:-0.0666667 12:0.0666667 13:-0.0666667 14:0.466667 15:-0.333333 16:0.0666667 
0 0 0 0 0.5067401775423899 1.29174095412555 0 0 0 0 0 0 0 0 0 0 0 0 0 0 0 0 0 0 2.933678146461275 1:0.0666667 2:0.733333 3:-0.0666667 4:-0.0666667 5:-0.466667 6:-0.333333 7:0.333333 8:-0.466667 9:-0.333333 10:0.2 11:0.2 12:-0.333333 13:-0.466667 14:0.333333 15:-0.733333 16:0.0666667 
0 0 0 0 0 0 0 0 0 0 0 0 0 0 0 2.885542591426773 0 0 0 0 0 0.2344901914984204 0 0 0 1:-0.466667 2:-0.333333 3:-0.333333 4:-0.6 5:-0.733333 6:-0.466667 7:0.6 8:-0.733333 9:-0.6 10:0.2 11:0.466667 12:-0.0666667 13:-0.466667 14:0.333333 15:-0.866667 16:-0.0666667 
0 0 0 0 0 0 0 0 0 32 0 0 0 0 0 0 0 0 0 0 0 2.775634388922226 0 0 0 1:-0.866667 2:-1 3:-0.733333 4:-1 5:-1 6:0.0666667 7:0.2 8:-0.6 9:-0.866667 10:-0.2 11:0.6 12:0.0666667 13:-0.733333 14:0.466667 15:-1 16:0.0666667 
0 0 0 0 0 0 0 0 0 0 0 0 0 0 0 0 0 0 0 0 0 0 0 0 0.786205850843157 1:-0.866667 2:-1 3:-0.733333 4:-0.866667 5:-1 6:-0.0666667 7:0.2 8:-0.6 9:-0.733333 10:-0.0666667 11:0.6 12:0.0666667 13:-0.733333 14:0.333333 15:-1 16:0.0666667 
0 0 0 0 0 0 0 0 0 0 0 0 0 0 0 0 0 0 0 0 0 0 0 0 0.9308002592433503 1:-0.466667 2:-0.0666667 3:-0.466667 4:-0.333333 5:-0.733333 6:-0.6 7:0.6 8:-0.333333 9:-0.466667 10:0.6 11:0.466667 12:-0.0666667 13:-0.6 14:0.333333 15:-0.866667 16:0.0666667 
0 0 0 0 0 0 0 1.904911137920276 0 0 0 0 0 0 0 0 0 0 0 0 4.018288692018317 0 0 0 0 1:-0.2 2:0.2 3:-0.333333 4:-0.466667 5:-0.733333 6:-0.0666667 7:0.333333 8:-0.0666667 9:-0.6 10:0.2 11:0.2 12:-0.333333 13:-0.333333 14:0.6 15:-0.6 16:0.2 
2.266007485569105 1.307862597910857 0 1.50497932395694 2.121654200449122 5.574033883548279 4.155447607035513 0 6.053039123423344 1.037019077733069 4.078734045236897 0.8750342205717672 0 0 4.543987267572722 2.138402869129777 0.2952650608531919 0.9082233812523905 1.410125043228599 4.102254119485206 0 0 5.843684888430202 0.2221528556320309 0.7425509053842624 1:-0.333333 2:0.2 3:-0.333333 4:-0.466667 5:-0.6 6:0.333333 7:-0.0666667 8:-0.466667 9:-0.333333 10:-0.0666667 11:0.2 12:-0.333333 13:-0.466667 14:0.466667 15:-0.733333 16:-0.0666667 
0 0.1303017505069617 0 0 1.613392452424576 4.9691333983072 6.390716586865536 0 0 3.291604737778131 0 0 8.446232139833532 5.496084838169759 0 0 1.544098014507421 0 0 14.57621255557251 1.436561954030043 0 0 0 2.477460949735499 1:-0.333333 2:0.466667 3:-0.0666667 4:0.0666667 5:0.2 6:0.0666667 7:-0.333333 8:-0.333333 9:-0.733333 10:0.0666667 11:-0.0666667 12:0.0666667 13:-0.2 14:0.0666667 15:-0.333333 16:0.0666667 
0 0 0 0 0 0 0 0 0 32 0 0 0 0 0 0 0 0 0 0 0 0 0 0 0 1:-0.733333 2:-0.0666667 3:-0.466667 4:-0.333333 5:-0.733333 6:-0.0666667 7:0.2 8:-0.6 9:-0.866667 10:0.0666667 11:0.6 12:0.0666667 13:-0.733333 14:0.466667 15:-1 16:0.0666667 
0 0 0 0 0 0 0 0 0 12.79947106595685 0 0 0 0 0 0 0 0 0 0 0 0 0 0 0 1:-0.6 2:-0.0666667 3:-0.333333 4:-0.333333 5:-0.733333 6:-0.0666667 7:0.6 8:-0.6 9:-0.466667 10:-0.2 11:0.6 12:0.0666667 13:-0.733333 14:0.333333 15:-0.866667 16:0.0666667 
0 0 0 0 0 0 0 0 0 0 0 0 0 0 0.3162647067094416 0 0 0 0 0 0 0 0 0 0 1:-0.466667 2:-0.466667 3:-0.2 4:-0.2 5:-0.866667 6:0.333333 7:0.0666667 8:-0.333333 9:-0.6 10:-0.333333 11:0.866667 12:0.0666667 13:-0.6 14:0.2 15:-1 16:0.0666667 
0 0 0 0 0 0 0 0 0 0 0 0 0 0 0 0 0 0 0 0.09504479310333575 0 0 0 0 0 1:-0.333333 2:0.466667 3:-0.0666667 4:0.0666667 5:-0.333333 6:0.2 7:0.466667 8:-0.6 9:-0.733333 10:-0.333333 11:0.333333 12:0.0666667 13:-0.333333 14:0.333333 15:-0.333333 16:-0.0666667 
0 0 0 0 0 0 0 10.1115488606895 0 0 0 0 0 0 0 0 0 0 0 9.234753266290783 0 0 0 0 0 1:-0.0666667 2:0.2 3:0.333333 4:0.0666667 5:0.466667 6:-0.0666667 7:-0.2 8:-0.333333 9:-0.333333 10:-0.0666667 11:-0.2 12:0.0666667 13:-0.0666667 14:0.333333 15:0.0666667 16:0.0666667 
0 0.4520410520390867 0 0 2.306741898205207 0.4899282404592808 0 1.087042391451408 0 0 0 0 0.09605876323373513 0 0 0.3951357521189063 1.344105049776396 0.5410492118266339 1.465825321611533 0 0.6952693198260171 0 2.088512404341373 0 8.356036104117358 1:-0.2 2:0.2 3:-0.2 4:-0.466667 5:-0.733333 6:-0.333333 7:0.6 8:-0.333333 9:-0.733333 10:0.466667 11:-0.0666667 12:-0.466667 13:-0.6 14:0.466667 15:-0.733333 16:-0.0666667 
0 0 0 0 0 0 0 0 0 1.160114873077817 0 0 0 0 0 0 0 0 0 0 0 0 0 0 0 1:0.0666667 2:0.466667 3:-0.0666667 4:0.0666667 5:-0.466667 6:-0.466667 7:0.466667 8:-0.6 9:-0.466667 10:0.2 11:0.466667 12:-0.0666667 13:-0.733333 14:0.333333 15:-0.866667 16:0.0666667 
0 0.5952309098904653 0 0.822442182929257 0.6799283682149506 0 1.092164402424828 0 0 2.635399522795254 1.364898363194521 0 0 0 0 2.206893473688406 0.05918527204232007 0.6436673706989573 0.400396350557464 0 0 1.139836910634186 0 0 0 1:0.333333 2:1 3:0.333333 4:0.0666667 5:-0.333333 6:-0.2 7:0.0666667 8:-0.466667 9:-0.466667 10:0.0666667 11:0.0666667 12:-0.333333 13:-0.2 14:0.6 15:-0.466667 16:-0.2 
0 0 0 0 0 0 0 0 0 0 0 6.598545301477457 0 0 0 0 0 0 0 0 0 0 0 0 0 1:-0.466667 2:0.466667 3:-0.2 4:0.0666667 5:-0.6 6:-0.0666667 7:0.466667 8:-0.6 9:-0.333333 10:0.0666667 11:0.6 12:0.0666667 13:-0.6 14:0.333333 15:-0.866667 16:0.0666667 
0 0 0 0 0 0 0 0 0 0 0 2.626895810208494 0 0 0 0 0 0 0 0 0 0 0 0 0 1:-0.6 2:-0.333333 3:-0.466667 4:-0.6 5:-0.866667 6:-0.466667 7:0.6 8:-0.466667 9:-0.466667 10:0.466667 11:0.466667 12:-0.0666667 13:-0.733333 14:0.466667 15:-0.866667 16:0.0666667 
0 0.4979027972815039 0 0 0 0 0 0 0 0 0 0 0 0 0 0 0 0 0 0 0 0 0 0 0 1:-0.866667 2:-1 3:-0.733333 4:-0.866667 5:-1 6:0.0666667 7:0.2 8:-0.6 9:-0.733333 10:-0.0666667 11:0.6 12:0.0666667 13:-0.733333 14:0.333333 15:-1 16:0.0666667 
0 0 0 0 0 0 0 0 0 0 0 0 0 0 0 0 0 0 0 13.99804438225376 0 0 0 0 0 1:-0.2 2:0.2 3:0.0666667 4:0.0666667 5:0.333333 6:-0.0666667 7:-0.2 8:-0.333333 9:-0.333333 10:-0.0666667 11:-0.2 12:0.0666667 13:-0.0666667 14:0.333333 15:0.0666667 16:0.2 
0 0 0 0 0 0 0 0 0 4.019529075004338 0 0 0 0 0 0 0 0 0 0 0 0 0 0 0 1:-0.6 2:0.0666667 3:-0.333333 4:-0.2 5:-0.866667 6:-0.2 7:0.0666667 8:-0.466667 9:-0.6 10:-0.0666667 11:0.866667 12:0.0666667 13:-0.6 14:0.333333 15:-1 16:0.0666667 
0 0 0 0 0 0 0 0 0.04798584645611759 5.472846609056366 0 0 0 0 0 0 0 0 0 0 0 0 0 0 0 1:-0.466667 2:-0.333333 3:-0.0666667 4:0.0666667 5:-0.733333 6:-0.0666667 7:0.0666667 8:-0.466667 9:-0.6 10:-0.0666667 11:0.866667 12:0.0666667 13:-0.6 14:0.2 15:-1 16:0.0666667 
0 0 0 0 0 0 0 0 0 0 0 0 0 0 0 0 0 0 0 0 0 0 0 0 2.831206204323463 1:-0.466667 2:0.466667 3:-0.2 4:0.0666667 5:0.0666667 6:-0.0666667 7:-0.333333 8:-0.333333 9:-0.733333 10:0.0666667 11:-0.0666667 12:0.0666667 13:-0.2 14:0.2 15:-0.333333 16:0.0666667 
0 0 0 0 0 0 0 0 0 5.546438647836113 0 0 0 0 0 0 0 0 0 0 0 0.01664811842908608 0 0 0 1:-0.733333 2:-0.2 3:-0.466667 4:-0.466667 5:-0.733333 6:0.0666667 7:0.466667 8:-0.733333 9:-0.6 10:-0.333333 11:0.466667 12:0.2 13:-0.733333 14:0.333333 15:-1 16:0.0666667 
0 0 0 0 0 0 0 0 0 0 0 0 0 0 0 0 0 0 0 0 0 0 0.7146262356760134 0 0 1:-0.2 2:0.333333 3:-0.2 4:0.0666667 5:-0.6 6:-0.466667 7:0.466667 8:-0.733333 9:-0.466667 10:0.2 11:0.466667 12:-0.0666667 13:-0.6 14:0.2 15:-0.866667 16:-0.0666667 
0 0 0 0 0 0 0.8581562495324053 0 0 4.381523079597091 0 0 0 0 0.7752271358488284 0 0 0 0 0 0 0 0 0 0 1:0.0666667 2:0.333333 3:0.0666667 4:-0.0666667 5:-0.6 6:-0.6 7:0.466667 8:-0.333333 9:-0.333333 10:0.6 11:0.6 12:-0.0666667 13:-0.6 14:0.333333 15:-0.866667 16:0.0666667 
0 0 0 0 0 0 0 0 0 0.6888303694928174 0 0 0 0 0 0 0 0 0 0 0 0 0 0 0 1:-0.333333 2:0.466667 3:-0.0666667 4:0.2 5:-0.466667 6:0.2 7:0.2 8:-0.466667 9:-0.733333 10:-0.333333 11:0.733333 12:0.0666667 13:-0.6 14:0.333333 15:-1 16:0.0666667 
0 0 0 0 0 0 0 0 0 0 0 0 0 0 0 0 0 0 0 32 0 0 0 0 5.451350958846917 1:-0.333333 2:0.2 3:-0.0666667 4:0.0666667 5:0.2 6:-0.0666667 7:-0.0666667 8:-0.333333 9:-0.466667 10:-0.0666667 11:-0.2 12:0.0666667 13:-0.0666667 14:0.2 15:-0.0666667 16:0.0666667 
0 0 0 0 0 0 0 0 0 0 0 10.65315345052983 0 0 0 0 0 0 0 0 0 0 0 0 0 1:-0.866667 2:-0.6 3:-0.733333 4:-0.733333 5:-0.866667 6:-0.0666667 7:0.6 8:-0.6 9:-0.6 10:0.0666667 11:0.466667 12:0.0666667 13:-0.733333 14:0.466667 15:-0.866667 16:0.0666667 
0 0 0 0 0 0 0 0 0 0 0 0 0.1941793092593606 0 0 0 0 0 0 0 0.5234928734306139 0 0 0 0 1:-0.333333 2:0.2 3:-0.0666667 4:-0.0666667 5:-0.6 6:0.2 7:0.6 8:-0.6 9:-0.466667 10:-0.466667 11:0.466667 12:0.2 13:-0.6 14:0.333333 15:-0.866667 16:0.0666667 
0 0 2.210161781388982 1.808031282027952 0 2.543287376772755 3.295382795107211 0 0 0 0 0 0.3505802294171541 0 0 3.833870901529496 1.803706986033359 0 0 0 3.777223324939518 0 0 0 4.505390271416018 1:0.0666667 2:1 3:0.0666667 4:0.0666667 5:-0.333333 6:-0.333333 7:0.0666667 8:-0.333333 9:-0.466667 10:0.0666667 11:-0.0666667 12:-0.2 13:-0.2 14:0.6 15:-0.6 16:0.0666667 
-1.210959148283082 5.055052222891187 0 0 1.03914146563941 0 0 0 0 0 0 0 0 0 0 0 5.578218838712408 0 0 18.64276598878756 0 0 19.80034174169136 0 2.21993105991581 1:-0.466667 2:-0.0666667 3:-0.2 4:-0.2 5:-0.333333 6:-0.0666667 7:-0.0666667 8:-0.466667 9:-0.333333 10:-0.0666667 11:-0.2 12:-0.0666667 13:-0.6 14:0.2 15:0.0666667 16:0.466667 
-0 0 0 0 0 0 0 0 0 0 0 0 0 5.290471697570586 0 0 0 0 0 0 4.431181878348947 0 0 0 0.7138718477840938 1:-0.6 2:0.0666667 3:-0.466667 4:-0.2 5:-0.6 6:-0.0666667 7:-0.6 8:-0.466667 9:-0.2 10:-0.2 11:-0.733333 12:-0.0666667 13:-0.866667 14:-0.2 15:-0.733333 16:-0.0666667 
-0 0 4.187493448521812 2.854869154028615 0 0 0 0 0 0 0 17.25201366624132 0 0 0 0 0 0 0 0 0 0 0 8.485442528820817 0 1:-0.6 2:0.0666667 3:-0.333333 4:-0.2 5:-0.2 6:-0.2 7:-0.0666667 8:-0.6 9:-0.2 10:0.0666667 11:-0.0666667 12:0.466667 13:-0.2 14:0.333333 15:-0.333333 16:-0.2 
-0 0 0 0 0 0 0 0 1.987696033352859 0 0 0 0.08686510583404737 0.09842853085901709 0 0 0.7725102876971619 0 0 0 0 0 0 0 0 1:-0.333333 2:0.333333 3:-0.466667 4:-0.333333 5:-0.733333 6:0.2 7:-0.6 8:-0.466667 9:-0.466667 10:0.6 11:-0.466667 12:0.733333 13:-0.733333 14:-0.2 15:-0.2 16:0.2 
-0 0 0 0 0 0 0 0 0 0 0.1132169791509556 0 0 0 0 0 0 0 0 0 0 0 0 0 0 1:-0.6 2:-0.2 3:-0.466667 4:-0.466667 5:-0.733333 6:-0.333333 7:-0.333333 8:-0.866667 9:0.2 10:-0.2 11:-0.733333 12:0.466667 13:-1 14:0.0666667 15:-0.6 16:-0.0666667 
-0 4.486698599591376 0 0.5767923700867457 0 0 0 0 0 0 0 0.8387305958728543 0 0 0 0 0 0 0 0 0 0 0 0.7623302087777603 0 1:-0.333333 2:0.466667 3:-0.0666667 4:0.0666667 5:-0.333333 6:-0.2 7:-0.333333 8:-1 9:0.2 10:0.2 11:-0.6 12:0.466667 13:-1 14:-0.0666667 15:-0.6 16:0.0666667 
-0 0 0 0 0 0 15.01459902060609 32 0 0 0 1.095331965144664 0 0 0 0 0 0 0 0 0 0 0 0 11.98206966360451 1:-0.466667 2:-0.2 3:-0.2 4:-0.466667 5:-0.466667 6:-0.2 7:-0.2 8:-0.0666667 9:-0.2 10:-0.2 11:-0.2 12:0.2 13:-0.733333 14:0.0666667 15:-0.333333 16:0.333333 
-0 0 0 0 0 1.310829626117296 0 0 0 0.318034567169396 0.1344143953457749 0 0 0 0.6646319415470993 1.814671264748307 0 0 0 0.105556369283744 0 0.1823592063214566 0 0 0 1:-0.6 2:-0.0666667 3:-0.333333 4:-0.333333 5:-0.6 6:-0.466667 7:-0.6 8:0.0666667 9:-0.2 10:-0.866667 11:-0.6 12:-0.6 13:-0.866667 14:-0.2 15:-1 16:-0.2 
-0 0 0.5829469596391693 6.295630579222842 0 0 3.527576411454236 1.387563017083765 0 0 4.757807029446428 0 0 0 0 0 0 0 0 0 0 0 0 0 0 1:-0.866667 2:-0.466667 3:-0.6 4:-0.6 5:-0.866667 6:-0.2 7:-0.333333 8:-0.866667 9:-0.2 10:0.0666667 11:-0.6 12:0.333333 13:-0.866667 14:-0.0666667 15:-0.733333 16:0.2 
-0 3.43045800103762 0 0 0 0 0 0 0 0.09232041684100104 25.2564094237201 0 0 0 0 0 0 1.90292415313368 7.648644939545756 4.2541470022961 0 0 0 0 0 1:-0.466667 2:-0.333333 3:-0.333333 4:-0.466667 5:-0.466667 6:0.0666667 7:-0.2 8:-0.466667 9:-0.333333 10:-0.0666667 11:-0.0666667 12:0.0666667 13:-0.733333 14:0.0666667 15:-0.0666667 16:0.333333 
-0.8746405885879405 0 0 0 3.094590188006531 3.18592276169656 0 0 0.5273650708688719 0 0 0 0 0 0 0.3422916837248081 0 1.34308469237214 5.824996243979824 0 0 0 0 0 0 1:-0.2 2:0.866667 3:-0.2 4:0.0666667 5:-0.466667 6:0.333333 7:-0.6 8:-0.466667 9:-0.6 10:0.6 11:-0.2 12:0.333333 13:-0.466667 14:0.2 15:-0.2 16:0.2 
-0 0 0 0 0 0 0.3120709387020032 0 0 0 0 0 0 0 0 0 0 0 0 0 0 0 0 0 0 1:-0.733333 2:-0.733333 3:-0.6 4:-0.466667 5:-0.733333 6:-0.333333 7:-0.466667 8:-0.333333 9:-0.0666667 10:-0.733333 11:-0.733333 12:-0.333333 13:-0.866667 14:-0.2 15:-0.866667 16:-0.2 
-0.3485739558301162 0 0 0.06030485745855584 0 0 0.07012037649982972 1.894264550968203 0 0 4.28094282327128 1.736762884674985 1.673041083102991 0.5324535208715625 0 0 0 0 3.708659438442938 0 0 0.8934181371940538 3.036942332263465 11.68829884325844 1.043202186582995 1:-0.2 2:0.466667 3:0.2 4:0.0666667 5:0.466667 6:-0.0666667 7:-0.0666667 8:-0.6 9:-0.2 10:-0.2 11:-0.0666667 12:0.466667 13:-0.2 14:0.466667 15:0.2 16:-0.0666667 
-0.3389591369096479 0 0 1.189996997080122 0 0 2.301334734461888 0 0 0 0 0 0 0 0 0 0 0 0 0 0 0 1.141886133416992 0 0 1:0.2 2:0.866667 3:0.2 4:0.0666667 5:-0.333333 6:-0.0666667 7:-0.466667 8:-0.466667 9:-0.333333 10:0.6 11:0.0666667 12:0.6 13:-0.466667 14:0.2 15:-0.2 16:0.333333 
-0 0 0 0 0 0 0 0 0 0 0 0 0 25.96793215037622 0 0 0 0 0 0 0 0 0 0 0 1:-0.466667 2:-0.0666667 3:-0.333333 4:-0.333333 5:-0.466667 6:-0.0666667 7:-0.2 8:0.0666667 9:-0.2 10:-0.333333 11:-0.2 12:0.0666667 13:-0.6 14:-0.0666667 15:-0.333333 16:0.466667 
-0 0 0 0 0 0 0 32 0 0.7190006522194319 0 0 0 30.9083975093189 0 0 0 4.194546587453062 32 1.119478187461236 3.527857080038429 0 0.402095777428644 23.90536800574201 4.495459681387486 1:-0.333333 2:0.0666667 3:-0.2 4:-0.0666667 5:-0.333333 6:0.0666667 7:-0.2 8:-0.333333 9:-0.333333 10:-0.0666667 11:-0.0666667 12:0.2 13:-0.6 14:0.2 15:0.0666667 16:0.0666667 
-0 0 0 0 0 0 0 0.09242936344745145 0 0 0 0 0 0 0 0 0 0 0 0 0 0 0 0 0 1:-0.466667 2:0.466667 3:-0.2 4:0.0666667 5:-0.6 6:-0.466667 7:-0.466667 8:-0.6 9:0.2 10:-0.333333 11:-0.866667 12:0.2 13:-0.866667 14:-0.2 15:-0.6 16:-0.2 
-4.017419741328674 0.8371433718909874 11.31177014521496 0.1341816109329892 0.4186212847601797 2.943325735585194 6.398769332873174 7.059809444186982 0.3314983013963814 0.2620499476477339 0 7.204060875334019 0.2617014890779022 0 2.858988255412563 1.672989304782154 0 0 0 1.932662097346951 0.7419558228837018 0.8187384047119748 3.611618746566371 0 3.09009180112169 1:-0.0666667 2:0.333333 3:0.2 4:0.0666667 5:-0.0666667 6:-0.2 7:-0.0666667 8:-0.0666667 9:-0.0666667 10:-0.2 11:-0.2 12:0.0666667 13:-0.2 14:0.0666667 15:-0.333333 16:0.333333 
-0 0 3.874072720271978 0 0 0 0 0 0 0 2.427255145551976 5.252174856277806 0 0 1.167648331572106 0 0 0 0 0 0 0 0 17.4946310822177 0 1:-0.6 2:-0.0666667 3:-0.466667 4:-0.333333 5:-0.333333 6:-0.0666667 7:0.0666667 8:-0.6 9:-0.333333 10:-0.333333 11:-0.0666667 12:0.333333 13:-0.466667 14:0.466667 15:-0.333333 16:-0.2 
-0.05607568591202166 0 0 0 0 0 0 0 0 0.5356046723859719 0 0 0 0 0 0 0 0.3782709639656381 0 0.1762162469685271 0 0 0 0 0 1:-0.6 2:-0.0666667 3:-0.466667 4:-0.333333 5:-0.733333 6:-0.333333 7:-0.733333 8:-0.0666667 9:0.0666667 10:-0.866667 11:-0.733333 12:-0.733333 13:-0.866667 14:-0.2 15:-0.866667 16:-0.333333 
-0.2261841859690786 0.5018443513516578 0 0 0 0.6388157472119509 0 0 0.2665598131339117 0 1.042481950962226 0 0 0.5822910831001676 0.2390920023390749 0.4739583229275665 0 0 0.7343015389875981 0 0.673852791851785 0.6056302833039582 0.4257227724153512 0 0 1:-0.866667 2:-1 3:-0.866667 4:-1 5:-1 6:-0.6 7:-0.866667 8:-0.2 9:-0.466667 10:-0.866667 11:-0.6 12:-0.466667 13:-1 14:0.0666667 15:-1 16:0.0666667 
-0 0 0 0 0 0 1.635041284458389 0 0.2527875836459417 0 1.409259375067503 0 0 0 1.155501355102359 2.477025113558428 0 0 0 0 0 0 0 0 0 1:-0.6 2:-0.0666667 3:-0.466667 4:-0.333333 5:-0.6 6:-0.333333 7:-0.333333 8:-0.466667 9:-0.0666667 10:-0.6 11:-0.733333 12:-0.2 13:-0.466667 14:-0.2 15:-0.866667 16:-0.2 
-0 0 0 0 0 0 0.5428079528216077 2.083896264221281 0.3193715068615113 0 0 0 0 0 0 1.153099538075703 0 0 11.11939276821511 0 0.5181635185456785 0 0 0 0 1:-0.6 2:0.2 3:-0.333333 4:-0.2 5:-0.6 6:0.0666667 7:-0.6 8:-0.6 9:-0.2 10:0.0666667 11:-0.733333 12:0.0666667 13:-0.866667 14:-0.2 15:-0.733333 16:0.0666667 
-0.6292593484805984 0 2.444417989950475 0 0 0 13.16995666837978 12.78219350770501 0 0 0 0 2.20220261277505 0 0 0 0 0 0 0 0 0 0 9.431087313219136 32 1:-0.466667 2:0.2 3:-0.2 4:0.0666667 5:-0.2 6:-0.0666667 7:-0.2 8:-0.333333 9:-0.466667 10:-0.0666667 11:-0.0666667 12:0.0666667 13:-0.6 14:0.0666667 15:0.0666667 16:0.333333 
-0 0 0 0 0 0.0242442273024762 0 0 0 0 0 0 0 0.5760618806449288 0 0 0 2.381248390522243 5.310762276148574 0 0 0 0 2.125079912495455 0 1:-0.466667 2:0.333333 3:-0.466667 4:-0.333333 5:-0.733333 6:0.333333 7:-0.6 8:-0.733333 9:-0.333333 10:0.6 11:-0.6 12:0.466667 13:-0.733333 14:0.2 15:-0.466667 16:0.333333 
-0 0 0 0 0 0 0 0 0 0 0 0 0 0 0 0 11.00526885485087 0 0 0 0 0 0 0 0 1:-0.6 2:0.2 3:-0.333333 4:-0.0666667 5:-0.0666667 6:-0.0666667 7:0.0666667 8:-0.6 9:-0.333333 10:-0.2 11:-0.2 12:0.333333 13:-0.2 14:0.466667 15:-0.0666667 16:-0.333333 
-23.53078248934771 0 0 23.39698774682165 3.879074024133145 13.03794380354515 32 1.551967937136611 9.638541803195229 2.226775074812183 0 17.18280526386222 16.00012134225552 0 29.86157913594159 8.383976222842616 18.89223977765038 0 0 27.81171077592814 5.005020818556358 9.811209647491976 1.632319256389169 0 7.873709905169775 1:-0.466667 2:0.0666667 3:-0.2 4:-0.2 5:-0.0666667 6:0.0666667 7:-0.0666667 8:-0.6 9:-0.333333 10:-0.0666667 11:-0.0666667 12:0.2 13:-0.0666667 14:0.2 15:-0.2 16:-0.2 
-0 0 0 0 0 0 0 0 0 0 0 0 0 0 0 0 0 1.57986941988366 0 0 0 0 0 0 0 1:-0.466667 2:0.2 3:-0.2 4:-0.0666667 5:-0.0666667 6:-0.0666667 7:-0.0666667 8:-0.6 9:-0.2 10:0.0666667 11:-0.0666667 12:0.333333 13:-0.0666667 14:0.333333 15:-0.0666667 16:-0.333333 
-0.1665413972278614 0.009682461654045696 0 0 0.07778880153907267 0 0 0 0.1187684683809019 0.02525080540422366 0 0 0 0.3926645531915986 0 0 0 0 0 0 0 0.0941479908241212 0 0 0 1:-0.333333 2:-0.333333 3:-0.333333 4:0.0666667 5:-0.866667 6:-1 7:-1 8:-0.2 9:-0.2 10:-1 11:-0.866667 12:-0.466667 13:-1 14:0.0666667 15:-1 16:0.0666667 
-0 0.7905323716531838 0 0 0 0 0 0 0 0 0 0 0 0 0 0 0 4.652414917928599 0.3345736112074943 0 0 0 0 1.059786901014747 0 1:-0.333333 2:0.466667 3:-0.0666667 4:0.0666667 5:-0.333333 6:0.333333 7:-0.466667 8:-0.866667 9:0.0666667 10:0.333333 11:-0.733333 12:0.333333 13:-1 14:-0.2 15:-0.6 16:0.333333 
-0 0 0 0 0 0 0 0 0 0 0 0 0 0 0 0 0 0 0 0 0 0 0 2.760455681124398 0 1:-0.333333 2:0.466667 3:-0.0666667 4:0.0666667 5:-0.333333 6:0.2 7:-0.6 8:-0.866667 9:0.0666667 10:0.2 11:-0.733333 12:0.333333 13:-0.6 14:-0.2 15:-0.333333 16:0.333333 
-0 0 14.47796088360504 0 0 0 0 0 0 0 0 0 0 0 0 0 0 0 0 0 0 0 0 21.19049705509439 0 1:-0.466667 2:0.0666667 3:-0.2 4:-0.2 5:-0.0666667 6:-0.0666667 7:-0.0666667 8:-0.6 9:-0.333333 10:-0.0666667 11:-0.0666667 12:0.333333 13:-0.2 14:0.333333 15:-0.2 16:-0.2 
-0 0 0 0.4382022481600317 0 0 0 0 0 0 0 0 0 0 0 0 0 0 0 0 0 0 0 0 0 1:-0.6 2:-0.0666667 3:-0.466667 4:-0.333333 5:-0.6 6:-0.333333 7:-0.333333 8:-0.733333 9:0.0666667 10:-0.0666667 11:-0.733333 12:0.2 13:-0.866667 14:-0.0666667 15:-0.6 16:-0.0666667 
-0 0 0 0 0 0 0 0 0 0 0 0 0 0 0.2431837688837268 0 0 0 0 0 0 0 0 0 0 1:-0.333333 2:0.466667 3:-0.333333 4:0.0666667 5:-0.733333 6:-1 7:-1 8:-0.2 9:-0.2 10:-1 11:-0.866667 12:-0.333333 13:-1 14:0.0666667 15:-1 16:0.0666667 
-0 0 0 0 0 0 0 0 0 0 0 0 0 0 0 0 0 0 2.144527423134626 0 0 0 0 23.14531954404388 0 1:-0.466667 2:0.333333 3:-0.2 4:-0.0666667 5:0.0666667 6:0.0666667 7:0.0666667 8:-0.6 9:-0.333333 10:-0.333333 11:-0.0666667 12:0.333333 13:-0.2 14:0.6 15:0.0666667 16:0.0666667 
-0 0 2.106505691803406 0 0 0 0 0 0 0 0 0 0 0 0 0 0 0 0 0 0 0 0 0 0 1:-0.6 2:-0.0666667 3:-0.466667 4:-0.333333 5:-0.733333 6:-0.466667 7:-0.333333 8:-0.866667 9:0.2 10:-0.0666667 11:-0.733333 12:0.466667 13:-1 14:0.0666667 15:-0.733333 16:-0.0666667 
-0 0 4.197859692178948 27.46033847232967 0 0 0 0 0.0007430909254291412 0 0 0 3.811919050943913 0 0 0 0 0 0 0 0 0.1607807851322602 0 0 0 1:-0.333333 2:0.2 3:-0.2 4:-0.0666667 5:-0.333333 6:-0.333333 7:-0.2 8:-0.333333 9:-0.2 10:-0.2 11:-0.333333 12:0.2 13:0.0666667 14:-0.0666667 15:-0.466667 16:0.333333 
-0 0 0 0 0 0 0 0 0 0 0 0 0 0 0 0 0 0.01457218791782059 0 0 0 0 0 0 0 1:-0.466667 2:0.2 3:-0.333333 4:-0.0666667 5:-0.6 6:-0.466667 7:-0.466667 8:-0.333333 9:0.333333 10:-0.733333 11:-1 12:-0.2 13:-1 14:-0.2 15:-0.733333 16:-0.333333 
-0 0 0 5.89886217330521 0 0 0 0 0 0 3.41728341741576 1.51839017631374 0 0 0 0 1.473597587768798 0 0 0 0 0 0 32 0 1:-0.466667 2:0.333333 3:-0.2 4:-0.0666667 5:0.0666667 6:-0.0666667 7:0.0666667 8:-0.6 9:-0.2 10:-0.333333 11:-0.2 12:0.333333 13:-0.333333 14:0.466667 15:0.0666667 16:0.0666667 
-0 0 0 0 0 0 4.925476149445813 0 2.335954023718457 0 0 0 0 0.5643464662685385 0 0 3.383960354500195 0 0 2.67452001810528 0 0 0 0 1.001658453909834 1:-0.733333 2:-0.2 3:-0.6 4:-0.466667 5:-0.733333 6:0.0666667 7:-0.6 8:-0.6 9:-0.2 10:-0.0666667 11:-0.733333 12:-0.0666667 13:-0.866667 14:-0.2 15:-0.733333 16:0.0666667 
-0 0 0 0 0 0 0 0 0 0 0 0 0.1672445697415885 0 0 0 0 0 0 0 0 0.07073420231603507 0 0 0 1:-0.6 2:0.333333 3:-0.6 4:0.0666667 5:-0.733333 6:-1 7:-0.733333 8:-0.6 9:-0.2 10:-0.866667 11:-1 12:0.0666667 13:-1 14:0.0666667 15:-1 16:0.0666667 
-0 5.697503506295982 0 0 0 0 0 0 0 0 0 0 0 0 0 0 0 0 0 0 0 0 0 0 0 1:-0.6 2:0.2 3:-0.466667 4:-0.2 5:-0.6 6:-0.2 7:-0.333333 8:-1 9:0.0666667 10:0.0666667 11:-0.6 12:0.466667 13:-1 14:0.0666667 15:-0.733333 16:0.0666667 
-0 2.046080634261617 0 0 0 1.709416612829529 0 0 0 0 0 0 0 0 0 0 0 0.8583398138282334 2.227179392550969 0.1151602667651765 0 0 0 0 0 1:-0.866667 2:-0.6 3:-0.733333 4:-0.866667 5:-0.866667 6:-0.2 7:-0.333333 8:-0.866667 9:-0.0666667 10:0.0666667 11:-0.6 12:0.333333 13:-1 14:-0.0666667 15:-0.733333 16:0.0666667 
-0 0 0 0 0 0 0 0 0 0 4.877519891058767 0 0 0 0 0 0 8.460555359265699 13.92345785766019 0 0 0 0 28.72356398525387 0 1:-0.6 2:-0.2 3:-0.466667 4:-0.333333 5:-0.466667 6:0.2 7:-0.0666667 8:-0.466667 9:-0.2 10:-0.2 11:-0.2 12:0.2 13:-0.733333 14:0.0666667 15:-0.0666667 16:0.333333 
-8.539593893031377 0 0 8.667764044996499 0 11.03953857641179 32 0 3.090904749234924 0 0 12.80349754848322 13.26308155371271 7.764783070522788 5.342011140432781 16.46436993161548 31.68557846088369 0 3.165643689837688 12.54567566587344 13.11043883746662 5.554683525834434 2.998519367568751 6.548070369919811 0 1:-0.333333 2:-0.0666667 3:-0.2 4:-0.333333 5:-0.333333 6:-0.0666667 7:0.0666667 8:-0.0666667 9:-0.2 10:-0.2 11:-0.333333 12:0.0666667 13:-0.2 14:-0.0666667 15:-0.466667 16:0.333333 
-0 0.005735399661337992 0 0 0.3671868740855231 0 0 0 0 0.5379004575510982 0 0 1.079186418610821 0 0 0 0 0 0.1424789653015966 0 0 0.3433951276673549 0 0 0 1:0.2 2:0.866667 3:0.0666667 4:0.0666667 5:-0.466667 6:0.333333 7:-0.733333 8:-0.466667 9:-0.466667 10:0.733333 11:-0.333333 12:0.733333 13:-0.733333 14:-0.0666667 15:-0.2 16:0.2 
-0.07006615121627999 0 0 11.16924577600627 0 0 0 0 0 2.615130220283155 0 0 0 0 3.627710641079699 8.544090679410674 18.52133105424539 0 0 1.295766114202414 0.001784846586530578 0.789677597194843 1.584074344302102 0 0.1083479488305003 1:-0.333333 2:0.466667 3:-0.0666667 4:0.0666667 5:0.2 6:0.0666667 7:-0.0666667 8:-0.6 9:-0.333333 10:-0.2 11:-0.0666667 12:0.2 13:-0.0666667 14:0.333333 15:-0.0666667 16:-0.2 
-0 10.34874786462029 0 0 19.71736008512796 0 6.346144455119961 0 0 0 19.40156617797017 6.413398943088807 0 0 0 0 22.97421432347679 0 0 4.692304938550683 0 0 0 0 0 1:-0.333333 2:0.2 3:-0.0666667 4:0.0666667 5:-0.2 6:-0.0666667 7:-0.0666667 8:-0.466667 9:-0.333333 10:-0.0666667 11:-0.0666667 12:0.0666667 13:-0.6 14:0.0666667 15:0.0666667 16:0.2 
-0 0 0.1552874255614841 0 0 0 0 0 0 0 0 0 0 0 0 0 0 0 0 0 0 0 0 0 0 1:-0.466667 2:0.2 3:-0.333333 4:0.0666667 5:-0.2 6:-0.0666667 7:-0.2 8:-0.333333 9:-0.466667 10:-0.0666667 11:-0.0666667 12:0.0666667 13:-0.733333 14:0.2 15:-0.0666667 16:0.333333 
-0.2843820140052591 0 0 0 0.7102993773753515 0 0 0 1.378831353261419 0.9871752043885745 0 0 1.073349786873897 0 1.131866347029059 0.4431493532128594 0 0 0 0 0 0.6812059443103163 0.2093543022194431 0 0 1:-0.866667 2:-0.6 3:-0.733333 4:-0.866667 5:-0.866667 6:-0.2 7:-0.466667 8:-1 9:-0.2 10:0.0666667 11:-0.6 12:0.333333 13:-1 14:-0.0666667 15:-0.866667 16:0.0666667 
-0 0 0 0 0 0 0 0 0 0 2.272159612077394 0 0 0 0 0 0 0 0 0 0 0 0 0 0 1:-0.6 2:0.2 3:-0.333333 4:-0.0666667 5:-0.6 6:0.0666667 7:-0.466667 8:-0.733333 9:-0.0666667 10:0.0666667 11:-0.733333 12:0.0666667 13:-0.866667 14:-0.2 15:-0.733333 16:0.2 
-0 0 0 0 0 0 0 0 0 0 0 0 0.5803709902726785 0 0 0 0 0 3.356661414975722 0 0 0 2.288857004789929 32 0 1:-0.466667 2:0.333333 3:-0.333333 4:0.0666667 5:-0.0666667 6:0.0666667 7:0.0666667 8:-0.6 9:-0.333333 10:-0.333333 11:-0.0666667 12:0.2 13:-0.333333 14:0.466667 15:0.2 16:0.333333 
-0 0 0 5.811891967354371 0 0 0 0 0 0 0.9396525753049573 0 0 2.036066251372807 0 0 0 0 1.631204877418625 0 0 0 0 0.1106027018222481 0 1:-0.2 2:0.2 3:-0.333333 4:-0.466667 5:-0.733333 6:-0.2 7:-0.333333 8:-0.6 9:-0.0666667 10:0.333333 11:-0.466667 12:0.6 13:-0.733333 14:-0.2 15:-0.2 16:0.0666667 
-0 0 0 0 0 0 0 0 0 0 0.7558450878932185 0 0 0 0 0 0 0 0 0 0 0 0 0 0 1:-0.6 2:-0.0666667 3:-0.466667 4:-0.333333 5:-0.733333 6:-0.0666667 7:-0.466667 8:-0.733333 9:-0.2 10:-0.0666667 11:-0.733333 12:0.0666667 13:-0.866667 14:-0.2 15:-0.733333 16:0.0666667 
-0 3.723787130093748 0 0 0.05906356450262679 0.2185317683739981 0 0 0 0 0 0 0 0 0 0 0 0 0 0 0 0 0 0 0 1:-0.6 2:-0.0666667 3:-0.466667 4:-0.333333 5:-0.733333 6:0.0666667 7:-0.466667 8:-0.866667 9:-0.0666667 10:0.2 11:-0.6 12:0.2 13:-0.866667 14:-0.2 15:-0.733333 16:0.2 
-0 0 0 0 0 0 0 1.928417790225053 0 0 0 0 0 0 0 0 0 2.227479822252446 0 0 0 0 0 5.570554402294838 0 1:-0.866667 2:-0.6 3:-0.6 4:-0.733333 5:-0.866667 6:-0.2 7:-0.333333 8:-0.733333 9:0.2 10:-0.0666667 11:-0.733333 12:0.333333 13:-1 14:-0.0666667 15:-0.733333 16:0.0666667 
-0 0 0 0 0 0 0 0 0 0 0 0 0 0 0 0 0 0 0.0640274065356113 0 0 0 0 0 0 1:-0.466667 2:0.466667 3:-0.2 4:0.0666667 5:-0.6 6:-0.466667 7:-0.466667 8:-0.466667 9:0.2 10:-0.733333 11:-1 12:-0.2 13:-1 14:-0.0666667 15:-0.866667 16:-0.333333 
-0.526593162116014 0.6684250050974572 0 0 0.6185206164288778 0 0.6377874024485676 4.328846374310535 0 1.048066047365937 0 0 1.453097747894953 5.103501476172013 0 0 1.479802873737507 0.4916669393593873 3.993880571922666 1.630513587970656 0 1.380296454535027 4.490152479558798 0 0 1:-0.0666667 2:0.466667 3:0.2 4:0.2 5:-0.0666667 6:0.2 7:-0.0666667 8:0.0666667 9:-0.2 10:-0.2 11:-0.2 12:-0.0666667 13:-0.2 14:-0.0666667 15:0.2 16:1 
-0 0 0 0.1781539330310418 0 0 0 0.2357855673825819 0 0 0 0 0 0 0.03484681663389172 0 0 0 0 0 0 0 0 0 0 1:-0.866667 2:-1 3:-0.866667 4:-1 5:-1 6:-0.733333 7:-0.733333 8:-0.333333 9:-0.466667 10:-0.866667 11:-0.6 12:-0.333333 13:-1 14:0.0666667 15:-1 16:0.0666667 
-0 0.1689346631392341 0 0 0 1.209179677266487 0 0.8943083742419291 0 0 0 0 0 0.8646264958552919 0 0.1324751697042631 1.797066749474391 0.2538239885366136 4.556351677997184 0 1.330740775968276 0 0 0 0 1:0.2 2:1 3:-0.0666667 4:0.0666667 5:-0.466667 6:-0.0666667 7:-0.466667 8:-0.6 9:-0.2 10:0.466667 11:-0.6 12:0.6 13:-0.733333 14:-0.0666667 15:-0.2 16:-0.0666667 
-0 0 0 0 0 0 0 0 0 0 4.263074035295283 0 0 0 0 0 0 1.649125701689862 0 0 0 0 0 0 0 1:0.0666667 2:0.733333 3:0.0666667 4:-0.0666667 5:-0.333333 6:0.0666667 7:-0.466667 8:-0.6 9:-0.333333 10:0.466667 11:-0.2 12:0.466667 13:-0.6 14:-0.0666667 15:-0.0666667 16:0.0666667 
-0 0 0 0.2101029044066986 0 0 0.03905759167844956 0 0 0 1.975447539335005 0 0 0 0 0 0.2541633040808013 0 0 0 0 0 0 0 0 1:-0.466667 2:0.2 3:-0.2 4:-0.2 5:-0.466667 6:-0.333333 7:-0.333333 8:-0.733333 9:0.2 10:-0.466667 11:-0.733333 12:-0.0666667 13:-0.6 14:-0.0666667 15:-0.733333 16:-0.333333 
-0 0 7.794992747292293 0 0 0 0 6.312011232047722 0 0 0 0 0 0 0 2.204469327445719 0 0 0 0 0 0 0.1905270005229446 0 0 1:-0.2 2:0.333333 3:0.0666667 4:0.0666667 5:0.2 6:-0.2 7:-0.0666667 8:-0.6 9:-0.2 10:-0.0666667 11:-0.0666667 12:0.466667 13:-0.2 14:0.6 15:-0.2 16:-0.0666667 
-0 0 1.492001643916664 0 0 0 0.3756173472793037 0 0 0 0 0 0 0 0 0 0 0 0 0 0 0 0 0 0 1:-0.0666667 2:0.733333 3:-0.2 4:-0.0666667 5:-0.6 6:-0.333333 7:-0.333333 8:-0.6 9:0.0666667 10:0.333333 11:-0.466667 12:0.733333 13:-0.733333 14:-0.333333 15:-0.2 16:-0.0666667 
-0 2.505082978162585 0 0 4.607636844331975 1.454991905459355 0 0 0 0 2.945026594838305 0.1692430875720149 0 1.724666865279204 0 0 0 3.578190591408213 4.031523356020208 0.1790391116631255 0 0 0 12.83740099879137 0 1:-0.466667 2:0.2 3:-0.466667 4:-0.466667 5:-0.733333 6:0.0666667 7:-0.333333 8:-0.6 9:-0.333333 10:0.6 11:-0.0666667 12:0.466667 13:-0.733333 14:0.0666667 15:-0.2 16:0.0666667 
-0 0 0 0 0 0 0 0 0 0 0.08842800489891893 0 0 2.144706161628995 0 0 0 0 0 0.4058464801558691 0 0 0 0 0 1:-0.6 2:-0.733333 3:-0.466667 4:-0.6 5:-0.733333 6:-0.333333 7:-0.466667 8:-0.333333 9:-0.0666667 10:-0.733333 11:-0.733333 12:-0.333333 13:-0.866667 14:-0.0666667 15:-0.866667 16:-0.2 
-0 4.551508660268084 22.92653391088154 21.51938573947306 0 0 0 27.3965904628904 0 0 0 0 0 0 0 0 0 0 0 0 0 0 0 0 0 1:-0.333333 2:-0.0666667 3:-0.2 4:-0.333333 5:-0.466667 6:-0.2 7:-0.2 8:-0.0666667 9:-0.0666667 10:-0.333333 11:-0.2 12:0.333333 13:-0.733333 14:0.0666667 15:-0.466667 16:0.333333 
-0 0 0 0 0 0 0 0 0 0 0 0 0 4.995309385021115 0 0 4.542549291939606 0 0 0 0 0 0 0 0 1:-0.2 2:0.466667 3:-0.0666667 4:0.0666667 5:-0.0666667 6:-0.2 7:-0.2 8:0.2 9:-0.333333 10:-0.2 11:-0.2 12:0.0666667 13:-0.6 14:-0.0666667 15:-0.333333 16:0.6 
-0 0 0 0 0 0 0 0 0 0 0 0 0 0 0.06860136271093471 0 0 0 0 0 0 0 0 0 0 1:-0.466667 2:0.0666667 3:-0.333333 4:-0.2 5:-0.6 6:-0.6 7:-0.333333 8:-0.733333 9:0.2 10:-0.6 11:-0.866667 12:0.2 13:-1 14:-0.0666667 15:-0.866667 16:-0.333333 
-0 0 0 0 0 0 0 1.592907330746525 0 0 0 0 0 0 0 0.470072443286481 0 0 0.6775580269529236 0 0.3081475450176321 0 0 0 0 1:-0.733333 2:-0.6 3:-0.6 4:-0.733333 5:-0.866667 6:-0.0666667 7:-0.466667 8:-0.733333 9:-0.0666667 10:0.0666667 11:-0.733333 12:0.333333 13:-1 14:-0.0666667 15:-0.733333 16:0.0666667 
-0 0 4.355780540152417 6.362002284837268 0 14.75580449679545 30.43600376314325 2.818642587708021 0 0 0 11.948209316545 0 3.18896305576351 1.525236733344498 13.03966698441956 2.767645521849972 0 0 1.742155834854905 5.057553561499828 0 0 0 10.53451238083668 1:-0.333333 2:0.0666667 3:-0.2 4:-0.2 5:-0.333333 6:-0.2 7:-0.2 8:-0.2 9:-0.2 10:-0.2 11:-0.333333 12:0.0666667 13:-0.333333 14:0.0666667 15:-0.466667 16:0.2 
-0 2.865809413443625 0 0 0.3235040989000734 2.052237364741772 0 1.746132521897315 0 0 0 0 0 0 0 0 0 0 0 0 1.698276003160601 0 0 0 0 1:-0.466667 2:0.2 3:-0.333333 4:-0.0666667 5:-0.6 6:-0.2 7:-0.466667 8:-0.466667 9:0.0666667 10:-0.333333 11:-0.733333 12:-0.2 13:-0.866667 14:-0.2 15:-0.733333 16:-0.2 
-0 0 0 0 0.3945052828902964 0 0 0 5.219268549308759 0 0 0 0 0 0 0 0 0 0.1122251987927505 0 0.9507516942983689 0 0 0 0 1:-0.333333 2:0.333333 3:-0.2 4:0.0666667 5:-0.333333 6:0.2 7:-0.6 8:-0.733333 9:-0.2 10:0.2 11:-0.733333 12:0.2 13:-0.733333 14:-0.333333 15:-0.6 16:0.2 
-0 2.724895706851489 0 0 0 0 0 0 0 0 0 0 0 0 0 0 0 3.435237919481552 0 0 0 0 0 0 0 1:-0.0666667 2:1 3:-0.2 4:0.0666667 5:-0.6 6:0.333333 7:-0.733333 8:-0.6 9:-0.333333 10:0.733333 11:-0.466667 12:0.6 13:-0.733333 14:0.0666667 15:-0.333333 16:0.333333 
-0 0 0 0 1.716203015040379 3.010791465205036 0 0 0 0 0 0 0 2.113663247193118 0 1.464488589454338 0 0 0 0.1322348989311578 0 0 0 0 0 1:-0.466667 2:0.2 3:-0.333333 4:-0.2 5:-0.466667 6:-0.2 7:-0.466667 8:-0.466667 9:0.0666667 10:-0.6 11:-0.733333 12:-0.333333 13:-0.466667 14:-0.2 15:-0.733333 16:-0.333333 
-0 0 0 0 0 0 0 0 0 0 0 0 0 0 0 0 0.97820329654384 0 1.405340819419578 0 0 0 0 0 0 1:-0.466667 2:0.2 3:-0.2 4:-0.2 5:-0.6 6:-0.333333 7:-0.466667 8:-0.6 9:0.2 10:-0.2 11:-0.866667 12:-0.0666667 13:-0.866667 14:-0.2 15:-0.6 16:-0.2 
-0 0 21.3481323400252 0 0 0 0 0 0 0 0 5.83329790053468 0 0 0 0 0 3.386728945388078 0 0 0 0 0 32 0 1:-0.466667 2:0.2 3:-0.333333 4:0.0666667 5:-0.333333 6:-0.2 7:0.0666667 8:-0.466667 9:-0.2 10:-0.0666667 11:-0.2 12:0.2 13:-0.6 14:0.2 15:0.2 16:0.333333 
-0 4.045653124870393 11.0977511254233 21.80528280433856 0 0.9472325101058022 0.0167615398433878 10.11346580734767 0 0 16.60151338257753 8.921016534549359 0 0 0 0 11.9833829659416 2.721021957929563 0 1.335034603293365 0 0 0 8.029098735279719 0 1:-0.6 2:-0.333333 3:-0.466667 4:-0.466667 5:-0.6 6:-0.2 7:0.0666667 8:-0.466667 9:-0.333333 10:-0.2 11:-0.2 12:0.2 13:-0.733333 14:0.0666667 15:-0.0666667 16:0.2 
-0 0 7.856412508944424 0 0.5498844798013831 0.3903666320985004 6.01085958070695 15.81973621230821 7.039925287069874 0 11.55824217647836 0 0 0.4614827384188565 0 4.426364373475441 0 0 0 0 4.536457915600065 0 0.1576445817681023 0 0.1813718539136103 1:-0.733333 2:-0.0666667 3:-0.466667 4:-0.333333 5:-0.466667 6:-0.0666667 7:-0.0666667 8:-0.6 9:-0.466667 10:-0.0666667 11:-0.2 12:0.333333 13:-0.333333 14:0.333333 15:-0.2 16:-0.333333 
-0 0 0 0 0 0 0 0 0.4263962800168998 0 0 0 0 0 0.2409443815777431 0 0 0 0 0 0 0 0 0 0 1:0.2 2:1 3:0.0666667 4:0.0666667 5:-0.466667 6:0.2 7:-0.733333 8:-0.466667 9:-0.333333 10:0.6 11:-0.466667 12:0.733333 13:-0.733333 14:-0.0666667 15:-0.2 16:0.0666667 
-0 0 0 1.683288180541266 0 0 0 0 0 0 0.3620549933425641 0.7022250515361571 0 1.294834796683025 1.050551649264622 0 0 0.477102521824602 0 0 0 0 0 1.127823398946018 0 1:-0.0666667 2:1 3:-0.0666667 4:0.0666667 5:-0.466667 6:-0.0666667 7:-0.333333 8:-0.466667 9:-0.333333 10:0.6 11:0.2 12:0.466667 13:-0.6 14:0.2 15:-0.2 16:0.2 
-0 0 0 0 0 0 0 4.515146752901505 0 0 0 0 0 0 0 0 0 0 0 0 3.77473580464808 0 0 0 0 1:-0.2 2:0.2 3:-0.333333 4:-0.333333 5:-0.733333 6:-0.0666667 7:-0.466667 8:-0.6 9:-0.333333 10:0.333333 11:-0.466667 12:0.6 13:-0.733333 14:-0.0666667 15:-0.2 16:-0.0666667 
-0 0 0 1.070445427017157 0 0 0 0 0 0 0 0 0 0 0 0 0 0 0 0 0 0 0 0 0 1:-0.466667 2:0.333333 3:-0.2 4:0.0666667 5:-0.466667 6:-0.333333 7:-0.333333 8:-0.866667 9:0.2 10:-0.2 11:-0.733333 12:0.333333 13:-0.866667 14:-0.0666667 15:-0.6 16:-0.0666667 
-0.4289513246312396 0.4943217441135321 0 0 0.1744318202055526 0 0 0 0.2808230451406651 0.6708739027416692 0.4056658382065487 0 0.590205270136308 0.1817368911346397 0.0631159781004885 0 0 0.3443500515153967 1.422192041968384 0 0 0.5434775511071184 0.1506419469162972 0 0 1:-0.333333 2:0.466667 3:-0.2 4:0.0666667 5:-0.733333 6:-1 7:-1 8:-0.0666667 9:-0.2 10:-1 11:-0.866667 12:-0.466667 13:-1 14:0.0666667 15:-1 16:0.0666667 
-0 0 31.63556952350907 8.343492956274375 0 0 0 1.397346577227226 0 0 0 0 0 0 0 0 0 0 0 0 0 0 0 7.52009068007849 0 1:-0.466667 2:0.2 3:-0.2 4:-0.2 5:-0.2 6:-0.333333 7:-0.0666667 8:-0.6 9:-0.2 10:0.0666667 11:-0.0666667 12:0.466667 13:-0.0666667 14:0.466667 15:-0.2 16:-0.0666667 
-0 1.052950230762292 0 0 0 0 0 0 0 0 0 0 0 0 0 0 0 0 0.7479409534271613 0 0 0 0 0 0 1:-0.333333 2:0.6 3:-0.333333 4:-0.0666667 5:-0.6 6:0.333333 7:-0.733333 8:-0.6 9:-0.466667 10:0.6 11:-0.466667 12:0.466667 13:-0.733333 14:0.0666667 15:-0.466667 16:0.333333 
-0 0 0 0 0 0 0 0 0 0 2.189514058694484 0 0 0 0 0 0 0 0 0 0 0 0 0 0 1:-0.6 2:-0.0666667 3:-0.466667 4:-0.333333 5:-0.733333 6:-0.0666667 7:-0.466667 8:-0.733333 9:0.0666667 10:-0.0666667 11:-0.733333 12:0.0666667 13:-0.866667 14:-0.2 15:-0.6 16:0.0666667 
-0 0 0 0 0.3385250571653471 0 0 0.4399311337918694 1.239209332851472 0.3496191844858169 0.3650738984160755 0 0 0 0.5253837645613275 0 0 0 0.5917590660953663 0 0 0 0 0 0 1:-0.6 2:0.466667 3:-0.333333 4:0.0666667 5:-0.6 6:-0.333333 7:-0.6 8:-0.2 9:-0.0666667 10:-0.733333 11:-0.733333 12:-0.466667 13:-0.866667 14:-0.2 15:-0.866667 16:-0.333333 
-0 0 0 3.65022229797243 0 0 0 0 0 0 0 0 0 0 0 0 0 0 0 0 0 0 0 0 0 1:-0.6 2:0.2 3:-0.333333 4:-0.0666667 5:-0.466667 6:-0.333333 7:-0.333333 8:-0.866667 9:0.0666667 10:-0.466667 11:-0.733333 12:0.0666667 13:-0.6 14:-0.0666667 15:-0.733333 16:-0.2 
-0 0 0 0 0 0 1.876352093482657 13.53959570060847 0.1837314217674778 0 0 0 0 3.543835684701986 0 0 2.716308862957175 0 5.476947086749375 9.088234374452881 2.789576235312534 0 3.32777432084403 8.160237650190931 5.194982647021047 1:-0.0666667 2:0.733333 3:-0.0666667 4:-0.0666667 5:-0.333333 6:0.2 7:-0.6 8:-0.466667 9:-0.6 10:0.466667 11:-0.2 12:0.333333 13:-0.466667 14:0.0666667 15:-0.0666667 16:0.2 
-0 0 0 0 0 0 3.446386956292987 23.15668735190265 0 0.9110686597919297 0 10.34558736043061 0 0 2.131214814317779 0 8.379828476955927 0 0.775336837690338 1.35483951180349 5.934844745535169 0 0 8.214513415783598 0 1:-0.466667 2:-0.2 3:-0.333333 4:-0.466667 5:-0.466667 6:-0.2 7:-0.2 8:0.0666667 9:-0.2 10:-0.2 11:-0.2 12:0.2 13:-0.733333 14:0.0666667 15:-0.466667 16:0.333333 
-0 0 0 0 0 0 0 1.261810926871925 0 0 0 0 0 0 0 0 0 0 0 0 0 0 0 0 0 1:-0.333333 2:0.333333 3:-0.0666667 4:0.0666667 5:-0.6 6:-0.333333 7:-0.6 8:-0.733333 9:0.333333 10:-0.2 11:-0.866667 12:0.333333 13:-1 14:-0.0666667 15:-0.6 16:-0.2 
-0 0 0 10.31278927768312 0 0 0 0 0 0 0 0 0 0 0 0 0 0 0 0 0 0 0 0 0 1:-0.466667 2:0.2 3:-0.2 4:-0.0666667 5:-0.466667 6:0.2 7:-0.466667 8:-0.866667 9:-0.0666667 10:0.2 11:-0.733333 12:0.333333 13:-0.6 14:-0.2 15:-0.466667 16:0.2 
-0 0 0 0 0 0 0 0 0 0 4.903482017665289 0 0 3.700363389967229 0 0 0 0 0 0 0 0 0 0 0 1:-0.466667 2:0.333333 3:-0.2 4:0.2 5:-0.333333 6:0.0666667 7:-0.2 8:-0.466667 9:-0.466667 10:-0.2 11:-0.0666667 12:0.0666667 13:-0.6 14:0.2 15:0.0666667 16:0.333333 
-0 0 0 0 0 0 0 0 0.02336014584538966 0 0 0 0 0.1938953204872476 0 0 0 0 0 0 0 0 0 0 0 1:-0.733333 2:-1 3:-0.733333 4:-0.866667 5:-1 6:-0.733333 7:-1 8:-0.2 9:-0.466667 10:-1 11:-0.6 12:-0.466667 13:-1 14:0.0666667 15:-1 16:0.0666667 
-0 0 0 1.534326172520151 0 0 1.265790667988215 0 0 0 8.919587314927124 0.4852919837581713 0 0 0 0 0 0 0 0 0 0 0 0 0 1:-0.2 2:0.466667 3:0.0666667 4:0.0666667 5:-0.333333 6:-0.0666667 7:-0.333333 8:-1 9:0.0666667 10:0.2 11:-0.6 12:0.466667 13:-0.733333 14:-0.2 15:-0.466667 16:-0.0666667 
-0 1.807843535483654 0 1.348290892763293 0 1.21085023626176 0.6422215868962803 2.827841032598704 2.765691626256458 0.3450869085818202 1.737445892791676 0 0.00808358768821303 2.748619767927831 0.5504959381752764 0 0 0 8.922852139849926 0.08512507814170656 2.035929140477928 0 0.934670717662311 0 1.023973537680132 1:-0.333333 2:0.333333 3:-0.333333 4:-0.333333 5:-0.6 6:0.333333 7:-0.6 8:-0.6 9:-0.6 10:0.466667 11:-0.2 12:0.333333 13:-0.6 14:0.333333 15:-0.466667 16:0.333333 
-0 0 0 0 0 0 0 0 0 0 0 0 0 0 0.05170234192792654 0 0 0 0 0 0 0 0 0 0 1:-0.333333 2:0.466667 3:-0.2 4:0.0666667 5:-0.466667 6:-0.6 7:-0.466667 8:-0.6 9:0.2 10:-0.733333 11:-1 12:0.0666667 13:-1 14:-0.0666667 15:-0.866667 16:-0.333333 
-1.900981410257148 0 0.7798818894031629 0 0 0 0 4.666003618604601 0 0 7.459262935824524 9.918808262018072 0 0 0 1.107488661073108 0.08974401535295329 0 0 0 0 0 8.058474426499448 0 11.65881370731537 1:-0.466667 2:0.0666667 3:-0.2 4:-0.2 5:-0.2 6:-0.0666667 7:-0.0666667 8:-0.6 9:-0.333333 10:-0.0666667 11:-0.0666667 12:0.2 13:-0.2 14:0.333333 15:-0.2 16:-0.2 
-0.4868378621738296 0.4088172548210334 0 0 0.7164593367549823 0 0.7448219047869985 0 0 1.095263199896848 0 0 1.066268498517022 0 0.5516097066697944 0 0 0.5076435530207056 0.9652726963848336 0 0 0.2073190177469026 0.2068804595922247 0 0 1:-0.866667 2:-1 3:-0.866667 4:-1 5:-1 6:-0.733333 7:-0.866667 8:-0.2 9:-0.466667 10:-1 11:-0.6 12:-0.466667 13:-1 14:0.0666667 15:-1 16:0.0666667 
-0 0 1.716349819553371 0 0 0 0 0 0 0 0 0 0 0 0 0 0 0 0 0 0 0 0 0 0 1:-0.466667 2:0.333333 3:-0.333333 4:-0.0666667 5:-0.0666667 6:-0.0666667 7:-0.0666667 8:-0.6 9:-0.333333 10:-0.0666667 11:-0.0666667 12:0.333333 13:-0.2 14:0.333333 15:-0.2 16:-0.2 
-0 0 0 0 0.2411329411577101 0.2712239279188503 0 1.523131443094303 0 0 0 0 0 0 0 0 1.026084301075916 0 0 0 0 0 0 0 0 1:-0.733333 2:-0.866667 3:-0.733333 4:-0.6 5:-0.866667 6:-0.466667 7:-0.466667 8:-0.333333 9:-0.0666667 10:-0.733333 11:-0.733333 12:-0.333333 13:-0.866667 14:-0.0666667 15:-0.866667 16:-0.2 
-0 0 0 0 0 0 0 0 0 0 0 0.6872956385723403 0 0 0 0 20.52374851057771 0 14.89271559028332 4.464953365108022 0 0 0 0 0 1:-0.466667 2:0.0666667 3:-0.333333 4:-0.0666667 5:-0.333333 6:0.0666667 7:-0.0666667 8:-0.333333 9:-0.2 10:-0.0666667 11:-0.2 12:0.0666667 13:-0.6 14:0.0666667 15:0.0666667 16:0.466667 
-0 0 0 0 0 0 0 0 0.03794306220275653 0 0 0 0 0 0 0 0 0 0 0 0 0 0 0 0 1:-0.333333 2:0.466667 3:-0.2 4:0.0666667 5:-0.333333 6:-0.466667 7:-0.466667 8:-0.466667 9:0.0666667 10:-0.733333 11:-0.866667 12:-0.2 13:-0.866667 14:-0.2 15:-0.866667 16:-0.333333 
-0 0 1.693146002842356 0.4249756754223574 0 0 0 2.156489020712592 0 0 0 1.087839611561095 0 0 0 0 0.9346475472477122 0.1078630701640356 0 0 0 0 0 1.467194478349584 0 1:0.0666667 2:0.866667 3:-0.2 4:0.0666667 5:-0.466667 6:-0.333333 7:-0.333333 8:-0.6 9:0.0666667 10:0.333333 11:-0.466667 12:0.733333 13:-0.6 14:-0.2 15:-0.2 16:-0.0666667 
-0 0 0 0 0 0 0 0 0.5342409198414588 0 0 0 0 0 0 0 0 0 0 0 0 0 0 0 0 1:-0.733333 2:-0.733333 3:-0.6 4:-0.6 5:-0.866667 6:-0.466667 7:-0.6 8:-0.333333 9:-0.2 10:-0.733333 11:-0.733333 12:-0.333333 13:-0.866667 14:-0.0666667 15:-1 16:-0.2 
-0 0 0 0 0.3922991546064523 0 0 0 0 0 0 0 0 0 0 0 0 0 0 0 0 0 0 0 0 1:-0.866667 2:-0.6 3:-0.733333 4:-0.733333 5:-0.866667 6:-0.0666667 7:-0.466667 8:-0.866667 9:-0.0666667 10:0.0666667 11:-0.733333 12:0.333333 13:-1 14:-0.0666667 15:-0.733333 16:0.0666667 
-5.00150288859213 0 0 0 0 0 0 0 0 0 0 0 0 0 0 0 0 0 0 0.09950112537381876 0 0 5.867261627212143 0 0 1:-0.466667 2:0.0666667 3:-0.2 4:-0.0666667 5:-0.2 6:-0.0666667 7:-0.2 8:-0.333333 9:-0.333333 10:-0.0666667 11:-0.0666667 12:-0.0666667 13:-0.6 14:0.2 15:0.0666667 16:0.466667 
-0 10.8140370861366 0 6.353730050057618 0 0 0 0 0 0 11.14002808265599 0 0 0 0 0 0 3.124023277503037 5.249533065997938 0.04158143774525409 0 0 0.6754222891717668 8.591990478403995 0 1:-0.2 2:0.2 3:0.0666667 4:0.0666667 5:-0.0666667 6:-0.0666667 7:-0.0666667 8:-0.466667 9:-0.2 10:-0.0666667 11:-0.0666667 12:0.0666667 13:-0.6 14:0.0666667 15:0.2 16:0.333333 
-0 0 0 0 0.7751933972800817 0 0 0 0 0 0 0 0 0 0 0 0 0 0 0 0 0 0 0 0 1:-0.333333 2:0.466667 3:-0.0666667 4:0.2 5:-0.2 6:0.0666667 7:-0.466667 8:-1 9:-0.0666667 10:0.2 11:-0.6 12:0.333333 13:-0.866667 14:-0.2 15:-0.733333 16:0.2 
-0.07955438679088307 0.6670376309435047 0 0 0 0 0 0 0 0 0.2682534250885338 0 0 0 0 0 0 0.7674674884437618 0.1301272577685118 1.108306665956374 0.4499660356029043 0 0 0 0 1:-0.733333 2:-0.866667 3:-0.733333 4:-0.733333 5:-0.866667 6:-0.333333 7:-0.6 8:-0.333333 9:-0.0666667 10:-0.733333 11:-0.733333 12:-0.466667 13:-0.866667 14:-0.0666667 15:-0.866667 16:-0.2 
-0 0 0.6397790279062627 0 0 0 0 0 2.352603173681125 0 0 0 0 0 0 0 0 0 0 0 0 0 0 0 0 1:0.0666667 2:0.733333 3:0.0666667 4:0.0666667 5:-0.333333 6:0.2 7:-0.6 8:-0.6 9:-0.6 10:0.466667 11:-0.2 12:0.466667 13:-0.466667 14:0.0666667 15:-0.0666667 16:0.2 
-0 0 0.1997938493817643 0 0 0 0 0 0 0 0 0 0 0 0 0 0 0 0 0 0 0 0 0 0 1:-0.866667 2:-1 3:-0.866667 4:-0.866667 5:-1 6:-0.866667 7:-0.866667 8:-0.333333 9:-0.333333 10:-1 11:-0.866667 12:-0.2 13:-1 14:0.0666667 15:-1 16:0.0666667 
-0 0 0.5169527607834755 0 0 0 0 0 0 0.1392243414373057 0 0 0.1281061557624264 0 0.08764323325693588 0 0 0 0 0 0 0 0 0 0 1:-0.466667 2:0.466667 3:-0.2 4:0.2 5:-0.6 6:-0.6 7:-0.466667 8:-0.733333 9:0.333333 10:-0.733333 11:-1 12:0.0666667 13:-1 14:-0.0666667 15:-0.866667 16:-0.333333 
-0 0 10.81312024305294 0 0 0 1.835044796703276 6.969482776330857 0 0.3304984205634491 0 0 0 0 0 0 0 0 0 0 0 0 0 0 1.280184186550852 1:-0.2 2:0.333333 3:-0.2 4:-0.333333 5:-0.6 6:-0.0666667 7:-0.333333 8:-0.466667 9:-0.466667 10:0.6 11:0.2 12:0.6 13:-0.6 14:0.2 15:-0.2 16:0.2 
-0 2.026611302267479 0 5.351642085887789 5.835061131562123 0 9.673847325537745 10.26497342102337 0 0 0 0 0 3.413944484497277 0 0 0 0 6.993125673053291 1.832660036042464 0 0 2.61367354112147 18.16306288981098 0 1:-0.6 2:-0.333333 3:-0.466667 4:-0.466667 5:-0.6 6:0.0666667 7:0.2 8:-0.466667 9:-0.333333 10:-0.2 11:-0.2 12:0.2 13:-0.6 14:0.0666667 15:-0.0666667 16:0.333333 
-0 0 0 0 0 0 0 0 0 0 0 0 0 0 0 0 3.600168560910613 0 0 10.80121722517623 0 0 0 0 6.342036170453685 1:-0.466667 2:-0.2 3:-0.333333 4:-0.333333 5:-0.466667 6:-0.0666667 7:-0.333333 8:-0.333333 9:-0.333333 10:-0.0666667 11:-0.2 12:-0.0666667 13:-0.6 14:0.0666667 15:0.0666667 16:0.466667 
-0 17.22717592776942 0 0.2144095200586854 0.4886778528591157 0 0 0 0 0 32 0 0 0 0 0 0 0 0 0 0 0 0 2.459913541495534 0 1:-0.466667 2:0.2 3:-0.333333 4:0.0666667 5:-0.333333 6:0.0666667 7:-0.0666667 8:-0.6 9:-0.2 10:-0.2 11:-0.0666667 12:0.2 13:-0.6 14:0.0666667 15:-0.0666667 16:0.0666667 
-0 0 0 0 0 0 0 0 0 0 2.354863667125977 0 0 0 0 0 0 0 0 0 0 0 0 0 0 1:-0.733333 2:-0.0666667 3:-0.6 4:-0.333333 5:-0.733333 6:0.0666667 7:-0.466667 8:-0.6 9:-0.0666667 10:-0.0666667 11:-0.733333 12:0.0666667 13:-0.866667 14:-0.2 15:-0.733333 16:0.0666667 
-0 3.331574362288609 0 0 20.92286135850726 0 0 0 0 0 0 0 0 0 0 0 0 0 20.49583653116654 0 0 0 0 0 0 1:-0.466667 2:-0.333333 3:-0.333333 4:-0.333333 5:-0.466667 6:0.0666667 7:-0.0666667 8:-0.466667 9:-0.333333 10:-0.0666667 11:-0.2 12:0.0666667 13:-0.6 14:0.0666667 15:0.0666667 16:0.466667 
-0 0 0 0 0 0 0 0.355011541607095 0 0 0 0 0 0 0 0 0 0 0 0 0 0 0 0 3.045946990887683 1:-0.0666667 2:0.333333 3:0.2 4:-0.0666667 5:-0.0666667 6:-0.2 7:-0.2 8:0.2 9:-0.333333 10:-0.2 11:-0.2 12:0.2 13:-0.6 14:-0.0666667 15:-0.2 16:0.733333 
-0 0 0 0 0 0 2.094530614434117 0 0 0 0 0 0 0 0 0 0 0 0 0 0 0 0 0 0 1:-0.466667 2:0.333333 3:-0.2 4:-0.0666667 5:-0.466667 6:0.2 7:-0.6 8:-0.733333 9:-0.0666667 10:0.0666667 11:-0.733333 12:0.2 13:-0.6 14:-0.466667 15:-0.466667 16:0.2 
-0 0 8.066509143172521 16.5357125354233 0 3.738499954538491 31.56492515846339 28.74268543427173 2.061374847788781 0 1.330923890193414 0 0 3.414728455094412 6.715960810136984 6.181341930777114 32 0 0 1.864796899491551 7.210022891615187 0 0 0 4.941552171678017 1:-0.333333 2:0.466667 3:-0.2 4:0.0666667 5:-0.2 6:-0.2 7:-0.2 8:-0.2 9:-0.333333 10:-0.2 11:-0.333333 12:0.0666667 13:-0.333333 14:-0.0666667 15:-0.466667 16:0.333333 
-0 0 0 2.225499469131111 0 0 0 32 0 0 0 0 0 3.604287191886594 0 0 0 0 0 0 0 0 0 0 0 1:-0.6 2:-0.0666667 3:-0.466667 4:-0.333333 5:-0.6 6:-0.2 7:-0.333333 8:-0.0666667 9:-0.2 10:-0.2 11:-0.2 12:0.2 13:-0.733333 14:0.0666667 15:-0.466667 16:0.333333 
-2.701806790661017 0 0 0 1.246117536624783 0 8.873871639596279 17.36613083187655 1.300167242799278 3.837590141253427 0 0 0.2801258410706863 32 0 0 5.425359179896129 0 0 7.785377383767564 3.330403634404604 1.167337707241584 0 0 7.51693097603742 1:-0.6 2:-0.2 3:-0.466667 4:-0.2 5:-0.466667 6:0.0666667 7:-0.2 8:-0.333333 9:-0.466667 10:-0.0666667 11:-0.0666667 12:0.0666667 13:-0.6 14:0.0666667 15:-0.0666667 16:0.333333 
-0 0 0 19.81609707286457 0 0 0 2.386576295142836 0 0 0 0 0 0 0 0 0 0 0 0 0 0 0 0 0 1:-0.466667 2:0.2 3:-0.2 4:0.0666667 5:-0.333333 6:0.0666667 7:-0.0666667 8:-0.466667 9:-0.333333 10:-0.0666667 11:-0.2 12:0.0666667 13:-0.6 14:0.0666667 15:0.0666667 16:0.466667 
-0 0 0 0 0 0 0 0 0.130901664783224 0 0 0 0 0 0 0 0 0 0 0 0 0 0 0 0 1:-0.6 2:0.333333 3:-0.466667 4:0.0666667 5:-0.733333 6:-1 7:-0.733333 8:-0.6 9:-0.2 10:-0.866667 11:-1 12:0.0666667 13:-1 14:0.0666667 15:-1 16:0.0666667 
-0 0 0 0 0 0 0 0 0 0 0 0 0 0 0 0 0 0 0.02458087997909754 0 0 0 0 0 0 1:-0.466667 2:0.466667 3:-0.466667 4:0.0666667 5:-0.6 6:-1 7:-0.733333 8:-0.466667 9:-0.2 10:-0.866667 11:-1 12:0.0666667 13:-1 14:0.0666667 15:-1 16:0.0666667 
-0.7884537917194493 3.121362869283346 11.8352958440104 0 0 0 0 0 2.83960035969078 12.0418891304792 32 11.61267161729097 0 0 0 0 0 0 0 0 0 0 0 20.30918702739448 0 1:-0.333333 2:0.0666667 3:-0.0666667 4:-0.0666667 5:-0.2 6:-0.0666667 7:-0.0666667 8:-0.466667 9:-0.333333 10:-0.2 11:-0.0666667 12:0.2 13:-0.6 14:0.2 15:0.0666667 16:-0.0666667 
-0 0 0 0 0 0 0 0 1.497500026627758 0 0 0 0 2.666782155893795 0 0 0 0 0 0 0.6282797159006348 0 0 0 0 1:-0.733333 2:-0.6 3:-0.466667 4:-0.733333 5:-0.866667 6:-0.0666667 7:-0.6 8:-0.866667 9:-0.2 10:0.0666667 11:-0.733333 12:0.333333 13:-0.866667 14:-0.2 15:-0.6 16:0.0666667 
-0 0 0 0 0 0 0 0 0 0 0 0 0 0 0 0 0 0.637882659596322 0 0 0 0 0 0 0 1:-0.466667 2:-0.0666667 3:-0.333333 4:-0.333333 5:-0.733333 6:0.0666667 7:-0.6 8:-0.733333 9:0.0666667 10:0.2 11:-0.733333 12:0.2 13:-0.866667 14:-0.2 15:-0.6 16:0.2 
-0 0.5750679209648525 0 13.92585759477414 0 0 9.094655480180464 0 0 0 11.97008757258821 0 0 0 0 0 0 0 0 0 0 0 0 32 0 1:-0.6 2:-0.2 3:-0.333333 4:-0.333333 5:-0.466667 6:-0.0666667 7:0.0666667 8:-0.6 9:-0.333333 10:-0.0666667 11:-0.2 12:0.0666667 13:-0.6 14:0.2 15:-0.0666667 16:0.466667 
-0 0 0 0 1.240005166926293 5.318585995261015 0 0 0 0 4.691384460312926 0 0 6.881856050061391 0 0 0.1769189080103353 3.724097981713446 7.782174440656354 3.405335303927312 1.542116256597292 0 0 0 0 1:-0.333333 2:0.466667 3:-0.2 4:0.0666667 5:-0.466667 6:0.333333 7:-0.6 8:-0.733333 9:-0.0666667 10:0.2 11:-0.733333 12:0.2 13:-0.466667 14:-0.333333 15:-0.333333 16:0.2 
-0 0 0 0 0 0 0 0 0 0 0 0 0 0 0 0 0 0.215614789927784 0 0 0 0 0 0 0 1:-0.466667 2:0.333333 3:-0.333333 4:0.0666667 5:-0.466667 6:-0.2 7:-0.466667 8:-0.466667 9:0.2 10:-0.733333 11:-0.733333 12:-0.333333 13:-0.866667 14:-0.2 15:-0.733333 16:-0.333333 
-1.563389148156811 4.399767501311212 0 0 3.256457248199508 0.2779361482408707 0 0 1.19975820779995 5.185028037159999 0 0 0.4414555633819323 2.143365961969419 6.344537561355511 0 0 0 5.559111785058135 3.82268128959908 0 1.864559334432859 0.7483071045588935 0 0 1:-0.6 2:-0.2 3:-0.333333 4:-0.466667 5:-0.333333 6:0.0666667 7:0.0666667 8:-0.6 9:-0.333333 10:-0.333333 11:-0.0666667 12:0.2 13:-0.2 14:0.466667 15:-0.2 16:-0.333333 
-0 0 0 0 0 0 0 0 0 0 0 0 0 0.1996532929339644 0 0 0 0 0 0 0.3380639281101577 0 0 0 0 1:-0.466667 2:0.2 3:-0.2 4:-0.0666667 5:-0.6 6:-0.466667 7:-0.733333 8:0.0666667 9:-0.0666667 10:-0.866667 11:-0.733333 12:-0.6 13:-0.866667 14:-0.2 15:-0.866667 16:-0.2 
-0 0 22.95177700159296 0 0 0 0 17.5990252648193 0 0 0 5.136134078904956 6.111926754348422 0 0 0 0 0 0 0 0 1.23539719162553 0 14.59172548402803 18.783232426139 1:-0.333333 2:0.2 3:-0.2 4:-0.2 5:-0.333333 6:-0.2 7:-0.0666667 8:-0.0666667 9:-0.333333 10:-0.2 11:-0.2 12:0.2 13:-0.2 14:0.0666667 15:-0.333333 16:0.466667 
-0.1920339375949548 0 0.04284011803225816 0 0 0 0 0 1.447332078456675 0 0 0 0.002253502930926656 0 0 0.04870514598997445 0 0 0 0 0 0.186986707509617 0.005773081111365314 0 0 1:-1 2:-1 3:-0.866667 4:-1 5:-1 6:-0.733333 7:-0.733333 8:-0.333333 9:-0.466667 10:-0.866667 11:-0.733333 12:-0.2 13:-1 14:0.0666667 15:-1 16:0.0666667 
-0 0.1348678476158133 0 0 2.742424493365766 0 0 0 0 0 0 0 0 0 0 0 0 0 0 0 0 0 0 0 0 1:-0.333333 2:0.333333 3:-0.0666667 4:0.0666667 5:-0.6 6:0.0666667 7:-0.6 8:-0.733333 9:0.0666667 10:0.2 11:-0.733333 12:0.2 13:-0.866667 14:-0.2 15:-0.6 16:0.0666667 
-0 0 6.881113880234151 0 0 0 0 0 0 0.8443864135235449 0 0 0 0 0 1.591644178950181 0 0 0 0 0 0 0 0 0 1:-0.0666667 2:0.866667 3:-0.0666667 4:0.0666667 5:-0.466667 6:-0.2 7:-0.333333 8:-0.466667 9:-0.333333 10:0.6 11:0.2 12:0.466667 13:-0.6 14:0.2 15:-0.0666667 16:0.0666667 
-1.284741911575073 -1.530809267640982 0 1.643012197145615 32 1.211762219496958 4.377657104597809 2.900057198373494 3.005962648944008 1.411063962627028 4.171328629117959 0 1.845633206225923 2.92518499837731 0 3.159517009172944 3.358770380222285 5.565668382291018 11.63971849594703 1.205330611500367 2.00950230087247 0 14.79478189638304 3.25043123945095 2.073119256735118 1:-0.2 2:-0.0666667 3:0.0666667 4:0.0666667 5:-0.0666667 6:0.2 7:0.0666667 8:-0.333333 9:-0.333333 10:-0.0666667 11:-0.333333 12:0.2 13:-0.6 14:0.0666667 15:0.2 16:-0.0666667 
-1.360076459030184 -0 2.709767740865463 0 19.57889231160834 0 0 6.87075594417245 0 4.268377813080332 1.359037962817364 1.315438336246749 0 5.855269815257698 0 0 0 3.870417168708084 13.45023344766727 5.8929775421418 0 0.9314479154075311 0 9.44613464107533 6.258404111557466 1:-0.6 2:-0.466667 3:-0.466667 4:-0.333333 5:-0.6 6:-0.0666667 7:0.0666667 8:-0.466667 9:-0.333333 10:-0.0666667 11:0.0666667 12:-0.0666667 13:-0.733333 14:0.2 15:0.0666667 16:0.2 
-0 -0 0 2.021595474457933 0 0 0.7446211258527831 0 0.1306233478433843 0 0 0 0.5209799748536547 0 0 0 0 0 0 0 0 0 0 4.133912068397009 0 1:-0.733333 2:-0.466667 3:-0.6 4:-0.6 5:-0.866667 6:-0.0666667 7:-0.2 8:-1 9:-0.0666667 10:0.733333 11:-0.0666667 12:0.333333 13:-1 14:0.0666667 15:-0.866667 16:0.0666667 
-0 -0 0 0 0 0 0 0 0 0.02615652653282511 0 0 0 0 0 0 0 0 0 0 0 0 0 0 0 1:-0.6 2:0.2 3:-0.466667 4:-0.2 5:-0.733333 6:-0.333333 7:0.0666667 8:-1 9:0.0666667 10:0.866667 11:-0.0666667 12:0.0666667 13:-1 14:0.0666667 15:-0.866667 16:-0.0666667 
-4.141988854422665 -2.20120367417946 0 0 27.74621929968272 8.777149217292635 6.46510898044622 3.829198315479702 2.622888231486868 0.1541646990712818 6.406654528702781 0.9910394559322437 4.542323794028961 2.462874469547862 6.634333802250777 0.07997486643649786 2.614175831312227 0 0 1.872281052185974 2.33612293058193 1.379087532992071 0 0 0 1:-0.6 2:0.2 3:-0.333333 4:-0.2 5:-0.333333 6:0.2 7:-0.333333 8:-0.6 9:-0.333333 10:-0.0666667 11:-0.2 12:-0.333333 13:-0.2 14:-0.2 15:-0.333333 16:-0.2 
-0 -19.90183483570102 0 0 0 0 1.058450908044252 1.063796283143264 0 0 0 0 0 5.39083319482117 0 0 0 0 0.6021144908620932 0 0 0 0 0 0 1:-0.333333 2:0.2 3:-0.0666667 4:-0.2 5:-0.466667 6:-0.2 7:-0.2 8:-0.6 9:-0.0666667 10:-0.0666667 11:-0.2 12:0.6 13:-1 14:0.0666667 15:-0.466667 16:0.2 
-0 -0 0 2.643128230212556 32 5.718679098386046 0 0 0 0 0 2.138848433826109 0 0 0 0 0 0 0 2.815181837623216 0 0 13.4288507754139 9.854051056981751 0 1:-0.466667 2:-0.2 3:-0.333333 4:-0.0666667 5:-0.333333 6:0.0666667 7:0.2 8:-0.466667 9:-0.333333 10:0.0666667 11:-0.0666667 12:0.0666667 13:-0.466667 14:-0.0666667 15:0.0666667 16:-0.0666667 
-0 -0 0 0 0 0 0 0 0 0 5.141628648830854 0 0 0 0 0 0 0 0 0 0 0 0 0 0 1:-0.333333 2:0.333333 3:-0.2 4:0.0666667 5:-0.466667 6:-0.0666667 7:0.0666667 8:-0.866667 9:-0.0666667 10:-0.0666667 11:-0.2 12:0.0666667 13:-1 14:0.0666667 15:-0.466667 16:0.0666667 
-0 -2.105581761365966 0 0 0 0 0 0 0 0 0 0 0 0 0 0 1.526309518126389 0 0 4.781454670291074 0 0 0 0 0 1:-0.866667 2:-0.6 3:-0.866667 4:-0.866667 5:-0.866667 6:-0.0666667 7:-0.0666667 8:-0.733333 9:-0.0666667 10:-0.0666667 11:-0.2 12:0.0666667 13:-1 14:0.0666667 15:-0.733333 16:0.0666667 
-0 -0 0 0 0 0 0 0 2.072356322389637 0 0 0 0 0 0 0.6638951112999111 0 0 0 0 0 0 0 0 0 1:-0.2 2:0.333333 3:0.0666667 4:0.0666667 5:-0.333333 6:0.2 7:-0.333333 8:-0.733333 9:-0.2 10:-0.2 11:-0.0666667 12:-0.2 13:-1 14:0.333333 15:-0.466667 16:-0.0666667 
-0.5237954297390579 -0 0 0.2747013346322345 0 0 0.4849427782576089 0 0 1.473226939736661 1.299890094353895 1.248490024825576 0.009903437300720267 0 0 0.9558056435404299 0 0 0 0 0 0.1395066159022813 6.883662497172558 0 1.960847469513687 1:-0.6 2:-0.2 3:-0.466667 4:-0.466667 5:-0.733333 6:-0.2 7:0.2 8:-1 9:-0.2 10:0.733333 11:-0.0666667 12:-0.0666667 13:-1 14:0.0666667 15:-0.866667 16:-0.0666667 
-0 -0 0 0 9.487056073911742 0 0 0 0 0 0 0 0 0 0 0 0 0 5.47809266111186 0 0 0 0.3948167058201786 0 3.458880171426317 1:-0.6 2:0.2 3:-0.2 4:-0.0666667 5:-0.2 6:0.333333 7:-0.333333 8:-0.733333 9:-0.466667 10:0.2 11:-0.333333 12:-0.333333 13:-0.6 14:0.0666667 15:-0.333333 16:-0.0666667 
-0 -0 0 0 0 0 0 0 0 0 0 0 0 0 0 0 0 0 0 0 0 0 8.250212788477841 0 4.526640143717508 1:-0.6 2:0.2 3:-0.333333 4:-0.2 5:-0.733333 6:-0.0666667 7:0.2 8:-1 9:0.0666667 10:0.866667 11:-0.2 12:-0.333333 13:-1 14:0.2 15:-0.733333 16:-0.0666667 
-0 -0 0 0 7.253442867396584 0 0 0 0 0 0 0 0 0 0 0 0 0 0 0 0 0 0 0 0 1:-0.466667 2:0.2 3:-0.333333 4:-0.0666667 5:-0.6 6:0.2 7:-0.2 8:-1 9:-0.0666667 10:0.733333 11:-0.333333 12:0.2 13:-1 14:0.0666667 15:-0.866667 16:0.0666667 
-0 -0 0 0 32 13.14345633246801 0 0.3810009788412056 0 0 4.430553050125695 15.6321805193349 0 0 0 0 1.159762008485932 14.00061591768487 32 25.58643905661645 2.902040054385127 0 4.848793434919117 0 0 1:-0.466667 2:-0.2 3:-0.2 4:-0.0666667 5:-0.333333 6:0.0666667 7:0.0666667 8:-0.333333 9:-0.2 10:-0.0666667 11:-0.2 12:0.0666667 13:-0.6 14:0.0666667 15:0.0666667 16:-0.0666667 
-0 -0 0 0 0 0 0 7.109611604982525 0 0.3831389654873841 0 0.29971620691095 0.5328193157262808 0 0 0 0 0 3.12593031871439 0 0 0.06490282590314456 3.600563015144608 0 0 1:0.2 2:0.866667 3:-0.2 4:0.0666667 5:-0.6 6:0.466667 7:-0.466667 8:-0.333333 9:-0.333333 10:0.6 11:-0.6 12:0.0666667 13:-0.6 14:-0.0666667 15:-0.333333 16:0.333333 
-0 -0 0 0 32 0 0 0 0 0 0 0 0 0 0 0 0 0 0 0 0 0 0 0 0 1:-0.466667 2:0.0666667 3:-0.2 4:0.2 5:-0.2 6:0.0666667 7:0.2 8:-0.466667 9:-0.333333 10:-0.0666667 11:-0.0666667 12:0.0666667 13:-0.6 14:-0.0666667 15:0.0666667 16:-0.0666667 
-0 -0 0 0 13.76305348013375 8.395577498776289 4.567835626612632 0 0.6243838188860762 0 13.80868422310654 0 0 0 0 2.473778611285556 0 0 8.296773320234525 19.7560339144244 0.838634096544381 0 7.635686268494236 0 5.370683255839972 1:-0.733333 2:-0.2 3:-0.466667 4:-0.466667 5:-0.6 6:0.333333 7:-0.0666667 8:-0.733333 9:-0.466667 10:0.0666667 11:-0.333333 12:-0.333333 13:-0.6 14:0.2 15:-0.333333 16:-0.0666667 
-0.650841366234074 -1.815823916592962 5.982111918839297 1.806797972608551 0 0 0.2096330843335078 0 0 0 0 2.079969647538053 0 1.395479014513477 0.6477555709144834 0 1.308715750614897 0 0 3.537112349849512 2.490140907451263 0.223395645377505 0 1.601172457737374 0 1:-0.0666667 2:0.733333 3:-0.333333 4:-0.0666667 5:-0.6 6:0.2 7:-0.0666667 8:-0.2 9:-0.466667 10:0.733333 11:-0.466667 12:0.2 13:-0.6 14:0.0666667 15:-0.333333 16:0.333333 
-0 -0 0 0 2.360000829934978 0 0 0 0 0 0 0 0 0 0 0 0 0 0 0 0 0 0 0 0 1:-0.866667 2:-0.866667 3:-0.866667 4:-0.733333 5:-0.866667 6:0.0666667 7:-0.0666667 8:-0.866667 9:-0.0666667 10:-0.0666667 11:-0.2 12:-0.0666667 13:-1 14:0.0666667 15:-0.733333 16:-0.0666667 
-0 -0 0 0 0 0 0 0 0 0 13.19397578113355 0 0 0.9134308145962192 0 0 2.943098031379254 0 0 0 0 0 0 0 0 1:-0.733333 2:-0.0666667 3:-0.333333 4:-0.333333 5:-0.466667 6:0.466667 7:-0.2 8:-0.866667 9:-0.333333 10:0.0666667 11:-0.466667 12:-0.333333 13:-0.6 14:0.0666667 15:-0.333333 16:0.2 
