svm_type nu_svr
kernel_type rbf
gamma 0.125
nr_class 2
total_sv 9500
rho -196694
SV
1 1:0.0793368 2:0.568627 3:-0.955339 4:-0.960273 5:-0.982118 6:-0.958888 7:0.134963 8:-0.577689 
1 1:0.0760541 2:-0.215686 3:-0.638995 4:-0.657045 5:-0.865579 6:-0.626048 7:0.130712 8:-0.575697 
1 1:-0.0679439 2:1 3:-0.925479 4:-0.941341 5:-0.972365 6:-0.942115 7:0.128587 8:-0.579681 
1 1:-0.290603 2:1 3:-0.935297 4:-0.927374 5:-0.968889 6:-0.928301 7:0.128587 8:-0.581673 
1 1:-0.538448 2:1 3:-0.917341 4:-0.913408 5:-0.968497 6:-0.915146 7:0.128587 8:-0.581673 
1 1:-0.564254 2:1 3:-0.871153 4:-0.848541 5:-0.938844 6:-0.831278 7:0.126461 8:-0.581673 
1 1:-0.62715 2:1 3:-0.888092 4:-0.865611 5:-0.949158 6:-0.868114 7:0.128587 8:-0.583665 
-1 1:-0.831023 2:1 3:-0.876189 4:-0.832402 5:-0.943272 6:-0.843118 7:0.126461 8:-0.585657 
-1 1:-0.768183 2:1 3:-0.914238 4:-0.895717 5:-0.952353 6:-0.893439 7:0.126461 8:-0.585657 
-1 1:-0.737397 2:0.568627 3:-0.972888 4:-0.962135 5:-0.982399 6:-0.961191 7:0.128587 8:-0.587649 
-1 1:-0.729686 2:0.882353 3:-0.942622 4:-0.924581 5:-0.966143 6:-0.921723 7:0.128587 8:-0.587649 
-1 1:-0.819575 2:1 3:-0.903556 4:-0.869646 5:-0.938395 6:-0.869758 7:0.128587 8:-0.587649 
-1 1:-0.842416 2:0.921569 3:-0.894196 4:-0.84761 5:-0.93677 6:-0.844762 7:0.126461 8:-0.587649 
-1 1:-0.803106 2:0.882353 3:-0.90264 4:-0.861577 5:-0.951792 6:-0.876007 7:0.126461 8:-0.587649 
-1 1:-0.798403 2:1 3:-0.890584 4:-0.851024 5:-0.934695 6:-0.855287 7:0.126461 8:-0.587649 
-1 1:-0.821106 2:0.843137 3:-0.902335 4:-0.873371 5:-0.942655 6:-0.89015 7:0.126461 8:-0.585657 
-1 1:-0.879298 2:0.882353 3:-0.915916 4:-0.886716 5:-0.957902 6:-0.892123 7:0.124336 8:-0.585657 
-1 1:-0.692363 2:0.960784 3:-0.86454 4:-0.82216 5:-0.92965 6:-0.824042 7:0.124336 8:-0.585657 
-1 1:-0.863974 2:0.882353 3:-0.938298 4:-0.912787 5:-0.968217 6:-0.913501 7:0.124336 8:-0.585657 
-1 1:-0.917615 2:0.843137 3:-0.908642 4:-0.866232 5:-0.944842 6:-0.877323 7:0.124336 8:-0.585657 
-1 1:-0.874429 2:1 3:-0.923241 4:-0.879268 5:-0.949662 6:-0.867785 7:0.124336 8:-0.587649 
-1 1:-0.927573 2:0.882353 3:-0.963833 4:-0.937616 5:-0.974271 6:-0.938168 7:0.126461 8:-0.583665 
-1 1:-0.824127 2:0.529412 3:-0.951981 4:-0.883923 5:-0.960929 6:-0.884558 7:0.12221 8:-0.585657 
-1 1:-0.861436 2:0.647059 3:-0.905082 4:-0.858783 5:-0.940693 6:-0.866469 7:0.12221 8:-0.585657 
-1 1:-0.915739 2:0.568627 3:-0.836258 4:-0.735568 5:-0.890356 6:-0.763526 7:0.12221 8:-0.585657 
-1 1:-0.896884 2:1 3:-0.917188 4:-0.858783 5:-0.935032 6:-0.868772 7:0.12221 8:-0.585657 
-1 1:-0.846912 2:1 3:-0.940587 4:-0.927374 5:-0.960873 6:-0.923697 7:0.12221 8:-0.587649 
-1 1:-0.874291 2:1 3:-0.952032 4:-0.924891 5:-0.96788 6:-0.927972 7:0.12221 8:-0.587649 
-1 1:-0.861271 2:1 3:-0.937128 4:-0.910925 5:-0.965302 6:-0.915146 7:0.12221 8:-0.587649 
-1 1:-0.956235 2:1 3:-0.92436 4:-0.896338 5:-0.95936 6:-0.920079 7:0.12221 8:-0.587649 
-1 1:-0.901077 2:1 3:-0.929549 4:-0.894475 5:-0.939965 6:-0.900345 7:0.12221 8:-0.587649 
-1 1:-0.715507 2:-0.960784 3:-0.992065 4:-0.986965 5:-0.994899 6:-0.981582 7:0.12221 8:-0.589641 
-1 1:-0.600971 2:1 3:-0.94308 4:-0.934823 5:-0.969113 6:-0.938826 7:0.124336 8:-0.589641 
-1 1:-0.225059 2:0.882353 3:-0.993235 4:-0.99131 5:-0.995347 6:-0.992764 7:0.12221 8:-0.589641 
-1 1:-0.944663 2:0.921569 3:-0.961443 4:-0.941341 5:-0.979035 6:-0.960204 7:0.120085 8:-0.589641 
-1 1:-0.904677 2:1 3:-0.93784 4:-0.926754 5:-0.970963 6:-0.948035 7:0.120085 8:-0.591633 
-1 1:-0.71119 2:0.843137 3:-0.957984 4:-0.943824 5:-0.978194 6:-0.956586 7:0.120085 8:-0.591633 
-1 1:-0.908029 2:1 3:-0.948726 4:-0.935444 5:-0.966311 6:-0.938826 7:0.120085 8:-0.591633 
-1 1:-0.957835 2:0.843137 3:-0.92609 4:-0.890441 5:-0.955997 6:-0.891136 7:0.120085 8:-0.591633 
-1 1:-0.709038 2:1 3:-0.947861 4:-0.924581 5:-0.972589 6:-0.951982 7:0.11796 8:-0.589641 
-1 1:-0.813561 2:1 3:-0.971006 4:-0.96648 5:-0.984809 6:-0.97336 7:0.120085 8:-0.591633 
-1 1:-0.824554 2:-0.0196078 3:-0.961036 4:-0.953135 5:-0.978194 6:-0.958559 7:0.120085 8:-0.589641 
-1 1:-0.968456 2:0.764706 3:-0.952541 4:-0.908132 5:-0.967544 6:-0.909225 7:0.120085 8:-0.589641 
-1 1:-0.827575 2:0.882353 3:-0.95717 4:-0.936996 5:-0.968777 6:-0.950337 7:0.120085 8:-0.589641 
-1 1:-1 2:0.764706 3:-0.999491 4:-0.999069 5:-0.999159 6:-0.998027 7:0.120085 8:-0.589641 
-1 1:-0.731521 2:0.372549 3:-0.851874 4:-0.825885 5:-0.930884 6:-0.832922 7:0.120085 8:-0.587649 
-1 1:-0.915698 2:-0.294118 3:-0.938705 4:-0.924891 5:-0.959752 6:-0.932248 7:0.120085 8:-0.587649 
-1 1:-0.958249 2:-0.137255 3:-0.911338 4:-0.884233 5:-0.941086 6:-0.893439 7:0.120085 8:-0.589641 
-1 1:-0.908029 2:1 3:-0.98942 4:-0.98293 5:-0.98991 6:-0.981911 7:0.120085 8:-0.585657 
-1 1:-0.859188 2:1 3:-0.982807 4:-0.970205 5:-0.988957 6:-0.971715 7:0.120085 8:-0.587649 
-1 1:-0.819465 2:0.333333 3:-0.95188 4:-0.943203 5:-0.97399 6:-0.944746 7:0.120085 8:-0.587649 
-1 1:-0.736776 2:1 3:-0.960781 4:-0.955928 5:-0.979035 6:-0.962506 7:0.120085 8:-0.587649 
-1 1:-0.934194 2:0.529412 3:-0.955339 4:-0.860335 5:-0.967544 6:-0.875349 7:0.120085 8:-0.585657 
1 1:-0.89745 2:1 3:-0.987436 4:-0.976102 5:-0.97797 6:-0.972373 7:0.11796 8:-0.585657 
1 1:-0.625136 2:0.0588235 3:-0.704766 4:-0.502793 5:-0.856498 6:-0.507976 7:0.120085 8:-0.581673 
1 1:-0.713163 2:1 3:-0.890483 4:-0.782744 5:-0.949999 6:-0.798717 7:0.120085 8:-0.581673 
1 1:-0.677149 2:0.294118 3:-0.70146 4:-0.406269 5:-0.849435 6:-0.411939 7:0.120085 8:-0.583665 
1 1:-0.388877 2:1 3:-0.923343 4:-0.930478 5:-0.962387 6:-0.920079 7:0.12221 8:-0.579681 
1 1:-0.531027 2:1 3:-0.823033 4:-0.767225 5:-0.919224 6:-0.764184 7:0.12221 8:-0.579681 
1 1:-0.260741 2:0.921569 3:-0.872171 4:-0.876474 5:-0.945794 6:-0.877652 7:0.126461 8:-0.577689 
1 1:-0.339747 2:0.803922 3:-0.838598 4:-0.859404 5:-0.938619 6:-0.840816 7:0.126461 8:-0.577689 
1 1:-0.247445 2:0.568627 3:-0.869068 4:-0.874302 5:-0.95566 6:-0.876665 7:0.124336 8:-0.579681 
1 1:-0.384229 2:0.411765 3:-0.983112 4:-0.983551 5:-0.994675 6:-0.984871 7:0.128587 8:-0.579681 
1 1:-0.194011 2:1 3:-0.857673 4:-0.87275 5:-0.940693 6:-0.867785 7:0.128587 8:-0.577689 
1 1:-0.35485 2:1 3:-0.820591 4:-0.82216 5:-0.934191 6:-0.817793 7:0.126461 8:-0.579681 
1 1:-0.0709783 2:1 3:-0.867236 4:-0.887027 5:-0.949662 6:-0.879625 7:0.128587 8:-0.579681 
1 1:-0.316271 2:0.0588235 3:-0.731166 4:-0.675047 5:-0.88632 6:-0.685907 7:0.128587 8:-0.575697 
1 1:-0.0344823 2:0.921569 3:-0.850806 4:-0.853507 5:-0.942375 6:-0.842789 7:0.126461 8:-0.575697 
1 1:-0.2387 2:0.686275 3:-0.825932 4:-0.815022 5:-0.924045 6:-0.80398 7:0.126461 8:-0.573705 
1 1:-0.0269789 2:0.529412 3:-0.746223 4:-0.791124 5:-0.909583 6:-0.785233 7:0.124336 8:-0.573705 
1 1:-0.23219 2:0.137255 3:-0.887634 4:-0.892924 5:-0.952857 6:-0.887519 7:0.126461 8:-0.571713 
1 1:-0.0958883 2:0.294118 3:-0.845567 4:-0.848231 5:-0.936265 6:-0.837198 7:0.126461 8:-0.573705 
1 1:0.531262 2:-0.333333 3:-0.917849 4:-0.935133 5:-0.970291 6:-0.936524 7:0.126461 8:-0.569721 
1 1:-0.0361098 2:0.333333 3:-0.854367 4:-0.857542 5:-0.940077 6:-0.854629 7:0.126461 8:-0.571713 
1 1:-0.117571 2:0.294118 3:-0.742459 4:-0.755742 5:-0.908966 6:-0.748397 7:0.124336 8:-0.573705 
1 1:0.062744 2:0.0588235 3:-0.932652 4:-0.943203 5:-0.974215 6:-0.937839 7:0.124336 8:-0.569721 
1 1:0.0897919 2:-0.0196078 3:-0.919274 4:-0.931099 5:-0.969786 6:-0.930932 7:0.124336 8:-0.571713 
1 1:-0.123612 2:0.0980392 3:-0.908998 4:-0.916201 5:-0.963116 6:-0.911857 7:0.124336 8:-0.569721 
1 1:0.0782058 2:0.215686 3:-0.90676 4:-0.918374 5:-0.964573 6:-0.91383 7:0.12221 8:-0.569721 
1 1:-0.101033 2:0.411765 3:-0.937586 4:-0.944134 5:-0.976625 6:-0.942444 7:0.12221 8:-0.571713 
1 1:-0.195832 2:0.490196 3:-0.808332 4:-0.834575 5:-0.929258 6:-0.835882 7:0.12221 8:-0.571713 
1 1:-0.19139 2:0.137255 3:-0.985248 4:-0.988516 5:-0.993105 6:-0.983226 7:0.120085 8:-0.567729 
1 1:-0.0958745 2:1 3:-0.879292 4:-0.896958 5:-0.954595 6:-0.885216 7:0.12221 8:-0.573705 
1 1:-0.133088 2:0.72549 3:-0.849331 4:-0.864991 5:-0.940357 6:-0.86022 7:0.120085 8:-0.571713 
1 1:-0.346175 2:1 3:-0.929447 4:-0.934513 5:-0.97158 6:-0.926657 7:0.120085 8:-0.573705 
1 1:-0.169418 2:1 3:-0.899842 4:-0.896338 5:-0.957286 6:-0.89903 7:0.120085 8:-0.575697 
1 1:-0.507303 2:1 3:-0.897146 4:-0.895096 5:-0.95779 6:-0.888505 7:0.120085 8:-0.575697 
1 1:-0.330906 2:1 3:-0.850348 4:-0.833954 5:-0.942207 6:-0.828975 7:0.120085 8:-0.575697 
1 1:-0.410918 2:1 3:-0.927209 4:-0.929236 5:-0.965862 6:-0.930275 7:0.120085 8:-0.577689 
1 1:0.0560544 2:1 3:-0.851213 4:-0.875543 5:-0.942936 6:-0.875349 7:0.120085 8:-0.575697 
1 1:0.155763 2:1 3:-0.882344 4:-0.909683 5:-0.951904 6:-0.915474 7:0.120085 8:-0.577689 
1 1:-0.122881 2:1 3:-0.873697 4:-0.903166 5:-0.946747 6:-0.892781 7:0.120085 8:-0.579681 
1 1:-0.237211 2:1 3:-0.924309 4:-0.926443 5:-0.964629 6:-0.916132 7:0.120085 8:-0.579681 
1 1:-0.0333788 2:1 3:-0.856961 4:-0.887027 5:-0.950952 6:-0.884558 7:0.120085 8:-0.577689 
-1 1:-0.823823 2:0.72549 3:-0.909253 4:-0.837058 5:-0.917486 6:-0.849038 7:0.115834 8:-0.581673 
-1 1:-0.761327 2:0.372549 3:-0.914746 4:-0.812228 5:-0.907957 6:-0.82174 7:0.11796 8:-0.581673 
-1 1:-0.661094 2:1 3:-0.908388 4:-0.869957 5:-0.926119 6:-0.868443 7:0.11796 8:-0.579681 
-1 1:-0.7389 2:1 3:-0.936416 4:-0.907511 5:-0.952857 6:-0.908239 7:0.11796 8:-0.577689 
-1 1:-0.766651 2:0.647059 3:-0.69678 4:-0.583178 5:-0.755374 6:-0.595461 7:0.115834 8:-0.577689 
-1 1:-0.664032 2:1 3:-0.909405 4:-0.877716 5:-0.907172 6:-0.864825 7:0.115834 8:-0.577689 
-1 1:-0.7705 2:0.490196 3:-0.925378 4:-0.866543 5:-0.918103 6:-0.872389 7:0.115834 8:-0.579681 
-1 1:-0.775851 2:0.803922 3:-0.930312 4:-0.877716 5:-0.930828 6:-0.900674 7:0.115834 8:-0.579681 
-1 1:-0.60344 2:1 3:-0.965817 4:-0.944444 5:-0.9639 6:-0.945075 7:0.115834 8:-0.579681 
-1 1:-0.758031 2:0.647059 3:-0.917392 4:-0.883613 5:-0.928193 6:-0.882914 7:0.115834 8:-0.579681 
-1 1:-0.7793 2:0.960784 3:-0.9912 4:-0.986965 5:-0.987388 6:-0.98224 7:0.115834 8:-0.581673 
-1 1:-0.848264 2:0.490196 3:-0.976652 4:-0.960273 5:-0.978811 6:-0.959875 7:0.115834 8:-0.581673 
-1 1:-0.835451 2:-0.254902 3:-0.879394 4:-0.758535 5:-0.907172 6:-0.777997 7:0.11796 8:-0.583665 
-1 1:-0.841768 2:1 3:-0.980213 4:-0.960583 5:-0.971019 6:-0.954942 7:0.111583 8:-0.575697 
-1 1:-0.711714 2:1 3:-0.942266 4:-0.90689 5:-0.951624 6:-0.915146 7:0.111583 8:-0.575697 
-1 1:-0.714473 2:1 3:-0.960985 4:-0.936375 5:-0.965862 6:-0.940141 7:0.111583 8:-0.577689 
-1 1:-0.704418 2:1 3:-0.976092 4:-0.954997 5:-0.976905 6:-0.958888 7:0.113709 8:-0.577689 
-1 1:-0.651619 2:1 3:-0.956254 4:-0.933582 5:-0.944449 6:-0.930275 7:0.113709 8:-0.577689 
-1 1:-0.802223 2:0.647059 3:-0.92787 4:-0.853818 5:-0.915749 6:-0.856274 7:0.113709 8:-0.577689 
-1 1:-0.864209 2:1 3:-0.949947 4:-0.920236 5:-0.943664 6:-0.916461 7:0.113709 8:-0.577689 
-1 1:-0.84814 2:0.686275 3:-0.881072 4:-0.744258 5:-0.842484 6:-0.75333 7:0.113709 8:-0.577689 
-1 1:-0.78792 2:0.843137 3:-0.913831 4:-0.877405 5:-0.91715 6:-0.887519 7:0.115834 8:-0.577689 
-1 1:-0.752679 2:0.882353 3:-0.940333 4:-0.932961 5:-0.952017 6:-0.928301 7:0.115834 8:-0.577689 
-1 1:-0.845533 2:0.137255 3:-0.969073 4:-0.955307 5:-0.976345 6:-0.954284 7:0.115834 8:-0.577689 
-1 1:-0.885767 2:0.529412 3:-0.952795 4:-0.938547 5:-0.968553 6:-0.939813 7:0.115834 8:-0.577689 
-1 1:-0.584047 2:0.686275 3:-0.924462 4:-0.902855 5:-0.946299 6:-0.91087 7:0.115834 8:-0.575697 
1 1:-0.385388 2:0.647059 3:-0.845211 4:-0.845438 5:-0.937666 6:-0.850682 7:0.11796 8:-0.571713 
-1 1:-0.701135 2:0.882353 3:-0.955237 4:-0.939789 5:-0.958855 6:-0.931261 7:0.115834 8:-0.571713 
-1 1:-0.685673 2:0.72549 3:-0.897299 4:-0.836437 5:-0.92113 6:-0.84246 7:0.115834 8:-0.571713 
-1 1:-0.739217 2:0.686275 3:-0.849128 4:-0.77995 5:-0.872979 6:-0.799704 7:0.113709 8:-0.575697 
-1 1:-0.706887 2:0.803922 3:-0.955288 4:-0.92334 5:-0.957958 6:-0.921066 7:0.113709 8:-0.573705 
-1 1:-0.682542 2:0.529412 3:-0.974973 4:-0.964929 5:-0.969506 6:-0.955928 7:0.111583 8:-0.575697 
-1 1:-0.830664 2:0.921569 3:-0.909761 4:-0.853507 5:-0.898876 6:-0.855616 7:0.113709 8:-0.575697 
-1 1:-0.725645 2:0.960784 3:-0.916832 4:-0.856611 5:-0.913675 6:-0.871074 7:0.113709 8:-0.575697 
-1 1:-0.82694 2:1 3:-0.92787 4:-0.902855 5:-0.939348 6:-0.901661 7:0.109458 8:-0.573705 
-1 1:-0.504765 2:1 3:-0.970039 4:-0.946617 5:-0.980381 6:-0.955271 7:0.111583 8:-0.573705 
-1 1:-0.699783 2:1 3:-0.962206 4:-0.952824 5:-0.973654 6:-0.951324 7:0.111583 8:-0.573705 
-1 1:-0.733259 2:0.882353 3:-0.884531 4:-0.845748 5:-0.909302 6:-0.841473 7:0.111583 8:-0.571713 
-1 1:-0.747452 2:0.764706 3:-0.937332 4:-0.883923 5:-0.933855 6:-0.883901 7:0.111583 8:-0.573705 
-1 1:-0.757176 2:0.647059 3:-0.94837 4:-0.89851 5:-0.953306 6:-0.909225 7:0.111583 8:-0.573705 
-1 1:-0.82014 2:0.607843 3:-0.952693 4:-0.921477 5:-0.949718 6:-0.91383 7:0.111583 8:-0.569721 
-1 1:-0.757755 2:0.490196 3:-0.86332 4:-0.815022 5:-0.894336 6:-0.823713 7:0.111583 8:-0.571713 
-1 1:-0.785341 2:0.568627 3:-0.92141 4:-0.871508 5:-0.942767 6:-0.888176 7:0.111583 8:-0.571713 
-1 1:-0.639067 2:0.490196 3:-0.910982 4:-0.876474 5:-0.940133 6:-0.876665 7:0.113709 8:-0.571713 
-1 1:-0.669232 2:0.647059 3:-0.876494 4:-0.844507 5:-0.914011 6:-0.841145 7:0.111583 8:-0.571713 
-1 1:-0.74999 2:0.686275 3:-0.912152 4:-0.871819 5:-0.930659 6:-0.871074 7:0.113709 8:-0.573705 
1 1:-0.317982 2:0.411765 3:-0.916527 4:-0.918994 5:-0.965414 6:-0.912843 7:0.120085 8:-0.567729 
1 1:-0.202232 2:0.294118 3:-0.931177 4:-0.939789 5:-0.975392 6:-0.936195 7:0.11796 8:-0.567729 
1 1:-0.137557 2:-0.137255 3:-0.882242 4:-0.896027 5:-0.946635 6:-0.892452 7:0.11796 8:-0.567729 
1 1:-0.0936263 2:-0.0980392 3:-0.875019 4:-0.901924 5:-0.948821 6:-0.893767 7:0.111583 8:-0.557769 
1 1:-0.243459 2:-0.176471 3:-0.346864 4:-0.36468 5:-0.720732 6:-0.353396 7:0.115834 8:-0.563745 
-1 1:-0.810885 2:0.176471 3:-0.876799 4:-0.834885 5:-0.923933 6:-0.851669 7:0.111583 8:-0.565737 
-1 1:-0.801975 2:0.568627 3:-0.919019 4:-0.886406 5:-0.939965 6:-0.883572 7:0.109458 8:-0.565737 
-1 1:-0.767686 2:0.803922 3:-0.892365 4:-0.872129 5:-0.946075 6:-0.874692 7:0.109458 8:-0.565737 
-1 1:-0.752859 2:0.411765 3:-0.919986 4:-0.889199 5:-0.947868 6:-0.895083 7:0.109458 8:-0.567729 
-1 1:-0.733328 2:0.45098 3:-0.910372 4:-0.877095 5:-0.944842 6:-0.883901 7:0.109458 8:-0.565737 
-1 1:-0.800279 2:0.921569 3:-0.939722 4:-0.919305 5:-0.949326 6:-0.919421 7:0.109458 8:-0.567729 
-1 1:-0.530158 2:1 3:-0.961748 4:-0.945996 5:-0.975111 6:-0.946062 7:0.109458 8:-0.567729 
-1 1:-0.815065 2:0.882353 3:-0.8827 4:-0.860025 5:-0.927352 6:-0.851998 7:0.109458 8:-0.567729 
-1 1:-0.782251 2:0.0196078 3:-0.953863 4:-0.927064 5:-0.97797 6:-0.948693 7:0.111583 8:-0.567729 
-1 1:-0.681025 2:0.607843 3:-0.940078 4:-0.920546 5:-0.951008 6:-0.912185 7:0.111583 8:-0.567729 
-1 1:-0.808085 2:0.647059 3:-0.897452 4:-0.873681 5:-0.937891 6:-0.879625 7:0.109458 8:-0.567729 
-1 1:-0.833699 2:0.882353 3:-0.930515 4:-0.912787 5:-0.955884 6:-0.911857 7:0.109458 8:-0.569721 
-1 1:-0.754914 2:1 3:-0.860522 4:-0.83054 5:-0.917262 6:-0.818122 7:0.111583 8:-0.567729 
-1 1:-0.619964 2:0.960784 3:-0.892924 4:-0.854128 5:-0.934415 6:-0.856274 7:0.111583 8:-0.567729 
-1 1:-0.785424 2:1 3:-0.911186 4:-0.887958 5:-0.942487 6:-0.879954 7:0.111583 8:-0.567729 
-1 1:-0.728831 2:1 3:-0.897146 4:-0.878957 5:-0.942431 6:-0.885216 7:0.109458 8:-0.569721 
-1 1:-0.827575 2:0.803922 3:-0.943334 4:-0.919926 5:-0.953866 6:-0.908568 7:0.109458 8:-0.571713 
-1 1:-0.786624 2:0.568627 3:-0.896536 4:-0.842024 5:-0.921018 6:-0.851011 7:0.111583 8:-0.569721 
-1 1:-0.694349 2:0.72549 3:-0.905896 4:-0.878336 5:-0.936713 6:-0.885545 7:0.111583 8:-0.569721 
-1 1:-0.902291 2:0.568627 3:-0.953253 4:-0.936065 5:-0.970907 6:-0.948035 7:0.109458 8:-0.569721 
-1 1:-0.803437 2:0.72549 3:-0.949489 4:-0.926443 5:-0.964853 6:-0.922381 7:0.109458 8:-0.569721 
-1 1:-0.850899 2:0.372549 3:-0.969276 4:-0.959342 5:-0.970403 6:-0.956586 7:0.107333 8:-0.571713 
-1 1:-0.874512 2:0.411765 3:-0.863777 4:-0.771881 5:-0.892262 6:-0.780957 7:0.109458 8:-0.571713 
-1 1:-0.96298 2:0.45098 3:-0.924157 4:-0.885475 5:-0.936041 6:-0.884887 7:0.109458 8:-0.569721 
-1 1:-0.886967 2:-0.294118 3:-0.887838 4:-0.824953 5:-0.91715 6:-0.829304 7:0.107333 8:-0.569721 
-1 1:-0.958442 2:0.0588235 3:-0.956559 4:-0.941651 5:-0.975784 6:-0.947048 7:0.107333 8:-0.569721 
-1 1:-0.800279 2:-0.0196078 3:-0.93433 4:-0.908132 5:-0.94501 6:-0.900674 7:0.109458 8:-0.569721 
-1 1:-0.906677 2:0.372549 3:-0.957017 4:-0.934513 5:-0.968385 6:-0.948035 7:0.105207 8:-0.569721 
-1 1:-0.745424 2:0.607843 3:-0.972583 4:-0.952514 5:-0.978867 6:-0.959875 7:0.105207 8:-0.567729 
-1 1:-0.771879 2:0.686275 3:-0.945877 4:-0.921788 5:-0.953922 6:-0.920079 7:0.103082 8:-0.569721 
-1 1:-0.722211 2:0.647059 3:-0.964139 4:-0.954687 5:-0.976793 6:-0.94935 7:0.105207 8:-0.569721 
-1 1:-0.894815 2:0.72549 3:-0.922377 4:-0.909994 5:-0.955268 6:-0.905937 7:0.103082 8:-0.569721 
-1 1:-0.668087 2:0.607843 3:-0.953863 4:-0.933582 5:-0.963956 6:-0.935208 7:0.103082 8:-0.567729 
-1 1:-0.72148 2:0.647059 3:-0.929345 4:-0.909373 5:-0.952241 6:-0.906594 7:0.103082 8:-0.567729 
-1 1:-0.777769 2:0.686275 3:-0.972226 4:-0.963377 5:-0.975784 6:-0.955599 7:0.103082 8:-0.567729 
-1 1:-0.730335 2:0.607843 3:-0.792868 4:-0.72905 5:-0.846801 6:-0.743792 7:0.103082 8:-0.567729 
-1 1:-0.737535 2:0.568627 3:-0.918053 4:-0.862197 5:-0.91715 6:-0.864167 7:0.105207 8:-0.565737 
-1 1:-0.772403 2:0.803922 3:-0.97655 4:-0.958721 5:-0.981838 6:-0.955271 7:0.105207 8:-0.565737 
-1 1:-0.727218 2:0.647059 3:-0.958492 4:-0.94041 5:-0.972477 6:-0.941457 7:0.105207 8:-0.565737 
-1 1:-0.771203 2:0.647059 3:-0.925174 4:-0.885164 5:-0.931164 6:-0.888176 7:0.103082 8:-0.565737 
-1 1:-0.814637 2:0.333333 3:-0.974465 4:-0.961204 5:-0.982062 6:-0.96448 7:0.105207 8:-0.567729 
-1 1:-0.651053 2:0.764706 3:-0.947912 4:-0.930168 5:-0.958183 6:-0.926328 7:0.105207 8:-0.565737 
-1 1:-0.75861 2:0.764706 3:-0.960985 4:-0.943513 5:-0.961322 6:-0.941786 7:0.105207 8:-0.565737 
-1 1:-0.759065 2:0.764706 3:-0.893128 4:-0.878957 5:-0.92511 6:-0.883901 7:0.105207 8:-0.567729 
-1 1:-0.510765 2:0.72549 3:-0.983316 4:-0.976723 5:-0.984361 6:-0.974017 7:0.107333 8:-0.567729 
-1 1:-0.886195 2:0.764706 3:-0.952236 4:-0.932651 5:-0.965358 6:-0.936195 7:0.107333 8:-0.567729 
-1 1:-0.845561 2:0.45098 3:-0.949641 4:-0.913718 5:-0.959136 6:-0.915146 7:0.107333 8:-0.565737 
-1 1:-0.769217 2:0.72549 3:-0.949743 4:-0.919305 5:-0.949662 6:-0.914817 7:0.107333 8:-0.567729 
-1 1:-0.804582 2:0.372549 3:-0.942825 4:-0.918684 5:-0.973149 6:-0.950995 7:0.107333 8:-0.569721 
-1 1:-0.783575 2:0.647059 3:-0.947403 4:-0.927995 5:-0.96362 6:-0.930275 7:0.107333 8:-0.567729 
-1 1:-0.832816 2:0.372549 3:-0.946844 4:-0.933892 5:-0.963676 6:-0.945733 7:0.107333 8:-0.567729 
-1 1:-0.715507 2:0.254902 3:-0.934992 4:-0.905028 5:-0.944169 6:-0.906265 7:0.109458 8:-0.565737 
-1 1:-0.795561 2:0.647059 3:-0.919375 4:-0.900993 5:-0.949326 6:-0.899688 7:0.107333 8:-0.565737 
-1 1:-0.723535 2:0.568627 3:-0.936162 4:-0.916201 5:-0.953754 6:-0.924683 7:0.107333 8:-0.565737 
-1 1:-0.747838 2:0.686275 3:-0.938145 4:-0.92334 5:-0.957398 6:-0.91679 7:0.107333 8:-0.565737 
-1 1:-0.870678 2:0.843137 3:-0.911033 4:-0.879268 5:-0.947756 6:-0.885545 7:0.107333 8:-0.565737 
-1 1:-0.722445 2:0.72549 3:-0.883158 4:-0.840782 5:-0.919617 6:-0.841145 7:0.109458 8:-0.563745 
-1 1:-0.853437 2:0.45098 3:-0.875121 4:-0.806642 5:-0.915188 6:-0.841802 7:0.107333 8:-0.563745 
-1 1:-0.633274 2:0.803922 3:-0.949336 4:-0.934823 5:-0.966703 6:-0.939484 7:0.107333 8:-0.565737 
-1 1:-0.814803 2:0.529412 3:-0.91439 4:-0.893855 5:-0.946972 6:-0.887847 7:0.109458 8:-0.565737 
1 1:-0.402698 2:0.0196078 3:-0.886719 4:-0.887027 5:-0.927464 6:-0.883572 7:0.111583 8:-0.559761 
1 1:-0.328271 2:-0.0196078 3:-0.833969 4:-0.847921 5:-0.931668 6:-0.825029 7:0.109458 8:-0.557769 
1 1:-0.00795851 2:0.0588235 3:-0.959713 4:-0.96586 5:-0.981726 6:-0.96448 7:0.107333 8:-0.555777 
1 1:-0.382753 2:0.137255 3:-0.979043 4:-0.983551 5:-0.992489 6:-0.983884 7:0.107333 8:-0.557769 
1 1:-0.329623 2:0.372549 3:-0.961036 4:-0.971446 5:-0.987331 6:-0.969742 7:0.107333 8:-0.557769 
-1 1:-0.719025 2:-0.0980392 3:-0.909049 4:-0.859404 5:-0.936433 6:-0.873376 7:0.107333 8:-0.563745 
-1 1:-0.716294 2:0.686275 3:-0.968717 4:-0.959652 5:-0.978979 6:-0.955928 7:0.107333 8:-0.563745 
-1 1:-0.585054 2:0.647059 3:-0.929752 4:-0.91496 5:-0.952353 6:-0.91087 7:0.105207 8:-0.561753 
-1 1:-0.612061 2:0.882353 3:-0.932703 4:-0.914339 5:-0.957342 6:-0.907581 7:0.105207 8:-0.561753 
-1 1:-0.817437 2:0.529412 3:-0.937688 4:-0.909063 5:-0.948149 6:-0.914488 7:0.107333 8:-0.563745 
-1 1:-0.544172 2:0.333333 3:-0.966173 4:-0.956859 5:-0.97741 6:-0.956586 7:0.107333 8:-0.563745 
-1 1:-0.752859 2:0.294118 3:-0.937891 4:-0.913097 5:-0.953979 6:-0.908239 7:0.105207 8:-0.565737 
-1 1:-0.724652 2:0.411765 3:-0.929956 4:-0.911235 5:-0.953362 6:-0.915146 7:0.107333 8:-0.565737 
-1 1:-0.511483 2:0.647059 3:-0.922071 4:-0.9072 5:-0.953866 6:-0.903305 7:0.105207 8:-0.563745 
-1 1:-0.706887 2:0.803922 3:-0.958187 4:-0.931099 5:-0.970291 6:-0.945733 7:0.105207 8:-0.563745 
-1 1:-0.789962 2:0.686275 3:-0.9443 4:-0.926133 5:-0.96603 6:-0.929617 7:0.105207 8:-0.563745 
1 1:-0.609192 2:0.882353 3:-0.934839 4:-0.926443 5:-0.96788 6:-0.92271 7:0.139214 8:-0.589641 
1 1:-0.332685 2:1 3:-0.918511 4:-0.918684 5:-0.966871 6:-0.906265 7:0.139214 8:-0.589641 
1 1:-0.829299 2:0.411765 3:-0.844397 4:-0.71167 5:-0.856891 6:-0.696432 7:0.134963 8:-0.599602 
1 1:-0.356202 2:1 3:-0.950303 4:-0.945996 5:-0.979203 6:-0.950008 7:0.137088 8:-0.589641 
1 1:-0.293403 2:0.607843 3:-0.916171 4:-0.91527 5:-0.964012 6:-0.916132 7:0.139214 8:-0.585657 
1 1:0.0188135 2:1 3:-0.90208 4:-0.913718 5:-0.960649 6:-0.905608 7:0.139214 8:-0.583665 
1 1:0.0283582 2:1 3:-0.894349 4:-0.91558 5:-0.961826 6:-0.909883 7:0.139214 8:-0.585657 
1 1:-0.217376 2:1 3:-0.908388 4:-0.925822 5:-0.968104 6:-0.92271 7:0.139214 8:-0.585657 
1 1:-0.111529 2:1 3:-0.896282 4:-0.916511 5:-0.962555 6:-0.917119 7:0.139214 8:-0.585657 
1 1:0.149543 2:1 3:-0.84516 4:-0.884544 5:-0.945514 6:-0.880283 7:0.137088 8:-0.585657 
1 1:-0.0792541 2:1 3:-0.882191 4:-0.89851 5:-0.956501 6:-0.897714 7:0.139214 8:-0.587649 
1 1:0.32172 2:1 3:-0.898215 4:-0.922719 5:-0.963284 6:-0.920079 7:0.139214 8:-0.587649 
1 1:-0.391953 2:1 3:-0.885091 4:-0.89851 5:-0.954259 6:-0.89015 7:0.139214 8:-0.587649 
1 1:-0.270176 2:1 3:-0.937789 4:-0.947858 5:-0.977073 6:-0.945075 7:0.137088 8:-0.587649 
1 1:-0.435953 2:1 3:-0.882344 4:-0.873681 5:-0.953362 6:-0.878967 7:0.137088 8:-0.587649 
1 1:-0.321775 2:1 3:-0.894806 4:-0.8982 5:-0.959696 6:-0.899688 7:0.137088 8:-0.587649 
1 1:-0.499993 2:1 3:-0.867033 4:-0.853507 5:-0.939348 6:-0.840158 7:0.137088 8:-0.587649 
1 1:-0.0667577 2:1 3:-0.865812 4:-0.886716 5:-0.945626 6:-0.883572 7:0.137088 8:-0.585657 
1 1:-0.324285 2:1 3:-0.899486 4:-0.909373 5:-0.95964 6:-0.91087 7:0.137088 8:-0.585657 
1 1:0.0115309 2:0.411765 3:-0.887176 4:-0.896338 5:-0.94955 6:-0.88127 7:0.139214 8:-0.583665 
1 1:-0.219404 2:0.568627 3:-0.942876 4:-0.939789 5:-0.980212 6:-0.940799 7:0.137088 8:-0.581673 
1 1:-0.188825 2:1 3:-0.843532 4:-0.846989 5:-0.943833 6:-0.84838 7:0.137088 8:-0.583665 
1 1:-0.147198 2:1 3:-0.811588 4:-0.835506 5:-0.932621 6:-0.834567 7:0.137088 8:-0.583665 
1 1:-0.029172 2:0.411765 3:-0.8475 4:-0.858473 5:-0.944842 6:-0.852327 7:0.137088 8:-0.581673 
1 1:-0.142922 2:0.607843 3:-0.854469 4:-0.857542 5:-0.942375 6:-0.852985 7:0.137088 8:-0.581673 
1 1:-0.207928 2:1 3:-0.870339 4:-0.870888 5:-0.950055 6:-0.867456 7:0.134963 8:-0.583665 
1 1:-0.269251 2:1 3:-0.885396 4:-0.87306 5:-0.954035 6:-0.876336 7:0.134963 8:-0.583665 
1 1:-0.478435 2:1 3:-0.829188 4:-0.799193 5:-0.931108 6:-0.796086 7:0.134963 8:-0.585657 
1 1:-0.580447 2:1 3:-0.913983 4:-0.878957 5:-0.962667 6:-0.879625 7:0.134963 8:-0.585657 
1 1:-0.653343 2:0.686275 3:-0.885549 4:-0.816574 5:-0.944729 6:-0.819438 7:0.134963 8:-0.585657 
-1 1:-0.714721 2:1 3:-0.975838 4:-0.963377 5:-0.987948 6:-0.965466 7:0.128587 8:-0.589641 
1 1:-0.766789 2:1 3:-0.857521 4:-0.71167 5:-0.92326 6:-0.712218 7:0.134963 8:-0.585657 
1 1:-0.721369 2:0.411765 3:-0.86688 4:-0.788641 5:-0.935592 6:-0.797731 7:0.134963 8:-0.585657 
1 1:-0.47878 2:1 3:-0.941655 4:-0.921167 5:-0.973093 6:-0.918434 7:0.134963 8:-0.583665 
1 1:-0.662887 2:1 3:-0.879902 4:-0.812849 5:-0.912834 6:-0.811873 7:0.134963 8:-0.583665 
1 1:-0.831023 2:1 3:-0.867643 4:-0.740534 5:-0.899381 6:-0.74741 7:0.134963 8:-0.583665 
1 1:-0.347733 2:0.568627 3:-0.965258 4:-0.956549 5:-0.985257 6:-0.959875 7:0.132837 8:-0.581673 
1 1:-0.716376 2:0.607843 3:-0.910779 4:-0.85599 5:-0.877743 6:-0.861536 7:0.132837 8:-0.581673 
1 1:-0.938056 2:1 3:-0.938858 4:-0.857542 5:-0.887161 6:-0.843447 7:0.132837 8:-0.581673 
1 1:-0.907629 2:1 3:-0.969124 4:-0.927064 5:-0.924549 6:-0.918106 7:0.132837 8:-0.581673 
1 1:-0.66337 2:1 3:-0.808129 4:-0.769398 5:-0.918271 6:-0.77701 7:0.130712 8:-0.583665 
1 1:-0.649412 2:0.843137 3:-0.890584 4:-0.839851 5:-0.90734 6:-0.849367 7:0.130712 8:-0.581673 
1 1:-0.0910746 2:1 3:-0.929447 4:-0.94103 5:-0.971356 6:-0.933892 7:0.130712 8:-0.581673 
1 1:-0.372919 2:1 3:-0.91317 4:-0.901614 5:-0.959864 6:-0.903305 7:0.130712 8:-0.581673 
1 1:-0.825478 2:1 3:-0.919375 4:-0.862508 5:-0.950952 6:-0.852656 7:0.130712 8:-0.581673 
1 1:0.0140826 2:1 3:-0.915255 4:-0.930478 5:-0.971188 6:-0.929946 7:0.130712 8:-0.579681 
1 1:0.227018 2:1 3:-0.81057 4:-0.853197 5:-0.923597 6:-0.837198 7:0.128587 8:-0.579681 
1 1:-0.326975 2:1 3:-0.794191 4:-0.794538 5:-0.926399 6:-0.806282 7:0.130712 8:-0.581673 
1 1:-0.61904 2:1 3:-0.816064 4:-0.761949 5:-0.915637 6:-0.752014 7:0.128587 8:-0.583665 
-1 1:-0.753907 2:1 3:-0.983061 4:-0.97455 5:-0.991648 6:-0.975004 7:0.128587 8:-0.585657 
-1 1:-0.668708 2:1 3:-0.969073 4:-0.955307 5:-0.984417 6:-0.956915 7:0.128587 8:-0.587649 
1 1:0.0175446 2:1 3:-0.848009 4:-0.882682 5:-0.947084 6:-0.881598 7:0.124336 8:-0.577689 
1 1:0.56693 2:0.490196 3:-0.87334 4:-0.904097 5:-0.954875 6:-0.896728 7:0.12221 8:-0.575697 
1 1:0.792955 2:0.607843 3:-0.847958 4:-0.896338 5:-0.943104 6:-0.89015 7:0.12221 8:-0.575697 
1 1:0.615688 2:1 3:-0.83519 4:-0.886716 5:-0.944057 6:-0.884558 7:0.12221 8:-0.577689 
1 1:0.0603026 2:1 3:-0.844906 4:-0.882061 5:-0.943833 6:-0.878967 7:0.12221 8:-0.577689 
1 1:0.638667 2:1 3:-0.822371 4:-0.877405 5:-0.93335 6:-0.874363 7:0.12221 8:-0.577689 
1 1:-0.255886 2:1 3:-0.910728 4:-0.92396 5:-0.967376 6:-0.92567 7:0.124336 8:-0.579681 
1 1:0.050951 2:1 3:-0.875528 4:-0.903476 5:-0.948821 6:-0.896399 7:0.124336 8:-0.579681 
1 1:0.137612 2:1 3:-0.918155 4:-0.937306 5:-0.969001 6:-0.941457 7:0.12221 8:-0.577689 
1 1:-0.219997 2:1 3:-0.813673 4:-0.839851 5:-0.917767 6:-0.829304 7:0.12221 8:-0.579681 
1 1:-0.257514 2:1 3:-0.874256 4:-0.875233 5:-0.938283 6:-0.869429 7:0.12221 8:-0.581673 
1 1:-0.349954 2:1 3:-0.845618 4:-0.840161 5:-0.930547 6:-0.829962 7:0.109458 8:-0.577689 
1 1:-0.418091 2:1 3:-0.884684 4:-0.900062 5:-0.955044 6:-0.894754 7:0.109458 8:-0.577689 
1 1:-0.339099 2:1 3:-0.93316 4:-0.945376 5:-0.978979 6:-0.947048 7:0.109458 8:-0.577689 
1 1:-0.34343 2:-0.529412 3:-0.89735 4:-0.834264 5:-0.946411 6:-0.840487 7:0.113709 8:-0.585657 
1 1:-0.718004 2:0.137255 3:-0.789257 4:-0.730602 5:-0.794557 6:-0.719125 7:0.115834 8:-0.587649 
-1 1:-0.800996 2:0.607843 3:-0.936975 4:-0.904407 5:-0.954147 6:-0.901661 7:0.113709 8:-0.589641 
1 1:-0.65886 2:1 3:-0.915153 4:-0.891682 5:-0.955716 6:-0.90199 7:0.111583 8:-0.583665 
1 1:-0.305692 2:1 3:-0.885549 4:-0.879888 5:-0.942263 6:-0.857589 7:0.111583 8:-0.585657 
1 1:-0.409953 2:1 3:-0.920494 4:-0.902545 5:-0.964461 6:-0.902648 7:0.111583 8:-0.583665 
1 1:-0.486062 2:1 3:-0.913424 4:-0.885164 5:-0.963003 6:-0.888505 7:0.111583 8:-0.583665 
1 1:-0.605909 2:1 3:-0.938552 4:-0.948169 5:-0.977129 6:-0.943759 7:0.111583 8:-0.583665 
1 1:-0.364974 2:1 3:-0.84694 4:-0.832092 5:-0.927128 6:-0.824371 7:0.109458 8:-0.577689 
1 1:-0.275858 2:1 3:-0.913373 4:-0.92396 5:-0.963284 6:-0.917119 7:0.109458 8:-0.577689 
1 1:-0.397084 2:0.0196078 3:-0.794038 4:-0.766605 5:-0.916141 6:-0.738201 7:0.107333 8:-0.579681 
1 1:-0.0191721 2:-0.843137 3:-0.0522407 4:-0.104904 5:-0.583845 6:-0.106397 7:0.100956 8:-0.579681 
1 1:-0.560337 2:0.0588235 3:-0.64866 4:-0.518001 5:-0.833459 6:-0.512251 7:0.105207 8:-0.585657 
1 1:-0.411098 2:-0.137255 3:-0.711226 4:-0.606145 5:-0.849379 6:-0.621773 7:0.111583 8:-0.585657 
-1 1:-0.627964 2:-0.254902 3:-0.941299 4:-0.887027 5:-0.967488 6:-0.89311 7:0.107333 8:-0.587649 
1 1:-0.0671163 2:-0.568627 3:-0.271886 4:-0.365611 5:-0.676112 6:-0.34024 7:0.111583 8:-0.543825 
1 1:-0.0956125 2:-0.843137 3:-0.817183 4:-0.855369 5:-0.902744 6:-0.831936 7:0.103082 8:-0.543825 
1 1:-0.31263 2:-0.0196078 3:-0.837123 4:-0.852266 5:-0.921074 6:-0.841145 7:0.100956 8:-0.545817 
1 1:-0.215583 2:0.176471 3:-0.803449 4:-0.835506 5:-0.923484 6:-0.828975 7:0.100956 8:-0.547809 
1 1:-0.293872 2:0.215686 3:-0.874154 4:-0.886096 5:-0.941422 6:-0.879625 7:0.100956 8:-0.547809 
1 1:-0.263693 2:0.137255 3:-0.867898 4:-0.886716 5:-0.948485 6:-0.885216 7:0.100956 8:-0.551793 
1 1:-0.391236 2:1 3:-0.94781 4:-0.960273 5:-0.982399 6:-0.953297 7:0.103082 8:-0.561753 
1 1:-0.115916 2:0.254902 3:-0.898571 4:-0.917132 5:-0.961714 6:-0.911528 7:0.103082 8:-0.557769 
1 1:0.0223445 2:-0.0196078 3:-0.85452 4:-0.878026 5:-0.942431 6:-0.869758 7:0.100956 8:-0.557769 
1 1:-0.171101 2:-0.0588235 3:-0.942418 4:-0.952824 5:-0.981109 6:-0.944088 7:0.100956 8:-0.557769 
1 1:-0.600681 2:-0.372549 3:-0.879038 4:-0.761639 5:-0.932005 6:-0.788851 7:0.0945802 8:-0.557769 
-1 1:-0.739728 2:-0.411765 3:-0.914289 4:-0.892303 5:-0.968329 6:-0.884558 7:0.0924548 8:-0.563745 
1 1:-0.172411 2:-0.254902 3:-0.989928 4:-0.992551 5:-0.995516 6:-0.990133 7:0.0945802 8:-0.537849 
1 1:-0.233459 2:0.215686 3:-0.934839 4:-0.940099 5:-0.972981 6:-0.944088 7:0.0839532 8:-0.525896 
1 1:-0.531606 2:-0.803922 3:-0.875731 4:-0.817194 5:-0.933518 6:-0.811873 7:0.0818278 8:-0.535857 
1 1:-0.335595 2:-0.647059 3:-0.89679 4:-0.88951 5:-0.951568 6:-0.884558 7:0.088204 8:-0.539841 
1 1:-0.205804 2:-0.647059 3:-0.577954 4:-0.588765 5:-0.785644 6:-0.576714 7:0.0860786 8:-0.539841 
1 1:-0.735217 2:-0.0196078 3:-0.94074 4:-0.885475 5:-0.985986 6:-0.955271 7:0.0924548 8:-0.547809 
1 1:-0.127819 2:-0.333333 3:-0.8475 4:-0.870267 5:-0.935424 6:-0.863838 7:0.0903294 8:-0.539841 
1 1:-0.193087 2:-0.137255 3:-0.877054 4:-0.892303 5:-0.940413 6:-0.874034 7:0.088204 8:-0.539841 
1 1:-0.588116 2:-0.333333 3:-0.779592 4:-0.749534 5:-0.885759 6:-0.758921 7:0.0860786 8:-0.553785 
1 1:-0.578737 2:-0.254902 3:-0.915916 4:-0.860646 5:-0.952129 6:-0.858905 7:0.0839532 8:-0.543825 
1 1:-0.280106 2:-0.45098 3:-0.818251 4:-0.815022 5:-0.900558 6:-0.816478 7:0.0712009 8:-0.523904 
1 1:-0.212783 2:0.176471 3:-0.853706 4:-0.851955 5:-0.928641 6:-0.840816 7:0.0712009 8:-0.52988 
1 1:-0.266879 2:-0.803922 3:-0.776031 4:-0.777778 5:-0.884077 6:-0.77405 7:0.0712009 8:-0.531873 
1 1:-0.26452 2:-0.490196 3:-0.176103 4:-0.0713842 5:-0.545167 6:-0.0639697 7:0.0690755 8:-0.533865 
1 1:-0.163929 2:-0.72549 3:-0.560252 4:-0.563625 5:-0.718826 6:-0.546785 7:0.0690755 8:-0.545817 
1 1:-0.226935 2:-0.764706 3:-0.458467 4:-0.436065 5:-0.659632 6:-0.409308 7:0.0690755 8:-0.541833 
1 1:-0.576351 2:-0.843137 3:-0.941604 4:-0.903786 5:-0.963844 6:-0.91975 7:0.0520723 8:-0.517928 
1 1:-0.230011 2:-0.921569 3:-0.287248 4:-0.112353 5:-0.596289 6:-0.0948857 7:0.0584485 8:-0.545817 
1 1:0.0895988 2:-0.45098 3:-0.711481 4:-0.768156 5:-0.864963 6:-0.765499 7:0.0669501 8:-0.51992 
1 1:-0.152025 2:-0.215686 3:-0.456483 4:-0.522346 5:-0.745004 6:-0.500411 7:0.0648247 8:-0.521912 
1 1:-0.154619 2:-0.0588235 3:-0.931227 4:-0.94072 5:-0.966759 6:-0.927972 7:0.0626993 8:-0.517928 
1 1:-0.211321 2:0.0196078 3:-0.81113 4:-0.837058 5:-0.908742 6:-0.823384 7:0.0626993 8:-0.51992 
1 1:-0.136564 2:0.176471 3:-0.871051 4:-0.88175 5:-0.940357 6:-0.865483 7:0.0626993 8:-0.51992 
1 1:-0.357016 2:0.0980392 3:-0.789867 4:-0.769398 5:-0.886768 6:-0.753988 7:0.0626993 8:-0.531873 
1 1:-0.49529 2:0.0196078 3:-0.689659 4:-0.612663 5:-0.830545 6:-0.627364 7:0.0648247 8:-0.531873 
1 1:-0.379305 2:0.215686 3:-0.869271 4:-0.874302 5:-0.936938 6:-0.870416 7:0.0626993 8:-0.533865 
1 1:-0.264479 2:-0.0196078 3:-0.902945 4:-0.885164 5:-0.952409 6:-0.882914 7:0.0626993 8:-0.531873 
1 1:-0.281969 2:0.0196078 3:-0.903963 4:-0.906269 5:-0.950335 6:-0.897056 7:0.0605739 8:-0.533865 
1 1:0.0902746 2:-0.764706 3:0.437306 4:0.198945 5:-0.316124 6:0.216905 7:0.0605739 8:-0.515936 
1 1:0.271638 2:-0.686275 3:-0.750394 4:-0.821229 5:-0.889122 6:-0.805953 7:0.0520723 8:-0.50996 
1 1:-0.121653 2:-0.529412 3:-0.726588 4:-0.769398 5:-0.845511 6:-0.75037 7:0.0478215 8:-0.513944 
1 1:-0.10455 2:-0.176471 3:-0.533801 4:-0.574178 5:-0.758065 6:-0.538563 7:0.0648247 8:-0.537849 
1 1:-0.457139 2:-0.137255 3:-0.838852 4:-0.835196 5:-0.919112 6:-0.830949 7:0.0648247 8:-0.539841 
1 1:-0.359485 2:-0.882353 3:-0.619767 4:-0.511173 5:-0.835534 6:-0.505016 7:0.100956 8:-0.515936 
1 1:-0.377333 2:-0.45098 3:-0.670838 4:-0.681564 5:-0.860927 6:-0.681302 7:0.098831 8:-0.51992 
1 1:-0.0690473 2:-0.803922 3:-0.589501 4:-0.674426 5:-0.810365 6:-0.651044 7:0.098831 8:-0.523904 
1 1:-0.359912 2:0.764706 3:-0.934992 4:-0.935444 5:-0.971468 6:-0.931919 7:0.0839532 8:-0.515936 
1 1:0.0805092 2:-0.0980392 3:-0.839056 4:-0.868715 5:-0.939572 6:-0.868772 7:0.088204 8:-0.517928 
1 1:-0.0598612 2:-0.529412 3:-0.809756 4:-0.828057 5:-0.91104 6:-0.816478 7:0.0945802 8:-0.515936 
1 1:-0.172494 2:-0.333333 3:-0.623836 4:-0.647424 5:-0.824939 6:-0.633613 7:0.088204 8:-0.511952 
1 1:-0.0729507 2:-0.137255 3:-0.915916 4:-0.931099 5:-0.960593 6:-0.928301 7:0.0924548 8:-0.515936 
1 1:-0.194852 2:-0.568627 3:-0.619106 4:-0.625698 5:-0.81356 6:-0.626706 7:0.0924548 8:-0.50996 
1 1:-0.0575164 2:-0.137255 3:-0.886464 4:-0.916511 5:-0.952297 6:-0.906265 7:0.0924548 8:-0.507968 
1 1:-0.201128 2:-0.176471 3:-0.903556 4:-0.926133 5:-0.959024 6:-0.91975 7:0.0924548 8:-0.50996 
1 1:-0.16946 2:-0.411765 3:-0.793072 4:-0.806642 5:-0.913675 6:-0.810557 7:0.0903294 8:-0.507968 
1 1:-0.178977 2:-0.0588235 3:-0.885956 4:-0.90689 5:-0.947644 6:-0.893767 7:0.0903294 8:-0.507968 
1 1:-0.16848 2:-0.294118 3:-0.896638 4:-0.910925 5:-0.952409 6:-0.903305 7:0.0903294 8:-0.50996 
1 1:-0.0670474 2:-0.45098 3:-0.891754 4:-0.91558 5:-0.951064 6:-0.906594 7:0.0903294 8:-0.511952 
1 1:-0.0434063 2:-0.764706 3:-0.514828 4:-0.598696 5:-0.780095 6:-0.596119 7:0.0903294 8:-0.511952 
1 1:0.441456 2:-0.254902 3:-0.933516 4:-0.943203 5:-0.971356 6:-0.943759 7:0.0839532 8:-0.507968 
1 1:-0.0939159 2:-0.529412 3:-0.719365 4:-0.741775 5:-0.863169 6:-0.728992 7:0.0690755 8:-0.505976 
1 1:-0.129212 2:-0.882353 3:-0.760059 4:-0.770329 5:-0.893943 6:-0.75629 7:0.0924548 8:-0.501992 
1 1:-0.291044 2:-0.490196 3:-0.784628 4:-0.782744 5:-0.897419 6:-0.782273 7:0.088204 8:-0.501992 
1 1:-0.495207 2:-0.176471 3:-0.81525 4:-0.794227 5:-0.90493 6:-0.789837 7:0.088204 8:-0.503984 
1 1:-0.275596 2:0.0196078 3:-0.920291 4:-0.925202 5:-0.967488 6:-0.929946 7:0.088204 8:-0.505976 
1 1:-0.290796 2:-0.529412 3:-0.329569 4:-0.356611 5:-0.728468 6:-0.358987 7:0.088204 8:-0.5 
1 1:0.354519 2:0.647059 3:-0.988504 4:-0.987896 5:-0.995516 6:-0.986515 7:0.100956 8:-0.501992 
1 1:-0.469345 2:0.803922 3:-0.993642 4:-0.993172 5:-0.997309 6:-0.993422 7:0.103082 8:-0.496016 
1 1:-0.147212 2:-0.529412 3:-0.510708 4:-0.583178 5:-0.754141 6:-0.542838 7:0.0967056 8:-0.503984 
1 1:-0.0539579 2:-0.411765 3:-0.781881 4:-0.828367 5:-0.890748 6:-0.810886 7:0.0860786 8:-0.486056 
1 1:-0.279458 2:-0.0196078 3:-0.909253 4:-0.905338 5:-0.956949 6:-0.908568 7:0.077577 8:-0.456175 
1 1:-0.227266 2:-0.372549 3:-0.915102 4:-0.891061 5:-0.959304 6:-0.917448 7:0.0967056 8:-0.476096 
1 1:0.193528 2:-0.0588235 3:-0.974973 4:-0.975171 5:-0.98593 6:-0.972373 7:0.105207 8:-0.486056 
1 1:-0.190273 2:-0.803922 3:-0.84633 4:-0.839541 5:-0.9315 6:-0.846407 7:0.0903294 8:-0.484064 
-1 1:-0.731024 2:-0.372549 3:-0.930719 4:-0.912787 5:-0.981221 6:-0.950337 7:0.30712 8:-0.0896414 
-1 1:-0.759755 2:-0.45098 3:-0.895264 4:-0.85599 5:-0.968048 6:-0.935866 7:0.313496 8:-0.119522 
-1 1:-0.591592 2:-0.490196 3:-0.819777 4:-0.782433 5:-0.94714 6:-0.865154 7:0.262487 8:-0.24502 
-1 1:-0.655163 2:-0.529412 3:-0.850348 4:-0.827126 5:-0.939012 6:-0.847065 7:0.256111 8:-0.250996 
-1 1:-0.721259 2:-0.372549 3:-0.884277 4:-0.853197 5:-0.957174 6:-0.883243 7:0.256111 8:-0.243028 
-1 1:-0.744141 2:-0.333333 3:-0.920545 4:-0.88951 5:-0.965526 6:-0.909225 7:0.25186 8:-0.243028 
-1 1:-0.653439 2:-0.45098 3:-0.776133 4:-0.723774 5:-0.938339 6:-0.857918 7:0.277365 8:-0.183267 
-1 1:-0.786196 2:0.294118 3:-0.942469 4:-0.921477 5:-0.972421 6:-0.938826 7:0.275239 8:-0.290837 
-1 1:-0.637922 2:-0.137255 3:-0.949184 4:-0.939789 5:-0.979484 6:-0.948693 7:0.268863 8:-0.292829 
-1 1:-0.703439 2:-0.647059 3:-0.909405 4:-0.895717 5:-0.964405 6:-0.914159 7:0.266738 8:-0.262948 
-1 1:-0.717563 2:-0.0588235 3:-0.93021 4:-0.908132 5:-0.96334 6:-0.905608 7:0.256111 8:-0.308765 
-1 1:-0.477 2:-0.529412 3:-0.925174 4:-0.918063 5:-0.966703 6:-0.925341 7:0.253985 8:-0.270916 
-1 1:-0.608364 2:-0.45098 3:-0.936619 4:-0.927685 5:-0.970515 6:-0.929288 7:0.266738 8:-0.318725 
-1 1:-0.475456 2:-0.411765 3:-0.911186 4:-0.900372 5:-0.723815 6:-0.905937 7:0.249734 8:-0.326693 
-1 1:-0.681025 2:0.0588235 3:-0.796734 4:-0.76288 5:-0.909695 6:-0.770761 7:0.239107 8:-0.306773 
-1 1:-0.579192 2:0.0196078 3:-0.823541 4:-0.797641 5:-0.899661 6:-0.802993 7:0.232731 8:-0.328685 
-1 1:-0.619454 2:-0.333333 3:-0.858131 4:-0.84761 5:-0.93363 6:-0.856274 7:0.22848 8:-0.308765 
-1 1:-0.614654 2:-0.529412 3:-0.894094 4:-0.860956 5:-0.953418 6:-0.900016 7:0.215728 8:-0.318725 
-1 1:-0.631026 2:-0.333333 3:-0.891042 4:-0.869957 5:-0.944954 6:-0.875021 7:0.245484 8:-0.26494 
-1 1:-0.709259 2:-0.137255 3:-0.921868 4:-0.905649 5:-0.959248 6:-0.912514 7:0.249734 8:-0.262948 
-1 1:-0.693287 2:-0.294118 3:-0.833918 4:-0.809745 5:-0.929987 6:-0.814175 7:0.236982 8:-0.270916 
-1 1:-0.639412 2:-0.568627 3:-0.500025 4:-0.404097 5:-0.739847 6:-0.416543 7:0.534538 8:-0.498008 
-1 1:-0.654225 2:-0.137255 3:-0.694389 4:-0.653942 5:-0.848258 6:-0.622431 7:0.534538 8:-0.496016 
-1 1:-0.642681 2:-0.568627 3:-0.610814 4:-0.510552 5:-0.796799 6:-0.508962 7:0.538789 8:-0.503984 
-1 1:-0.801892 2:-0.372549 3:-0.731879 4:-0.635009 5:-0.863057 6:-0.605986 7:0.536663 8:-0.501992 
-1 1:-0.749576 2:-0.490196 3:-0.880513 4:-0.807883 5:-0.932061 6:-0.820095 7:0.534538 8:-0.5 
-1 1:-0.791796 2:-0.294118 3:-0.63111 4:-0.446307 5:-0.774265 6:-0.452064 7:0.534538 8:-0.503984 
-1 1:-0.585564 2:-0.333333 3:-0.91612 4:-0.904407 5:-0.952185 6:-0.903963 7:0.532412 8:-0.503984 
-1 1:-0.819368 2:0.490196 3:-0.971209 4:-0.960894 5:-0.985201 6:-0.957902 7:0.532412 8:-0.501992 
-1 1:-0.754017 2:0.490196 3:-0.942164 4:-0.918063 5:-0.965246 6:-0.913501 7:0.530287 8:-0.501992 
-1 1:-0.853326 2:0.568627 3:-0.852536 4:-0.786468 5:-0.920233 6:-0.792468 7:0.530287 8:-0.501992 
-1 1:-0.939394 2:-0.372549 3:-0.825881 4:-0.743637 5:-0.861767 6:-0.751028 7:0.528162 8:-0.501992 
-1 1:-0.916967 2:-0.529412 3:-0.822371 4:-0.738672 5:-0.912105 6:-0.742477 7:0.530287 8:-0.503984 
-1 1:-0.830554 2:0.0980392 3:-0.778219 4:-0.673495 5:-0.885086 6:-0.671436 7:0.532412 8:-0.5 
-1 1:-0.756941 2:0.647059 3:-0.848721 4:-0.814401 5:-0.933967 6:-0.816149 7:0.530287 8:-0.5 
-1 1:-0.651674 2:0.0980392 3:-0.606185 4:-0.573557 5:-0.814289 6:-0.55139 7:0.532412 8:-0.496016 
-1 1:-0.627357 2:0.411765 3:-0.886362 4:-0.884854 5:-0.94557 6:-0.875678 7:0.532412 8:-0.496016 
-1 1:-0.639646 2:-0.607843 3:-0.633247 4:-0.579764 5:-0.817203 6:-0.584608 7:0.532412 8:-0.492032 
-1 1:-0.646543 2:-0.72549 3:-0.710667 4:-0.631285 5:-0.838336 6:-0.646111 7:0.528162 8:-0.49004 
-1 1:-0.752748 2:0.686275 3:-0.851417 4:-0.795779 5:-0.923316 6:-0.794442 7:0.528162 8:-0.496016 
-1 1:-0.837271 2:1 3:-0.965665 4:-0.953135 5:-0.978923 6:-0.949679 7:0.528162 8:-0.5 
-1 1:-0.932815 2:1 3:-0.956508 4:-0.928305 5:-0.971019 6:-0.935208 7:0.528162 8:-0.5 
-1 1:-0.937008 2:1 3:-0.925988 4:-0.879578 5:-0.955212 6:-0.887847 7:0.526036 8:-0.5 
-1 1:-0.880374 2:1 3:-0.951422 4:-0.918684 5:-0.971412 6:-0.926986 7:0.528162 8:-0.5 
-1 1:-0.79221 2:1 3:-0.911542 4:-0.875854 5:-0.957958 6:-0.876336 7:0.528162 8:-0.498008 
-1 1:-0.835699 2:-0.333333 3:-0.630195 4:-0.516449 5:-0.718658 6:-0.499096 7:0.526036 8:-0.501992 
-1 1:-0.836857 2:1 3:-0.903963 4:-0.869957 5:-0.94557 6:-0.874363 7:0.526036 8:-0.498008 
-1 1:-0.850154 2:-0.215686 3:-0.743171 4:-0.673184 5:-0.834917 6:-0.678013 7:0.521785 8:-0.494024 
-1 1:-0.828595 2:0.254902 3:-0.886057 4:-0.839851 5:-0.935144 6:-0.852656 7:0.528162 8:-0.496016 
-1 1:-0.861174 2:0.607843 3:-0.848619 4:-0.784916 5:-0.89484 6:-0.77701 7:0.526036 8:-0.496016 
-1 1:-0.78912 2:-0.333333 3:-0.937942 4:-0.922719 5:-0.960481 6:-0.90791 7:0.523911 8:-0.494024 
-1 1:-0.576061 2:-0.411765 3:-0.926192 4:-0.907511 5:-0.949494 6:-0.906265 7:0.540914 8:-0.525896 
-1 1:-0.678529 2:-0.0588235 3:-0.888092 4:-0.869336 5:-0.938003 6:-0.867785 7:0.509033 8:-0.492032 
-1 1:-0.740224 2:-0.0980392 3:-0.92202 4:-0.913718 5:-0.959472 6:-0.91087 7:0.498406 8:-0.48008 
-1 1:-0.646543 2:-0.254902 3:-0.925581 4:-0.914029 5:-0.958407 6:-0.918106 7:0.498406 8:-0.511952 
-1 1:-0.69457 2:-0.411765 3:-0.854265 4:-0.826816 5:-0.932734 6:-0.852656 7:0.560043 8:-0.482072 
-1 1:-0.737535 2:-0.372549 3:-0.956458 4:-0.918994 5:-0.997534 6:-0.991449 7:0.5983 8:-0.440239 
-1 1:-0.751217 2:-0.176471 3:-0.925429 4:-0.911856 5:-0.965918 6:-0.923039 7:0.579171 8:-0.434263 
-1 1:-0.673687 2:-0.490196 3:-0.922427 4:-0.916822 5:-0.962891 6:-0.914488 7:0.555792 8:-0.450199 
-1 1:-0.759727 2:-0.411765 3:-0.76657 4:-0.719739 5:-0.893439 6:-0.733268 7:0.549416 8:-0.448207 
-1 1:-0.730514 2:-0.647059 3:-0.911491 4:-0.905028 5:-0.959752 6:-0.897714 7:0.543039 8:-0.452191 
-1 1:-0.718969 2:-0.607843 3:-0.805026 4:-0.774674 5:-0.918552 6:-0.783917 7:0.540914 8:-0.456175 
-1 1:-0.744721 2:-0.568627 3:-0.900504 4:-0.885785 5:-0.95112 6:-0.883901 7:0.54729 8:-0.450199 
-1 1:-0.750624 2:-0.568627 3:-0.809655 4:-0.783364 5:-0.914291 6:-0.783259 7:0.549416 8:-0.452191 
-1 1:-0.708307 2:-0.607843 3:-0.797955 4:-0.774674 5:-0.909919 6:-0.791811 7:0.54729 8:-0.458167 
-1 1:-0.714887 2:-0.333333 3:-0.864184 4:-0.834885 5:-0.935648 6:-0.825358 7:0.540914 8:-0.452191 
-1 1:-0.844816 2:-0.254902 3:-0.962307 4:-0.947238 5:-0.978026 6:-0.945075 7:0.540914 8:-0.450199 
-1 1:-0.875188 2:-0.411765 3:-0.860013 4:-0.823402 5:-0.940581 6:-0.82174 7:0.538789 8:-0.450199 
-1 1:-0.767741 2:-0.333333 3:-0.952032 4:-0.936685 5:-0.978587 6:-0.932248 7:0.538789 8:-0.450199 
-1 1:-0.810334 2:-0.0196078 3:-0.923648 4:-0.893855 5:-0.960985 6:-0.902976 7:0.536663 8:-0.452191 
-1 1:-0.660267 2:-0.0588235 3:-0.918104 4:-0.903166 5:-0.95325 6:-0.900674 7:0.536663 8:-0.454183 
-1 1:-0.698983 2:0.0588235 3:-0.914797 4:-0.898821 5:-0.957006 6:-0.898701 7:0.538789 8:-0.458167 
-1 1:-0.76672 2:-0.137255 3:-0.959917 4:-0.95779 5:-0.979708 6:-0.950337 7:0.543039 8:-0.446215 
-1 1:-0.786775 2:-0.333333 3:-0.887125 4:-0.857852 5:-0.946803 6:-0.855616 7:0.538789 8:-0.446215 
-1 1:-0.750776 2:-0.0980392 3:-0.92202 4:-0.914649 5:-0.962947 6:-0.910541 7:0.536663 8:-0.450199 
-1 1:-0.684639 2:-0.294118 3:-0.866016 4:-0.837989 5:-0.933799 6:-0.847394 7:0.540914 8:-0.448207 
-1 1:-0.780927 2:-0.254902 3:-0.929701 4:-0.920546 5:-0.968945 6:-0.924026 7:0.534538 8:-0.446215 
-1 1:-0.640529 2:-0.294118 3:-0.873595 4:-0.849783 5:-0.937947 6:-0.85134 7:0.534538 8:-0.448207 
-1 1:-0.822402 2:-0.333333 3:-0.914848 4:-0.897269 5:-0.95908 6:-0.895741 7:0.534538 8:-0.448207 
-1 1:-0.765507 2:-0.254902 3:-0.953914 4:-0.936375 5:-0.973206 6:-0.930932 7:0.532412 8:-0.450199 
-1 1:-0.746155 2:-0.137255 3:-0.884989 4:-0.846058 5:-0.936377 6:-0.850682 7:0.536663 8:-0.452191 
-1 1:-0.817299 2:-0.176471 3:-0.875629 4:-0.827747 5:-0.935312 6:-0.817464 7:0.534538 8:-0.452191 
-1 1:-0.718225 2:0.176471 3:-0.876443 4:-0.841403 5:-0.942655 6:-0.859891 7:0.534538 8:-0.454183 
-1 1:-0.818954 2:-0.137255 3:-0.910626 4:-0.886716 5:-0.955997 6:-0.882256 7:0.536663 8:-0.456175 
-1 1:-0.655163 2:0.176471 3:-0.918765 4:-0.901614 5:-0.95566 6:-0.900674 7:0.534538 8:-0.462151 
-1 1:-0.680239 2:-0.176471 3:-0.867949 4:-0.850714 5:-0.935648 6:-0.839171 7:0.534538 8:-0.458167 
-1 1:-0.823602 2:-0.490196 3:-0.895163 4:-0.826816 5:-0.947812 6:-0.826344 7:0.534538 8:-0.456175 
-1 1:-0.922401 2:-0.254902 3:-0.940434 4:-0.919305 5:-0.970851 6:-0.915474 7:0.532412 8:-0.456175 
-1 1:-0.812182 2:0.411765 3:-0.934178 4:-0.908442 5:-0.968273 6:-0.915803 7:0.532412 8:-0.458167 
-1 1:-0.741907 2:-0.254902 3:-0.908134 4:-0.896648 5:-0.957398 6:-0.89015 7:0.530287 8:-0.460159 
-1 1:-0.64606 2:-0.372549 3:-0.860318 4:-0.827747 5:-0.934359 6:-0.831278 7:0.523911 8:-0.474104 
-1 1:-0.660336 2:-0.372549 3:-0.821964 4:-0.79702 5:-0.901343 6:-0.798717 7:0.513284 8:-0.464143 
-1 1:-0.740707 2:-0.372549 3:-0.916374 4:-0.89789 5:-0.958127 6:-0.88719 7:0.530287 8:-0.450199 
-1 1:-0.79632 2:-0.294118 3:-0.853197 4:-0.816884 5:-0.94501 6:-0.836211 7:0.532412 8:-0.452191 
-1 1:-0.7385 2:-0.45098 3:-0.914797 4:-0.893234 5:-0.952857 6:-0.891794 7:0.517535 8:-0.452191 
-1 1:-0.835188 2:-0.45098 3:-0.903657 4:-0.873681 5:-0.950111 6:-0.890479 7:0.549416 8:-0.432271 
-1 1:-0.739369 2:-0.372549 3:-0.919579 4:-0.897579 5:-0.959248 6:-0.899688 7:0.526036 8:-0.414343 
-1 1:-0.670736 2:-0.176471 3:-0.856249 4:-0.810987 5:-0.944898 6:-0.871732 7:0.502657 8:-0.410359 
-1 1:-0.742279 2:0.333333 3:-0.967954 4:-0.954376 5:-0.98778 6:-0.966782 7:0.511158 8:-0.380478 
-1 1:-0.863492 2:-0.372549 3:-0.924666 4:-0.912166 5:-0.973206 6:-0.930932 7:0.489904 8:-0.370518 
-1 1:-0.739066 2:-0.45098 3:-0.873442 4:-0.836747 5:-0.931276 6:-0.836869 7:0.483528 8:-0.404382 
-1 1:-0.824706 2:-0.686275 3:-0.958492 4:-0.939168 5:-0.9801 6:-0.935537 7:0.483528 8:-0.444223 
-1 1:-0.830223 2:-0.0196078 3:-0.900554 4:-0.867163 5:-0.947196 6:-0.869758 7:0.483528 8:-0.444223 
-1 1:-0.851423 2:-0.568627 3:-0.911949 4:-0.869646 5:-0.895849 6:-0.863838 7:0.485654 8:-0.444223 
-1 1:-0.772858 2:-0.45098 3:-0.955033 4:-0.936996 5:-0.96788 6:-0.932906 7:0.500531 8:-0.440239 
-1 1:-0.530641 2:-0.0588235 3:-0.956966 4:-0.952824 5:-0.975728 6:-0.94935 7:0.483528 8:-0.430279 
-1 1:-0.649012 2:-0.0196078 3:-0.916069 4:-0.899441 5:-0.955884 6:-0.904292 7:0.479277 8:-0.420319 
-1 1:-0.625178 2:-0.372549 3:-0.921054 4:-0.925202 5:-0.96917 6:-0.924683 7:0.477152 8:-0.426295 
-1 1:-0.697632 2:-0.294118 3:-0.810875 4:-0.802917 5:-0.927072 6:-0.800691 7:0.481403 8:-0.426295 
-1 1:-0.446118 2:0.333333 3:-0.908235 4:-0.909373 5:-0.961882 6:-0.903305 7:0.485654 8:-0.438247 
-1 1:-0.726597 2:0.137255 3:-0.947708 4:-0.950341 5:-0.975055 6:-0.948035 7:0.483528 8:-0.438247 
-1 1:-0.659467 2:-0.0980392 3:-0.94781 4:-0.942893 5:-0.973766 6:-0.939155 7:0.483528 8:-0.438247 
-1 1:-0.723852 2:0.254902 3:-0.817743 4:-0.765363 5:-0.894392 6:-0.748726 7:0.481403 8:-0.440239 
-1 1:-0.747024 2:0.137255 3:-0.843176 4:-0.810987 5:-0.905547 6:-0.811215 7:0.481403 8:-0.436255 
-1 1:-0.788168 2:0.490196 3:-0.921207 4:-0.890751 5:-0.961826 6:-0.898372 7:0.481403 8:-0.442231 
-1 1:-0.958276 2:0.843137 3:-0.958034 4:-0.938858 5:-0.97797 6:-0.947377 7:0.481403 8:-0.442231 
-1 1:-0.908856 2:0.921569 3:-0.946691 4:-0.910925 5:-0.972981 6:-0.914817 7:0.481403 8:-0.442231 
-1 1:-0.880622 2:0.803922 3:-0.945979 4:-0.924271 5:-0.966367 6:-0.937839 7:0.481403 8:-0.444223 
-1 1:-0.843409 2:0.764706 3:-0.904217 4:-0.880819 5:-0.951344 6:-0.886203 7:0.481403 8:-0.444223 
-1 1:-0.852209 2:0.176471 3:-0.897197 4:-0.854749 5:-0.940021 6:-0.856931 7:0.479277 8:-0.446215 
-1 1:-0.793699 2:-0.0588235 3:-0.877562 4:-0.848231 5:-0.922588 6:-0.842789 7:0.483528 8:-0.448207 
-1 1:-0.842899 2:-0.0980392 3:-0.905234 4:-0.884854 5:-0.939236 6:-0.873705 7:0.481403 8:-0.448207 
-1 1:-0.770224 2:0.0980392 3:-0.901063 4:-0.88144 5:-0.948317 6:-0.889492 7:0.479277 8:-0.448207 
-1 1:-0.843492 2:-0.333333 3:-0.893026 4:-0.871198 5:-0.94557 6:-0.873705 7:0.479277 8:-0.456175 
-1 1:-0.811561 2:-0.0980392 3:-0.918205 4:-0.899752 5:-0.949214 6:-0.894096 7:0.483528 8:-0.454183 
-1 1:-0.86436 2:-0.137255 3:-0.929549 4:-0.899441 5:-0.964293 6:-0.905279 7:0.485654 8:-0.462151 
-1 1:-0.955132 2:-0.45098 3:-0.989827 4:-0.983551 5:-0.99204 6:-0.987173 7:0.475027 8:-0.446215 
-1 1:-0.922953 2:-0.0196078 3:-0.836563 4:-0.743637 5:-0.885759 6:-0.757935 7:0.479277 8:-0.442231 
-1 1:-0.885657 2:0.45098 3:-0.926955 4:-0.904097 5:-0.956501 6:-0.909883 7:0.479277 8:-0.440239 
-1 1:-0.85774 2:-0.294118 3:-0.921919 4:-0.8982 5:-0.965582 6:-0.910212 7:0.477152 8:-0.438247 
-1 1:-0.82003 2:0.0980392 3:-0.85279 4:-0.815332 5:-0.898764 6:-0.797402 7:0.475027 8:-0.440239 
-1 1:-0.72479 2:-0.490196 3:-0.912407 4:-0.902545 5:-0.947532 6:-0.901003 7:0.472901 8:-0.440239 
-1 1:-0.764886 2:0.568627 3:-0.976652 4:-0.967101 5:-0.984248 6:-0.970728 7:0.475027 8:-0.442231 
-1 1:-0.655646 2:-0.254902 3:-0.872679 4:-0.855059 5:-0.934359 6:-0.859234 7:0.477152 8:-0.430279 
-1 1:-0.616088 2:0.254902 3:-0.925734 4:-0.925512 5:-0.968273 6:-0.924355 7:0.479277 8:-0.436255 
-1 1:-0.70257 2:0.137255 3:-0.938196 4:-0.926443 5:-0.962219 6:-0.923697 7:0.477152 8:-0.436255 
-1 1:-0.786817 2:-0.215686 3:-0.866423 4:-0.846989 5:-0.923709 6:-0.846407 7:0.475027 8:-0.436255 
-1 1:-0.881215 2:-0.333333 3:-0.884226 4:-0.837989 5:-0.933743 6:-0.844105 7:0.46865 8:-0.442231 
-1 1:-0.709356 2:-0.0196078 3:-0.93194 4:-0.921167 5:-0.96306 6:-0.921723 7:0.466525 8:-0.438247 
-1 1:-0.824444 2:0.176471 3:-0.927158 4:-0.912477 5:-0.954707 6:-0.905279 7:0.466525 8:-0.442231 
-1 1:-0.743907 2:-0.45098 3:-0.892314 4:-0.879578 5:-0.939684 6:-0.877323 7:0.4644 8:-0.436255 
-1 1:-0.734473 2:-0.372549 3:-0.813978 4:-0.772191 5:-0.889739 6:-0.780957 7:0.458023 8:-0.424303 
-1 1:-0.652294 2:1 3:-0.990488 4:-0.989758 5:-0.993385 6:-0.98816 7:0.455898 8:-0.410359 
-1 1:-0.719811 2:0.0196078 3:-0.963477 4:-0.953755 5:-0.980044 6:-0.954942 7:0.443146 8:-0.440239 
-1 1:-0.768596 2:-0.176471 3:-0.872171 4:-0.850714 5:-0.928193 6:-0.84838 7:0.455898 8:-0.450199 
-1 1:-0.793879 2:0.0196078 3:-0.867898 4:-0.844507 5:-0.930603 6:-0.835224 7:0.451647 8:-0.466135 
-1 1:-0.826858 2:-0.0980392 3:-0.949082 4:-0.922408 5:-0.938619 6:-0.92567 7:0.447396 8:-0.462151 
-1 1:-0.701963 2:-0.176471 3:-0.938196 4:-0.930788 5:-0.970066 6:-0.938826 7:0.445271 8:-0.466135 
-1 1:-0.684253 2:0.529412 3:-0.958797 4:-0.952514 5:-0.979203 6:-0.953626 7:0.44102 8:-0.462151 
-1 1:-0.748624 2:0.0980392 3:-0.887176 4:-0.854128 5:-0.934583 6:-0.859563 7:0.449522 8:-0.47012 
-1 1:-0.822265 2:0.215686 3:-0.905896 4:-0.884544 5:-0.949102 6:-0.880283 7:0.451647 8:-0.472112 
-1 1:-0.805506 2:0.764706 3:-0.938552 4:-0.924891 5:-0.970851 6:-0.920737 7:0.449522 8:-0.472112 
-1 1:-0.786555 2:0.411765 3:-0.881581 4:-0.846679 5:-0.915805 6:-0.845749 7:0.449522 8:-0.472112 
-1 1:-0.815782 2:0.294118 3:-0.957271 4:-0.942582 5:-0.964573 6:-0.946062 7:0.449522 8:-0.47012 
-1 1:-0.748362 2:0.0196078 3:-0.86805 4:-0.865301 5:-0.938507 6:-0.865812 7:0.453773 8:-0.48008 
-1 1:-0.720556 2:0.137255 3:-0.948268 4:-0.94072 5:-0.972084 6:-0.939484 7:0.443146 8:-0.492032 
-1 1:-0.754293 2:-0.215686 3:-0.92726 4:-0.912166 5:-0.951848 6:-0.909883 7:0.462274 8:-0.474104 
-1 1:-0.769258 2:-0.176471 3:-0.907828 4:-0.894165 5:-0.94742 6:-0.894096 7:0.460149 8:-0.474104 
-1 1:-0.724914 2:0.0980392 3:-0.914289 4:-0.898821 5:-0.951736 6:-0.890479 7:0.458023 8:-0.482072 
-1 1:-0.600971 2:0.490196 3:-0.943893 4:-0.944444 5:-0.977298 6:-0.945733 7:0.475027 8:-0.49004 
-1 1:-0.740459 2:-0.411765 3:-0.785391 4:-0.757914 5:-0.915188 6:-0.77109 7:0.192349 8:-0.2251 
-1 1:-0.724128 2:-0.647059 3:-0.920444 4:-0.899441 5:-0.956165 6:-0.904621 7:0.185972 8:-0.243028 
-1 1:-0.742693 2:0.294118 3:-0.860471 4:-0.826816 5:-0.935704 6:-0.838842 7:0.179596 8:-0.24502 
-1 1:-0.668087 2:0.0196078 3:-0.939112 4:-0.930788 5:-0.974215 6:-0.934879 7:0.175345 8:-0.243028 
-1 1:-0.753438 2:0.411765 3:-0.962663 4:-0.954376 5:-0.981165 6:-0.954284 7:0.175345 8:-0.241036 
-1 1:-0.655163 2:-0.411765 3:-0.808942 4:-0.778399 5:-0.900558 6:-0.79806 7:0.179596 8:-0.2251 
-1 1:-0.657632 2:-0.294118 3:-0.949082 4:-0.927374 5:-0.97001 6:-0.937839 7:0.211477 8:-0.290837 
-1 1:-0.786582 2:-0.411765 3:-0.841396 4:-0.801366 5:-0.926231 6:-0.827331 7:0.202976 8:-0.312749 
-1 1:-0.774031 2:-0.215686 3:-0.842667 4:-0.788951 5:-0.924998 6:-0.820753 7:0.219979 8:-0.262948 
-1 1:-0.717604 2:0.215686 3:-0.863523 4:-0.831782 5:-0.940693 6:-0.838513 7:0.211477 8:-0.276892 
-1 1:-0.787341 2:-0.372549 3:-0.849178 4:-0.810677 5:-0.922419 6:-0.814833 7:0.20085 8:-0.266932 
-1 1:-0.704583 2:-0.529412 3:-0.791037 4:-0.73743 5:-0.899493 6:-0.76813 7:0.202976 8:-0.247012 
-1 1:-0.72988 2:-0.529412 3:-0.96129 4:-0.950341 5:-0.982735 6:-0.959217 7:0.213603 8:-0.219124 
-1 1:-0.701135 2:-0.254902 3:-0.932652 4:-0.905028 5:-0.968609 6:-0.922381 7:0.243358 8:-0.24502 
-1 1:-0.714928 2:-0.215686 3:-0.927107 4:-0.909063 5:-0.962723 6:-0.912514 7:0.247609 8:-0.241036 
-1 1:-0.691797 2:-0.333333 3:-0.851976 4:-0.794538 5:-0.944169 6:-0.865154 7:0.249734 8:-0.217131 
-1 1:-0.651853 2:-0.372549 3:-0.925683 4:-0.895407 5:-0.970515 6:-0.925999 7:0.230606 8:-0.215139 
-1 1:-0.844816 2:-0.333333 3:-0.928328 4:-0.903476 5:-0.966983 6:-0.924683 7:0.226355 8:-0.243028 
-1 1:-0.757176 2:-0.372549 3:-0.923597 4:-0.889199 5:-0.963116 6:-0.918106 7:0.234857 8:-0.247012 
-1 1:-0.551717 2:-0.647059 3:-0.808993 4:-0.776226 5:-0.969562 6:-0.926986 7:0.209352 8:-0.201195 
-1 1:-0.657632 2:-0.372549 3:-0.720484 4:-0.672564 5:-0.944281 6:-0.86614 7:0.213603 8:-0.201195 
-1 1:-0.719273 2:-0.529412 3:-0.771453 4:-0.734637 5:-0.935761 6:-0.849367 7:0.213603 8:-0.207171 
-1 1:-0.606309 2:-0.647059 3:-0.822778 4:-0.784606 5:-0.983464 6:-0.959546 7:0.222104 8:-0.187251 
-1 1:-0.644819 2:-0.529412 3:-0.832392 4:-0.794848 5:-0.985201 6:-0.968426 7:0.226355 8:-0.187251 
-1 1:-0.637922 2:-0.607843 3:-0.920342 4:-0.885785 5:-0.995572 6:-0.989475 7:0.249734 8:-0.171315 
-1 1:-0.684942 2:0.843137 3:-0.944351 4:-0.932651 5:-0.96334 6:-0.934879 7:0.379384 8:-0.513944 
-1 1:-0.662212 2:0.490196 3:-0.921359 4:-0.900062 5:-0.954483 6:-0.906265 7:0.370882 8:-0.531873 
-1 1:-0.755107 2:-0.137255 3:-0.805178 4:-0.760087 5:-0.863673 6:-0.754646 7:0.373007 8:-0.557769 
-1 1:-0.694652 2:-0.372549 3:-0.672516 4:-0.626629 5:-0.817091 6:-0.624733 7:0.404888 8:-0.52988 
-1 1:-0.618957 2:0.0196078 3:-0.926548 4:-0.908752 5:-0.962611 6:-0.90791 7:0.419766 8:-0.539841 
-1 1:-0.652819 2:1 3:-0.988707 4:-0.988516 5:-0.993442 6:-0.985529 7:0.426142 8:-0.547809 
-1 1:-0.75861 2:-0.647059 3:-0.986571 4:-0.981068 5:-0.991536 6:-0.984213 7:0.394261 8:-0.59761 
-1 1:-0.637922 2:0.254902 3:-0.945979 4:-0.946307 5:-0.97584 6:-0.951982 7:0.404888 8:-0.571713 
-1 1:-0.747438 2:0.0588235 3:-0.788036 4:-0.722533 5:-0.855153 6:-0.733925 7:0.400638 8:-0.549801 
-1 1:-0.672405 2:0.686275 3:-0.945979 4:-0.928926 5:-0.972477 6:-0.942773 7:0.445271 8:-0.541833 
-1 1:-0.715507 2:0.333333 3:-0.858131 4:-0.828988 5:-0.921971 6:-0.843776 7:0.438895 8:-0.565737 
-1 1:-0.828085 2:-0.294118 3:-0.917239 4:-0.880509 5:-0.969282 6:-0.929946 7:0.436769 8:-0.633466 
-1 1:-0.756141 2:0.921569 3:-0.919121 4:-0.884854 5:-0.956389 6:-0.899359 7:0.417641 8:-0.533865 
-1 1:-0.716459 2:1 3:-0.898927 4:-0.878647 5:-0.944954 6:-0.870087 7:0.417641 8:-0.533865 
-1 1:-0.730211 2:0.490196 3:-0.938349 4:-0.922719 5:-0.963172 6:-0.918434 7:0.417641 8:-0.533865 
-1 1:-0.767645 2:0.490196 3:-0.964444 4:-0.959963 5:-0.984977 6:-0.971057 7:0.436769 8:-0.523904 
-1 1:-0.840623 2:0.686275 3:-0.948522 4:-0.930478 5:-0.960705 6:-0.922052 7:0.14559 8:-0.468127 
1 1:-0.116536 2:-0.843137 3:-0.253166 4:-0.301366 5:-0.760475 6:-0.433975 7:0.139214 8:-0.452191 
-1 1:-0.758169 2:0.764706 3:-0.88448 4:-0.846679 5:-0.93918 6:-0.853314 7:0.162593 8:-0.492032 
-1 1:-0.760527 2:0.803922 3:-0.901317 4:-0.866853 5:-0.939965 6:-0.871074 7:0.162593 8:-0.494024 
-1 1:-0.760527 2:0.764706 3:-0.991149 4:-0.986965 5:-0.994507 6:-0.987173 7:0.164718 8:-0.496016 
-1 1:-0.769382 2:0.607843 3:-0.94837 4:-0.921788 5:-0.955436 6:-0.912843 7:0.162593 8:-0.496016 
-1 1:-0.84843 2:0.921569 3:-0.94313 4:-0.913097 5:-0.965134 6:-0.921723 7:0.162593 8:-0.496016 
-1 1:-0.995021 2:0.764706 3:-0.996744 4:-0.993482 5:-0.998094 6:-0.993422 7:0.164718 8:-0.5 
-1 1:-0.693315 2:0.686275 3:-0.83814 4:-0.819988 5:-0.921747 6:-0.820095 7:0.162593 8:-0.492032 
-1 1:-0.705314 2:0.803922 3:-0.935755 4:-0.921477 5:-0.967264 6:-0.919092 7:0.162593 8:-0.496016 
-1 1:-0.676322 2:0.0980392 3:-0.894806 4:-0.860025 5:-0.944954 6:-0.862194 7:0.160468 8:-0.496016 
-1 1:-0.668267 2:0.411765 3:-0.861539 4:-0.820608 5:-0.921691 6:-0.822727 7:0.160468 8:-0.494024 
-1 1:-0.787424 2:-0.0980392 3:-0.884684 4:-0.819056 5:-0.930716 6:-0.822069 7:0.160468 8:-0.501992 
-1 1:-0.7173 2:-0.45098 3:-0.676331 4:-0.489448 5:-0.785028 6:-0.520802 7:0.160468 8:-0.498008 
-1 1:-0.832251 2:-0.72549 3:-0.869271 4:-0.77126 5:-0.922588 6:-0.775366 7:0.160468 8:-0.498008 
-1 1:-0.711811 2:0.372549 3:-0.942062 4:-0.927685 5:-0.968665 6:-0.930275 7:0.160468 8:-0.49004 
-1 1:-0.581123 2:0.294118 3:-0.860827 4:-0.852886 5:-0.926399 6:-0.849367 7:0.160468 8:-0.492032 
-1 1:-0.903105 2:0.372549 3:-0.92436 4:-0.897579 5:-0.953194 6:-0.915146 7:0.168969 8:-0.511952 
-1 1:-0.876429 2:1 3:-0.987792 4:-0.981999 5:-0.98963 6:-0.982569 7:0.168969 8:-0.503984 
-1 1:-0.695397 2:1 3:-0.884938 4:-0.86406 5:-0.921522 6:-0.843776 7:0.164718 8:-0.505976 
-1 1:-0.793093 2:1 3:-0.937789 4:-0.922719 5:-0.959528 6:-0.924355 7:0.166844 8:-0.507968 
-1 1:-0.792624 2:0.960784 3:-0.848415 4:-0.786468 5:-0.897531 6:-0.800362 7:0.166844 8:-0.511952 
-1 1:-0.713963 2:0.764706 3:-0.89267 4:-0.85568 5:-0.930155 6:-0.874692 7:0.164718 8:-0.507968 
-1 1:-0.608667 2:0.372549 3:-0.862404 4:-0.829609 5:-0.897755 6:-0.821082 7:0.164718 8:-0.50996 
-1 1:-0.636005 2:0.176471 3:-0.814741 4:-0.768777 5:-0.875221 6:-0.777339 7:0.164718 8:-0.505976 
-1 1:-0.654584 2:0.0588235 3:-0.814996 4:-0.767225 5:-0.867765 6:-0.789508 7:0.162593 8:-0.50996 
-1 1:-0.773548 2:-0.568627 3:-0.923953 4:-0.888579 5:-0.947308 6:-0.888176 7:0.164718 8:-0.511952 
-1 1:-0.503828 2:0.215686 3:-0.949234 4:-0.941962 5:-0.963003 6:-0.930604 7:0.162593 8:-0.50996 
-1 1:-0.58442 2:0.294118 3:-0.807874 4:-0.76257 5:-0.868102 6:-0.762868 7:0.162593 8:-0.511952 
-1 1:-0.863836 2:0.0196078 3:-0.915967 4:-0.851955 5:-0.936209 6:-0.862194 7:0.166844 8:-0.51992 
-1 1:-0.652957 2:0.333333 3:-0.863218 4:-0.832092 5:-0.921186 6:-0.834238 7:0.164718 8:-0.523904 
-1 1:-0.77912 2:-0.686275 3:-0.829188 4:-0.741775 5:-0.885759 6:-0.733925 7:0.164718 8:-0.521912 
-1 1:-0.684032 2:0.0980392 3:-0.706852 4:-0.637182 5:-0.817091 6:-0.628351 7:0.164718 8:-0.51992 
-1 1:-0.580185 2:-0.411765 3:-0.889415 4:-0.8563 5:-0.92113 6:-0.857589 7:0.166844 8:-0.515936 
-1 1:-0.712638 2:0.45098 3:-0.872679 4:-0.828367 5:-0.91076 6:-0.83654 7:0.168969 8:-0.525896 
-1 1:-0.604668 2:0.176471 3:-0.857165 4:-0.839541 5:-0.908237 6:-0.834896 7:0.171095 8:-0.527888 
-1 1:-0.631564 2:0.490196 3:-0.933313 4:-0.905338 5:-0.967936 6:-0.924355 7:0.162593 8:-0.553785 
-1 1:-0.533455 2:0.411765 3:-0.911491 4:-0.895096 5:-0.936938 6:-0.886861 7:0.164718 8:-0.549801 
1 1:-0.463787 2:-0.647059 3:-0.854418 4:-0.840782 5:-0.927296 6:-0.83358 7:0.158342 8:-0.553785 
1 1:-0.103985 2:-0.843137 3:-0.730353 4:-0.758535 5:-0.887104 6:-0.761223 7:0.154091 8:-0.549801 
1 1:-0.222756 2:-0.607843 3:-0.777761 4:-0.789572 5:-0.899829 6:-0.783259 7:0.156217 8:-0.553785 
1 1:-0.214866 2:0.0980392 3:-0.649372 4:-0.683116 5:-0.852518 6:-0.6642 7:0.147715 8:-0.549801 
-1 1:-0.620902 2:-0.411765 3:-0.843583 4:-0.772812 5:-0.919056 6:-0.767144 7:0.160468 8:-0.539841 
-1 1:-0.682156 2:-0.411765 3:-0.875731 4:-0.854749 5:-0.959752 6:-0.844433 7:0.158342 8:-0.543825 
-1 1:-0.745341 2:-0.411765 3:-0.944911 4:-0.932961 5:-0.980212 6:-0.924026 7:0.160468 8:-0.541833 
-1 1:-0.667618 2:-0.411765 3:-0.851925 4:-0.775916 5:-0.904594 6:-0.772406 7:0.151966 8:-0.539841 
-1 1:-0.712528 2:-0.215686 3:-0.672262 4:-0.429547 5:-0.797192 6:-0.429699 7:0.154091 8:-0.539841 
1 1:-0.228949 2:-0.72549 3:-0.803449 4:-0.833023 5:-0.913002 6:-0.831607 7:0.149841 8:-0.533865 
1 1:-0.148591 2:-0.0588235 3:-0.867084 4:-0.886096 5:-0.947756 6:-0.879954 7:0.151966 8:-0.535857 
1 1:-0.143984 2:-0.137255 3:-0.809807 4:-0.844817 5:-0.92511 6:-0.836211 7:0.147715 8:-0.533865 
1 1:-0.188839 2:-0.333333 3:-0.89445 4:-0.907821 5:-0.947644 6:-0.904292 7:0.147715 8:-0.533865 
1 1:-0.129033 2:-0.686275 3:-0.887482 4:-0.920857 5:-0.952633 6:-0.921723 7:0.149841 8:-0.531873 
1 1:-0.0220962 2:-0.0588235 3:-0.865202 4:-0.896338 5:-0.940637 6:-0.890479 7:0.14559 8:-0.533865 
1 1:-0.299623 2:-0.215686 3:-0.718246 4:-0.759466 5:-0.876062 6:-0.757935 7:0.147715 8:-0.537849 
1 1:-0.228714 2:-0.215686 3:-0.760415 4:-0.806642 5:-0.900782 6:-0.79806 7:0.14559 8:-0.537849 
1 1:-0.0384408 2:-0.0196078 3:-0.741849 4:-0.801676 5:-0.895232 6:-0.791153 7:0.143464 8:-0.535857 
1 1:-0.160729 2:-0.137255 3:-0.831324 4:-0.873681 5:-0.937162 6:-0.871074 7:0.143464 8:-0.537849 
1 1:-0.00859298 2:-0.215686 3:-0.486698 4:-0.606456 5:-0.795846 6:-0.599408 7:0.141339 8:-0.533865 
1 1:-0.374312 2:0.0980392 3:-0.723485 4:-0.729981 5:-0.87068 6:-0.707614 7:0.141339 8:-0.537849 
-1 1:-0.641343 2:-0.215686 3:-0.746528 4:-0.506828 5:-0.855826 6:-0.520802 7:0.137088 8:-0.543825 
1 1:-0.560916 2:0.254902 3:-0.921257 4:-0.914339 5:-0.964405 6:-0.91679 7:0.141339 8:-0.545817 
1 1:-0.372422 2:0.215686 3:-0.945419 4:-0.947548 5:-0.972925 6:-0.94343 7:0.139214 8:-0.547809 
1 1:-0.0911022 2:-0.333333 3:-0.512997 4:-0.548727 5:-0.804759 6:-0.546456 7:0.141339 8:-0.549801 
1 1:-0.201046 2:0.490196 3:-0.846584 4:-0.844817 5:-0.931612 6:-0.8395 7:0.137088 8:-0.547809 
1 1:-0.364174 2:0.0980392 3:-0.789867 4:-0.761328 5:-0.905379 6:-0.755632 7:0.139214 8:-0.547809 
1 1:-0.167198 2:0.294118 3:-0.756905 4:-0.782123 5:-0.89484 6:-0.765499 7:0.134963 8:-0.543825 
1 1:-0.142177 2:0.137255 3:-0.88331 4:-0.8982 5:-0.952689 6:-0.894425 7:0.132837 8:-0.541833 
1 1:-0.661701 2:-0.0980392 3:-0.790274 4:-0.683737 5:-0.90493 6:-0.713205 7:0.139214 8:-0.541833 
1 1:-0.427194 2:0.215686 3:-0.863981 4:-0.850093 5:-0.944898 6:-0.844762 7:0.139214 8:-0.541833 
1 1:-0.481028 2:0.411765 3:-0.914797 4:-0.916822 5:-0.961546 6:-0.907252 7:0.137088 8:-0.541833 
1 1:-0.0296686 2:0.254902 3:-0.87685 4:-0.900372 5:-0.944225 6:-0.886532 7:0.137088 8:-0.539841 
1 1:-0.405677 2:0.215686 3:-0.771301 4:-0.732775 5:-0.898259 6:-0.720441 7:0.139214 8:-0.541833 
1 1:-0.282948 2:-0.254902 3:-0.72201 4:-0.676288 5:-0.87068 6:-0.683605 7:0.139214 8:-0.539841 
1 1:-0.0344823 2:0.0980392 3:-0.677145 4:-0.734016 5:-0.862832 6:-0.74445 7:0.137088 8:-0.535857 
1 1:-0.428629 2:0.215686 3:-0.834783 4:-0.829609 5:-0.93122 6:-0.817135 7:0.134963 8:-0.539841 
1 1:-0.225928 2:0.0980392 3:-0.846228 4:-0.852266 5:-0.942151 6:-0.851669 7:0.130712 8:-0.537849 
1 1:0.253265 2:0.0196078 3:-0.692914 4:-0.758225 5:-0.877911 6:-0.750041 7:0.128587 8:-0.539841 
1 1:-0.213128 2:-0.137255 3:-0.869678 4:-0.892613 5:-0.941702 6:-0.884887 7:0.103082 8:-0.517928 
1 1:-0.60344 2:-0.72549 3:-0.957831 4:-0.928616 5:-0.977522 6:-0.926657 7:0.103082 8:-0.517928 
1 1:-0.119916 2:-0.411765 3:-0.830917 4:-0.870267 5:-0.928866 6:-0.868114 7:0.105207 8:-0.517928 
1 1:-0.155805 2:-0.411765 3:-0.73961 4:-0.772191 5:-0.862048 6:-0.750041 7:0.107333 8:-0.51992 
1 1:-0.156812 2:-0.372549 3:-0.710769 4:-0.744569 5:-0.881835 6:-0.746094 7:0.115834 8:-0.525896 
1 1:-0.0141653 2:-0.372549 3:-0.829493 4:-0.869336 5:-0.918495 6:-0.860549 7:0.11796 8:-0.527888 
1 1:0.0558613 2:-0.411765 3:-0.873035 4:-0.89789 5:-0.942599 6:-0.887519 7:0.11796 8:-0.527888 
1 1:-0.297637 2:-0.333333 3:-0.852434 4:-0.880199 5:-0.936994 6:-0.877981 7:0.120085 8:-0.527888 
1 1:0.0784541 2:-0.568627 3:-0.670075 4:-0.758845 5:-0.865411 6:-0.748726 7:0.120085 8:-0.523904 
1 1:0.0230066 2:-0.372549 3:-0.833308 4:-0.870577 5:-0.931668 6:-0.875021 7:0.11796 8:-0.525896 
1 1:0.010855 2:-0.72549 3:-0.42347 4:-0.486034 5:-0.770958 6:-0.4889 7:0.11796 8:-0.51992 
1 1:-0.133005 2:-0.411765 3:-0.803093 4:-0.850093 5:-0.918832 6:-0.835553 7:0.115834 8:-0.525896 
1 1:-0.187004 2:-0.882353 3:-0.254794 4:-0.123215 5:-0.685529 6:-0.152113 7:0.113709 8:-0.521912 
1 1:0.269472 2:-0.72549 3:-0.8035 4:-0.856611 5:-0.913394 6:-0.858247 7:0.109458 8:-0.523904 
1 1:-0.421622 2:-0.882353 3:-0.650389 4:-0.553693 5:-0.838224 6:-0.570465 7:0.109458 8:-0.51992 
1 1:0.356478 2:-0.843137 3:-0.885396 4:-0.916822 5:-0.951064 6:-0.915474 7:0.109458 8:-0.517928 
1 1:0.667784 2:-0.72549 3:-0.97711 4:-0.984482 5:-0.99232 6:-0.986186 7:0.105207 8:-0.515936 
1 1:-0.633219 2:-0.960784 3:-0.988555 4:-0.989448 5:-0.993778 6:-0.984213 7:0.113709 8:-0.517928 
1 1:1 2:-0.960784 3:-0.989928 4:-0.994103 5:-0.998767 6:-0.997369 7:0.105207 8:-0.523904 
1 1:-0.144453 2:-0.72549 3:-0.809705 4:-0.819988 5:-0.90863 6:-0.813846 7:0.109458 8:-0.525896 
1 1:-0.0728818 2:-0.529412 3:-0.631772 4:-0.687772 5:-0.819614 6:-0.688867 7:0.111583 8:-0.525896 
1 1:0.02611 2:-0.72549 3:-0.854367 4:-0.879578 5:-0.923036 6:-0.86318 7:0.105207 8:-0.527888 
1 1:-0.00590337 2:0.294118 3:-0.904522 4:-0.918063 5:-0.959304 6:-0.91383 7:0.126461 8:-0.535857 
1 1:-0.163901 2:0.137255 3:-0.800855 4:-0.829919 5:-0.925615 6:-0.821411 7:0.124336 8:-0.533865 
1 1:0.29252 2:-0.0980392 3:-0.697543 4:-0.77126 5:-0.888226 6:-0.766815 7:0.124336 8:-0.537849 
1 1:-0.355099 2:-0.490196 3:-0.582329 4:-0.576971 5:-0.816138 6:-0.577372 7:0.111583 8:-0.52988 
1 1:-0.0135446 2:-0.607843 3:-0.684725 4:-0.718808 5:-0.872026 6:-0.705641 7:0.11796 8:-0.535857 
1 1:0.0713507 2:-0.215686 3:-0.820998 4:-0.861577 5:-0.921915 6:-0.846736 7:0.132837 8:-0.537849 
1 1:-0.0519717 2:-0.411765 3:-0.845923 4:-0.86437 5:-0.939236 6:-0.861865 7:0.134963 8:-0.535857 
1 1:0.094509 2:-0.490196 3:-0.844651 4:-0.885785 5:-0.932397 6:-0.876336 7:0.132837 8:-0.535857 
1 1:-0.0668267 2:-0.0588235 3:-0.847296 4:-0.878336 5:-0.935985 6:-0.876665 7:0.130712 8:-0.537849 
1 1:0.412022 2:-0.333333 3:-0.544687 4:-0.666977 5:-0.831385 6:-0.673738 7:0.130712 8:-0.531873 
1 1:0.791479 2:-0.882353 3:-0.947759 4:-0.961204 5:-0.976849 6:-0.960204 7:0.132837 8:-0.525896 
1 1:-0.0325651 2:0.0980392 3:-0.619665 4:-0.697083 5:-0.846352 6:-0.690183 7:0.126461 8:-0.523904 
1 1:0.245114 2:-0.411765 3:-0.60939 4:-0.706704 5:-0.844502 6:-0.701694 7:0.126461 8:-0.531873 
1 1:0.620378 2:-0.647059 3:-0.836869 4:-0.882682 5:-0.932958 6:-0.871403 7:0.128587 8:-0.523904 
1 1:0.0460545 2:-0.411765 3:-0.850603 4:-0.882371 5:-0.934191 6:-0.870087 7:0.124336 8:-0.52988 
1 1:0.0348961 2:-0.333333 3:-0.536345 4:-0.612973 5:-0.816307 6:-0.61651 7:0.12221 8:-0.527888 
1 1:0.183115 2:-0.843137 3:-0.634976 4:-0.721601 5:-0.841924 6:-0.702023 7:0.120085 8:-0.521912 
1 1:0.0398615 2:-0.254902 3:-0.480645 4:-0.558349 5:-0.771294 6:-0.54843 7:0.14559 8:-0.551793 
1 1:0.373085 2:-0.176471 3:-0.74836 4:-0.806021 5:-0.896466 6:-0.806282 7:0.147715 8:-0.555777 
1 1:-0.171101 2:0.45098 3:-0.958034 4:-0.955618 5:-0.97954 6:-0.955599 7:0.139214 8:-0.551793 
1 1:0.354809 2:0.215686 3:-0.708225 4:-0.768777 5:-0.882508 6:-0.759579 7:0.139214 8:-0.559761 
1 1:0.0852126 2:0.294118 3:-0.711023 4:-0.765984 5:-0.890188 6:-0.762539 7:0.141339 8:-0.555777 
1 1:-0.121571 2:0.333333 3:-0.955339 4:-0.957169 5:-0.980437 6:-0.956915 7:0.137088 8:-0.549801 
1 1:-0.35063 2:-0.215686 3:-0.833155 4:-0.797641 5:-0.921803 6:-0.802664 7:0.137088 8:-0.551793 
1 1:-0.472614 2:0.215686 3:-0.879445 4:-0.840161 5:-0.940357 6:-0.838513 7:0.137088 8:-0.553785 
1 1:-0.177018 2:0.411765 3:-0.796378 4:-0.809745 5:-0.910367 6:-0.80102 7:0.134963 8:-0.553785 
1 1:0.0406615 2:0.333333 3:-0.858436 4:-0.887958 5:-0.944057 6:-0.880941 7:0.134963 8:-0.555777 
1 1:-0.690873 2:0.0196078 3:-0.962256 4:-0.933892 5:-0.983632 6:-0.944746 7:0.137088 8:-0.557769 
1 1:0.361554 2:-0.333333 3:-0.907523 4:-0.93203 5:-0.95936 6:-0.925012 7:0.132837 8:-0.557769 
1 1:-0.209997 2:0.294118 3:-0.644743 4:-0.660149 5:-0.839569 6:-0.630653 7:0.134963 8:-0.559761 
1 1:-0.578806 2:-0.607843 3:-0.945318 4:-0.901614 5:-0.967095 6:-0.913501 7:0.134963 8:-0.545817 
-1 1:-0.738321 2:-0.0980392 3:-0.895366 4:-0.856921 5:-0.977185 6:-0.903634 7:0.134963 8:-0.547809 
-1 1:-0.664405 2:-0.0196078 3:-0.850196 4:-0.799503 5:-0.953922 6:-0.794442 7:0.134963 8:-0.547809 
-1 1:-0.666653 2:-0.0980392 3:-0.688285 4:-0.578523 5:-0.902071 6:-0.577372 7:0.132837 8:-0.547809 
-1 1:-0.725562 2:-0.0196078 3:-0.877766 4:-0.825264 5:-0.962051 6:-0.825687 7:0.132837 8:-0.547809 
1 1:-0.0715163 2:0.333333 3:-0.811842 4:-0.836437 5:-0.915468 6:-0.830291 7:0.134963 8:-0.551793 
1 1:-0.0179032 2:0.0196078 3:-0.721146 4:-0.764432 5:-0.876174 6:-0.747081 7:0.130712 8:-0.549801 
1 1:-0.161184 2:0.254902 3:-0.827255 4:-0.845127 5:-0.924437 6:-0.850025 7:0.132837 8:-0.553785 
1 1:0.035503 2:-0.333333 3:-0.732947 4:-0.787399 5:-0.895345 6:-0.784246 7:0.128587 8:-0.555777 
1 1:0.545703 2:-0.372549 3:-0.932957 4:-0.950962 5:-0.903641 6:-0.953955 7:0.126461 8:-0.547809 
1 1:-0.0107999 2:-0.0196078 3:-0.794191 4:-0.841092 5:-0.91687 6:-0.83654 7:0.120085 8:-0.555777 
1 1:-0.149557 2:-0.0196078 3:-0.884684 4:-0.901924 5:-0.948709 6:-0.897385 7:0.12221 8:-0.555777 
1 1:-0.0754472 2:-0.294118 3:-0.739153 4:-0.770329 5:-0.894392 6:-0.766157 7:0.124336 8:-0.553785 
1 1:0.495455 2:-0.882353 3:-0.896078 4:-0.926754 5:-0.953642 6:-0.917448 7:0.12221 8:-0.547809 
1 1:-0.438008 2:-0.254902 3:-0.684674 4:-0.633457 5:-0.864794 6:-0.625062 7:0.130712 8:-0.559761 
1 1:-0.0583854 2:0.0196078 3:-0.534819 4:-0.604283 5:-0.811205 6:-0.582963 7:0.128587 8:-0.559761 
1 1:-0.291734 2:-0.0980392 3:-0.891704 4:-0.893855 5:-0.951176 6:-0.877652 7:0.126461 8:-0.559761 
1 1:-0.0317237 2:-0.411765 3:-0.766316 4:-0.781502 5:-0.917206 6:-0.786548 7:0.124336 8:-0.563745 
1 1:0.0563578 2:0.372549 3:-0.829239 4:-0.8473 5:-0.927408 6:-0.841473 7:0.130712 8:-0.563745 
1 1:-0.393098 2:0.372549 3:-0.972532 4:-0.963377 5:-0.987219 6:-0.960533 7:0.134963 8:-0.567729 
1 1:0.166494 2:0.254902 3:-0.773793 4:-0.802917 5:-0.905771 6:-0.797402 7:0.130712 8:-0.567729 
1 1:0.139157 2:0.215686 3:-0.909609 4:-0.925512 5:-0.959752 6:-0.915474 7:0.137088 8:-0.563745 
1 1:-0.00804127 2:0.215686 3:-0.815301 4:-0.842644 5:-0.922083 6:-0.833909 7:0.134963 8:-0.565737 
1 1:-0.0192135 2:0.254902 3:-0.815657 4:-0.844507 5:-0.924606 6:-0.84246 7:0.134963 8:-0.565737 
1 1:-0.114895 2:0.45098 3:-0.935958 4:-0.945376 5:-0.97371 6:-0.940141 7:0.132837 8:-0.565737 
1 1:-0.731797 2:-0.254902 3:-0.995269 4:-0.996276 5:-0.99843 6:-0.995395 7:0.134963 8:-0.575697 
1 1:-0.0593785 2:0.411765 3:-0.802686 4:-0.826505 5:-0.926455 6:-0.830291 7:0.137088 8:-0.571713 
1 1:0.00325513 2:0.372549 3:-0.945928 4:-0.950652 5:-0.977858 6:-0.94935 7:0.134963 8:-0.571713 
1 1:0.440063 2:0.176471 3:-0.633857 4:-0.72843 5:-0.864066 6:-0.723072 7:0.141339 8:-0.567729 
1 1:0.357457 2:0.372549 3:-0.892924 4:-0.911235 5:-0.958687 6:-0.908239 7:0.139214 8:-0.571713 
1 1:0.173294 2:0.372549 3:-0.757973 4:-0.810987 5:-0.915468 6:-0.812202 7:0.139214 8:-0.567729 
1 1:0.0550199 2:-0.333333 3:-0.75365 4:-0.772191 5:-0.908574 6:-0.758921 7:0.137088 8:-0.567729 
1 1:0.390546 2:-0.607843 3:-0.855842 4:-0.884544 5:-0.946411 6:-0.89015 7:0.124336 8:-0.51992 
1 1:0.764803 2:-0.882353 3:-0.417976 4:-0.579764 5:-0.781664 6:-0.58691 7:0.12221 8:-0.50996 
1 1:0.744804 2:-0.764706 3:-0.823236 4:-0.871198 5:-0.932005 6:-0.870416 7:0.120085 8:-0.513944 
1 1:0.0787437 2:-0.568627 3:-0.760466 4:-0.795779 5:-0.883068 6:-0.796086 7:0.120085 8:-0.496016 
1 1:-0.122178 2:-0.215686 3:-0.839717 4:-0.87275 5:-0.926287 6:-0.858576 7:0.147715 8:-0.521912 
1 1:-0.15677 2:-0.882353 3:-0.835241 4:-0.8563 5:-0.91317 6:-0.837856 7:0.14559 8:-0.525896 
1 1:0.089047 2:-0.333333 3:-0.857266 4:-0.895717 5:-0.941983 6:-0.889492 7:0.143464 8:-0.533865 
1 1:0.0505234 2:-0.411765 3:-0.865914 4:-0.893234 5:-0.94103 6:-0.890479 7:0.143464 8:-0.533865 
1 1:0.175763 2:-0.490196 3:-0.909558 4:-0.930788 5:-0.957342 6:-0.925999 7:0.143464 8:-0.52988 
1 1:-0.0559303 2:-0.529412 3:-0.894043 4:-0.909683 5:-0.952409 6:-0.913501 7:0.137088 8:-0.517928 
1 1:-0.0761645 2:-0.333333 3:-0.870848 4:-0.89013 5:-0.944898 6:-0.886532 7:0.149841 8:-0.51992 
1 1:0.131846 2:-0.529412 3:-0.918205 4:-0.938858 5:-0.960761 6:-0.928959 7:0.14559 8:-0.513944 
1 1:-0.209707 2:-0.0196078 3:-0.934025 4:-0.946307 5:-0.970291 6:-0.941128 7:0.147715 8:-0.51992 
1 1:-0.0248962 2:-0.411765 3:-0.826085 4:-0.867784 5:-0.924998 6:-0.859563 7:0.14559 8:-0.51992 
1 1:-0.200135 2:-0.411765 3:-0.853807 4:-0.878957 5:-0.939124 6:-0.876336 7:0.14559 8:-0.517928 
1 1:-0.157943 2:-0.411765 3:-0.889771 4:-0.918994 5:-0.951008 6:-0.91975 7:0.14559 8:-0.517928 
1 1:-0.134605 2:-0.686275 3:-0.679333 4:-0.701738 5:-0.855489 6:-0.700707 7:0.151966 8:-0.571713 
-1 1:-0.69737 2:0.568627 3:-0.872323 4:-0.833023 5:-0.934079 6:-0.84246 7:0.168969 8:-0.583665 
1 1:-0.212783 2:-0.843137 3:-0.681418 4:-0.718498 5:-0.813728 6:-0.713534 7:0.160468 8:-0.583665 
1 1:-0.23219 2:-0.647059 3:-0.223918 4:-0.294227 5:-0.59287 6:-0.231376 7:0.154091 8:-0.585657 
-1 1:-0.658184 2:0.333333 3:-0.807874 4:-0.77964 5:-0.860422 6:-0.77701 7:0.160468 8:-0.59761 
-1 1:-0.708032 2:0.607843 3:-0.922224 4:-0.899131 5:-0.928922 6:-0.876336 7:0.158342 8:-0.599602 
-1 1:-0.52951 2:-0.882353 3:-0.796683 4:-0.665425 5:-0.910984 6:-0.708601 7:0.158342 8:-0.59761 
-1 1:-0.970194 2:0.490196 3:-0.987588 4:-0.982619 5:-0.982455 6:-0.983226 7:0.151966 8:-0.603586 
-1 1:-0.857271 2:0.176471 3:-0.941248 4:-0.914649 5:-0.946579 6:-0.924026 7:0.151966 8:-0.603586 
-1 1:-0.816085 2:0.529412 3:-0.979348 4:-0.968653 5:-0.983239 6:-0.973689 7:0.149841 8:-0.603586 
-1 1:-0.847947 2:0.333333 3:-0.989165 4:-0.986344 5:-0.994563 6:-0.989147 7:0.149841 8:-0.605578 
-1 1:-0.933822 2:0.215686 3:-0.934076 4:-0.887647 5:-0.960033 6:-0.912185 7:0.149841 8:-0.605578 
-1 1:-0.966842 2:0.411765 3:-0.920138 4:-0.875543 5:-0.941534 6:-0.885216 7:0.151966 8:-0.605578 
-1 1:-0.867809 2:0.372549 3:-0.99705 4:-0.995655 5:-0.997814 6:-0.992107 7:0.156217 8:-0.613546 
-1 1:-0.2355 2:-0.294118 3:-0.980162 4:-0.96648 5:-0.98408 6:-0.973689 7:0.154091 8:-0.599602 
-1 1:-0.788224 2:0.215686 3:-0.898825 4:-0.843886 5:-0.936321 6:-0.861207 7:0.151966 8:-0.601594 
-1 1:-0.712225 2:0.647059 3:-0.889313 4:-0.850714 5:-0.913563 6:-0.84542 7:0.154091 8:-0.601594 
-1 1:-0.624984 2:0.176471 3:-0.852994 4:-0.787709 5:-0.882228 6:-0.789508 7:0.154091 8:-0.601594 
-1 1:-0.746445 2:-0.294118 3:-0.886312 4:-0.820298 5:-0.919561 6:-0.819109 7:0.154091 8:-0.599602 
-1 1:-0.721866 2:0.372549 3:-0.888652 4:-0.835506 5:-0.912554 6:-0.827989 7:0.151966 8:-0.601594 
-1 1:-0.810334 2:0.0980392 3:-0.903505 4:-0.837678 5:-0.924101 6:-0.854629 7:0.151966 8:-0.601594 
-1 1:-0.783106 2:0.333333 3:-0.932652 4:-0.892924 5:-0.942824 6:-0.903305 7:0.151966 8:-0.601594 
-1 1:-0.705811 2:0.176471 3:-0.875528 4:-0.815642 5:-0.899212 6:-0.820095 7:0.149841 8:-0.601594 
-1 1:-0.717769 2:0.294118 3:-0.927463 4:-0.896338 5:-0.928866 6:-0.895412 7:0.151966 8:-0.601594 
-1 1:-0.81152 2:0.137255 3:-0.951778 4:-0.901924 5:-0.940021 6:-0.908239 7:0.151966 8:-0.603586 
-1 1:-0.766679 2:-0.176471 3:-0.893331 4:-0.823712 5:-0.936545 6:-0.832922 7:0.149841 8:-0.59761 
-1 1:-0.718859 2:0.254902 3:-0.907676 4:-0.863439 5:-0.931781 6:-0.872389 7:0.151966 8:-0.599602 
-1 1:-0.616088 2:0.45098 3:-0.93194 4:-0.907821 5:-0.95723 6:-0.921066 7:0.149841 8:-0.599602 
-1 1:-0.644998 2:0.72549 3:-0.891144 4:-0.866543 5:-0.926287 6:-0.858576 7:0.149841 8:-0.601594 
-1 1:-0.571109 2:0.607843 3:-0.924564 4:-0.910304 5:-0.945738 6:-0.900674 7:0.149841 8:-0.601594 
-1 1:-0.686694 2:0.45098 3:-0.947098 4:-0.910615 5:-0.956837 6:-0.918763 7:0.149841 8:-0.603586 
-1 1:-0.745424 2:0.72549 3:-0.89267 4:-0.8473 5:-0.921354 6:-0.851669 7:0.147715 8:-0.601594 
-1 1:-0.840388 2:0.294118 3:-0.904471 4:-0.857852 5:-0.924045 6:-0.861536 7:0.147715 8:-0.601594 
-1 1:-0.669411 2:0.803922 3:-0.935246 4:-0.91496 5:-0.952857 6:-0.910541 7:0.147715 8:-0.601594 
-1 1:-0.86014 2:0.45098 3:-0.945877 4:-0.92334 5:-0.959304 6:-0.906265 7:0.149841 8:-0.603586 
-1 1:-0.643274 2:0.72549 3:-0.953965 4:-0.941962 5:-0.973318 6:-0.947377 7:0.147715 8:-0.603586 
-1 1:-0.935339 2:0.0196078 3:-0.95717 4:-0.923029 5:-0.967488 6:-0.913172 7:0.147715 8:-0.603586 
-1 1:-0.884608 2:-0.0196078 3:-0.921766 4:-0.893855 5:-0.94372 6:-0.889163 7:0.147715 8:-0.603586 
-1 1:-0.817644 2:0.568627 3:-0.868305 4:-0.818746 5:-0.908349 6:-0.84838 7:0.147715 8:-0.603586 
-1 1:-0.887339 2:0.882353 3:-0.950811 4:-0.929236 5:-0.966591 6:-0.936195 7:0.147715 8:-0.605578 
-1 1:-0.82254 2:-0.294118 3:-0.932245 4:-0.886716 5:-0.941422 6:-0.896399 7:0.14559 8:-0.601594 
-1 1:-0.746859 2:0.0588235 3:-0.898621 4:-0.848852 5:-0.933911 6:-0.855945 7:0.14559 8:-0.601594 
-1 1:-0.848264 2:0.647059 3:-0.981332 4:-0.967101 5:-0.979372 6:-0.963822 7:0.147715 8:-0.603586 
-1 1:-0.648267 2:-0.372549 3:-0.936111 4:-0.921477 5:-0.950559 6:-0.925012 7:0.14559 8:-0.603586 
-1 1:-0.923836 2:0.529412 3:-0.945979 4:-0.917753 5:-0.949046 6:-0.921723 7:0.147715 8:-0.605578 
-1 1:-0.827575 2:0.72549 3:-0.83987 4:-0.765673 5:-0.899381 6:-0.753988 7:0.14559 8:-0.605578 
1 1:-0.515027 2:0.803922 3:-0.824457 4:-0.758535 5:-0.924325 6:-0.760895 7:0.14559 8:-0.615538 
1 1:-0.615509 2:1 3:-0.992268 4:-0.990068 5:-0.995179 6:-0.987831 7:0.147715 8:-0.613546 
-1 1:-0.775341 2:0.137255 3:-0.872171 4:-0.851024 5:-0.925783 6:-0.859563 7:0.14559 8:-0.599602 
-1 1:-0.830926 2:0.490196 3:-0.898265 4:-0.871198 5:-0.934808 6:-0.870416 7:0.14559 8:-0.601594 
-1 1:-0.824444 2:0.686275 3:-0.903912 4:-0.860956 5:-0.941478 6:-0.858247 7:0.14559 8:-0.603586 
-1 1:-0.801713 2:0.607843 3:-0.908744 4:-0.879578 5:-0.938115 6:-0.877981 7:0.14559 8:-0.603586 
-1 1:-0.949766 2:0.411765 3:-0.964037 4:-0.941341 5:-0.964068 6:-0.943101 7:0.14559 8:-0.605578 
-1 1:-0.91378 2:0.372549 3:-0.900707 4:-0.841092 5:-0.919617 6:-0.855616 7:0.141339 8:-0.59761 
-1 1:-0.803796 2:0.372549 3:-0.953253 4:-0.938237 5:-0.967376 6:-0.92271 7:0.143464 8:-0.601594 
-1 1:-0.876829 2:1 3:-0.989165 4:-0.987585 5:-0.993105 6:-0.986186 7:0.143464 8:-0.603586 
-1 1:-0.745162 2:0.294118 3:-0.881784 4:-0.854128 5:-0.924157 6:-0.855287 7:0.14559 8:-0.59761 
-1 1:-0.653012 2:0.0196078 3:-0.89033 4:-0.868715 5:-0.931781 6:-0.854958 7:0.14559 8:-0.59761 
-1 1:-0.870016 2:0.215686 3:-0.87858 4:-0.797952 5:-0.906444 6:-0.808255 7:0.14559 8:-0.599602 
-1 1:-0.704818 2:0.72549 3:-0.886922 4:-0.849472 5:-0.927072 6:-0.849367 7:0.14559 8:-0.599602 
-1 1:-0.761355 2:-0.0196078 3:-0.802381 4:-0.758535 5:-0.859357 6:-0.756948 7:0.143464 8:-0.59761 
-1 1:-0.704832 2:0.294118 3:-0.864337 4:-0.799503 5:-0.924998 6:-0.817793 7:0.141339 8:-0.595618 
1 1:-0.331954 2:0.490196 3:-0.872679 4:-0.885164 5:-0.951288 6:-0.886861 7:0.14559 8:-0.593625 
1 1:-0.232038 2:0.215686 3:-0.799532 4:-0.812539 5:-0.91474 6:-0.798388 7:0.143464 8:-0.591633 
1 1:-0.249238 2:0.333333 3:-0.970446 4:-0.972998 5:-0.986995 6:-0.972702 7:0.143464 8:-0.589641 
1 1:-0.170205 2:0.215686 3:-0.911796 4:-0.927685 5:-0.966423 6:-0.924355 7:0.143464 8:-0.589641 
1 1:-0.44827 2:0.294118 3:-0.885447 4:-0.88951 5:-0.960089 6:-0.899688 7:0.14559 8:-0.591633 
-1 1:-0.69999 2:0.254902 3:-0.985045 4:-0.977654 5:-0.98806 6:-0.979609 7:0.14559 8:-0.595618 
1 1:-0.241376 2:0.372549 3:-0.926344 4:-0.927374 5:-0.968329 6:-0.923368 7:0.143464 8:-0.589641 
1 1:-0.305416 2:0.529412 3:-0.894043 4:-0.8982 5:-0.955548 6:-0.888834 7:0.141339 8:-0.589641 
1 1:-0.164467 2:0.45098 3:-0.872883 4:-0.892303 5:-0.955044 6:-0.892123 7:0.141339 8:-0.587649 
1 1:-0.192577 2:0.882353 3:-0.837784 4:-0.840161 5:-0.935817 6:-0.83358 7:0.139214 8:-0.587649 
1 1:-0.500517 2:1 3:-0.930464 4:-0.923029 5:-0.972701 6:-0.918763 7:0.139214 8:-0.587649 
1 1:-0.2651 2:0.568627 3:-0.847042 4:-0.850714 5:-0.941142 6:-0.839171 7:0.141339 8:-0.587649 
1 1:-0.19077 2:0.803922 3:-0.901928 4:-0.902545 5:-0.961378 6:-0.902976 7:0.141339 8:-0.585657 
1 1:-0.0608405 2:0.843137 3:-0.894145 4:-0.907821 5:-0.96177 6:-0.906265 7:0.141339 8:-0.587649 
-1 1:-0.55093 2:-0.411765 3:-0.860776 4:-0.851335 5:-0.929594 6:-0.856931 7:0.968119 8:-0.964143 
-1 1:-0.795892 2:-0.294118 3:-0.864184 4:-0.828988 5:-0.927408 6:-0.843118 7:0.968119 8:-0.99004 
-1 1:-0.726818 2:-0.607843 3:-0.839412 4:-0.809125 5:-0.924886 6:-0.842789 7:0.957492 8:-0.976096 
-1 1:-0.713163 2:-0.372549 3:-0.82405 4:-0.776226 5:-0.891028 6:-0.787535 7:0.961743 8:-0.972112 
-1 1:-0.839244 2:-0.45098 3:-0.840378 4:-0.778709 5:-0.907957 6:-0.789837 7:0.963868 8:-0.968127 
-1 1:-0.833947 2:0.0588235 3:-0.847347 4:-0.783364 5:-0.914403 6:-0.785562 7:0.953241 8:-0.974104 
-1 1:-0.792072 2:-0.254902 3:-0.806297 4:-0.756052 5:-0.88845 6:-0.763197 7:0.957492 8:-0.972112 
-1 1:-0.729576 2:-0.254902 3:-0.864133 4:-0.833333 5:-0.928305 6:-0.831278 7:0.959617 8:-0.964143 
-1 1:-0.767865 2:-0.45098 3:-0.861997 4:-0.823712 5:-0.914291 6:-0.826015 7:0.955367 8:-0.962151 
-1 1:-0.755162 2:-0.215686 3:-0.862964 4:-0.820919 5:-0.932453 6:-0.837856 7:1 8:-0.958167 
-1 1:-0.774665 2:-0.294118 3:-0.915255 4:-0.899752 5:-0.953026 6:-0.907252 7:0.993624 8:-0.962151 
-1 1:-0.650846 2:-0.372549 3:-0.86393 4:-0.835506 5:-0.930435 6:-0.850354 7:0.976621 8:-0.99004 
-1 1:-0.753534 2:-0.372549 3:-0.833461 4:-0.8054 5:-0.801396 6:-0.807926 7:0.970244 8:-0.960159 
-1 1:-0.637233 2:-0.333333 3:-0.923597 4:-0.88951 5:-0.963172 6:-0.915474 7:0.985122 8:-0.896414 
-1 1:-0.790306 2:-0.176471 3:-0.851569 4:-0.802917 5:-0.9227 6:-0.836211 7:0.912859 8:-0.914343 
-1 1:-0.790334 2:-0.176471 3:-0.946284 4:-0.891061 5:-0.952465 6:-0.911857 7:0.36238 8:-0.123506 
-1 1:-0.831092 2:-0.215686 3:-0.896027 4:-0.820298 5:-0.946803 6:-0.88423 7:0.36238 8:-0.123506 
-1 1:-0.748955 2:-0.0588235 3:-0.9091 4:-0.833954 5:-0.936601 6:-0.870087 7:0.36238 8:-0.121514 
-1 1:-0.797686 2:-0.0196078 3:-0.924564 4:-0.896648 5:-0.97741 6:-0.941128 7:0.360255 8:-0.12749 
-1 1:-0.630253 2:-0.0980392 3:-0.956559 4:-0.942893 5:-0.978419 6:-0.964808 7:0.35813 8:-0.12749 
-1 1:-0.580447 2:-0.0588235 3:-0.875833 4:-0.862508 5:-0.951512 6:-0.887847 7:0.364506 8:-0.129482 
-1 1:-0.808182 2:0.0196078 3:-0.924208 4:-0.878336 5:-0.959976 6:-0.91679 7:0.360255 8:-0.125498 
-1 1:-0.678611 2:-0.176471 3:-0.861183 4:-0.804159 5:-0.932061 6:-0.841473 7:0.35813 8:-0.125498 
-1 1:-0.806637 2:-0.0588235 3:-0.93199 4:-0.89851 5:-0.971972 6:-0.928301 7:0.360255 8:-0.129482 
-1 1:-0.511483 2:-0.137255 3:-0.920545 4:-0.907821 5:-0.981165 6:-0.951982 7:0.360255 8:-0.129482 
-1 1:-0.63275 2:-0.0980392 3:-0.938247 4:-0.910615 5:-0.976569 6:-0.939484 7:0.360255 8:-0.131474 
-1 1:-0.644046 2:-0.176471 3:-0.841447 4:-0.801676 5:-0.956109 6:-0.884887 7:0.360255 8:-0.131474 
-1 1:-0.747838 2:0.0588235 3:-0.939366 4:-0.915891 5:-0.972477 6:-0.933564 7:0.35813 8:-0.129482 
-1 1:-0.701963 2:-0.0588235 3:-0.935907 4:-0.909373 5:-0.970235 6:-0.925999 7:0.35813 8:-0.129482 
-1 1:-0.634474 2:0.0196078 3:-0.863676 4:-0.812228 5:-0.943552 6:-0.8691 7:0.356004 8:-0.129482 
-1 1:-0.783327 2:0.0588235 3:-0.928481 4:-0.903476 5:-0.970907 6:-0.927643 7:0.356004 8:-0.129482 
1 1:-0.521069 2:-0.372549 3:-0.592909 4:-0.571384 5:-0.944169 6:-0.874363 7:0.35813 8:-0.133466 
-1 1:-0.586199 2:-0.0196078 3:-0.973193 4:-0.964308 5:-0.989462 6:-0.973031 7:0.356004 8:-0.133466 
-1 1:-0.831878 2:-0.137255 3:-0.951066 4:-0.92396 5:-0.972981 6:-0.935208 7:0.356004 8:-0.135458 
-1 1:-0.69999 2:-0.0588235 3:-0.910677 4:-0.88951 5:-0.961546 6:-0.908897 7:0.356004 8:-0.135458 
-1 1:-0.764734 2:-0.176471 3:-0.891347 4:-0.8473 5:-0.953698 6:-0.891794 7:0.353879 8:-0.13745 
-1 1:-0.622116 2:-0.0980392 3:-0.939366 4:-0.92396 5:-0.976961 6:-0.950666 7:0.356004 8:-0.13745 
-1 1:-0.780155 2:0.0196078 3:-0.950862 4:-0.94103 5:-0.984304 6:-0.953297 7:0.353879 8:-0.135458 
-1 1:-0.795148 2:-0.372549 3:-0.861132 4:-0.811297 5:-0.943833 6:-0.836211 7:0.353879 8:-0.135458 
-1 1:-0.653936 2:-0.0980392 3:-0.915204 4:-0.869336 5:-0.967152 6:-0.90791 7:0.349628 8:-0.135458 
-1 1:-0.796858 2:-0.215686 3:-0.916018 4:-0.870267 5:-0.958855 6:-0.89903 7:0.351753 8:-0.133466 
-1 1:-0.690239 2:-0.372549 3:-0.857317 4:-0.836127 5:-0.962331 6:-0.917777 7:0.347503 8:-0.131474 
-1 1:-0.576351 2:-0.372549 3:-0.861641 4:-0.841403 5:-0.953754 6:-0.905279 7:0.339001 8:-0.125498 
-1 1:-0.471262 2:-0.45098 3:-0.840277 4:-0.808504 5:-0.959528 6:-0.906594 7:0.321998 8:-0.13745 
-1 1:-0.546323 2:-0.411765 3:-0.862353 4:-0.851024 5:-0.960257 6:-0.914488 7:0.343252 8:-0.141434 
-1 1:-0.540227 2:-0.45098 3:-0.845363 4:-0.817815 5:-0.948709 6:-0.889821 7:0.349628 8:-0.139442 
-1 1:-0.652819 2:-0.294118 3:-0.876545 4:-0.857852 5:-0.950671 6:-0.901661 7:0.343252 8:-0.13745 
-1 1:-0.672405 2:-0.176471 3:-0.874714 4:-0.833023 5:-0.978811 6:-0.95231 7:0.38576 8:-0.159363 
1 1:-0.507386 2:-0.294118 3:-0.849178 4:-0.836437 5:-0.99389 6:-0.984542 7:0.375133 8:-0.145418 
1 1:-0.810334 2:0.254902 3:-0.920698 4:-0.912787 5:-0.998487 6:-0.996711 7:0.353879 8:-0.153386 
-1 1:-0.549992 2:-0.647059 3:-0.918511 4:-0.891061 5:-0.969898 6:-0.937839 7:0.360255 8:-0.276892 
-1 1:-0.662832 2:-0.372549 3:-0.926955 4:-0.899752 5:-0.962331 6:-0.912185 7:0.349628 8:-0.294821 
-1 1:-0.831409 2:-0.45098 3:-0.93021 4:-0.909994 5:-0.960425 6:-0.921723 7:0.336876 8:-0.290837 
-1 1:-0.590502 2:-0.72549 3:-0.904624 4:-0.851645 5:-0.950615 6:-0.894096 7:0.341126 8:-0.2749 
-1 1:-0.385057 2:-0.647059 3:-0.995981 4:-0.987585 5:-0.997085 6:-0.995067 7:0.345377 8:-0.233068 
-1 1:-0.941684 2:-0.607843 3:-0.900351 4:-0.865301 5:-0.993834 6:-0.982898 7:0.351753 8:-0.193227 
1 1:-0.507386 2:-0.686275 3:-0.811537 4:-0.81347 5:-0.910423 6:-0.817793 7:0.298618 8:-0.326693 
-1 1:-0.722693 2:0.45098 3:-0.898113 4:-0.880819 5:-0.950727 6:-0.88423 7:0.315622 8:-0.294821 
-1 1:-0.770982 2:0.0588235 3:-0.784628 4:-0.728119 5:-0.887609 6:-0.710574 7:0.317747 8:-0.288845 
-1 1:-0.747383 2:0.0980392 3:-0.885193 4:-0.850714 5:-0.938563 6:-0.848051 7:0.317747 8:-0.294821 
-1 1:-0.853437 2:-0.372549 3:-0.974058 4:-0.960273 5:-0.982567 6:-0.954284 7:0.315622 8:-0.284861 
-1 1:-0.743673 2:-0.215686 3:-0.915611 4:-0.874302 5:-0.95594 6:-0.895412 7:0.324123 8:-0.249004 
-1 1:-0.65217 2:-0.176471 3:-0.93723 4:-0.91558 5:-0.965694 6:-0.918763 7:0.321998 8:-0.252988 
-1 1:-0.830802 2:-0.215686 3:-0.912203 4:-0.870888 5:-0.959192 6:-0.890479 7:0.321998 8:-0.250996 
-1 1:-0.69377 2:-0.372549 3:-0.840124 4:-0.807573 5:-0.919897 6:-0.816478 7:0.319872 8:-0.258964 
-1 1:-0.698846 2:-0.72549 3:-0.954728 4:-0.942893 5:-0.976233 6:-0.94639 7:0.281615 8:-0.276892 
-1 1:-0.570682 2:-0.45098 3:-0.978127 4:-0.973309 5:-0.988509 6:-0.97632 7:0.273114 8:-0.250996 
-1 1:-0.583551 2:-0.686275 3:-0.867949 4:-0.83023 5:-0.955548 6:-0.902648 7:0.290117 8:-0.221116 
-1 1:-0.576999 2:-0.529412 3:-0.943385 4:-0.921167 5:-0.995347 6:-0.989804 7:0.311371 8:-0.197211 
-1 1:-0.64737 2:-0.490196 3:-0.57302 4:-0.510552 5:-0.778637 6:-0.51554 7:0.302869 8:-0.294821 
-1 1:-0.779162 2:0.960784 3:-0.951473 4:-0.939479 5:-0.96306 6:-0.941128 7:-0.109458 8:-0.0956175 
-1 1:-0.879712 2:0.803922 3:-0.933262 4:-0.871198 5:-0.935424 6:-0.89311 7:-0.109458 8:-0.0956175 
-1 1:-0.853437 2:0.372549 3:-0.969225 4:-0.952204 5:-0.973093 6:-0.95231 7:-0.107333 8:-0.0956175 
-1 1:-0.796541 2:1 3:-0.994405 4:-0.99162 5:-0.989349 6:-0.987173 7:-0.109458 8:-0.0916335 
-1 1:-0.83432 2:0.72549 3:-0.953049 4:-0.928616 5:-0.955492 6:-0.925341 7:-0.109458 8:-0.0936255 
-1 1:-0.937739 2:0.647059 3:-0.934686 4:-0.888579 5:-0.945682 6:-0.886861 7:-0.111583 8:-0.0936255 
-1 1:-0.850568 2:0.764706 3:-0.928175 4:-0.917132 5:-0.949606 6:-0.920408 7:-0.111583 8:-0.0956175 
-1 1:-0.762665 2:0.921569 3:-0.960832 4:-0.940099 5:-0.966199 6:-0.945404 7:-0.109458 8:-0.0956175 
-1 1:-0.772155 2:0.686275 3:-0.900402 4:-0.878336 5:-0.928081 6:-0.875021 7:-0.109458 8:-0.0876494 
-1 1:-0.86996 2:0.647059 3:-0.910423 4:-0.879578 5:-0.90919 6:-0.872061 7:-0.111583 8:-0.0876494 
-1 1:-0.898691 2:1 3:-0.930057 4:-0.901304 5:-0.928417 6:-0.915146 7:-0.109458 8:-0.0896414 
-1 1:-0.823037 2:0.72549 3:-0.945114 4:-0.925512 5:-0.954147 6:-0.924683 7:-0.109458 8:-0.0876494 
-1 1:-0.858926 2:0.490196 3:-0.934636 4:-0.897269 5:-0.922475 6:-0.899688 7:-0.105207 8:-0.0876494 
-1 1:-0.854512 2:-0.254902 3:-0.905743 4:-0.83923 5:-0.939012 6:-0.854629 7:-0.107333 8:-0.0876494 
-1 1:-0.723507 2:-0.45098 3:-0.925785 4:-0.871508 5:-0.948373 6:-0.883243 7:-0.107333 8:-0.0896414 
-1 1:-0.898263 2:0.333333 3:-0.892568 4:-0.843265 5:-0.885255 6:-0.844433 7:-0.105207 8:-0.0896414 
-1 1:-0.892222 2:0.176471 3:-0.928684 4:-0.882682 5:-0.915244 6:-0.873047 7:-0.105207 8:-0.0896414 
-1 1:-0.923946 2:0.333333 3:-0.956712 4:-0.908442 5:-0.931332 6:-0.905279 7:-0.107333 8:-0.0916335 
-1 1:-0.778003 2:1 3:-0.991302 4:-0.973309 5:-0.97769 6:-0.972702 7:-0.107333 8:-0.0916335 
-1 1:-0.958745 2:-0.0588235 3:-0.912763 4:-0.832092 5:-0.924886 6:-0.84542 7:-0.107333 8:-0.0936255 
-1 1:-0.882374 2:0.568627 3:-0.915713 4:-0.85568 5:-0.922195 6:-0.853314 7:-0.105207 8:-0.0936255 
-1 1:-0.914056 2:0.254902 3:-0.83931 4:-0.710428 5:-0.802293 6:-0.722085 7:-0.105207 8:-0.0916335 
-1 1:-0.807341 2:1 3:-0.969073 4:-0.960583 5:-0.97741 6:-0.960204 7:-0.107333 8:-0.0976096 
-1 1:-0.842264 2:-0.0588235 3:-0.868813 4:-0.836437 5:-0.908125 6:-0.832922 7:-0.111583 8:-0.0976096 
-1 1:-0.707907 2:-0.372549 3:-0.935195 4:-0.925202 5:-0.948205 6:-0.922052 7:-0.111583 8:-0.0976096 
-1 1:-0.736031 2:-0.215686 3:-0.913526 4:-0.889199 5:-0.924662 6:-0.896399 7:-0.109458 8:-0.0996016 
-1 1:-0.468959 2:0.0588235 3:-0.99705 4:-0.997207 5:-0.99759 6:-0.996053 7:-0.111583 8:-0.0996016 
-1 1:-0.735617 2:0.647059 3:-0.982044 4:-0.975171 5:-0.987107 6:-0.975662 7:-0.113709 8:-0.0996016 
-1 1:-0.896539 2:-0.294118 3:-0.912661 4:-0.878957 5:-0.923428 6:-0.879296 7:-0.111583 8:-0.0916335 
-1 1:-0.792499 2:0.0980392 3:-0.921715 4:-0.909994 5:-0.94372 6:-0.897385 7:-0.113709 8:-0.0936255 
-1 1:-0.853437 2:-0.0588235 3:-0.947912 4:-0.931719 5:-0.95594 6:-0.940141 7:-0.113709 8:-0.0956175 
-1 1:-0.924387 2:-0.294118 3:-0.932245 4:-0.896027 5:-0.934527 6:-0.895412 7:-0.111583 8:-0.0936255 
-1 1:-0.924511 2:-0.45098 3:-0.903047 4:-0.870888 5:-0.922644 6:-0.876994 7:-0.111583 8:-0.0936255 
-1 1:-0.876926 2:-0.137255 3:-0.91205 4:-0.887647 5:-0.932341 6:-0.888176 7:-0.115834 8:-0.0916335 
-1 1:-0.88545 2:0.0588235 3:-0.919121 4:-0.905959 5:-0.946243 6:-0.907581 7:-0.115834 8:-0.0936255 
-1 1:-0.897863 2:1 3:-0.984129 4:-0.982619 5:-0.99019 6:-0.978622 7:-0.115834 8:-0.0956175 
-1 1:-0.772982 2:-0.176471 3:-0.982095 4:-0.962756 5:-0.970459 6:-0.962506 7:-0.111583 8:-0.0896414 
-1 1:-0.888995 2:0.568627 3:-0.920647 4:-0.900372 5:-0.948205 6:-0.909225 7:-0.111583 8:-0.0916335 
-1 1:-0.881546 2:0.333333 3:-0.899028 4:-0.878026 5:-0.931052 6:-0.874363 7:-0.113709 8:-0.0896414 
-1 1:-0.766817 2:-0.372549 3:-0.701409 4:-0.612353 5:-0.717985 6:-0.597764 7:-0.113709 8:-0.0816733 
-1 1:-0.85363 2:0.0980392 3:-0.911338 4:-0.863439 5:-0.914403 6:-0.871732 7:-0.113709 8:-0.0856574 
-1 1:-0.672405 2:-0.0980392 3:-0.937026 4:-0.918063 5:-0.942151 6:-0.924026 7:-0.111583 8:-0.0856574 
-1 1:-0.867891 2:0.45098 3:-0.924767 4:-0.890751 5:-0.913675 6:-0.877981 7:-0.113709 8:-0.0836653 
-1 1:-0.748003 2:0.294118 3:-0.936314 4:-0.915891 5:-0.940974 6:-0.908568 7:-0.109458 8:-0.0816733 
-1 1:-0.775107 2:-0.0588235 3:-0.798057 4:-0.738982 5:-0.839682 6:-0.760566 7:-0.111583 8:-0.0816733 
-1 1:-0.884912 2:-0.176471 3:-0.834936 4:-0.733706 5:-0.765913 6:-0.710574 7:-0.111583 8:-0.0836653 
-1 1:-0.810706 2:0.764706 3:-0.931583 4:-0.912787 5:-0.952297 6:-0.912514 7:-0.109458 8:-0.0856574 
-1 1:-0.870071 2:0.490196 3:-0.921105 4:-0.887647 5:-0.918944 6:-0.888176 7:-0.109458 8:-0.0856574 
-1 1:-0.843781 2:0.490196 3:-0.883616 4:-0.833023 5:-0.905715 6:-0.824042 7:-0.109458 8:-0.0836653 
-1 1:-0.7857 2:0.607843 3:-0.93723 4:-0.915891 5:-0.94714 6:-0.914488 7:-0.109458 8:-0.0816733 
-1 1:-0.414298 2:-0.803922 3:-0.902131 4:-0.906269 5:-0.946075 6:-0.896399 7:-0.105207 8:-0.0717131 
-1 1:-0.685328 2:-0.294118 3:-0.858284 4:-0.809745 5:-0.923653 6:-0.82766 7:-0.107333 8:-0.0677291 
-1 1:-0.855864 2:-0.372549 3:-0.876087 4:-0.814711 5:-0.912554 6:-0.823384 7:-0.107333 8:-0.0717131 
-1 1:-0.516862 2:-0.529412 3:-0.88092 4:-0.873371 5:-0.924662 6:-0.867127 7:-0.105207 8:-0.0717131 
-1 1:-0.390395 2:0.0196078 3:-0.855384 4:-0.870888 5:-0.931837 6:-0.849038 7:-0.109458 8:-0.0677291 
-1 1:-0.584433 2:-0.137255 3:-0.893433 4:-0.880819 5:-0.949102 6:-0.867127 7:-0.107333 8:-0.0717131 
-1 1:-0.454021 2:-0.0588235 3:-0.97182 4:-0.975791 5:-0.98621 6:-0.976977 7:-0.113709 8:-0.0717131 
-1 1:-0.86694 2:-0.686275 3:-0.902742 4:-0.847921 5:-0.93761 6:-0.860878 7:-0.109458 8:-0.0776892 
-1 1:-0.972525 2:-0.0196078 3:-0.865558 4:-0.688392 5:-0.907116 6:-0.674396 7:-0.111583 8:-0.0796813 
-1 1:-0.759479 2:-0.686275 3:-0.917646 4:-0.867474 5:-0.962163 6:-0.870745 7:-0.109458 8:-0.0796813 
-1 1:-0.652694 2:-0.764706 3:-0.875172 4:-0.856611 5:-0.924493 6:-0.860878 7:-0.113709 8:-0.0776892 
-1 1:-0.789037 2:-0.45098 3:-0.885854 4:-0.858783 5:-0.933462 6:-0.867785 7:-0.111583 8:-0.0796813 
-1 1:-0.820871 2:0.215686 3:-0.961697 4:-0.936685 5:-0.961994 6:-0.932248 7:-0.120085 8:-0.0796813 
-1 1:-0.771534 2:0.372549 3:-0.92726 4:-0.916822 5:-0.953306 6:-0.922381 7:-0.11796 8:-0.0717131 
-1 1:-0.815782 2:0.0980392 3:-0.936874 4:-0.903476 5:-0.953306 6:-0.909225 7:-0.120085 8:-0.0856574 
-1 1:-0.528117 2:-0.254902 3:-0.872323 4:-0.860956 5:-0.918103 6:-0.852327 7:-0.126461 8:-0.0677291 
-1 1:-0.598516 2:0.254902 3:-0.947403 4:-0.944134 5:-0.965414 6:-0.943101 7:-0.128587 8:-0.059761 
-1 1:-0.839892 2:-0.803922 3:-0.901877 4:-0.869336 5:-0.92483 6:-0.864167 7:-0.132837 8:-0.063745 
-1 1:-0.653246 2:0.490196 3:-0.937179 4:-0.920857 5:-0.964405 6:-0.921723 7:-0.130712 8:-0.0697211 
-1 1:-0.668777 2:-0.294118 3:-0.870594 4:-0.856611 5:-0.929707 6:-0.862852 7:-0.126461 8:-0.0816733 
-1 1:-0.839961 2:0.176471 3:-0.957678 4:-0.929236 5:-0.965638 6:-0.930932 7:-0.132837 8:-0.0697211 
-1 1:-0.575427 2:0.333333 3:-0.894298 4:-0.887027 5:-0.942655 6:-0.890807 7:-0.132837 8:-0.0796813 
-1 1:-0.607743 2:0.176471 3:-0.921207 4:-0.908442 5:-0.940862 6:-0.905937 7:-0.139214 8:-0.0796813 
-1 1:-0.769769 2:0.176471 3:-0.887482 4:-0.866232 5:-0.925839 6:-0.863509 7:-0.120085 8:-0.0936255 
-1 1:-0.686887 2:0.0196078 3:-0.937738 4:-0.925822 5:-0.960593 6:-0.930932 7:-0.126461 8:-0.0896414 
-1 1:-0.759079 2:0.137255 3:-0.913933 4:-0.903476 5:-0.943664 6:-0.894754 7:-0.128587 8:-0.0976096 
-1 1:-0.824927 2:0.294118 3:-0.884989 4:-0.869025 5:-0.933799 6:-0.866469 7:-0.126461 8:-0.0936255 
-1 1:-0.708321 2:0.647059 3:-0.973447 4:-0.971446 5:-0.983239 6:-0.969742 7:-0.109458 8:-0.111554 
-1 1:-0.784017 2:0.137255 3:-0.919528 4:-0.902235 5:-0.94501 6:-0.901661 7:-0.111583 8:-0.10757 
-1 1:-0.712969 2:0.215686 3:-0.924564 4:-0.916822 5:-0.951568 6:-0.911199 7:-0.115834 8:-0.111554 
-1 1:-0.581026 2:0.333333 3:-0.939519 4:-0.941341 5:-0.970066 6:-0.94047 7:-0.107333 8:-0.103586 
-1 1:-0.864581 2:-0.803922 3:-0.905845 4:-0.853507 5:-0.921859 6:-0.86318 7:-0.100956 8:-0.101594 
-1 1:-0.796403 2:-0.45098 3:-0.832697 4:-0.760708 5:-0.902744 6:-0.791811 7:-0.103082 8:-0.0996016 
-1 1:-0.78232 2:0.568627 3:-0.948115 4:-0.935444 5:-0.958631 6:-0.930275 7:-0.105207 8:-0.0976096 
-1 1:-0.851712 2:0.294118 3:-0.939773 4:-0.9072 5:-0.956781 6:-0.911199 7:-0.105207 8:-0.101594 
-1 1:-0.876829 2:0.254902 3:-0.966428 4:-0.943513 5:-0.966143 6:-0.940799 7:-0.105207 8:-0.0996016 
-1 1:-0.664736 2:0.843137 3:-0.895366 4:-0.879888 5:-0.953418 6:-0.867127 7:-0.103082 8:-0.0956175 
-1 1:-0.765107 2:0.960784 3:-0.877054 4:-0.849472 5:-0.928193 6:-0.86022 7:-0.103082 8:-0.0956175 
-1 1:-0.825699 2:1 3:-0.907167 4:-0.88982 5:-0.952241 6:-0.88423 7:-0.105207 8:-0.0956175 
-1 1:-0.807285 2:0.568627 3:-0.899741 4:-0.876474 5:-0.938115 6:-0.876994 7:-0.103082 8:-0.0976096 
-1 1:-0.875464 2:0.764706 3:-0.888499 4:-0.825574 5:-0.948373 6:-0.822069 7:-0.103082 8:-0.0976096 
-1 1:-0.842347 2:1 3:-0.905845 4:-0.86468 5:-0.957342 6:-0.872061 7:-0.103082 8:-0.0936255 
-1 1:-0.830361 2:1 3:-0.909151 4:-0.860956 5:-0.935368 6:-0.862852 7:-0.105207 8:-0.0936255 
-1 1:-0.732749 2:1 3:-0.908948 4:-0.891061 5:-0.941366 6:-0.882914 7:-0.103082 8:-0.0956175 
-1 1:-0.738583 2:1 3:-0.886973 4:-0.870577 5:-0.95353 6:-0.866798 7:-0.103082 8:-0.0936255 
-1 1:-0.906884 2:1 3:-0.939824 4:-0.919615 5:-0.964573 6:-0.921723 7:-0.103082 8:-0.0916335 
-1 1:-0.931022 2:1 3:-0.980925 4:-0.970205 5:-0.970459 6:-0.968755 7:-0.105207 8:-0.0916335 
-1 1:-0.858292 2:0.764706 3:-0.866575 4:-0.816263 5:-0.923484 6:-0.819109 7:-0.105207 8:-0.0936255 
-1 1:-0.778541 2:1 3:-0.877613 4:-0.845748 5:-0.923877 6:-0.847394 7:-0.103082 8:-0.0916335 
-1 1:-0.829726 2:0.803922 3:-0.927616 4:-0.900062 5:-0.946972 6:-0.893439 7:-0.103082 8:-0.0896414 
-1 1:-0.890512 2:0.882353 3:-0.940333 4:-0.905028 5:-0.945122 6:-0.908897 7:-0.105207 8:-0.0896414 
-1 1:-0.867091 2:0.647059 3:-0.894806 4:-0.841403 5:-0.892262 6:-0.8543 7:-0.105207 8:-0.0896414 
-1 1:-0.827575 2:0.921569 3:-0.931787 4:-0.900372 5:-0.940581 6:-0.887847 7:-0.103082 8:-0.0896414 
-1 1:-0.865285 2:-0.137255 3:-0.806806 4:-0.689013 5:-0.787942 6:-0.698734 7:-0.103082 8:-0.0856574 
-1 1:-0.766886 2:0.333333 3:-0.918358 4:-0.88144 5:-0.921298 6:-0.874692 7:-0.105207 8:-0.0856574 
-1 1:-0.895919 2:0.568627 3:-0.919935 4:-0.870888 5:-0.912329 6:-0.879954 7:-0.105207 8:-0.0856574 
-1 1:-0.902043 2:0.529412 3:-0.897909 4:-0.83923 5:-0.875781 6:-0.834238 7:-0.103082 8:-0.0876494 
-1 1:-0.811161 2:0.647059 3:-0.917544 4:-0.909063 5:-0.956389 6:-0.91087 7:-0.103082 8:-0.0876494 
-1 1:-0.859657 2:0.647059 3:-0.901165 4:-0.872129 5:-0.916534 6:-0.861536 7:-0.103082 8:-0.0876494 
-1 1:-0.840706 2:0.333333 3:-0.880716 4:-0.837058 5:-0.906219 6:-0.842131 7:-0.105207 8:-0.0856574 
-1 1:-0.889243 2:1 3:-0.891398 4:-0.861266 5:-0.933238 6:-0.8543 7:-0.107333 8:-0.0856574 
-1 1:-0.811478 2:0.921569 3:-0.932703 4:-0.913408 5:-0.954707 6:-0.90791 7:-0.107333 8:-0.0876494 
-1 1:-0.612061 2:0.960784 3:-0.926141 4:-0.927374 5:-0.959304 6:-0.917448 7:-0.107333 8:-0.0876494 
-1 1:-0.833326 2:0.686275 3:-0.907625 4:-0.872439 5:-0.905995 6:-0.862852 7:-0.105207 8:-0.0876494 
-1 1:-0.811837 2:0.490196 3:-0.886515 4:-0.825574 5:-0.88632 6:-0.838842 7:-0.105207 8:-0.0856574 
-1 1:-0.661439 2:0.803922 3:-0.886362 4:-0.870577 5:-0.941758 6:-0.869758 7:-0.105207 8:-0.0816733 
-1 1:-0.902539 2:0.490196 3:-0.751208 4:-0.624767 5:-0.733961 6:-0.6494 7:-0.107333 8:-0.0816733 
-1 1:-0.807465 2:0.490196 3:-0.911593 4:-0.891372 5:-0.938619 6:-0.886203 7:-0.107333 8:-0.0836653 
-1 1:-0.793713 2:0.921569 3:-0.923038 4:-0.909063 5:-0.952409 6:-0.902648 7:-0.105207 8:-0.0836653 
-1 1:-0.722597 2:0.882353 3:-0.88153 4:-0.857542 5:-0.927857 6:-0.843447 7:-0.105207 8:-0.0836653 
-1 1:-0.820761 2:0.607843 3:-0.893637 4:-0.854438 5:-0.909302 6:-0.856274 7:-0.103082 8:-0.0816733 
-1 1:-0.865285 2:0.372549 3:-0.953711 4:-0.933271 5:-0.95297 6:-0.928301 7:-0.103082 8:-0.0816733 
-1 1:-0.874374 2:0.0980392 3:-0.89445 4:-0.837678 5:-0.894392 6:-0.8395 7:-0.103082 8:-0.0836653 
-1 1:-0.885808 2:0.215686 3:-0.894705 4:-0.846058 5:-0.887945 6:-0.845749 7:-0.103082 8:-0.0836653 
-1 1:-0.751631 2:-0.137255 3:-0.674398 4:-0.575109 5:-0.799882 6:-0.585923 7:-0.103082 8:-0.0776892 
-1 1:-0.701908 2:-0.607843 3:-0.754311 4:-0.692117 5:-0.877407 6:-0.708272 7:-0.105207 8:-0.0776892 
-1 1:-0.64137 2:0.137255 3:-0.921359 4:-0.912787 5:-0.950503 6:-0.898043 7:-0.103082 8:-0.0796813 
-1 1:-0.523938 2:0.0196078 3:-0.914085 4:-0.912787 5:-0.951456 6:-0.889492 7:-0.105207 8:-0.0776892 
-1 1:-0.847257 2:-0.490196 3:-0.684623 4:-0.518932 5:-0.688444 6:-0.528367 7:-0.107333 8:-0.0796813 
-1 1:-0.631453 2:0.490196 3:-0.911338 4:-0.900683 5:-0.949662 6:-0.900674 7:-0.105207 8:-0.0796813 
-1 1:-0.724735 2:-0.607843 3:-0.815657 4:-0.758535 5:-0.898203 6:-0.759908 7:-0.105207 8:-0.0737052 
-1 1:-0.72788 2:-0.333333 3:-0.588128 4:-0.481999 5:-0.749264 6:-0.502384 7:-0.107333 8:-0.0756972 
