svm_type c_svc
kernel_type rbf
gamma 0.03125
nr_class 2
total_sv 690
rho -0.804517
label 1 -1
nr_sv 342 348
SV
0.5600632829210035 1:-1 2:0.333333 3:0.333333 4:1 5:-0.333333 6:-1 7:-0.333333 8:-0.333333 9:1 10:0.333333 11:-0.333333 12:-0.333333 13:-0.333333 14:-1 15:-0.333333 16:1 17:1 18:0.333333 19:-0.333333 20:-1 21:-0.333333 22:-1 23:0.333333 24:0.333333 25:-1 26:-0.333333 27:0.333333 28:0.333333 29:1 30:-0.333333 31:-1 32:0.333333 33:0.333333 34:-1 35:-1 36:0.333333 37:-1 38:1 39:-0.333333 40:-0.333333 41:1 42:-0.333333 43:-1 44:-1 45:-1 46:0.333333 47:0.333333 48:0.333333 49:0.333333 50:-1 51:1 52:0.333333 53:1 54:1 55:1 56:-1 57:0.333333 58:1 59:-1 60:-1 
0.05531409529588866 1:-1 2:1 3:-1 4:1 5:1 6:1 7:1 8:-1 9:-1 10:-0.333333 11:-1 12:1 13:-0.333333 14:-0.333333 15:-1 16:0.333333 17:1 18:-0.333333 19:-0.333333 20:-0.333333 21:-1 22:-1 23:-1 24:-1 25:-1 26:0.333333 27:-1 28:1 29:0.333333 30:-1 31:-1 32:0.333333 33:1 34:0.333333 35:0.333333 36:1 37:-0.333333 38:-1 39:-1 40:-0.333333 41:1 42:1 43:-1 44:-0.333333 45:-1 46:-1 47:-1 48:1 49:-1 50:-1 51:-0.333333 52:-1 53:-1 54:1 55:-0.333333 56:-0.333333 57:1 58:1 59:1 60:-0.333333 
0.431832756810561 1:-1 2:1 3:-0.333333 4:-1 5:1 6:-0.333333 7:1 8:1 9:1 10:-0.333333 11:0.333333 12:0.333333 13:1 14:0.333333 15:0.333333 16:-0.333333 17:0.333333 18:0.333333 19:0.333333 20:1 21:-0.333333 22:0.333333 23:0.333333 24:1 25:-0.333333 26:0.333333 27:1 28:0.333333 29:1 30:-0.333333 31:0.333333 32:1 33:-0.333333 34:-0.333333 35:1 36:0.333333 37:1 38:1 39:0.333333 40:-1 41:1 42:0.333333 43:0.333333 44:1 45:0.333333 46:-1 47:1 48:-1 49:1 50:1 51:0.333333 52:0.333333 53:1 54:-0.333333 55:-0.333333 56:-1 57:-0.333333 58:1 59:0.333333 60:1 
1.632801549475036 1:-0.333333 2:-1 3:0.333333 4:1 5:0.333333 6:0.333333 7:-1 8:-1 9:1 10:-0.333333 11:-1 12:-1 13:1 14:1 15:1 16:1 17:0.333333 18:1 19:-0.333333 20:1 21:-1 22:-1 23:1 24:1 25:-0.333333 26:0.333333 27:1 28:-0.333333 29:-1 30:0.333333 31:0.333333 32:0.333333 33:-1 34:-1 35:-0.333333 36:-1 37:-0.333333 38:-0.333333 39:-1 40:-1 41:-1 42:0.333333 43:-1 44:0.333333 45:1 46:0.333333 47:1 48:-1 49:-0.333333 50:-0.333333 51:-1 52:0.333333 53:-0.333333 54:-0.333333 55:-0.333333 56:-0.333333 57:-1 58:-1 59:0.333333 60:-0.333333 
1.232653880850714 1:-1 2:-1 3:0.333333 4:-1 5:-1 6:0.333333 7:-1 8:-1 9:-0.333333 10:-1 11:-1 12:-1 13:0.333333 14:0.333333 15:1 16:0.333333 17:0.333333 18:1 19:-1 20:1 21:-0.333333 22:0.333333 23:-1 24:-0.333333 25:-1 26:1 27:-0.333333 28:-0.333333 29:-0.333333 30:0.333333 31:0.333333 32:1 33:1 34:-1 35:-1 36:-1 37:1 38:-1 39:0.333333 40:-0.333333 41:-0.333333 42:0.333333 43:1 44:-0.333333 45:-0.333333 46:1 47:-0.333333 48:-0.333333 49:-1 50:-0.333333 51:1 52:-0.333333 53:-0.333333 54:-0.333333 55:-1 56:-1 57:0.333333 58:-1 59:0.333333 60:-0.333333 
2 1:-0.333333 2:-1 3:0.333333 4:-1 5:0.333333 6:-0.333333 7:0.333333 8:1 9:-0.333333 10:0.333333 11:1 12:-0.333333 13:-0.333333 14:-0.333333 15:0.333333 16:0.333333 17:-0.333333 18:0.333333 19:-1 20:1 21:-0.333333 22:0.333333 23:1 24:-0.333333 25:0.333333 26:0.333333 27:0.333333 28:0.333333 29:-1 30:-0.333333 31:0.333333 32:1 33:-0.333333 34:-0.333333 35:1 36:0.333333 37:1 38:-0.333333 39:0.333333 40:0.333333 41:-0.333333 42:0.333333 43:0.333333 44:1 45:0.333333 46:-0.333333 47:1 48:0.333333 49:0.333333 50:1 51:0.333333 52:0.333333 53:-0.333333 54:-0.333333 55:1 56:-0.333333 57:0.333333 58:1 59:0.333333 60:0.333333 
0.9890415299190198 1:0.333333 2:-1 3:0.333333 4:1 5:-0.333333 6:-0.333333 7:-1 8:-0.333333 9:1 10:-0.333333 11:0.333333 12:1 13:0.333333 14:-1 15:0.333333 16:-1 17:-0.333333 18:1 19:0.333333 20:1 21:0.333333 22:0.333333 23:1 24:-0.333333 25:-0.333333 26:-0.333333 27:-1 28:-0.333333 29:-1 30:-0.333333 31:-0.333333 32:-1 33:-0.333333 34:0.333333 35:-1 36:0.333333 37:0.333333 38:-1 39:0.333333 40:0.333333 41:0.333333 42:0.333333 43:-1 44:-0.333333 45:-1 46:0.333333 47:-1 48:1 49:1 50:-1 51:0.333333 52:1 53:-0.333333 54:-0.333333 55:1 56:1 57:-1 58:1 59:-1 60:-0.333333 
0.04619664586246649 1:0.333333 2:0.333333 3:-0.333333 4:-0.333333 5:-1 6:-0.333333 7:1 8:-0.333333 9:-0.333333 10:-0.333333 11:-0.333333 12:-1 13:-0.333333 14:-1 15:1 16:0.333333 17:-1 18:-0.333333 19:-1 20:1 21:-0.333333 22:-0.333333 23:-0.333333 24:-0.333333 25:0.333333 26:1 27:0.333333 28:1 29:-0.333333 30:1 31:-0.333333 32:1 33:-1 34:1 35:0.333333 36:-1 37:1 38:-0.333333 39:0.333333 40:-1 41:-1 42:-1 43:-0.333333 44:-0.333333 45:-1 46:0.333333 47:1 48:1 49:1 50:-0.333333 51:0.333333 52:-1 53:1 54:1 55:0.333333 56:1 57:-0.333333 58:1 59:1 60:0.333333 
1.004649318541701 1:1 2:1 3:0.333333 4:1 5:-0.333333 6:-0.333333 7:-1 8:-0.333333 9:-0.333333 10:0.333333 11:-1 12:-0.333333 13:1 14:-1 15:0.333333 16:0.333333 17:-1 18:-0.333333 19:0.333333 20:-1 21:1 22:-0.333333 23:-0.333333 24:-1 25:1 26:-0.333333 27:0.333333 28:-1 29:-0.333333 30:0.333333 31:-1 32:1 33:0.333333 34:1 35:-0.333333 36:0.333333 37:1 38:1 39:0.333333 40:0.333333 41:-0.333333 42:-0.333333 43:1 44:-0.333333 45:0.333333 46:-0.333333 47:-0.333333 48:-0.333333 49:0.333333 50:0.333333 51:1 52:0.333333 53:-1 54:-0.333333 55:-0.333333 56:-1 57:-1 58:0.333333 59:0.333333 60:1 
1.119998818057554 1:1 2:-0.333333 3:0.333333 4:0.333333 5:1 6:-1 7:-0.333333 8:1 9:-1 10:0.333333 11:-1 12:-0.333333 13:0.333333 14:0.333333 15:1 16:-0.333333 17:1 18:1 19:-1 20:0.333333 21:1 22:-1 23:1 24:-0.333333 25:0.333333 26:-1 27:-0.333333 28:0.333333 29:1 30:-1 31:-1 32:1 33:0.333333 34:-1 35:-0.333333 36:-0.333333 37:-0.333333 38:-1 39:-0.333333 40:-1 41:1 42:-1 43:-1 44:1 45:0.333333 46:0.333333 47:1 48:1 49:-0.333333 50:1 51:-1 52:-1 53:-1 54:0.333333 55:0.333333 56:-1 57:-0.333333 58:1 59:-1 60:-1 
1.024954670117836 1:1 2:1 3:-0.333333 4:-0.333333 5:-1 6:-1 7:-1 8:-1 9:-1 10:0.333333 11:1 12:-1 13:-1 14:-1 15:-0.333333 16:-1 17:1 18:0.333333 19:1 20:1 21:1 22:0.333333 23:1 24:0.333333 25:-1 26:-1 27:-1 28:-1 29:1 30:-1 31:-0.333333 32:1 33:-1 34:-1 35:1 36:-0.333333 37:-1 38:-1 39:-1 40:1 41:-0.333333 42:1 43:0.333333 44:1 45:-1 46:1 47:-0.333333 48:-1 49:1 50:1 51:-0.333333 52:-1 53:-1 54:-1 55:-0.333333 56:0.333333 57:1 58:1 59:-1 60:-1 
1.641066322185184 1:-0.333333 2:0.333333 3:-1 4:-1 5:0.333333 6:1 7:0.333333 8:-1 9:1 10:-0.333333 11:-1 12:-1 13:0.333333 14:1 15:1 16:-0.333333 17:-0.333333 18:0.333333 19:0.333333 20:-1 21:1 22:1 23:0.333333 24:1 25:1 26:1 27:-0.333333 28:-0.333333 29:-0.333333 30:1 31:-1 32:1 33:-0.333333 34:-0.333333 35:-0.333333 36:-1 37:0.333333 38:-1 39:1 40:1 41:0.333333 42:0.333333 43:1 44:0.333333 45:1 46:-0.333333 47:-1 48:1 49:0.333333 50:0.333333 51:1 52:-1 53:-1 54:1 55:-0.333333 56:0.333333 57:-1 58:-0.333333 59:1 60:-0.333333 
1.236643649392927 1:-0.333333 2:-1 3:-1 4:1 5:0.333333 6:0.333333 7:0.333333 8:-1 9:-0.333333 10:0.333333 11:-1 12:-0.333333 13:1 14:1 15:1 16:0.333333 17:1 18:1 19:1 20:0.333333 21:1 22:-0.333333 23:1 24:1 25:1 26:1 27:1 28:-0.333333 29:0.333333 30:-0.333333 31:-1 32:-0.333333 33:-0.333333 34:-1 35:0.333333 36:-1 37:0.333333 38:-1 39:-0.333333 40:-1 41:1 42:1 43:-1 44:1 45:0.333333 46:0.333333 47:1 48:1 49:-1 50:1 51:1 52:1 53:-0.333333 54:-0.333333 55:-0.333333 56:1 57:-1 58:0.333333 59:0.333333 60:-1 
1.341308632847525 1:-0.333333 2:-0.333333 3:0.333333 4:-0.333333 5:-1 6:0.333333 7:0.333333 8:0.333333 9:1 10:0.333333 11:0.333333 12:1 13:0.333333 14:1 15:-0.333333 16:-0.333333 17:1 18:-1 19:1 20:0.333333 21:0.333333 22:1 23:-0.333333 24:-0.333333 25:-0.333333 26:0.333333 27:0.333333 28:1 29:0.333333 30:-1 31:0.333333 32:1 33:-0.333333 34:-1 35:-0.333333 36:-1 37:1 38:-0.333333 39:0.333333 40:1 41:1 42:1 43:1 44:0.333333 45:0.333333 46:1 47:-1 48:1 49:0.333333 50:1 51:-0.333333 52:0.333333 53:-1 54:0.333333 55:-1 56:-0.333333 57:-1 58:1 59:0.333333 60:-1 
1.073778957388045 1:-1 2:1 3:1 4:1 5:1 6:-0.333333 7:1 8:1 9:1 10:1 11:-0.333333 12:0.333333 13:1 14:1 15:1 16:1 17:1 18:0.333333 19:1 20:-0.333333 21:-1 22:0.333333 23:1 24:0.333333 25:0.333333 26:-1 27:-0.333333 28:1 29:-0.333333 30:-0.333333 31:-0.333333 32:-0.333333 33:0.333333 34:-1 35:-1 36:-0.333333 37:-1 38:1 39:1 40:1 41:1 42:0.333333 43:0.333333 44:1 45:1 46:1 47:1 48:1 49:1 50:-1 51:1 52:-1 53:0.333333 54:-1 55:0.333333 56:-1 57:1 58:-1 59:-1 60:1 
0.1298137491183507 1:-0.333333 2:-0.333333 3:-1 4:0.333333 5:-1 6:-0.333333 7:0.333333 8:0.333333 9:0.333333 10:0.333333 11:0.333333 12:-1 13:-0.333333 14:-0.333333 15:0.333333 16:0.333333 17:-0.333333 18:1 19:-0.333333 20:0.333333 21:-0.333333 22:-0.333333 23:0.333333 24:-0.333333 25:0.333333 26:1 27:0.333333 28:0.333333 29:0.333333 30:1 31:-0.333333 32:-0.333333 33:-1 34:-0.333333 35:-0.333333 36:-0.333333 37:1 38:-0.333333 39:1 40:0.333333 41:0.333333 42:-1 43:-0.333333 44:-0.333333 45:-1 46:1 47:-0.333333 48:-1 49:-0.333333 50:0.333333 51:1 52:-0.333333 53:-0.333333 54:-1 55:0.333333 56:-1 57:0.333333 58:0.333333 59:0.333333 60:1 
2 1:1 2:-0.333333 3:-1 4:0.333333 5:1 6:-0.333333 7:0.333333 8:-0.333333 9:-0.333333 10:-0.333333 11:-0.333333 12:-1 13:0.333333 14:-0.333333 15:-0.333333 16:0.333333 17:1 18:0.333333 19:1 20:-0.333333 21:-1 22:0.333333 23:-0.333333 24:-1 25:-0.333333 26:-0.333333 27:-1 28:-0.333333 29:-0.333333 30:-1 31:0.333333 32:1 33:-0.333333 34:0.333333 35:-1 36:-0.333333 37:0.333333 38:-1 39:1 40:0.333333 41:-0.333333 42:-1 43:0.333333 44:0.333333 45:0.333333 46:0.333333 47:-1 48:-1 49:-0.333333 50:0.333333 51:1 52:-0.333333 53:-1 54:0.333333 55:0.333333 56:-1 57:-0.333333 58:0.333333 59:1 60:-0.333333 
0.8396845584479365 1:0.333333 2:1 3:1 4:0.333333 5:-1 6:1 7:1 8:1 9:-1 10:-1 11:0.333333 12:1 13:0.333333 14:-1 15:-1 16:0.333333 17:1 18:-1 19:1 20:-1 21:-0.333333 22:-1 23:-1 24:1 25:1 26:-1 27:1 28:1 29:-1 30:-0.333333 31:-0.333333 32:0.333333 33:1 34:-0.333333 35:-0.333333 36:1 37:-0.333333 38:0.333333 39:-0.333333 40:0.333333 41:-1 42:-1 43:-0.333333 44:1 45:-0.333333 46:-1 47:0.333333 48:1 49:-0.333333 50:0.333333 51:-1 52:-0.333333 53:1 54:1 55:1 56:1 57:1 58:-1 59:0.333333 60:0.333333 
2 1:-0.333333 2:1 3:0.333333 4:0.333333 5:-1 6:0.333333 7:1 8:-0.333333 9:1 10:-0.333333 11:-1 12:0.333333 13:0.333333 14:0.333333 15:0.333333 16:1 17:-0.333333 18:1 19:1 20:0.333333 21:0.333333 22:0.333333 23:-1 24:1 25:-0.333333 26:0.333333 27:1 28:-0.333333 29:-1 30:0.333333 31:0.333333 32:1 33:-0.333333 34:1 35:-0.333333 36:1 37:1 38:1 39:0.333333 40:0.333333 41:1 42:0.333333 43:0.333333 44:0.333333 45:0.333333 46:-1 47:-0.333333 48:1 49:0.333333 50:-1 51:1 52:0.333333 53:1 54:1 55:1 56:0.333333 57:1 58:1 59:-0.333333 60:1 
0.3532531319711426 1:-0.333333 2:0.333333 3:1 4:-0.333333 5:-1 6:-0.333333 7:-0.333333 8:-1 9:1 10:-0.333333 11:-1 12:-1 13:-0.333333 14:-1 15:-1 16:1 17:-0.333333 18:-0.333333 19:-1 20:-1 21:-0.333333 22:-1 23:-0.333333 24:-1 25:1 26:1 27:-1 28:0.333333 29:-0.333333 30:-1 31:1 32:0.333333 33:-1 34:1 35:1 36:-0.333333 37:0.333333 38:1 39:-0.333333 40:1 41:0.333333 42:1 43:0.333333 44:0.333333 45:-1 46:-1 47:0.333333 48:0.333333 49:1 50:1 51:0.333333 52:-1 53:0.333333 54:0.333333 55:-1 56:-0.333333 57:1 58:-0.333333 59:-0.333333 60:-1 
2 1:-1 2:-0.333333 3:1 4:1 5:1 6:-0.333333 7:0.333333 8:-1 9:0.333333 10:0.333333 11:1 12:-0.333333 13:1 14:0.333333 15:0.333333 16:0.333333 17:0.333333 18:-1 19:0.333333 20:0.333333 21:0.333333 22:1 23:0.333333 24:0.333333 25:-1 26:0.333333 27:1 28:0.333333 29:-1 30:-0.333333 31:0.333333 32:1 33:-0.333333 34:1 35:0.333333 36:0.333333 37:1 38:-0.333333 39:0.333333 40:-1 41:-0.333333 42:0.333333 43:-1 44:-1 45:-1 46:0.333333 47:-1 48:0.333333 49:1 50:0.333333 51:0.333333 52:-1 53:0.333333 54:0.333333 55:0.333333 56:1 57:0.333333 58:0.333333 59:-1 60:0.333333 
1.674616585316772 1:0.333333 2:0.333333 3:1 4:-1 5:1 6:-0.333333 7:1 8:-1 9:0.333333 10:0.333333 11:1 12:1 13:1 14:0.333333 15:1 16:-1 17:1 18:0.333333 19:0.333333 20:0.333333 21:1 22:0.333333 23:1 24:0.333333 25:1 26:-0.333333 27:-1 28:-1 29:-0.333333 30:0.333333 31:1 32:1 33:0.333333 34:1 35:-0.333333 36:0.333333 37:-1 38:-0.333333 39:-1 40:-1 41:1 42:1 43:0.333333 44:0.333333 45:0.333333 46:-1 47:-0.333333 48:0.333333 49:-1 50:-1 51:-0.333333 52:-1 53:0.333333 54:-1 55:-0.333333 56:-1 57:-0.333333 58:0.333333 59:1 60:1 
2 1:-0.333333 2:0.333333 3:-0.333333 4:0.333333 5:-0.333333 6:0.333333 7:0.333333 8:-0.333333 9:-1 10:-0.333333 11:0.333333 12:-0.333333 13:0.333333 14:0.333333 15:0.333333 16:0.333333 17:-0.333333 18:0.333333 19:1 20:0.333333 21:0.333333 22:-0.333333 23:0.333333 24:0.333333 25:1 26:0.333333 27:-1 28:0.333333 29:0.333333 30:1 31:-0.333333 32:0.333333 33:0.333333 34:-1 35:0.333333 36:0.333333 37:-1 38:-0.333333 39:-0.333333 40:-0.333333 41:-1 42:-0.333333 43:1 44:-0.333333 45:-0.333333 46:-0.333333 47:0.333333 48:-0.333333 49:-0.333333 50:-0.333333 51:0.333333 52:-1 53:1 54:1 55:-0.333333 56:1 57:1 58:0.333333 59:-0.333333 60:0.333333 
0.5484183726410468 1:1 2:-0.333333 3:-1 4:-0.333333 5:-1 6:-0.333333 7:0.333333 8:0.333333 9:1 10:0.333333 11:1 12:-0.333333 13:-1 14:-0.333333 15:0.333333 16:-0.333333 17:0.333333 18:1 19:1 20:0.333333 21:1 22:1 23:-0.333333 24:0.333333 25:-1 26:0.333333 27:1 28:1 29:0.333333 30:-1 31:1 32:-0.333333 33:0.333333 34:1 35:-0.333333 36:-0.333333 37:-0.333333 38:0.333333 39:1 40:-0.333333 41:-0.333333 42:1 43:1 44:1 45:-0.333333 46:0.333333 47:-1 48:0.333333 49:-1 50:0.333333 51:0.333333 52:0.333333 53:0.333333 54:-0.333333 55:1 56:0.333333 57:1 58:1 59:1 60:-0.333333 
0.138782215358421 1:1 2:1 3:0.333333 4:0.333333 5:0.333333 6:0.333333 7:-1 8:-1 9:-0.333333 10:-0.333333 11:0.333333 12:-1 13:-1 14:-1 15:-0.333333 16:0.333333 17:0.333333 18:1 19:1 20:-1 21:1 22:-0.333333 23:-1 24:-1 25:-0.333333 26:-0.333333 27:-1 28:-1 29:-0.333333 30:0.333333 31:-1 32:1 33:0.333333 34:1 35:1 36:-0.333333 37:-0.333333 38:-1 39:-0.333333 40:-0.333333 41:0.333333 42:0.333333 43:-0.333333 44:-1 45:0.333333 46:1 47:-0.333333 48:1 49:-0.333333 50:-1 51:0.333333 52:-1 53:1 54:-1 55:0.333333 56:1 57:-0.333333 58:-1 59:1 60:0.333333 
2 1:-1 2:-0.333333 3:0.333333 4:-0.333333 5:-1 6:1 7:1 8:-0.333333 9:1 10:1 11:-1 12:0.333333 13:0.333333 14:0.333333 15:1 16:1 17:-0.333333 18:-0.333333 19:-0.333333 20:0.333333 21:0.333333 22:1 23:-0.333333 24:-0.333333 25:0.333333 26:-1 27:0.333333 28:1 29:-0.333333 30:-0.333333 31:0.333333 32:0.333333 33:-1 34:-0.333333 35:-0.333333 36:-0.333333 37:-0.333333 38:1 39:1 40:1 41:1 42:1 43:1 44:0.333333 45:-0.333333 46:-0.333333 47:-0.333333 48:-0.333333 49:-0.333333 50:0.333333 51:0.333333 52:-1 53:-0.333333 54:-1 55:-1 56:-0.333333 57:1 58:0.333333 59:0.333333 60:-1 
0.02409233288850408 1:0.333333 2:-1 3:-1 4:-0.333333 5:-1 6:-1 7:-0.333333 8:0.333333 9:0.333333 10:-1 11:-1 12:-1 13:-0.333333 14:0.333333 15:-1 16:-0.333333 17:1 18:-0.333333 19:-1 20:-1 21:-0.333333 22:-0.333333 23:1 24:1 25:-0.333333 26:0.333333 27:-1 28:-0.333333 29:-1 30:-0.333333 31:-1 32:-1 33:1 34:1 35:1 36:1 37:0.333333 38:1 39:1 40:-1 41:0.333333 42:1 43:-1 44:-1 45:-1 46:-1 47:1 48:-0.333333 49:0.333333 50:0.333333 51:-1 52:-1 53:-0.333333 54:-0.333333 55:-1 56:1 57:1 58:0.333333 59:-1 60:1 
2 1:-0.333333 2:-1 3:-0.333333 4:-0.333333 5:1 6:-0.333333 7:-0.333333 8:-0.333333 9:0.333333 10:-0.333333 11:-0.333333 12:0.333333 13:-1 14:-0.333333 15:0.333333 16:-0.333333 17:1 18:0.333333 19:-0.333333 20:0.333333 21:0.333333 22:-0.333333 23:-0.333333 24:0.333333 25:1 26:1 27:0.333333 28:0.333333 29:-1 30:-0.333333 31:-1 32:0.333333 33:-1 34:0.333333 35:0.333333 36:-1 37:-1 38:1 39:-0.333333 40:-0.333333 41:-0.333333 42:-1 43:-1 44:1 45:0.333333 46:0.333333 47:0.333333 48:-1 49:-1 50:1 51:-0.333333 52:-0.333333 53:-0.333333 54:-0.333333 55:-1 56:-1 57:-0.333333 58:1 59:0.333333 60:-0.333333 
1.121749294762304 1:1 2:1 3:-0.333333 4:-1 5:0.333333 6:-1 7:-0.333333 8:0.333333 9:-1 10:-1 11:-1 12:-0.333333 13:-0.333333 14:0.333333 15:1 16:0.333333 17:1 18:0.333333 19:-0.333333 20:-0.333333 21:0.333333 22:1 23:0.333333 24:0.333333 25:1 26:-0.333333 27:-0.333333 28:-1 29:-0.333333 30:1 31:0.333333 32:0.333333 33:1 34:0.333333 35:-1 36:0.333333 37:1 38:-0.333333 39:1 40:0.333333 41:0.333333 42:-1 43:-0.333333 44:0.333333 45:1 46:0.333333 47:-1 48:-0.333333 49:-1 50:-0.333333 51:-0.333333 52:-0.333333 53:-1 54:-0.333333 55:-1 56:-0.333333 57:-0.333333 58:-1 59:-0.333333 60:0.333333 
0.7977199291750325 1:0.333333 2:1 3:0.333333 4:1 5:0.333333 6:1 7:1 8:0.333333 9:1 10:-1 11:0.333333 12:0.333333 13:1 14:1 15:-1 16:-1 17:-1 18:-1 19:1 20:-0.333333 21:1 22:-1 23:-1 24:-1 25:-1 26:0.333333 27:-1 28:-1 29:-1 30:-1 31:-1 32:1 33:-0.333333 34:1 35:-1 36:-1 37:1 38:-0.333333 39:-1 40:1 41:0.333333 42:-1 43:1 44:-1 45:-1 46:-0.333333 47:1 48:0.333333 49:1 50:-1 51:-1 52:-1 53:1 54:-1 55:-1 56:-1 57:1 58:-0.333333 59:-1 60:-1 
0.5924571668132411 1:0.333333 2:1 3:-0.333333 4:-0.333333 5:-0.333333 6:-1 7:-0.333333 8:0.333333 9:-0.333333 10:0.333333 11:1 12:0.333333 13:1 14:1 15:1 16:-0.333333 17:-0.333333 18:-1 19:1 20:0.333333 21:0.333333 22:0.333333 23:-1 24:1 25:0.333333 26:0.333333 27:0.333333 28:1 29:0.333333 30:-1 31:-0.333333 32:-0.333333 33:0.333333 34:1 35:-0.333333 36:-0.333333 37:0.333333 38:0.333333 39:-1 40:-0.333333 41:-1 42:-0.333333 43:1 44:0.333333 45:0.333333 46:0.333333 47:1 48:-0.333333 49:-0.333333 50:0.333333 51:-1 52:-0.333333 53:0.333333 54:1 55:-0.333333 56:-1 57:-0.333333 58:-0.333333 59:-0.333333 60:-1 
0.9788128674109544 1:1 2:0.333333 3:0.333333 4:-1 5:1 6:0.333333 7:1 8:1 9:0.333333 10:1 11:-0.333333 12:0.333333 13:-1 14:-0.333333 15:-0.333333 16:-0.333333 17:1 18:1 19:-1 20:-0.333333 21:1 22:-0.333333 23:-1 24:1 25:-1 26:0.333333 27:-1 28:-0.333333 29:-1 30:1 31:-0.333333 32:0.333333 33:1 34:-1 35:-0.333333 36:0.333333 37:1 38:1 39:1 40:1 41:1 42:0.333333 43:-1 44:0.333333 45:1 46:-1 47:-1 48:-1 49:-0.333333 50:-1 51:-0.333333 52:-0.333333 53:1 54:0.333333 55:1 56:1 57:1 58:1 59:-1 60:-0.333333 
0.9057736829972362 1:-0.333333 2:1 3:1 4:0.333333 5:1 6:-1 7:-1 8:1 9:0.333333 10:-1 11:1 12:1 13:1 14:0.333333 15:-1 16:0.333333 17:0.333333 18:-1 19:1 20:1 21:1 22:1 23:1 24:-0.333333 25:1 26:1 27:-1 28:1 29:1 30:0.333333 31:-0.333333 32:1 33:1 34:1 35:1 36:-1 37:-1 38:-1 39:-1 40:0.333333 41:-1 42:1 43:0.333333 44:1 45:-1 46:1 47:0.333333 48:1 49:-0.333333 50:-0.333333 51:-1 52:-0.333333 53:-0.333333 54:0.333333 55:-1 56:-0.333333 57:-0.333333 58:-1 59:0.333333 60:-1 
0.4166648720124308 1:-0.333333 2:-1 3:1 4:-1 5:1 6:-1 7:1 8:1 9:1 10:-0.333333 11:-1 12:-0.333333 13:-1 14:0.333333 15:-1 16:1 17:1 18:1 19:1 20:0.333333 21:-1 22:-1 23:-0.333333 24:1 25:0.333333 26:1 27:1 28:-1 29:-1 30:1 31:-0.333333 32:-1 33:-1 34:-1 35:0.333333 36:-1 37:1 38:1 39:0.333333 40:1 41:-0.333333 42:0.333333 43:0.333333 44:1 45:-0.333333 46:1 47:-0.333333 48:-1 49:1 50:-1 51:0.333333 52:-1 53:-1 54:-1 55:1 56:0.333333 57:1 58:0.333333 59:0.333333 60:-1 
0.8644984957943517 1:-1 2:1 3:0.333333 4:1 5:1 6:0.333333 7:-0.333333 8:0.333333 9:0.333333 10:1 11:1 12:1 13:-0.333333 14:0.333333 15:0.333333 16:-1 17:0.333333 18:-1 19:1 20:-0.333333 21:0.333333 22:-0.333333 23:-0.333333 24:0.333333 25:-1 26:-0.333333 27:0.333333 28:1 29:-1 30:0.333333 31:-1 32:-0.333333 33:1 34:-0.333333 35:-0.333333 36:-0.333333 37:-0.333333 38:-1 39:-0.333333 40:0.333333 41:1 42:0.333333 43:0.333333 44:-1 45:-0.333333 46:0.333333 47:1 48:-0.333333 49:-1 50:-0.333333 51:0.333333 52:-0.333333 53:1 54:-0.333333 55:-0.333333 56:-1 57:1 58:1 59:-0.333333 60:1 
2 1:1 2:1 3:-0.333333 4:-1 5:-1 6:0.333333 7:1 8:-0.333333 9:-0.333333 10:-0.333333 11:-0.333333 12:-1 13:-1 14:-0.333333 15:0.333333 16:-0.333333 17:-1 18:-1 19:-0.333333 20:-0.333333 21:1 22:-0.333333 23:-0.333333 24:0.333333 25:-1 26:-0.333333 27:1 28:-0.333333 29:-1 30:-0.333333 31:0.333333 32:1 33:-0.333333 34:-1 35:-0.333333 36:-1 37:1 38:1 39:-0.333333 40:0.333333 41:-0.333333 42:0.333333 43:0.333333 44:-1 45:1 46:1 47:-1 48:0.333333 49:-1 50:0.333333 51:1 52:0.333333 53:0.333333 54:-1 55:-0.333333 56:0.333333 57:0.333333 58:1 59:-0.333333 60:-0.333333 
0.01823820174037039 1:-1 2:-0.333333 3:0.333333 4:0.333333 5:0.333333 6:-1 7:-0.333333 8:0.333333 9:1 10:-0.333333 11:1 12:1 13:1 14:-0.333333 15:1 16:0.333333 17:1 18:0.333333 19:0.333333 20:0.333333 21:-1 22:1 23:1 24:1 25:1 26:0.333333 27:1 28:0.333333 29:1 30:-1 31:0.333333 32:1 33:1 34:0.333333 35:1 36:-1 37:-1 38:-1 39:-1 40:1 41:-1 42:0.333333 43:-1 44:1 45:1 46:1 47:0.333333 48:1 49:1 50:0.333333 51:-1 52:0.333333 53:1 54:-1 55:-1 56:-0.333333 57:1 58:-0.333333 59:-1 60:-0.333333 
0.8191923453931084 1:0.333333 2:0.333333 3:0.333333 4:-1 5:-0.333333 6:1 7:-1 8:1 9:-0.333333 10:1 11:0.333333 12:-0.333333 13:1 14:-0.333333 15:-1 16:-1 17:-0.333333 18:1 19:-0.333333 20:1 21:-1 22:-1 23:0.333333 24:-0.333333 25:-1 26:-0.333333 27:-0.333333 28:-0.333333 29:0.333333 30:0.333333 31:0.333333 32:1 33:-1 34:0.333333 35:-1 36:0.333333 37:1 38:0.333333 39:0.333333 40:0.333333 41:0.333333 42:-0.333333 43:-1 44:0.333333 45:-1 46:1 47:0.333333 48:1 49:0.333333 50:1 51:1 52:1 53:0.333333 54:0.333333 55:-1 56:0.333333 57:0.333333 58:1 59:-0.333333 60:-0.333333 
0.4917542886769006 1:0.333333 2:-1 3:-1 4:-1 5:0.333333 6:0.333333 7:0.333333 8:0.333333 9:-0.333333 10:0.333333 11:0.333333 12:0.333333 13:1 14:1 15:-0.333333 16:0.333333 17:1 18:0.333333 19:0.333333 20:-0.333333 21:-0.333333 22:-1 23:0.333333 24:-1 25:0.333333 26:0.333333 27:0.333333 28:0.333333 29:0.333333 30:-1 31:1 32:0.333333 33:0.333333 34:-1 35:0.333333 36:0.333333 37:-1 38:-0.333333 39:-0.333333 40:-1 41:-0.333333 42:-0.333333 43:-0.333333 44:1 45:1 46:1 47:1 48:0.333333 49:1 50:-0.333333 51:-0.333333 52:0.333333 53:-0.333333 54:-0.333333 55:0.333333 56:1 57:0.333333 58:0.333333 59:1 60:-0.333333 
0.995522791893153 1:-0.333333 2:1 3:-1 4:1 5:0.333333 6:0.333333 7:0.333333 8:0.333333 9:-1 10:0.333333 11:1 12:-0.333333 13:0.333333 14:0.333333 15:1 16:1 17:-0.333333 18:1 19:-1 20:1 21:-0.333333 22:1 23:-0.333333 24:-0.333333 25:1 26:-0.333333 27:-1 28:-1 29:-1 30:0.333333 31:0.333333 32:-1 33:-1 34:-1 35:-0.333333 36:-0.333333 37:-0.333333 38:1 39:1 40:-1 41:0.333333 42:1 43:1 44:1 45:1 46:-1 47:0.333333 48:-1 49:0.333333 50:1 51:1 52:-1 53:-1 54:1 55:0.333333 56:1 57:-1 58:1 59:-1 60:-0.333333 
2 1:1 2:0.333333 3:-0.333333 4:1 5:0.333333 6:0.333333 7:0.333333 8:1 9:1 10:0.333333 11:0.333333 12:0.333333 13:1 14:0.333333 15:0.333333 16:0.333333 17:0.333333 18:-0.333333 19:-1 20:0.333333 21:-1 22:-0.333333 23:-0.333333 24:1 25:0.333333 26:-1 27:0.333333 28:-1 29:1 30:-1 31:-1 32:0.333333 33:-1 34:-0.333333 35:0.333333 36:1 37:-0.333333 38:0.333333 39:-1 40:1 41:0.333333 42:-1 43:1 44:1 45:-0.333333 46:-1 47:0.333333 48:0.333333 49:-0.333333 50:0.333333 51:-1 52:0.333333 53:-1 54:-0.333333 55:0.333333 56:-0.333333 57:0.333333 58:0.333333 59:-1 60:1 
0.3331308864472567 1:-0.333333 2:0.333333 3:1 4:1 5:1 6:0.333333 7:-1 8:1 9:-0.333333 10:-1 11:-1 12:1 13:1 14:0.333333 15:1 16:-0.333333 17:1 18:0.333333 19:-1 20:1 21:1 22:1 23:0.333333 24:-1 25:-1 26:-1 27:-0.333333 28:-1 29:0.333333 30:1 31:0.333333 32:1 33:0.333333 34:-1 35:0.333333 36:0.333333 37:0.333333 38:0.333333 39:1 40:-0.333333 41:0.333333 42:1 43:-1 44:1 45:-1 46:-1 47:0.333333 48:1 49:-1 50:1 51:-0.333333 52:-1 53:0.333333 54:0.333333 55:-1 56:1 57:-0.333333 58:0.333333 59:1 60:-0.333333 
0.311398931014471 1:0.333333 2:0.333333 3:-1 4:0.333333 5:0.333333 6:-1 7:0.333333 8:-1 9:0.333333 10:1 11:-0.333333 12:0.333333 13:-1 14:1 15:-0.333333 16:1 17:-0.333333 18:-0.333333 19:0.333333 20:1 21:0.333333 22:0.333333 23:0.333333 24:0.333333 25:-1 26:-0.333333 27:-0.333333 28:-0.333333 29:0.333333 30:-1 31:0.333333 32:-1 33:-0.333333 34:0.333333 35:0.333333 36:-1 37:1 38:-0.333333 39:-0.333333 40:0.333333 41:1 42:-0.333333 43:1 44:0.333333 45:-1 46:-0.333333 47:1 48:-1 49:0.333333 50:0.333333 51:1 52:1 53:0.333333 54:0.333333 55:-0.333333 56:-1 57:-1 58:-1 59:-0.333333 60:0.333333 
1.267287221260305 1:0.333333 2:-0.333333 3:-0.333333 4:1 5:-0.333333 6:1 7:-0.333333 8:0.333333 9:0.333333 10:-0.333333 11:-0.333333 12:-0.333333 13:0.333333 14:1 15:0.333333 16:0.333333 17:1 18:-0.333333 19:-1 20:1 21:-0.333333 22:-1 23:0.333333 24:0.333333 25:0.333333 26:1 27:0.333333 28:-1 29:-1 30:-0.333333 31:-0.333333 32:-0.333333 33:-1 34:0.333333 35:1 36:1 37:0.333333 38:0.333333 39:0.333333 40:-1 41:-0.333333 42:0.333333 43:-1 44:0.333333 45:0.333333 46:1 47:-1 48:0.333333 49:-1 50:-1 51:0.333333 52:-1 53:-1 54:-1 55:-0.333333 56:-1 57:0.333333 58:1 59:1 60:-1 
2 1:0.333333 2:-1 3:-0.333333 4:0.333333 5:-0.333333 6:0.333333 7:-1 8:-0.333333 9:-1 10:0.333333 11:-0.333333 12:1 13:0.333333 14:-1 15:-0.333333 16:-0.333333 17:-0.333333 18:-1 19:1 20:-1 21:1 22:1 23:1 24:-1 25:1 26:-1 27:-1 28:0.333333 29:-1 30:-1 31:-1 32:0.333333 33:0.333333 34:0.333333 35:0.333333 36:0.333333 37:1 38:1 39:1 40:0.333333 41:-1 42:-1 43:-0.333333 44:0.333333 45:-1 46:-1 47:-0.333333 48:1 49:-0.333333 50:-1 51:1 52:-0.333333 53:0.333333 54:1 55:-0.333333 56:-1 57:-1 58:-0.333333 59:-0.333333 60:-0.333333 
2 1:1 2:-1 3:0.333333 4:-1 5:-0.333333 6:0.333333 7:0.333333 8:-1 9:0.333333 10:0.333333 11:-1 12:1 13:-0.333333 14:-1 15:-0.333333 16:-1 17:-1 18:-0.333333 19:-0.333333 20:-1 21:0.333333 22:-1 23:0.333333 24:1 25:0.333333 26:-0.333333 27:0.333333 28:1 29:-0.333333 30:0.333333 31:0.333333 32:1 33:-0.333333 34:-0.333333 35:-0.333333 36:1 37:-0.333333 38:0.333333 39:-0.333333 40:-1 41:0.333333 42:1 43:-0.333333 44:0.333333 45:-1 46:0.333333 47:-1 48:-0.333333 49:0.333333 50:-1 51:-0.333333 52:1 53:1 54:0.333333 55:0.333333 56:-1 57:0.333333 58:-1 59:-0.333333 60:-0.333333 
0.0652743300028529 1:1 2:-1 3:1 4:1 5:0.333333 6:1 7:-0.333333 8:0.333333 9:0.333333 10:-1 11:-1 12:1 13:0.333333 14:-1 15:0.333333 16:-1 17:1 18:1 19:1 20:0.333333 21:1 22:0.333333 23:1 24:1 25:0.333333 26:-1 27:-1 28:0.333333 29:1 30:-1 31:1 32:-0.333333 33:0.333333 34:0.333333 35:1 36:1 37:-0.333333 38:1 39:-0.333333 40:-1 41:1 42:-1 43:1 44:-1 45:-0.333333 46:1 47:1 48:1 49:-0.333333 50:-0.333333 51:0.333333 52:1 53:0.333333 54:1 55:-0.333333 56:1 57:0.333333 58:0.333333 59:0.333333 60:0.333333 
0.614000906228467 1:-0.333333 2:-1 3:1 4:1 5:0.333333 6:1 7:1 8:-1 9:0.333333 10:-1 11:-0.333333 12:-1 13:-1 14:-1 15:-1 16:0.333333 17:-1 18:-1 19:-0.333333 20:1 21:-0.333333 22:-0.333333 23:1 24:1 25:-1 26:1 27:-1 28:-0.333333 29:-1 30:1 31:-0.333333 32:-0.333333 33:1 34:-0.333333 35:-1 36:-1 37:-1 38:0.333333 39:0.333333 40:1 41:-0.333333 42:1 43:1 44:1 45:-0.333333 46:1 47:1 48:-0.333333 49:-0.333333 50:-1 51:0.333333 52:-1 53:1 54:-1 55:0.333333 56:1 57:-0.333333 58:-0.333333 59:-1 60:1 
0.9761812627655708 1:1 2:1 3:0.333333 4:1 5:0.333333 6:0.333333 7:1 8:1 9:0.333333 10:1 11:-1 12:0.333333 13:0.333333 14:-1 15:0.333333 16:1 17:0.333333 18:-1 19:-0.333333 20:0.333333 21:1 22:-0.333333 23:1 24:-1 25:1 26:-0.333333 27:-0.333333 28:-1 29:-1 30:1 31:-0.333333 32:-0.333333 33:-0.333333 34:-0.333333 35:-0.333333 36:1 37:-1 38:-1 39:0.333333 40:0.333333 41:0.333333 42:1 43:-1 44:0.333333 45:-1 46:-0.333333 47:-0.333333 48:1 49:-1 50:-1 51:-1 52:-0.333333 53:-0.333333 54:-0.333333 55:0.333333 56:-0.333333 57:-1 58:-0.333333 59:1 60:-0.333333 
0.2686118795927198 1:-1 2:-0.333333 3:-1 4:1 5:-0.333333 6:0.333333 7:1 8:1 9:1 10:0.333333 11:0.333333 12:1 13:-1 14:-1 15:-0.333333 16:0.333333 17:0.333333 18:-1 19:-0.333333 20:-1 21:-0.333333 22:-0.333333 23:-1 24:-1 25:-0.333333 26:1 27:-0.333333 28:1 29:-0.333333 30:-1 31:-0.333333 32:0.333333 33:0.333333 34:0.333333 35:-1 36:-1 37:-1 38:-0.333333 39:-0.333333 40:-1 41:0.333333 42:0.333333 43:0.333333 44:1 45:1 46:-0.333333 47:-1 48:1 49:0.333333 50:-1 51:-1 52:1 53:1 54:0.333333 55:1 56:-0.333333 57:-1 58:-1 59:1 60:1 
0.02231692836336232 1:0.333333 2:0.333333 3:1 4:-0.333333 5:1 6:-0.333333 7:-0.333333 8:-0.333333 9:1 10:-0.333333 11:-1 12:-1 13:-0.333333 14:-1 15:-0.333333 16:-1 17:-0.333333 18:-1 19:-0.333333 20:-0.333333 21:-0.333333 22:-1 23:-1 24:-1 25:0.333333 26:-1 27:0.333333 28:-1 29:-0.333333 30:0.333333 31:-1 32:-0.333333 33:0.333333 34:-1 35:1 36:0.333333 37:1 38:0.333333 39:1 40:0.333333 41:0.333333 42:-1 43:0.333333 44:1 45:-0.333333 46:-1 47:-1 48:-1 49:-0.333333 50:-1 51:-1 52:-0.333333 53:1 54:-0.333333 55:-0.333333 56:-0.333333 57:-1 58:0.333333 59:1 60:1 
0.4083728394172964 1:0.333333 2:0.333333 3:0.333333 4:-1 5:1 6:0.333333 7:1 8:1 9:-1 10:-1 11:1 12:0.333333 13:0.333333 14:0.333333 15:-0.333333 16:-1 17:-0.333333 18:-1 19:-0.333333 20:1 21:0.333333 22:0.333333 23:-0.333333 24:-0.333333 25:-1 26:-0.333333 27:-0.333333 28:-0.333333 29:0.333333 30:1 31:-0.333333 32:1 33:-0.333333 34:0.333333 35:1 36:-1 37:0.333333 38:0.333333 39:0.333333 40:0.333333 41:-1 42:-1 43:-0.333333 44:-1 45:-1 46:-0.333333 47:-1 48:-0.333333 49:-0.333333 50:-1 51:-1 52:-0.333333 53:-0.333333 54:-1 55:1 56:0.333333 57:-1 58:-0.333333 59:-0.333333 60:-0.333333 
2 1:0.333333 2:1 3:-0.333333 4:1 5:0.333333 6:1 7:0.333333 8:1 9:0.333333 10:1 11:0.333333 12:0.333333 13:0.333333 14:0.333333 15:1 16:0.333333 17:0.333333 18:0.333333 19:1 20:0.333333 21:0.333333 22:0.333333 23:1 24:0.333333 25:0.333333 26:1 27:1 28:-0.333333 29:-0.333333 30:0.333333 31:-0.333333 32:0.333333 33:0.333333 34:1 35:1 36:0.333333 37:1 38:0.333333 39:-0.333333 40:-0.333333 41:0.333333 42:1 43:0.333333 44:-0.333333 45:0.333333 46:0.333333 47:-0.333333 48:0.333333 49:0.333333 50:-0.333333 51:0.333333 52:0.333333 53:-0.333333 54:0.333333 55:0.333333 56:-0.333333 57:0.333333 58:0.333333 59:1 60:0.333333 
2 1:-0.333333 2:-0.333333 3:0.333333 4:1 5:-0.333333 6:1 7:1 8:1 9:0.333333 10:0.333333 11:1 12:1 13:1 14:-0.333333 15:-0.333333 16:-0.333333 17:0.333333 18:1 19:-1 20:1 21:0.333333 22:0.333333 23:-1 24:1 25:-0.333333 26:1 27:0.333333 28:0.333333 29:-1 30:0.333333 31:0.333333 32:1 33:-1 34:0.333333 35:-1 36:0.333333 37:1 38:-0.333333 39:0.333333 40:0.333333 41:0.333333 42:1 43:1 44:1 45:1 46:1 47:-1 48:-1 49:1 50:0.333333 51:0.333333 52:1 53:1 54:-1 55:0.333333 56:-1 57:-1 58:1 59:1 60:1 
1.848499289190995 1:-1 2:0.333333 3:-0.333333 4:-0.333333 5:-1 6:-0.333333 7:0.333333 8:-0.333333 9:-0.333333 10:-0.333333 11:1 12:-0.333333 13:0.333333 14:-0.333333 15:-0.333333 16:1 17:1 18:0.333333 19:0.333333 20:1 21:-0.333333 22:0.333333 23:-1 24:0.333333 25:-1 26:-0.333333 27:-1 28:-0.333333 29:-1 30:0.333333 31:-1 32:1 33:0.333333 34:1 35:-1 36:1 37:-1 38:-1 39:0.333333 40:0.333333 41:-1 42:-1 43:-0.333333 44:-1 45:-0.333333 46:-0.333333 47:-1 48:-0.333333 49:-0.333333 50:-1 51:0.333333 52:1 53:1 54:-0.333333 55:0.333333 56:-0.333333 57:0.333333 58:1 59:1 60:0.333333 
1.432501988957259 1:-0.333333 2:-0.333333 3:1 4:-0.333333 5:-1 6:1 7:-1 8:-0.333333 9:-0.333333 10:-1 11:0.333333 12:1 13:-1 14:-0.333333 15:-1 16:-0.333333 17:-0.333333 18:-1 19:-0.333333 20:1 21:-1 22:-1 23:0.333333 24:1 25:-0.333333 26:-0.333333 27:-1 28:1 29:-1 30:1 31:1 32:1 33:0.333333 34:-1 35:0.333333 36:0.333333 37:1 38:1 39:0.333333 40:-1 41:-1 42:0.333333 43:1 44:1 45:-1 46:1 47:-1 48:0.333333 49:0.333333 50:1 51:-0.333333 52:-1 53:-1 54:-0.333333 55:0.333333 56:1 57:-0.333333 58:0.333333 59:0.333333 60:0.333333 
0.05486177592340827 1:1 2:0.333333 3:0.333333 4:-0.333333 5:-0.333333 6:0.333333 7:-1 8:-1 9:-0.333333 10:-1 11:-1 12:0.333333 13:0.333333 14:0.333333 15:-1 16:0.333333 17:1 18:-1 19:-0.333333 20:0.333333 21:-1 22:-1 23:-0.333333 24:1 25:1 26:1 27:1 28:-0.333333 29:-0.333333 30:1 31:1 32:1 33:0.333333 34:0.333333 35:0.333333 36:1 37:0.333333 38:-1 39:-1 40:-0.333333 41:-0.333333 42:-1 43:-0.333333 44:-0.333333 45:-0.333333 46:-0.333333 47:-0.333333 48:0.333333 49:-1 50:0.333333 51:0.333333 52:0.333333 53:0.333333 54:-1 55:-1 56:-0.333333 57:0.333333 58:-0.333333 59:-0.333333 60:-0.333333 
1.375134143312569 1:1 2:-0.333333 3:-0.333333 4:-0.333333 5:1 6:1 7:0.333333 8:0.333333 9:-1 10:-1 11:-1 12:1 13:1 14:-1 15:-1 16:1 17:-1 18:-0.333333 19:1 20:1 21:-0.333333 22:1 23:-1 24:-1 25:-0.333333 26:1 27:-1 28:1 29:-0.333333 30:-1 31:-0.333333 32:1 33:0.333333 34:1 35:-0.333333 36:0.333333 37:0.333333 38:-1 39:-0.333333 40:1 41:0.333333 42:-1 43:-1 44:1 45:-1 46:-1 47:-1 48:1 49:-1 50:0.333333 51:-1 52:1 53:-0.333333 54:-0.333333 55:-1 56:1 57:-1 58:1 59:-1 60:-1 
0.9938532820399602 1:0.333333 2:1 3:1 4:0.333333 5:-1 6:-1 7:-1 8:-0.333333 9:0.333333 10:1 11:-0.333333 12:-1 13:-0.333333 14:-1 15:-1 16:-0.333333 17:-1 18:-1 19:-1 20:1 21:0.333333 22:1 23:-0.333333 24:0.333333 25:-1 26:-0.333333 27:-1 28:-1 29:0.333333 30:-1 31:-1 32:1 33:-0.333333 34:0.333333 35:1 36:-0.333333 37:-1 38:-0.333333 39:1 40:-0.333333 41:-0.333333 42:-0.333333 43:1 44:1 45:1 46:-1 47:1 48:0.333333 49:-1 50:-1 51:-0.333333 52:-0.333333 53:-0.333333 54:-0.333333 55:0.333333 56:0.333333 57:-1 58:1 59:1 60:-1 
0.4912395152577732 1:-0.333333 2:-0.333333 3:-1 4:0.333333 5:0.333333 6:0.333333 7:1 8:-1 9:-1 10:-0.333333 11:0.333333 12:1 13:0.333333 14:0.333333 15:-1 16:-0.333333 17:-1 18:1 19:-0.333333 20:-0.333333 21:-0.333333 22:0.333333 23:-1 24:-1 25:-0.333333 26:-1 27:-1 28:-0.333333 29:0.333333 30:1 31:0.333333 32:0.333333 33:0.333333 34:-0.333333 35:0.333333 36:1 37:0.333333 38:0.333333 39:-1 40:0.333333 41:0.333333 42:1 43:0.333333 44:-1 45:0.333333 46:0.333333 47:0.333333 48:1 49:-0.333333 50:0.333333 51:0.333333 52:0.333333 53:0.333333 54:-1 55:-0.333333 56:-0.333333 57:0.333333 58:0.333333 59:1 60:1 
0.3892160997509688 1:-1 2:1 3:1 4:1 5:1 6:1 7:0.333333 8:-1 9:-0.333333 10:-1 11:1 12:-1 13:0.333333 14:-1 15:-1 16:1 17:-0.333333 18:1 19:-0.333333 20:-1 21:-1 22:-0.333333 23:-1 24:0.333333 25:-1 26:1 27:1 28:-0.333333 29:-1 30:-1 31:-0.333333 32:-1 33:1 34:-1 35:1 36:-0.333333 37:1 38:-0.333333 39:-0.333333 40:1 41:0.333333 42:0.333333 43:1 44:0.333333 45:0.333333 46:1 47:-0.333333 48:-1 49:-1 50:-1 51:-0.333333 52:1 53:0.333333 54:-1 55:0.333333 56:1 57:-0.333333 58:-0.333333 59:0.333333 60:1 
2 1:1 2:1 3:1 4:-0.333333 5:-0.333333 6:-1 7:-1 8:0.333333 9:0.333333 10:1 11:-1 12:-0.333333 13:-1 14:0.333333 15:-1 16:1 17:0.333333 18:0.333333 19:0.333333 20:0.333333 21:0.333333 22:0.333333 23:1 24:1 25:-0.333333 26:0.333333 27:0.333333 28:1 29:-0.333333 30:-0.333333 31:-1 32:0.333333 33:1 34:0.333333 35:1 36:-0.333333 37:-1 38:-0.333333 39:0.333333 40:1 41:-0.333333 42:-1 43:0.333333 44:0.333333 45:-0.333333 46:-1 47:-1 48:1 49:1 50:0.333333 51:0.333333 52:0.333333 53:0.333333 54:0.333333 55:1 56:-0.333333 57:0.333333 58:-0.333333 59:0.333333 60:-1 
1.735452132252582 1:0.333333 2:-0.333333 3:-0.333333 4:-0.333333 5:-0.333333 6:1 7:0.333333 8:-1 9:0.333333 10:-0.333333 11:1 12:-0.333333 13:0.333333 14:1 15:0.333333 16:-0.333333 17:0.333333 18:0.333333 19:-1 20:-1 21:-0.333333 22:-0.333333 23:-1 24:-0.333333 25:0.333333 26:1 27:0.333333 28:-0.333333 29:-1 30:-0.333333 31:-0.333333 32:0.333333 33:-0.333333 34:1 35:1 36:0.333333 37:-1 38:-0.333333 39:-0.333333 40:-0.333333 41:-1 42:-0.333333 43:-0.333333 44:0.333333 45:0.333333 46:-1 47:-1 48:-1 49:0.333333 50:-0.333333 51:1 52:0.333333 53:-1 54:0.333333 55:0.333333 56:-0.333333 57:1 58:0.333333 59:0.333333 60:0.333333 
0.9242706315520761 1:0.333333 2:1 3:0.333333 4:1 5:1 6:1 7:-0.333333 8:1 9:0.333333 10:0.333333 11:1 12:1 13:1 14:-0.333333 15:-0.333333 16:-0.333333 17:0.333333 18:0.333333 19:0.333333 20:1 21:1 22:-0.333333 23:-0.333333 24:1 25:-0.333333 26:-0.333333 27:-1 28:-0.333333 29:-1 30:-1 31:0.333333 32:-1 33:-0.333333 34:1 35:-0.333333 36:0.333333 37:-1 38:1 39:0.333333 40:0.333333 41:1 42:1 43:0.333333 44:-1 45:-0.333333 46:-1 47:-1 48:0.333333 49:-1 50:-0.333333 51:1 52:-0.333333 53:0.333333 54:-1 55:1 56:0.333333 57:1 58:1 59:-1 60:-1 
1.452270069615084 1:1 2:-0.333333 3:1 4:1 5:0.333333 6:0.333333 7:1 8:-0.333333 9:0.333333 10:0.333333 11:1 12:1 13:-1 14:-1 15:0.333333 16:1 17:-0.333333 18:-1 19:1 20:-0.333333 21:-1 22:0.333333 23:-1 24:1 25:1 26:-0.333333 27:1 28:0.333333 29:1 30:1 31:-0.333333 32:1 33:-0.333333 34:-1 35:-1 36:-1 37:-0.333333 38:1 39:0.333333 40:0.333333 41:1 42:1 43:0.333333 44:1 45:0.333333 46:0.333333 47:1 48:-0.333333 49:-0.333333 50:0.333333 51:1 52:0.333333 53:-1 54:1 55:0.333333 56:0.333333 57:1 58:-0.333333 59:-0.333333 60:0.333333 
0.2538374662197667 1:1 2:-0.333333 3:-1 4:0.333333 5:-1 6:1 7:-0.333333 8:0.333333 9:1 10:-0.333333 11:-0.333333 12:-1 13:-0.333333 14:1 15:0.333333 16:1 17:-1 18:-0.333333 19:-1 20:-1 21:0.333333 22:0.333333 23:1 24:0.333333 25:0.333333 26:0.333333 27:-1 28:-1 29:-1 30:0.333333 31:1 32:0.333333 33:-1 34:1 35:1 36:1 37:-0.333333 38:-0.333333 39:1 40:-0.333333 41:1 42:1 43:-0.333333 44:-1 45:-0.333333 46:-1 47:-1 48:1 49:1 50:-0.333333 51:0.333333 52:0.333333 53:1 54:-0.333333 55:-1 56:-0.333333 57:-0.333333 58:1 59:-0.333333 60:0.333333 
0.6457263650152903 1:1 2:1 3:1 4:-0.333333 5:0.333333 6:0.333333 7:0.333333 8:0.333333 9:1 10:-0.333333 11:-0.333333 12:0.333333 13:-1 14:-1 15:-1 16:1 17:-0.333333 18:0.333333 19:-1 20:0.333333 21:-1 22:0.333333 23:-1 24:0.333333 25:0.333333 26:1 27:0.333333 28:-1 29:1 30:-0.333333 31:0.333333 32:1 33:-1 34:-0.333333 35:0.333333 36:0.333333 37:1 38:0.333333 39:-1 40:0.333333 41:-0.333333 42:-1 43:-1 44:-1 45:0.333333 46:1 47:-0.333333 48:-0.333333 49:-1 50:-1 51:1 52:-1 53:-1 54:-0.333333 55:0.333333 56:0.333333 57:1 58:1 59:0.333333 60:-0.333333 
0.7708091554264243 1:-1 2:-1 3:0.333333 4:1 5:0.333333 6:-1 7:-1 8:-1 9:0.333333 10:-1 11:-0.333333 12:-1 13:-1 14:-0.333333 15:-0.333333 16:1 17:-0.333333 18:1 19:0.333333 20:1 21:-0.333333 22:1 23:1 24:-1 25:-1 26:1 27:-0.333333 28:-1 29:-0.333333 30:-1 31:-0.333333 32:-1 33:-0.333333 34:1 35:-0.333333 36:-1 37:1 38:-0.333333 39:0.333333 40:0.333333 41:0.333333 42:-1 43:1 44:0.333333 45:1 46:-0.333333 47:0.333333 48:0.333333 49:1 50:-1 51:0.333333 52:0.333333 53:-1 54:1 55:0.333333 56:0.333333 57:-1 58:-1 59:-0.333333 60:-0.333333 
0.3068250873959292 1:0.333333 2:-1 3:1 4:-1 5:1 6:-0.333333 7:1 8:1 9:-0.333333 10:-1 11:-1 12:-1 13:-1 14:-1 15:1 16:-0.333333 17:-1 18:1 19:0.333333 20:-1 21:-1 22:-1 23:1 24:0.333333 25:-1 26:-0.333333 27:-0.333333 28:-1 29:1 30:-1 31:1 32:1 33:1 34:-1 35:-0.333333 36:-0.333333 37:-1 38:1 39:-0.333333 40:1 41:-0.333333 42:0.333333 43:-1 44:1 45:0.333333 46:-1 47:-0.333333 48:0.333333 49:1 50:0.333333 51:-1 52:1 53:-0.333333 54:1 55:-1 56:1 57:1 58:1 59:-1 60:0.333333 
0.1341408222666608 1:1 2:1 3:1 4:1 5:1 6:1 7:1 8:0.333333 9:1 10:1 11:1 12:1 13:-0.333333 14:0.333333 15:1 16:-0.333333 17:1 18:1 19:1 20:1 21:1 22:0.333333 23:1 24:1 25:1 26:-0.333333 27:1 28:1 29:1 30:1 31:1 32:-0.333333 33:-1 34:-0.333333 35:-1 36:0.333333 37:-1 38:-0.333333 39:-0.333333 40:-0.333333 41:0.333333 42:1 43:1 44:-0.333333 45:0.333333 46:1 47:0.333333 48:1 49:-0.333333 50:1 51:-0.333333 52:0.333333 53:0.333333 54:-1 55:0.333333 56:0.333333 57:0.333333 58:-1 59:-0.333333 60:-0.333333 
0.613319561455642 1:-0.333333 2:-1 3:-0.333333 4:0.333333 5:1 6:-0.333333 7:-1 8:-0.333333 9:0.333333 10:-1 11:-0.333333 12:0.333333 13:0.333333 14:1 15:-0.333333 16:-1 17:-0.333333 18:-1 19:1 20:0.333333 21:1 22:-0.333333 23:-1 24:-0.333333 25:-0.333333 26:-1 27:0.333333 28:-1 29:0.333333 30:-0.333333 31:-0.333333 32:0.333333 33:0.333333 34:-0.333333 35:1 36:-0.333333 37:1 38:-1 39:1 40:1 41:-1 42:0.333333 43:1 44:-0.333333 45:1 46:-0.333333 47:0.333333 48:-0.333333 49:-1 50:0.333333 51:0.333333 52:-0.333333 53:0.333333 54:-1 55:-1 56:0.333333 57:1 58:-0.333333 59:-0.333333 60:-1 
2 1:-1 2:-1 3:-0.333333 4:-0.333333 5:-0.333333 6:-1 7:-0.333333 8:1 9:-0.333333 10:-0.333333 11:0.333333 12:1 13:1 14:0.333333 15:0.333333 16:1 17:0.333333 18:1 19:0.333333 20:1 21:-0.333333 22:0.333333 23:0.333333 24:1 25:0.333333 26:1 27:-0.333333 28:1 29:-0.333333 30:0.333333 31:0.333333 32:0.333333 33:-1 34:0.333333 35:1 36:-0.333333 37:-1 38:0.333333 39:-1 40:1 41:-0.333333 42:1 43:-1 44:-0.333333 45:-0.333333 46:-0.333333 47:-0.333333 48:-1 49:-0.333333 50:-1 51:-0.333333 52:-0.333333 53:-0.333333 54:-0.333333 55:-1 56:-1 57:-0.333333 58:-1 59:1 60:-0.333333 
0.4499428072429013 1:1 2:1 3:1 4:-1 5:0.333333 6:-1 7:0.333333 8:0.333333 9:1 10:-0.333333 11:0.333333 12:0.333333 13:-1 14:-1 15:-0.333333 16:1 17:-0.333333 18:-0.333333 19:-1 20:-0.333333 21:0.333333 22:-1 23:0.333333 24:0.333333 25:0.333333 26:-1 27:-1 28:-0.333333 29:0.333333 30:-0.333333 31:1 32:-0.333333 33:-1 34:0.333333 35:-0.333333 36:-1 37:-0.333333 38:0.333333 39:0.333333 40:0.333333 41:1 42:0.333333 43:1 44:0.333333 45:-1 46:0.333333 47:-1 48:-0.333333 49:1 50:-0.333333 51:-0.333333 52:-1 53:-1 54:1 55:-0.333333 56:-0.333333 57:-1 58:-0.333333 59:-1 60:-0.333333 
2 1:0.333333 2:0.333333 3:-0.333333 4:0.333333 5:-0.333333 6:0.333333 7:0.333333 8:0.333333 9:1 10:-0.333333 11:-0.333333 12:1 13:1 14:0.333333 15:0.333333 16:0.333333 17:0.333333 18:-1 19:-0.333333 20:-0.333333 21:-0.333333 22:0.333333 23:0.333333 24:0.333333 25:0.333333 26:-1 27:-0.333333 28:0.333333 29:-0.333333 30:-0.333333 31:-1 32:0.333333 33:-0.333333 34:1 35:-0.333333 36:-0.333333 37:1 38:0.333333 39:0.333333 40:-1 41:1 42:0.333333 43:0.333333 44:0.333333 45:0.333333 46:1 47:1 48:0.333333 49:1 50:-0.333333 51:0.333333 52:-1 53:1 54:0.333333 55:0.333333 56:1 57:0.333333 58:0.333333 59:-0.333333 60:0.333333 
1.584846945987172 1:0.333333 2:-1 3:1 4:0.333333 5:-0.333333 6:1 7:0.333333 8:1 9:-1 10:0.333333 11:0.333333 12:1 13:-0.333333 14:-0.333333 15:-0.333333 16:1 17:0.333333 18:-0.333333 19:0.333333 20:1 21:0.333333 22:-1 23:-1 24:-0.333333 25:-0.333333 26:0.333333 27:1 28:1 29:-1 30:-1 31:0.333333 32:1 33:0.333333 34:0.333333 35:-1 36:-1 37:0.333333 38:-1 39:0.333333 40:-0.333333 41:0.333333 42:-1 43:-1 44:-0.333333 45:-0.333333 46:-0.333333 47:-0.333333 48:-1 49:-0.333333 50:-1 51:1 52:-0.333333 53:-1 54:-1 55:-0.333333 56:1 57:1 58:1 59:-0.333333 60:-1 
1.188980247152523 1:-0.333333 2:0.333333 3:-1 4:-0.333333 5:1 6:-1 7:-1 8:-1 9:-1 10:-0.333333 11:0.333333 12:-1 13:0.333333 14:-1 15:1 16:0.333333 17:-1 18:-0.333333 19:-0.333333 20:1 21:-0.333333 22:-1 23:-1 24:-1 25:-1 26:-1 27:1 28:0.333333 29:-1 30:0.333333 31:-1 32:1 33:-0.333333 34:1 35:-0.333333 36:-0.333333 37:-1 38:1 39:1 40:1 41:1 42:1 43:-0.333333 44:1 45:-1 46:-1 47:-1 48:1 49:-0.333333 50:0.333333 51:0.333333 52:1 53:1 54:-1 55:-1 56:1 57:1 58:-0.333333 59:-1 60:-1 
0.1955323223209039 1:-1 2:1 3:0.333333 4:0.333333 5:-1 6:-0.333333 7:-1 8:-1 9:0.333333 10:1 11:-0.333333 12:0.333333 13:0.333333 14:0.333333 15:0.333333 16:0.333333 17:1 18:-0.333333 19:-0.333333 20:-0.333333 21:-1 22:-0.333333 23:-0.333333 24:0.333333 25:-1 26:-1 27:-0.333333 28:-1 29:-0.333333 30:-0.333333 31:-0.333333 32:0.333333 33:0.333333 34:-0.333333 35:0.333333 36:-0.333333 37:0.333333 38:0.333333 39:-0.333333 40:-0.333333 41:-1 42:0.333333 43:0.333333 44:1 45:0.333333 46:-0.333333 47:-1 48:0.333333 49:-0.333333 50:1 51:-0.333333 52:0.333333 53:-0.333333 54:0.333333 55:-1 56:-1 57:-0.333333 58:-0.333333 59:1 60:-0.333333 
2 1:-0.333333 2:0.333333 3:-0.333333 4:-1 5:-1 6:-0.333333 7:0.333333 8:0.333333 9:0.333333 10:1 11:0.333333 12:0.333333 13:1 14:0.333333 15:0.333333 16:1 17:1 18:0.333333 19:1 20:0.333333 21:0.333333 22:0.333333 23:0.333333 24:1 25:-0.333333 26:0.333333 27:0.333333 28:-0.333333 29:-0.333333 30:1 31:-0.333333 32:0.333333 33:-1 34:0.333333 35:-1 36:-0.333333 37:-0.333333 38:0.333333 39:0.333333 40:1 41:0.333333 42:1 43:-0.333333 44:0.333333 45:0.333333 46:1 47:-0.333333 48:0.333333 49:1 50:-0.333333 51:-0.333333 52:-0.333333 53:-0.333333 54:-1 55:1 56:1 57:-1 58:0.333333 59:1 60:0.333333 
0.07960911789925237 1:0.333333 2:-1 3:1 4:0.333333 5:-1 6:-0.333333 7:-1 8:-0.333333 9:-1 10:-1 11:-0.333333 12:-1 13:1 14:-0.333333 15:-1 16:0.333333 17:1 18:-1 19:-1 20:1 21:1 22:-0.333333 23:-1 24:-1 25:1 26:0.333333 27:-1 28:1 29:1 30:-0.333333 31:1 32:0.333333 33:0.333333 34:-1 35:1 36:0.333333 37:-1 38:1 39:0.333333 40:1 41:-0.333333 42:-0.333333 43:-1 44:1 45:1 46:-1 47:-0.333333 48:1 49:-0.333333 50:1 51:1 52:1 53:1 54:-1 55:-1 56:-0.333333 57:-0.333333 58:0.333333 59:-1 60:-0.333333 
1.122247843815086 1:-0.333333 2:-0.333333 3:1 4:-1 5:-0.333333 6:0.333333 7:-0.333333 8:-0.333333 9:-0.333333 10:-1 11:1 12:-1 13:-1 14:-0.333333 15:1 16:0.333333 17:-1 18:0.333333 19:1 20:-0.333333 21:1 22:1 23:1 24:1 25:0.333333 26:1 27:1 28:1 29:-1 30:1 31:1 32:1 33:0.333333 34:1 35:1 36:1 37:-1 38:-1 39:-1 40:-1 41:-1 42:-1 43:-1 44:-1 45:-1 46:-1 47:-1 48:-1 49:-1 50:-0.333333 51:1 52:1 53:0.333333 54:1 55:-0.333333 56:1 57:1 58:-0.333333 59:0.333333 60:-1 
0.4798505496794695 1:1 2:1 3:0.333333 4:-0.333333 5:0.333333 6:0.333333 7:-1 8:-1 9:0.333333 10:-1 11:-0.333333 12:0.333333 13:0.333333 14:1 15:-0.333333 16:-0.333333 17:1 18:-0.333333 19:1 20:-1 21:1 22:-0.333333 23:-0.333333 24:0.333333 25:-0.333333 26:0.333333 27:0.333333 28:1 29:0.333333 30:-0.333333 31:-0.333333 32:-1 33:0.333333 34:-1 35:-0.333333 36:0.333333 37:-1 38:-1 39:0.333333 40:-0.333333 41:1 42:0.333333 43:1 44:-1 45:1 46:0.333333 47:-0.333333 48:0.333333 49:0.333333 50:-1 51:0.333333 52:0.333333 53:1 54:-0.333333 55:-1 56:-1 57:-0.333333 58:-0.333333 59:-1 60:0.333333 
1.860448602778156 1:-0.333333 2:-0.333333 3:-0.333333 4:-1 5:-1 6:-0.333333 7:-0.333333 8:-0.333333 9:1 10:0.333333 11:1 12:0.333333 13:1 14:-0.333333 15:-0.333333 16:-0.333333 17:1 18:0.333333 19:1 20:1 21:1 22:-0.333333 23:1 24:-0.333333 25:-0.333333 26:-0.333333 27:1 28:-0.333333 29:-0.333333 30:1 31:-0.333333 32:1 33:-0.333333 34:0.333333 35:0.333333 36:-1 37:0.333333 38:-0.333333 39:1 40:-0.333333 41:-0.333333 42:-0.333333 43:-1 44:1 45:-0.333333 46:-0.333333 47:-0.333333 48:-1 49:-1 50:-0.333333 51:-0.333333 52:0.333333 53:0.333333 54:-0.333333 55:-0.333333 56:-0.333333 57:-0.333333 58:0.333333 59:1 60:0.333333 
0.6664344347354436 1:-1 2:1 3:0.333333 4:1 5:-0.333333 6:0.333333 7:-1 8:1 9:0.333333 10:-1 11:-1 12:-0.333333 13:0.333333 14:1 15:-0.333333 16:-1 17:-1 18:-0.333333 19:1 20:1 21:0.333333 22:1 23:-0.333333 24:1 25:-0.333333 26:1 27:0.333333 28:0.333333 29:1 30:0.333333 31:-1 32:0.333333 33:-0.333333 34:-1 35:-0.333333 36:0.333333 37:1 38:-0.333333 39:-1 40:1 41:1 42:1 43:0.333333 44:-1 45:0.333333 46:0.333333 47:1 48:1 49:1 50:-0.333333 51:0.333333 52:-1 53:0.333333 54:-1 55:-0.333333 56:-1 57:1 58:0.333333 59:1 60:1 
1.499416742934936 1:-1 2:-0.333333 3:-0.333333 4:1 5:1 6:0.333333 7:-1 8:-1 9:0.333333 10:-1 11:1 12:0.333333 13:-0.333333 14:-0.333333 15:1 16:-0.333333 17:-0.333333 18:0.333333 19:0.333333 20:0.333333 21:0.333333 22:-1 23:0.333333 24:-1 25:1 26:0.333333 27:0.333333 28:1 29:0.333333 30:0.333333 31:-1 32:1 33:1 34:0.333333 35:0.333333 36:0.333333 37:-1 38:1 39:0.333333 40:1 41:1 42:-0.333333 43:1 44:-0.333333 45:0.333333 46:1 47:0.333333 48:0.333333 49:1 50:-1 51:0.333333 52:1 53:1 54:0.333333 55:1 56:1 57:1 58:-0.333333 59:-1 60:1 
0.04636185979482207 1:0.333333 2:0.333333 3:1 4:-0.333333 5:-0.333333 6:-1 7:-0.333333 8:-0.333333 9:-0.333333 10:-0.333333 11:-1 12:-1 13:1 14:0.333333 15:1 16:-0.333333 17:-0.333333 18:1 19:0.333333 20:-1 21:0.333333 22:0.333333 23:0.333333 24:1 25:-0.333333 26:-1 27:-0.333333 28:0.333333 29:1 30:-0.333333 31:1 32:-0.333333 33:-1 34:-1 35:-1 36:0.333333 37:-1 38:-1 39:-1 40:-0.333333 41:1 42:1 43:-0.333333 44:0.333333 45:1 46:0.333333 47:1 48:1 49:-0.333333 50:0.333333 51:-1 52:-0.333333 53:-1 54:-0.333333 55:-0.333333 56:0.333333 57:0.333333 58:1 59:-0.333333 60:-0.333333 
0.4517648605939684 1:-0.333333 2:0.333333 3:1 4:-0.333333 5:-0.333333 6:0.333333 7:1 8:0.333333 9:1 10:-0.333333 11:1 12:-0.333333 13:-1 14:-0.333333 15:-0.333333 16:-0.333333 17:1 18:-0.333333 19:0.333333 20:1 21:-0.333333 22:-1 23:0.333333 24:1 25:-0.333333 26:-0.333333 27:0.333333 28:1 29:1 30:0.333333 31:-1 32:-0.333333 33:0.333333 34:-1 35:-1 36:-0.333333 37:1 38:1 39:-1 40:-0.333333 41:-1 42:-1 43:0.333333 44:1 45:-1 46:-0.333333 47:0.333333 48:0.333333 49:-1 50:-1 51:-1 52:0.333333 53:0.333333 54:-1 55:-0.333333 56:-0.333333 57:-1 58:0.333333 59:0.333333 60:0.333333 
0.9887694103690269 1:-0.333333 2:1 3:0.333333 4:0.333333 5:-0.333333 6:1 7:-0.333333 8:0.333333 9:0.333333 10:1 11:1 12:0.333333 13:-1 14:-0.333333 15:-1 16:-0.333333 17:0.333333 18:-1 19:-0.333333 20:1 21:-0.333333 22:1 23:0.333333 24:1 25:-1 26:-0.333333 27:-0.333333 28:-1 29:-0.333333 30:-0.333333 31:1 32:-0.333333 33:-0.333333 34:-1 35:-0.333333 36:1 37:-0.333333 38:-0.333333 39:0.333333 40:0.333333 41:-1 42:-0.333333 43:0.333333 44:1 45:1 46:-0.333333 47:-0.333333 48:-1 49:-0.333333 50:1 51:-0.333333 52:-0.333333 53:0.333333 54:0.333333 55:0.333333 56:1 57:1 58:1 59:-0.333333 60:0.333333 
0.1853465308096947 1:0.333333 2:0.333333 3:-1 4:0.333333 5:1 6:0.333333 7:0.333333 8:1 9:0.333333 10:1 11:1 12:0.333333 13:-0.333333 14:-0.333333 15:-1 16:0.333333 17:1 18:0.333333 19:-1 20:-1 21:1 22:-1 23:-1 24:0.333333 25:-0.333333 26:0.333333 27:-1 28:-0.333333 29:-1 30:0.333333 31:0.333333 32:-1 33:-0.333333 34:-1 35:-1 36:0.333333 37:-0.333333 38:-1 39:-0.333333 40:1 41:-0.333333 42:0.333333 43:-1 44:1 45:0.333333 46:-1 47:1 48:1 49:-0.333333 50:0.333333 51:0.333333 52:-1 53:-1 54:0.333333 55:0.333333 56:0.333333 57:-0.333333 58:-0.333333 59:0.333333 60:0.333333 
1.320435290253815 1:-1 2:1 3:1 4:0.333333 5:0.333333 6:1 7:0.333333 8:1 9:-1 10:-0.333333 11:0.333333 12:-0.333333 13:-1 14:-0.333333 15:-1 16:-1 17:1 18:0.333333 19:-1 20:0.333333 21:0.333333 22:0.333333 23:1 24:-0.333333 25:0.333333 26:0.333333 27:-1 28:-0.333333 29:-1 30:0.333333 31:1 32:1 33:0.333333 34:0.333333 35:-0.333333 36:1 37:1 38:1 39:-1 40:0.333333 41:0.333333 42:-1 43:-0.333333 44:-1 45:-1 46:-1 47:1 48:0.333333 49:-0.333333 50:0.333333 51:-1 52:-1 53:1 54:1 55:0.333333 56:0.333333 57:-1 58:-0.333333 59:-1 60:-1 
0.7341705488134938 1:0.333333 2:1 3:-0.333333 4:1 5:-1 6:-1 7:-0.333333 8:-1 9:0.333333 10:1 11:1 12:0.333333 13:0.333333 14:1 15:-1 16:0.333333 17:1 18:1 19:-1 20:1 21:1 22:-1 23:1 24:1 25:-0.333333 26:1 27:1 28:-1 29:0.333333 30:0.333333 31:-1 32:1 33:-1 34:0.333333 35:1 36:1 37:1 38:0.333333 39:0.333333 40:1 41:1 42:1 43:-1 44:-1 45:-1 46:1 47:1 48:1 49:1 50:-1 51:-0.333333 52:1 53:-0.333333 54:-0.333333 55:-1 56:-1 57:-1 58:1 59:1 60:1 
0.6809689236582891 1:-0.333333 2:0.333333 3:1 4:-1 5:1 6:1 7:-1 8:0.333333 9:1 10:-1 11:0.333333 12:0.333333 13:-1 14:-1 15:-0.333333 16:0.333333 17:0.333333 18:1 19:-0.333333 20:1 21:1 22:-1 23:-0.333333 24:1 25:1 26:-1 27:-1 28:-0.333333 29:-0.333333 30:-0.333333 31:0.333333 32:-1 33:-1 34:-1 35:-0.333333 36:-0.333333 37:0.333333 38:-1 39:-1 40:-0.333333 41:-1 42:-1 43:-1 44:1 45:1 46:-0.333333 47:1 48:-1 49:-1 50:1 51:1 52:1 53:-0.333333 54:-0.333333 55:-0.333333 56:-0.333333 57:0.333333 58:1 59:-0.333333 60:1 
0.5315262848723663 1:-1 2:-1 3:-0.333333 4:-1 5:0.333333 6:1 7:1 8:0.333333 9:1 10:-0.333333 11:-1 12:-0.333333 13:-1 14:-1 15:-0.333333 16:1 17:-0.333333 18:-0.333333 19:1 20:1 21:0.333333 22:-1 23:-0.333333 24:-0.333333 25:-1 26:1 27:-0.333333 28:-0.333333 29:-0.333333 30:1 31:1 32:1 33:0.333333 34:-1 35:-0.333333 36:-1 37:-1 38:0.333333 39:1 40:0.333333 41:1 42:-0.333333 43:-1 44:-0.333333 45:1 46:-1 47:-1 48:-1 49:-0.333333 50:1 51:-1 52:-1 53:-0.333333 54:-0.333333 55:1 56:0.333333 57:-0.333333 58:-0.333333 59:-1 60:0.333333 
0.9346762042075188 1:1 2:-1 3:-0.333333 4:-1 5:1 6:-0.333333 7:-0.333333 8:1 9:0.333333 10:0.333333 11:1 12:-0.333333 13:-1 14:-0.333333 15:-0.333333 16:-1 17:-1 18:-1 19:-1 20:-0.333333 21:1 22:1 23:1 24:-1 25:1 26:-1 27:-0.333333 28:0.333333 29:1 30:1 31:-0.333333 32:1 33:0.333333 34:1 35:-1 36:1 37:1 38:1 39:0.333333 40:1 41:0.333333 42:1 43:0.333333 44:1 45:0.333333 46:1 47:-1 48:-1 49:0.333333 50:-1 51:1 52:-1 53:-0.333333 54:1 55:1 56:-0.333333 57:1 58:0.333333 59:-1 60:-0.333333 
0.1967129389180545 1:-0.333333 2:1 3:-1 4:1 5:1 6:1 7:0.333333 8:-1 9:0.333333 10:-1 11:1 12:-1 13:1 14:1 15:-1 16:0.333333 17:-1 18:-1 19:1 20:1 21:1 22:-0.333333 23:1 24:0.333333 25:-1 26:0.333333 27:-1 28:1 29:1 30:-0.333333 31:1 32:1 33:-0.333333 34:-0.333333 35:1 36:-0.333333 37:1 38:-0.333333 39:0.333333 40:-1 41:0.333333 42:1 43:1 44:1 45:-0.333333 46:1 47:-0.333333 48:-0.333333 49:-0.333333 50:1 51:1 52:0.333333 53:1 54:1 55:0.333333 56:0.333333 57:1 58:-0.333333 59:0.333333 60:-1 
0.004019580949130423 1:0.333333 2:0.333333 3:1 4:0.333333 5:-1 6:-1 7:1 8:-0.333333 9:-1 10:-1 11:-1 12:-1 13:-1 14:1 15:0.333333 16:1 17:-1 18:1 19:1 20:-1 21:0.333333 22:-1 23:-1 24:1 25:-1 26:-0.333333 27:1 28:-0.333333 29:-1 30:-0.333333 31:-0.333333 32:-1 33:1 34:1 35:-1 36:1 37:1 38:1 39:1 40:0.333333 41:-0.333333 42:1 43:1 44:-1 45:-1 46:-1 47:0.333333 48:1 49:1 50:-1 51:1 52:1 53:-1 54:1 55:1 56:-1 57:-1 58:0.333333 59:-1 60:-1 
1.455751068269859 1:-0.333333 2:-0.333333 3:-1 4:-1 5:-0.333333 6:-1 7:0.333333 8:-1 9:-1 10:-1 11:-0.333333 12:1 13:-0.333333 14:-1 15:-0.333333 16:-1 17:1 18:0.333333 19:0.333333 20:1 21:1 22:1 23:0.333333 24:1 25:0.333333 26:-1 27:-1 28:-1 29:-1 30:-1 31:-1 32:-1 33:-1 34:-1 35:-1 36:-1 37:-1 38:-1 39:-1 40:-1 41:0.333333 42:1 43:1 44:1 45:-0.333333 46:-0.333333 47:-0.333333 48:1 49:-0.333333 50:-0.333333 51:-1 52:-1 53:-0.333333 54:-0.333333 55:1 56:-0.333333 57:-0.333333 58:-0.333333 59:-0.333333 60:1 
1.08531510743912 1:-0.333333 2:-0.333333 3:-1 4:1 5:-0.333333 6:0.333333 7:1 8:0.333333 9:-1 10:-0.333333 11:-0.333333 12:0.333333 13:0.333333 14:-1 15:1 16:-0.333333 17:0.333333 18:0.333333 19:0.333333 20:0.333333 21:-0.333333 22:-0.333333 23:0.333333 24:1 25:-0.333333 26:1 27:1 28:-0.333333 29:-0.333333 30:-1 31:-1 32:0.333333 33:0.333333 34:1 35:0.333333 36:0.333333 37:1 38:-0.333333 39:1 40:1 41:1 42:1 43:-0.333333 44:-1 45:0.333333 46:-1 47:0.333333 48:1 49:1 50:-0.333333 51:-1 52:1 53:0.333333 54:0.333333 55:0.333333 56:-1 57:-1 58:1 59:-0.333333 60:-1 
1.095772592245831 1:-1 2:1 3:-0.333333 4:-0.333333 5:-1 6:-0.333333 7:-0.333333 8:0.333333 9:0.333333 10:0.333333 11:0.333333 12:-1 13:-0.333333 14:0.333333 15:0.333333 16:0.333333 17:0.333333 18:1 19:0.333333 20:1 21:0.333333 22:1 23:1 24:0.333333 25:0.333333 26:0.333333 27:1 28:-0.333333 29:-1 30:0.333333 31:1 32:0.333333 33:1 34:0.333333 35:0.333333 36:-0.333333 37:-0.333333 38:0.333333 39:1 40:0.333333 41:1 42:0.333333 43:0.333333 44:0.333333 45:1 46:0.333333 47:0.333333 48:0.333333 49:1 50:0.333333 51:-1 52:-0.333333 53:-0.333333 54:0.333333 55:1 56:-0.333333 57:-0.333333 58:0.333333 59:0.333333 60:-0.333333 
0.3586773698924388 1:0.333333 2:1 3:1 4:-1 5:1 6:-0.333333 7:-1 8:-0.333333 9:-1 10:-1 11:-1 12:1 13:-1 14:-0.333333 15:1 16:-1 17:1 18:1 19:1 20:-0.333333 21:0.333333 22:0.333333 23:1 24:-1 25:-0.333333 26:1 27:-0.333333 28:1 29:1 30:1 31:1 32:0.333333 33:-1 34:1 35:-1 36:1 37:-1 38:-1 39:-1 40:-1 41:1 42:-1 43:1 44:0.333333 45:-0.333333 46:0.333333 47:-1 48:1 49:-0.333333 50:-1 51:1 52:-1 53:-1 54:1 55:-1 56:0.333333 57:0.333333 58:-1 59:1 60:1 
0.1878733552454738 1:1 2:-0.333333 3:1 4:0.333333 5:1 6:0.333333 7:1 8:-1 9:0.333333 10:-1 11:-0.333333 12:-1 13:-0.333333 14:-1 15:-0.333333 16:0.333333 17:1 18:1 19:0.333333 20:-1 21:-0.333333 22:-0.333333 23:-1 24:-0.333333 25:-1 26:0.333333 27:1 28:1 29:0.333333 30:0.333333 31:-1 32:-0.333333 33:-1 34:0.333333 35:-0.333333 36:-1 37:0.333333 38:-1 39:-1 40:-1 41:-0.333333 42:0.333333 43:1 44:-0.333333 45:-1 46:-1 47:1 48:-0.333333 49:-0.333333 50:-1 51:1 52:1 53:1 54:-0.333333 55:-1 56:-0.333333 57:-0.333333 58:1 59:0.333333 60:1 
0.3587462671981277 1:-0.333333 2:-1 3:-1 4:-1 5:-0.333333 6:1 7:-0.333333 8:0.333333 9:0.333333 10:-0.333333 11:-1 12:-0.333333 13:-1 14:1 15:0.333333 16:0.333333 17:1 18:-0.333333 19:0.333333 20:-1 21:-0.333333 22:-0.333333 23:0.333333 24:1 25:-0.333333 26:1 27:-0.333333 28:0.333333 29:0.333333 30:-0.333333 31:1 32:0.333333 33:0.333333 34:-0.333333 35:-0.333333 36:1 37:-0.333333 38:-1 39:-0.333333 40:-0.333333 41:-0.333333 42:-0.333333 43:-0.333333 44:-1 45:1 46:-0.333333 47:0.333333 48:-1 49:1 50:1 51:1 52:-0.333333 53:-1 54:-0.333333 55:0.333333 56:1 57:-0.333333 58:-1 59:0.333333 60:1 
2 1:-1 2:1 3:-0.333333 4:-1 5:-0.333333 6:-0.333333 7:-0.333333 8:-1 9:-0.333333 10:-0.333333 11:1 12:-1 13:-0.333333 14:-0.333333 15:-0.333333 16:-1 17:0.333333 18:-0.333333 19:-0.333333 20:1 21:-1 22:0.333333 23:1 24:-0.333333 25:1 26:0.333333 27:0.333333 28:0.333333 29:-1 30:-0.333333 31:-0.333333 32:1 33:-1 34:1 35:-1 36:1 37:1 38:0.333333 39:-0.333333 40:-1 41:-1 42:-1 43:-0.333333 44:1 45:0.333333 46:0.333333 47:-1 48:1 49:-1 50:-1 51:1 52:-0.333333 53:-0.333333 54:1 55:1 56:0.333333 57:-1 58:-0.333333 59:-1 60:-1 
1.112253098197817 1:-1 2:-0.333333 3:1 4:1 5:-0.333333 6:0.333333 7:0.333333 8:1 9:1 10:1 11:-0.333333 12:-1 13:1 14:0.333333 15:1 16:-0.333333 17:-0.333333 18:0.333333 19:-0.333333 20:-1 21:0.333333 22:-1 23:0.333333 24:-1 25:1 26:0.333333 27:-0.333333 28:1 29:-0.333333 30:-0.333333 31:0.333333 32:1 33:-1 34:1 35:-0.333333 36:-1 37:1 38:1 39:0.333333 40:-1 41:-0.333333 42:-1 43:0.333333 44:-1 45:-1 46:0.333333 47:0.333333 48:0.333333 49:1 50:0.333333 51:-0.333333 52:-1 53:0.333333 54:1 55:1 56:0.333333 57:-0.333333 58:1 59:-0.333333 60:-0.333333 
0.4143462239175754 1:-0.333333 2:-1 3:-1 4:-1 5:1 6:-0.333333 7:0.333333 8:-1 9:-1 10:-0.333333 11:-1 12:-1 13:-1 14:0.333333 15:-0.333333 16:-0.333333 17:-0.333333 18:1 19:0.333333 20:-1 21:0.333333 22:0.333333 23:-1 24:1 25:0.333333 26:0.333333 27:1 28:-0.333333 29:-0.333333 30:1 31:-0.333333 32:-0.333333 33:-1 34:-0.333333 35:-0.333333 36:-0.333333 37:-1 38:-0.333333 39:-0.333333 40:-1 41:-0.333333 42:-1 43:-0.333333 44:-1 45:1 46:1 47:-0.333333 48:-1 49:-0.333333 50:0.333333 51:1 52:-0.333333 53:1 54:1 55:1 56:-0.333333 57:-1 58:0.333333 59:-0.333333 60:-0.333333 
1.130873077288315 1:-1 2:0.333333 3:1 4:-1 5:0.333333 6:1 7:0.333333 8:1 9:-0.333333 10:0.333333 11:-1 12:0.333333 13:1 14:-1 15:-1 16:-1 17:-0.333333 18:0.333333 19:0.333333 20:-1 21:1 22:1 23:1 24:-0.333333 25:0.333333 26:0.333333 27:0.333333 28:0.333333 29:-1 30:-1 31:1 32:1 33:1 34:-1 35:-1 36:-0.333333 37:1 38:1 39:1 40:-1 41:1 42:-1 43:-1 44:-1 45:1 46:1 47:-1 48:0.333333 49:0.333333 50:-1 51:-0.333333 52:1 53:1 54:1 55:0.333333 56:-0.333333 57:-0.333333 58:1 59:-1 60:-1 
1.57730925186888 1:0.333333 2:-1 3:0.333333 4:-1 5:-0.333333 6:0.333333 7:0.333333 8:1 9:1 10:1 11:-0.333333 12:1 13:-0.333333 14:1 15:0.333333 16:0.333333 17:-1 18:-1 19:-0.333333 20:0.333333 21:-1 22:-0.333333 23:-0.333333 24:-1 25:-0.333333 26:-0.333333 27:-0.333333 28:0.333333 29:-1 30:-0.333333 31:0.333333 32:-0.333333 33:-1 34:-0.333333 35:-0.333333 36:1 37:-1 38:-0.333333 39:1 40:-0.333333 41:-1 42:-1 43:-0.333333 44:-1 45:-0.333333 46:-1 47:0.333333 48:0.333333 49:0.333333 50:-1 51:-0.333333 52:-0.333333 53:0.333333 54:-0.333333 55:0.333333 56:1 57:-1 58:0.333333 59:0.333333 60:1 
1.478817483423459 1:1 2:-0.333333 3:-0.333333 4:-1 5:-1 6:1 7:1 8:1 9:-1 10:-1 11:-0.333333 12:1 13:-1 14:1 15:-0.333333 16:-1 17:1 18:1 19:1 20:0.333333 21:-1 22:-1 23:1 24:1 25:0.333333 26:1 27:1 28:0.333333 29:-1 30:-1 31:1 32:-0.333333 33:0.333333 34:1 35:-0.333333 36:1 37:-1 38:0.333333 39:1 40:0.333333 41:1 42:-1 43:0.333333 44:0.333333 45:-0.333333 46:0.333333 47:1 48:-1 49:-1 50:-1 51:-0.333333 52:-0.333333 53:-1 54:-0.333333 55:0.333333 56:-1 57:-0.333333 58:1 59:1 60:-0.333333 
1.593511946508693 1:0.333333 2:1 3:-0.333333 4:0.333333 5:1 6:-1 7:0.333333 8:1 9:1 10:0.333333 11:1 12:-1 13:-0.333333 14:1 15:1 16:1 17:0.333333 18:-1 19:-0.333333 20:0.333333 21:1 22:-0.333333 23:-0.333333 24:0.333333 25:-1 26:1 27:-0.333333 28:0.333333 29:-0.333333 30:-0.333333 31:-1 32:0.333333 33:1 34:-0.333333 35:-1 36:-1 37:-0.333333 38:-1 39:1 40:0.333333 41:1 42:0.333333 43:0.333333 44:0.333333 45:-1 46:-1 47:-1 48:-0.333333 49:-0.333333 50:0.333333 51:1 52:-0.333333 53:1 54:-0.333333 55:-0.333333 56:1 57:-0.333333 58:1 59:1 60:0.333333 
1.352544404687383 1:-1 2:0.333333 3:-1 4:0.333333 5:-1 6:0.333333 7:-1 8:0.333333 9:-1 10:0.333333 11:0.333333 12:0.333333 13:1 14:-0.333333 15:1 16:0.333333 17:0.333333 18:-1 19:0.333333 20:-1 21:-1 22:-1 23:-0.333333 24:-0.333333 25:-0.333333 26:0.333333 27:0.333333 28:1 29:-1 30:-0.333333 31:-0.333333 32:-1 33:-1 34:-1 35:0.333333 36:1 37:-1 38:0.333333 39:-0.333333 40:1 41:-0.333333 42:0.333333 43:0.333333 44:0.333333 45:1 46:1 47:0.333333 48:-1 49:-0.333333 50:0.333333 51:0.333333 52:-1 53:1 54:-0.333333 55:0.333333 56:-1 57:0.333333 58:0.333333 59:0.333333 60:-0.333333 
2 1:1 2:-0.333333 3:1 4:-0.333333 5:-0.333333 6:-1 7:0.333333 8:-1 9:-1 10:-0.333333 11:1 12:-1 13:0.333333 14:-1 15:-1 16:0.333333 17:-0.333333 18:1 19:-0.333333 20:-1 21:-0.333333 22:0.333333 23:-0.333333 24:-0.333333 25:0.333333 26:-1 27:0.333333 28:0.333333 29:-1 30:-1 31:0.333333 32:-0.333333 33:-0.333333 34:-0.333333 35:-1 36:0.333333 37:0.333333 38:1 39:-0.333333 40:0.333333 41:0.333333 42:1 43:-0.333333 44:0.333333 45:1 46:-0.333333 47:-0.333333 48:0.333333 49:0.333333 50:-1 51:-0.333333 52:0.333333 53:-1 54:1 55:-0.333333 56:-0.333333 57:-0.333333 58:-0.333333 59:0.333333 60:1 
1.243266775468634 1:1 2:-1 3:-1 4:-1 5:1 6:-1 7:-1 8:1 9:1 10:1 11:1 12:-1 13:-1 14:-0.333333 15:-1 16:-1 17:-1 18:-0.333333 19:0.333333 20:1 21:-0.333333 22:-0.333333 23:1 24:1 25:0.333333 26:-1 27:0.333333 28:-1 29:-1 30:-0.333333 31:-0.333333 32:1 33:-0.333333 34:0.333333 35:0.333333 36:-1 37:0.333333 38:-1 39:1 40:1 41:1 42:-0.333333 43:-1 44:1 45:-0.333333 46:-1 47:-1 48:-1 49:-0.333333 50:0.333333 51:-1 52:-1 53:-1 54:-1 55:1 56:-1 57:0.333333 58:-1 59:-0.333333 60:1 
0.1356469727592967 1:1 2:0.333333 3:0.333333 4:0.333333 5:0.333333 6:1 7:0.333333 8:0.333333 9:0.333333 10:-1 11:0.333333 12:0.333333 13:0.333333 14:1 15:0.333333 16:-1 17:-0.333333 18:-0.333333 19:-0.333333 20:-1 21:-0.333333 22:0.333333 23:0.333333 24:-1 25:-0.333333 26:-0.333333 27:0.333333 28:1 29:0.333333 30:-0.333333 31:-0.333333 32:0.333333 33:-1 34:1 35:1 36:1 37:0.333333 38:1 39:-0.333333 40:-0.333333 41:0.333333 42:-1 43:-0.333333 44:0.333333 45:-1 46:-1 47:-0.333333 48:-1 49:1 50:-0.333333 51:-1 52:-1 53:0.333333 54:0.333333 55:0.333333 56:0.333333 57:0.333333 58:0.333333 59:0.333333 60:-1 
0.9128116266728864 1:1 2:-1 3:-1 4:-1 5:-1 6:-0.333333 7:-1 8:0.333333 9:-0.333333 10:-0.333333 11:-1 12:-1 13:-0.333333 14:-1 15:1 16:-1 17:0.333333 18:-1 19:-1 20:1 21:-1 22:-1 23:1 24:-1 25:0.333333 26:1 27:1 28:1 29:0.333333 30:0.333333 31:1 32:1 33:-1 34:0.333333 35:-1 36:-0.333333 37:-0.333333 38:-0.333333 39:1 40:1 41:0.333333 42:1 43:-0.333333 44:-1 45:-0.333333 46:-1 47:0.333333 48:1 49:-1 50:0.333333 51:1 52:-1 53:-1 54:-0.333333 55:-1 56:-0.333333 57:-1 58:-1 59:0.333333 60:1 
2 1:0.333333 2:-1 3:-0.333333 4:-1 5:0.333333 6:-1 7:-1 8:-1 9:0.333333 10:0.333333 11:1 12:0.333333 13:1 14:0.333333 15:1 16:0.333333 17:0.333333 18:-1 19:-0.333333 20:-1 21:-1 22:0.333333 23:1 24:0.333333 25:-1 26:-0.333333 27:0.333333 28:0.333333 29:-1 30:1 31:-1 32:1 33:-0.333333 34:-1 35:0.333333 36:1 37:0.333333 38:1 39:0.333333 40:1 41:0.333333 42:1 43:0.333333 44:0.333333 45:-1 46:-0.333333 47:-1 48:-1 49:0.333333 50:1 51:0.333333 52:-1 53:-0.333333 54:1 55:0.333333 56:-1 57:-0.333333 58:-1 59:0.333333 60:-1 
0.9659797882571336 1:-1 2:0.333333 3:-1 4:-0.333333 5:1 6:1 7:1 8:1 9:0.333333 10:1 11:-0.333333 12:0.333333 13:1 14:1 15:1 16:-1 17:-1 18:1 19:1 20:1 21:0.333333 22:-1 23:1 24:-0.333333 25:-1 26:-1 27:-1 28:-1 29:-0.333333 30:-1 31:1 32:1 33:-1 34:1 35:-0.333333 36:-1 37:1 38:0.333333 39:1 40:0.333333 41:-1 42:-0.333333 43:-1 44:-1 45:-1 46:1 47:1 48:-0.333333 49:1 50:-1 51:1 52:0.333333 53:1 54:1 55:-1 56:-0.333333 57:1 58:1 59:-0.333333 60:-0.333333 
2 1:-0.333333 2:1 3:-0.333333 4:-1 5:-0.333333 6:-0.333333 7:1 8:1 9:1 10:-0.333333 11:1 12:1 13:1 14:0.333333 15:1 16:-1 17:0.333333 18:0.333333 19:-1 20:-0.333333 21:1 22:1 23:-1 24:1 25:1 26:0.333333 27:0.333333 28:-0.333333 29:-0.333333 30:-1 31:-0.333333 32:1 33:-1 34:-1 35:0.333333 36:0.333333 37:-1 38:-0.333333 39:-1 40:1 41:-1 42:-1 43:-1 44:-0.333333 45:-1 46:-0.333333 47:-1 48:1 49:-0.333333 50:0.333333 51:0.333333 52:0.333333 53:1 54:0.333333 55:1 56:-0.333333 57:1 58:1 59:1 60:0.333333 
1.877479123423867 1:0.333333 2:1 3:0.333333 4:1 5:-0.333333 6:0.333333 7:0.333333 8:1 9:-0.333333 10:1 11:-0.333333 12:0.333333 13:-1 14:0.333333 15:-0.333333 16:-0.333333 17:0.333333 18:0.333333 19:-1 20:-0.333333 21:0.333333 22:1 23:-0.333333 24:0.333333 25:-1 26:1 27:0.333333 28:1 29:-1 30:0.333333 31:1 32:0.333333 33:-1 34:-0.333333 35:-0.333333 36:0.333333 37:0.333333 38:0.333333 39:0.333333 40:-1 41:-1 42:-0.333333 43:-0.333333 44:-0.333333 45:-0.333333 46:1 47:1 48:1 49:0.333333 50:1 51:-0.333333 52:1 53:1 54:1 55:0.333333 56:1 57:-1 58:1 59:1 60:0.333333 
1.150231769471109 1:0.333333 2:-1 3:-0.333333 4:0.333333 5:1 6:-0.333333 7:0.333333 8:0.333333 9:-1 10:0.333333 11:0.333333 12:0.333333 13:-0.333333 14:-0.333333 15:0.333333 16:1 17:-0.333333 18:0.333333 19:-0.333333 20:-0.333333 21:0.333333 22:-0.333333 23:-1 24:0.333333 25:0.333333 26:0.333333 27:0.333333 28:-1 29:-1 30:-0.333333 31:0.333333 32:-0.333333 33:0.333333 34:0.333333 35:1 36:0.333333 37:-0.333333 38:-0.333333 39:-0.333333 40:0.333333 41:0.333333 42:0.333333 43:0.333333 44:1 45:-0.333333 46:0.333333 47:-0.333333 48:0.333333 49:-0.333333 50:-0.333333 51:0.333333 52:1 53:1 54:0.333333 55:0.333333 56:-1 57:-0.333333 58:1 59:-0.333333 60:-0.333333 
0.3217425893407262 1:0.333333 2:0.333333 3:0.333333 4:1 5:0.333333 6:1 7:0.333333 8:0.333333 9:1 10:-0.333333 11:0.333333 12:-1 13:-0.333333 14:-0.333333 15:-0.333333 16:0.333333 17:0.333333 18:-1 19:-0.333333 20:1 21:0.333333 22:-1 23:-0.333333 24:-1 25:-0.333333 26:1 27:-0.333333 28:1 29:1 30:-1 31:-0.333333 32:0.333333 33:-1 34:-0.333333 35:0.333333 36:-1 37:-0.333333 38:0.333333 39:1 40:-1 41:0.333333 42:1 43:1 44:-1 45:-1 46:0.333333 47:0.333333 48:1 49:-0.333333 50:-0.333333 51:1 52:-1 53:1 54:0.333333 55:-1 56:-0.333333 57:0.333333 58:-1 59:-0.333333 60:-1 
0.1488169620154803 1:-1 2:1 3:-1 4:1 5:-0.333333 6:0.333333 7:-1 8:-1 9:-1 10:-1 11:1 12:-0.333333 13:1 14:-1 15:1 16:-1 17:1 18:1 19:1 20:1 21:0.333333 22:1 23:1 24:-0.333333 25:-1 26:1 27:1 28:0.333333 29:0.333333 30:1 31:-0.333333 32:-1 33:0.333333 34:0.333333 35:-1 36:1 37:1 38:-0.333333 39:-1 40:1 41:-1 42:0.333333 43:1 44:1 45:-1 46:-1 47:1 48:-0.333333 49:1 50:0.333333 51:0.333333 52:-1 53:1 54:-0.333333 55:1 56:-0.333333 57:-1 58:0.333333 59:1 60:0.333333 
2 1:0.333333 2:-0.333333 3:-0.333333 4:0.333333 5:-0.333333 6:0.333333 7:0.333333 8:-0.333333 9:0.333333 10:-0.333333 11:-1 12:-0.333333 13:0.333333 14:1 15:1 16:0.333333 17:1 18:0.333333 19:0.333333 20:1 21:0.333333 22:1 23:0.333333 24:0.333333 25:1 26:0.333333 27:-1 28:0.333333 29:-0.333333 30:-1 31:0.333333 32:0.333333 33:-0.333333 34:-1 35:-0.333333 36:-0.333333 37:0.333333 38:-1 39:-0.333333 40:-1 41:-0.333333 42:0.333333 43:-1 44:-0.333333 45:1 46:0.333333 47:-1 48:1 49:1 50:-1 51:1 52:-0.333333 53:-0.333333 54:0.333333 55:-0.333333 56:-1 57:-1 58:0.333333 59:0.333333 60:1 
0.9726733861170087 1:-1 2:-1 3:0.333333 4:1 5:0.333333 6:0.333333 7:-1 8:0.333333 9:-1 10:-0.333333 11:1 12:0.333333 13:0.333333 14:0.333333 15:0.333333 16:0.333333 17:-0.333333 18:0.333333 19:1 20:-0.333333 21:0.333333 22:-0.333333 23:-0.333333 24:-0.333333 25:-1 26:-1 27:0.333333 28:0.333333 29:-1 30:1 31:-0.333333 32:-0.333333 33:-1 34:0.333333 35:-1 36:-1 37:-1 38:-1 39:0.333333 40:1 41:-0.333333 42:0.333333 43:1 44:1 45:0.333333 46:-1 47:0.333333 48:1 49:0.333333 50:1 51:-1 52:0.333333 53:1 54:-1 55:-1 56:-1 57:-1 58:-1 59:-0.333333 60:1 
1.419719596838289 1:1 2:-0.333333 3:-0.333333 4:-1 5:1 6:-0.333333 7:1 8:-0.333333 9:-0.333333 10:1 11:-0.333333 12:-0.333333 13:0.333333 14:-1 15:1 16:-1 17:0.333333 18:-0.333333 19:0.333333 20:0.333333 21:1 22:-0.333333 23:1 24:-1 25:-0.333333 26:1 27:0.333333 28:0.333333 29:1 30:-1 31:-0.333333 32:0.333333 33:0.333333 34:-1 35:0.333333 36:1 37:0.333333 38:-1 39:-0.333333 40:-0.333333 41:-1 42:-0.333333 43:-0.333333 44:0.333333 45:1 46:-0.333333 47:-1 48:-0.333333 49:-0.333333 50:0.333333 51:-1 52:-0.333333 53:-0.333333 54:-1 55:-0.333333 56:-0.333333 57:-1 58:1 59:1 60:-0.333333 
1.338628509479115 1:-1 2:-1 3:-0.333333 4:-1 5:-1 6:-0.333333 7:-0.333333 8:0.333333 9:0.333333 10:-1 11:-0.333333 12:1 13:1 14:-0.333333 15:1 16:-1 17:1 18:-0.333333 19:-0.333333 20:-1 21:0.333333 22:0.333333 23:-0.333333 24:1 25:-0.333333 26:1 27:-0.333333 28:-0.333333 29:1 30:-0.333333 31:-0.333333 32:1 33:-0.333333 34:-0.333333 35:1 36:-0.333333 37:-0.333333 38:-0.333333 39:-0.333333 40:-0.333333 41:1 42:-0.333333 43:-0.333333 44:1 45:-0.333333 46:-0.333333 47:0.333333 48:-0.333333 49:-0.333333 50:0.333333 51:-0.333333 52:-0.333333 53:0.333333 54:-0.333333 55:-0.333333 56:0.333333 57:-0.333333 58:-0.333333 59:0.333333 60:-0.333333 
1.164826689213864 1:0.333333 2:0.333333 3:1 4:-0.333333 5:-0.333333 6:0.333333 7:-1 8:1 9:0.333333 10:-0.333333 11:-1 12:-0.333333 13:1 14:0.333333 15:-0.333333 16:-0.333333 17:1 18:-1 19:-0.333333 20:-1 21:1 22:-0.333333 23:0.333333 24:0.333333 25:-1 26:-0.333333 27:-0.333333 28:-1 29:-1 30:1 31:-0.333333 32:0.333333 33:1 34:-0.333333 35:1 36:1 37:-1 38:-1 39:-1 40:0.333333 41:-1 42:1 43:1 44:0.333333 45:1 46:-1 47:1 48:-1 49:-0.333333 50:1 51:-1 52:0.333333 53:-1 54:0.333333 55:-1 56:-0.333333 57:-0.333333 58:-1 59:1 60:-0.333333 
1.632593629129825 1:-1 2:-1 3:-0.333333 4:-1 5:0.333333 6:1 7:1 8:1 9:1 10:1 11:-1 12:1 13:-1 14:-0.333333 15:-0.333333 16:0.333333 17:1 18:-0.333333 19:-0.333333 20:1 21:0.333333 22:-1 23:0.333333 24:-1 25:0.333333 26:0.333333 27:0.333333 28:-0.333333 29:-0.333333 30:-1 31:-0.333333 32:0.333333 33:-1 34:-0.333333 35:-0.333333 36:-1 37:-0.333333 38:1 39:0.333333 40:-1 41:-0.333333 42:0.333333 43:0.333333 44:0.333333 45:0.333333 46:-1 47:-0.333333 48:1 49:0.333333 50:-1 51:-0.333333 52:-0.333333 53:-1 54:0.333333 55:-1 56:0.333333 57:-1 58:-0.333333 59:0.333333 60:-1 
0.6845108748012205 1:-0.333333 2:-1 3:0.333333 4:1 5:-0.333333 6:-0.333333 7:1 8:-1 9:-1 10:-1 11:-0.333333 12:1 13:0.333333 14:1 15:1 16:1 17:-0.333333 18:-1 19:-1 20:-1 21:-1 22:1 23:-1 24:1 25:-0.333333 26:1 27:-0.333333 28:1 29:-1 30:-1 31:1 32:-1 33:1 34:-0.333333 35:1 36:-1 37:-1 38:-1 39:-1 40:0.333333 41:-1 42:1 43:1 44:1 45:1 46:-0.333333 47:-1 48:0.333333 49:-1 50:0.333333 51:0.333333 52:0.333333 53:0.333333 54:0.333333 55:-1 56:1 57:-1 58:-1 59:1 60:-1 
0.6730600836139025 1:1 2:1 3:0.333333 4:0.333333 5:1 6:0.333333 7:0.333333 8:-0.333333 9:-1 10:-0.333333 11:-0.333333 12:0.333333 13:0.333333 14:-1 15:-0.333333 16:1 17:-1 18:0.333333 19:0.333333 20:1 21:1 22:1 23:0.333333 24:0.333333 25:-1 26:1 27:1 28:1 29:-1 30:1 31:1 32:0.333333 33:1 34:1 35:1 36:-0.333333 37:-1 38:1 39:0.333333 40:1 41:1 42:0.333333 43:-1 44:-0.333333 45:-0.333333 46:-0.333333 47:-1 48:-1 49:0.333333 50:1 51:-0.333333 52:0.333333 53:-1 54:1 55:-1 56:-0.333333 57:-1 58:1 59:1 60:-0.333333 
0.6389331694570298 1:-0.333333 2:-0.333333 3:0.333333 4:1 5:0.333333 6:1 7:0.333333 8:-1 9:-0.333333 10:0.333333 11:0.333333 12:0.333333 13:1 14:1 15:0.333333 16:1 17:-0.333333 18:1 19:1 20:1 21:1 22:0.333333 23:-1 24:-1 25:-0.333333 26:-0.333333 27:0.333333 28:0.333333 29:-1 30:1 31:0.333333 32:-1 33:1 34:-0.333333 35:-0.333333 36:-1 37:-0.333333 38:-1 39:-1 40:-1 41:0.333333 42:1 43:-0.333333 44:-0.333333 45:-1 46:-0.333333 47:-1 48:1 49:-0.333333 50:1 51:0.333333 52:0.333333 53:-1 54:-1 55:-0.333333 56:1 57:1 58:0.333333 59:0.333333 60:-1 
0.919955271853801 1:0.333333 2:-1 3:1 4:-0.333333 5:-1 6:1 7:-0.333333 8:-0.333333 9:-0.333333 10:1 11:-0.333333 12:-0.333333 13:1 14:-0.333333 15:0.333333 16:1 17:-0.333333 18:-1 19:-0.333333 20:-0.333333 21:1 22:-0.333333 23:-1 24:1 25:1 26:0.333333 27:-0.333333 28:0.333333 29:0.333333 30:-1 31:-0.333333 32:-1 33:-1 34:-1 35:-0.333333 36:1 37:1 38:0.333333 39:-0.333333 40:1 41:1 42:-0.333333 43:0.333333 44:1 45:0.333333 46:1 47:0.333333 48:0.333333 49:1 50:1 51:-0.333333 52:-0.333333 53:-1 54:-0.333333 55:0.333333 56:0.333333 57:-1 58:-0.333333 59:-0.333333 60:-1 
1.761684080595155 1:0.333333 2:-0.333333 3:0.333333 4:1 5:0.333333 6:0.333333 7:-1 8:-1 9:0.333333 10:1 11:0.333333 12:1 13:-1 14:0.333333 15:0.333333 16:-0.333333 17:0.333333 18:1 19:-0.333333 20:0.333333 21:1 22:-1 23:0.333333 24:0.333333 25:-1 26:-1 27:1 28:-0.333333 29:-1 30:-0.333333 31:-0.333333 32:1 33:1 34:0.333333 35:0.333333 36:1 37:-0.333333 38:-1 39:-0.333333 40:-0.333333 41:1 42:0.333333 43:-1 44:0.333333 45:-1 46:-0.333333 47:1 48:-0.333333 49:1 50:1 51:1 52:1 53:0.333333 54:0.333333 55:-1 56:-1 57:-0.333333 58:1 59:0.333333 60:1 
0.3156752251716625 1:-0.333333 2:-1 3:0.333333 4:1 5:-0.333333 6:-0.333333 7:0.333333 8:0.333333 9:-1 10:1 11:-0.333333 12:-0.333333 13:-0.333333 14:-1 15:-0.333333 16:0.333333 17:-1 18:0.333333 19:-1 20:-0.333333 21:0.333333 22:1 23:1 24:0.333333 25:0.333333 26:1 27:-0.333333 28:0.333333 29:-1 30:0.333333 31:1 32:-1 33:0.333333 34:1 35:0.333333 36:0.333333 37:1 38:1 39:1 40:1 41:-1 42:-0.333333 43:-0.333333 44:0.333333 45:0.333333 46:1 47:-0.333333 48:-1 49:1 50:-0.333333 51:-0.333333 52:0.333333 53:0.333333 54:1 55:0.333333 56:1 57:-0.333333 58:-0.333333 59:-1 60:-1 
0.1306209582593023 1:-1 2:0.333333 3:0.333333 4:1 5:-0.333333 6:-1 7:0.333333 8:0.333333 9:1 10:-0.333333 11:1 12:-0.333333 13:-1 14:-1 15:0.333333 16:-1 17:1 18:-1 19:-0.333333 20:0.333333 21:0.333333 22:1 23:1 24:1 25:1 26:1 27:1 28:1 29:0.333333 30:1 31:1 32:-1 33:1 34:-0.333333 35:0.333333 36:0.333333 37:-1 38:1 39:-0.333333 40:-1 41:-0.333333 42:-0.333333 43:-1 44:0.333333 45:1 46:-1 47:-0.333333 48:-1 49:1 50:-1 51:-1 52:1 53:-0.333333 54:-1 55:-1 56:1 57:0.333333 58:0.333333 59:1 60:0.333333 
1.153445215886861 1:1 2:1 3:-1 4:0.333333 5:0.333333 6:-1 7:-1 8:0.333333 9:1 10:-1 11:1 12:1 13:1 14:1 15:1 16:-0.333333 17:1 18:0.333333 19:-1 20:1 21:-1 22:1 23:1 24:0.333333 25:1 26:1 27:0.333333 28:-1 29:-1 30:-1 31:-0.333333 32:-1 33:-1 34:-0.333333 35:-0.333333 36:-1 37:-1 38:-1 39:-1 40:-1 41:-1 42:1 43:-0.333333 44:1 45:1 46:1 47:0.333333 48:1 49:-0.333333 50:0.333333 51:-1 52:1 53:-0.333333 54:1 55:-0.333333 56:-1 57:-1 58:-1 59:-0.333333 60:-0.333333 
0.436676701457167 1:1 2:1 3:-1 4:1 5:1 6:0.333333 7:-1 8:-1 9:-1 10:1 11:1 12:1 13:1 14:1 15:-0.333333 16:1 17:1 18:-1 19:-0.333333 20:1 21:0.333333 22:1 23:1 24:-0.333333 25:0.333333 26:1 27:-1 28:-1 29:1 30:-0.333333 31:1 32:0.333333 33:1 34:1 35:1 36:1 37:-1 38:1 39:-1 40:-0.333333 41:-0.333333 42:-0.333333 43:-1 44:-1 45:-1 46:-1 47:-1 48:-1 49:-1 50:-1 51:-1 52:-1 53:-1 54:-1 55:-1 56:-1 57:-1 58:-1 59:-0.333333 60:0.333333 
2 1:-0.333333 2:-1 3:1 4:1 5:0.333333 6:1 7:0.333333 8:0.333333 9:1 10:-0.333333 11:1 12:-0.333333 13:0.333333 14:1 15:-1 16:-0.333333 17:-1 18:1 19:-0.333333 20:1 21:-0.333333 22:0.333333 23:-1 24:-1 25:-1 26:1 27:-0.333333 28:0.333333 29:-1 30:-1 31:-0.333333 32:0.333333 33:1 34:-1 35:-0.333333 36:1 37:-0.333333 38:-0.333333 39:0.333333 40:1 41:1 42:0.333333 43:-1 44:-1 45:-1 46:-1 47:1 48:-1 49:-0.333333 50:-1 51:-0.333333 52:-1 53:-1 54:1 55:0.333333 56:0.333333 57:0.333333 58:-1 59:0.333333 60:1 
0.5818590676684779 1:-0.333333 2:-1 3:-0.333333 4:0.333333 5:-0.333333 6:1 7:0.333333 8:1 9:-0.333333 10:0.333333 11:-1 12:-0.333333 13:-1 14:0.333333 15:-0.333333 16:-0.333333 17:1 18:0.333333 19:-1 20:0.333333 21:0.333333 22:-1 23:-1 24:0.333333 25:1 26:-1 27:0.333333 28:1 29:1 30:0.333333 31:-1 32:1 33:0.333333 34:-1 35:0.333333 36:1 37:1 38:0.333333 39:-1 40:0.333333 41:1 42:-0.333333 43:-0.333333 44:0.333333 45:0.333333 46:1 47:-0.333333 48:1 49:-0.333333 50:0.333333 51:1 52:-0.333333 53:-1 54:1 55:0.333333 56:1 57:-0.333333 58:-0.333333 59:1 60:0.333333 
0.9452451484290914 1:-0.333333 2:-0.333333 3:0.333333 4:1 5:-0.333333 6:-0.333333 7:-1 8:0.333333 9:0.333333 10:-0.333333 11:-1 12:0.333333 13:0.333333 14:-1 15:0.333333 16:-1 17:-0.333333 18:0.333333 19:-0.333333 20:0.333333 21:-0.333333 22:1 23:-0.333333 24:0.333333 25:-1 26:-0.333333 27:1 28:-1 29:-1 30:-0.333333 31:1 32:0.333333 33:-0.333333 34:-0.333333 35:0.333333 36:0.333333 37:0.333333 38:0.333333 39:0.333333 40:1 41:-0.333333 42:0.333333 43:0.333333 44:0.333333 45:0.333333 46:-0.333333 47:1 48:0.333333 49:0.333333 50:1 51:-0.333333 52:0.333333 53:0.333333 54:0.333333 55:1 56:-0.333333 57:0.333333 58:0.333333 59:-0.333333 60:-0.333333 
2 1:1 2:0.333333 3:0.333333 4:1 5:0.333333 6:1 7:-0.333333 8:-0.333333 9:1 10:-0.333333 11:0.333333 12:0.333333 13:-1 14:-1 15:0.333333 16:1 17:-0.333333 18:0.333333 19:-1 20:-0.333333 21:0.333333 22:-1 23:0.333333 24:-0.333333 25:0.333333 26:1 27:-1 28:-0.333333 29:-0.333333 30:-0.333333 31:-0.333333 32:1 33:-0.333333 34:-0.333333 35:1 36:0.333333 37:-1 38:0.333333 39:0.333333 40:1 41:0.333333 42:-1 43:-0.333333 44:0.333333 45:0.333333 46:-0.333333 47:-1 48:-0.333333 49:-0.333333 50:-1 51:0.333333 52:-1 53:0.333333 54:0.333333 55:1 56:0.333333 57:-0.333333 58:-0.333333 59:-0.333333 60:-0.333333 
0.7258437520180617 1:0.333333 2:1 3:0.333333 4:0.333333 5:-0.333333 6:-0.333333 7:0.333333 8:-0.333333 9:0.333333 10:-1 11:-0.333333 12:1 13:-0.333333 14:1 15:1 16:-0.333333 17:-0.333333 18:-0.333333 19:-1 20:0.333333 21:1 22:-0.333333 23:1 24:0.333333 25:1 26:-0.333333 27:-0.333333 28:-0.333333 29:1 30:-1 31:1 32:0.333333 33:-0.333333 34:-0.333333 35:-1 36:-1 37:-1 38:-0.333333 39:0.333333 40:-1 41:-1 42:-0.333333 43:0.333333 44:0.333333 45:1 46:-1 47:0.333333 48:-0.333333 49:1 50:1 51:-0.333333 52:0.333333 53:1 54:0.333333 55:-1 56:0.333333 57:1 58:-1 59:1 60:1 
0.597260841126759 1:1 2:-0.333333 3:-1 4:-1 5:-0.333333 6:-0.333333 7:-1 8:-0.333333 9:-0.333333 10:-1 11:0.333333 12:-0.333333 13:-0.333333 14:1 15:1 16:-1 17:-1 18:0.333333 19:1 20:1 21:-0.333333 22:1 23:-1 24:1 25:-1 26:1 27:1 28:0.333333 29:0.333333 30:-1 31:0.333333 32:0.333333 33:-1 34:1 35:1 36:0.333333 37:-1 38:0.333333 39:-1 40:1 41:1 42:1 43:-0.333333 44:-1 45:1 46:-0.333333 47:1 48:-1 49:0.333333 50:-1 51:1 52:-0.333333 53:1 54:-0.333333 55:1 56:-1 57:-0.333333 58:-0.333333 59:-0.333333 60:-1 
0.8070703782899906 1:0.333333 2:-1 3:-0.333333 4:-0.333333 5:1 6:1 7:1 8:0.333333 9:1 10:-0.333333 11:0.333333 12:-0.333333 13:-0.333333 14:0.333333 15:0.333333 16:0.333333 17:0.333333 18:0.333333 19:0.333333 20:-0.333333 21:-0.333333 22:-1 23:0.333333 24:-1 25:-0.333333 26:1 27:-0.333333 28:-0.333333 29:0.333333 30:1 31:0.333333 32:1 33:-0.333333 34:-1 35:0.333333 36:-0.333333 37:-0.333333 38:0.333333 39:-0.333333 40:1 41:1 42:-1 43:0.333333 44:1 45:-0.333333 46:-1 47:1 48:-0.333333 49:-0.333333 50:1 51:-0.333333 52:0.333333 53:1 54:-0.333333 55:0.333333 56:1 57:0.333333 58:-1 59:0.333333 60:-1 
0.5355592399809632 1:1 2:0.333333 3:1 4:1 5:1 6:-0.333333 7:-0.333333 8:-1 9:-0.333333 10:-0.333333 11:-1 12:-1 13:0.333333 14:-1 15:-0.333333 16:0.333333 17:1 18:0.333333 19:0.333333 20:0.333333 21:1 22:-1 23:-0.333333 24:1 25:-0.333333 26:-0.333333 27:0.333333 28:1 29:1 30:0.333333 31:0.333333 32:1 33:0.333333 34:0.333333 35:-0.333333 36:1 37:0.333333 38:1 39:-0.333333 40:0.333333 41:-1 42:-1 43:1 44:-0.333333 45:1 46:0.333333 47:0.333333 48:0.333333 49:1 50:1 51:-0.333333 52:0.333333 53:-1 54:0.333333 55:-1 56:-0.333333 57:0.333333 58:0.333333 59:0.333333 60:-1 
0.893955380209455 1:1 2:-0.333333 3:-1 4:-0.333333 5:-1 6:-0.333333 7:-1 8:1 9:-0.333333 10:-1 11:-1 12:-0.333333 13:-1 14:1 15:0.333333 16:0.333333 17:-1 18:-0.333333 19:1 20:1 21:1 22:0.333333 23:-1 24:1 25:1 26:0.333333 27:1 28:0.333333 29:0.333333 30:1 31:-1 32:0.333333 33:-1 34:1 35:-0.333333 36:1 37:-1 38:-0.333333 39:0.333333 40:1 41:1 42:-0.333333 43:0.333333 44:0.333333 45:-1 46:-0.333333 47:0.333333 48:1 49:-1 50:1 51:0.333333 52:0.333333 53:0.333333 54:-0.333333 55:-1 56:0.333333 57:1 58:0.333333 59:-1 60:1 
0.7907637439365759 1:1 2:0.333333 3:-1 4:-1 5:-0.333333 6:-0.333333 7:0.333333 8:0.333333 9:-1 10:-1 11:0.333333 12:-1 13:-1 14:0.333333 15:-1 16:-1 17:1 18:-0.333333 19:-1 20:0.333333 21:-1 22:-0.333333 23:0.333333 24:-0.333333 25:-0.333333 26:-0.333333 27:-0.333333 28:-1 29:-0.333333 30:1 31:-1 32:0.333333 33:-1 34:0.333333 35:-0.333333 36:1 37:-0.333333 38:0.333333 39:0.333333 40:-1 41:-0.333333 42:-1 43:0.333333 44:1 45:-0.333333 46:-0.333333 47:0.333333 48:0.333333 49:-1 50:-0.333333 51:-1 52:0.333333 53:0.333333 54:-1 55:-0.333333 56:0.333333 57:0.333333 58:1 59:0.333333 60:-1 
0.09262627961228656 1:-1 2:-0.333333 3:1 4:-1 5:1 6:1 7:-0.333333 8:1 9:0.333333 10:0.333333 11:0.333333 12:1 13:-1 14:-0.333333 15:0.333333 16:1 17:-0.333333 18:1 19:-1 20:0.333333 21:1 22:1 23:-1 24:-0.333333 25:1 26:-1 27:1 28:-0.333333 29:0.333333 30:-1 31:-1 32:-1 33:1 34:-0.333333 35:-1 36:-1 37:-0.333333 38:1 39:1 40:1 41:-0.333333 42:-0.333333 43:0.333333 44:0.333333 45:1 46:1 47:-0.333333 48:-1 49:-0.333333 50:1 51:1 52:1 53:0.333333 54:0.333333 55:0.333333 56:1 57:1 58:1 59:1 60:0.333333 
0.004501567969285051 1:-0.333333 2:0.333333 3:1 4:1 5:-0.333333 6:-1 7:1 8:-0.333333 9:1 10:0.333333 11:1 12:-1 13:-1 14:-1 15:-1 16:-1 17:1 18:-1 19:1 20:-1 21:1 22:1 23:1 24:0.333333 25:-1 26:1 27:-0.333333 28:1 29:0.333333 30:1 31:1 32:-1 33:0.333333 34:1 35:-0.333333 36:-1 37:-1 38:-1 39:0.333333 40:-1 41:1 42:1 43:1 44:1 45:-0.333333 46:0.333333 47:0.333333 48:-1 49:-0.333333 50:-1 51:0.333333 52:1 53:1 54:1 55:0.333333 56:1 57:0.333333 58:0.333333 59:-1 60:-1 
0.3239930496855558 1:-0.333333 2:-1 3:1 4:-0.333333 5:1 6:-1 7:0.333333 8:0.333333 9:0.333333 10:1 11:-0.333333 12:-0.333333 13:-0.333333 14:-1 15:1 16:0.333333 17:-0.333333 18:0.333333 19:1 20:-0.333333 21:-1 22:0.333333 23:0.333333 24:-0.333333 25:0.333333 26:-1 27:1 28:-0.333333 29:0.333333 30:-1 31:-0.333333 32:-1 33:-1 34:-1 35:-0.333333 36:-1 37:-0.333333 38:-1 39:1 40:0.333333 41:-1 42:0.333333 43:0.333333 44:-0.333333 45:0.333333 46:-0.333333 47:0.333333 48:1 49:-0.333333 50:-0.333333 51:0.333333 52:-1 53:0.333333 54:0.333333 55:0.333333 56:-1 57:-0.333333 58:0.333333 59:-1 60:0.333333 
2 1:1 2:-0.333333 3:-0.333333 4:-1 5:-0.333333 6:-1 7:-0.333333 8:-0.333333 9:0.333333 10:1 11:-0.333333 12:-1 13:0.333333 14:-1 15:-1 16:0.333333 17:-1 18:1 19:0.333333 20:0.333333 21:0.333333 22:1 23:0.333333 24:1 25:-0.333333 26:-0.333333 27:1 28:0.333333 29:-1 30:0.333333 31:-1 32:0.333333 33:-1 34:-0.333333 35:0.333333 36:1 37:-1 38:-0.333333 39:-1 40:1 41:0.333333 42:1 43:0.333333 44:-1 45:-1 46:-0.333333 47:-0.333333 48:1 49:-0.333333 50:0.333333 51:1 52:0.333333 53:-1 54:-0.333333 55:-1 56:0.333333 57:1 58:1 59:0.333333 60:-1 
0.9561697265471493 1:-0.333333 2:0.333333 3:1 4:-1 5:0.333333 6:0.333333 7:-1 8:0.333333 9:0.333333 10:-1 11:1 12:-0.333333 13:0.333333 14:1 15:-0.333333 16:-0.333333 17:0.333333 18:0.333333 19:1 20:0.333333 21:-1 22:-0.333333 23:-0.333333 24:-0.333333 25:-1 26:1 27:-0.333333 28:0.333333 29:1 30:1 31:0.333333 32:1 33:-0.333333 34:-0.333333 35:1 36:-0.333333 37:-0.333333 38:0.333333 39:0.333333 40:1 41:1 42:-0.333333 43:0.333333 44:1 45:-0.333333 46:-0.333333 47:1 48:0.333333 49:1 50:-0.333333 51:0.333333 52:0.333333 53:1 54:-0.333333 55:-1 56:0.333333 57:1 58:-0.333333 59:1 60:-1 
1.822813062134969 1:1 2:-0.333333 3:-0.333333 4:-1 5:-0.333333 6:-0.333333 7:-1 8:-1 9:-1 10:1 11:1 12:0.333333 13:1 14:0.333333 15:-0.333333 16:-1 17:-0.333333 18:-0.333333 19:1 20:-0.333333 21:-1 22:0.333333 23:0.333333 24:1 25:-0.333333 26:-0.333333 27:-1 28:0.333333 29:-1 30:-0.333333 31:-0.333333 32:-0.333333 33:0.333333 34:-0.333333 35:-0.333333 36:-0.333333 37:0.333333 38:1 39:-0.333333 40:-0.333333 41:-0.333333 42:0.333333 43:-0.333333 44:-1 45:-0.333333 46:-0.333333 47:-1 48:0.333333 49:-0.333333 50:0.333333 51:1 52:0.333333 53:0.333333 54:0.333333 55:-0.333333 56:-0.333333 57:-0.333333 58:-0.333333 59:0.333333 60:0.333333 
1.205835054245613 1:1 2:1 3:-0.333333 4:-1 5:-1 6:-1 7:1 8:0.333333 9:1 10:-0.333333 11:-0.333333 12:-1 13:-1 14:0.333333 15:1 16:-0.333333 17:0.333333 18:0.333333 19:1 20:0.333333 21:1 22:-0.333333 23:1 24:1 25:-0.333333 26:1 27:-0.333333 28:1 29:-0.333333 30:0.333333 31:0.333333 32:1 33:-0.333333 34:0.333333 35:1 36:-0.333333 37:-1 38:-1 39:1 40:-1 41:-1 42:0.333333 43:1 44:1 45:0.333333 46:1 47:-1 48:1 49:0.333333 50:0.333333 51:0.333333 52:-1 53:-0.333333 54:-1 55:-0.333333 56:-1 57:-0.333333 58:-0.333333 59:0.333333 60:0.333333 
0.2648971881308779 1:-0.333333 2:0.333333 3:0.333333 4:-0.333333 5:-1 6:-1 7:-1 8:-0.333333 9:0.333333 10:1 11:-0.333333 12:0.333333 13:0.333333 14:0.333333 15:-0.333333 16:0.333333 17:-0.333333 18:-1 19:-0.333333 20:1 21:0.333333 22:-0.333333 23:-0.333333 24:-1 25:-0.333333 26:1 27:-0.333333 28:-0.333333 29:-1 30:-0.333333 31:0.333333 32:-1 33:-0.333333 34:-0.333333 35:0.333333 36:0.333333 37:0.333333 38:0.333333 39:0.333333 40:0.333333 41:-1 42:0.333333 43:0.333333 44:-1 45:0.333333 46:0.333333 47:-1 48:0.333333 49:-0.333333 50:0.333333 51:-1 52:-0.333333 53:-1 54:-0.333333 55:-1 56:-0.333333 57:-1 58:-0.333333 59:1 60:0.333333 
1.197695674764671 1:0.333333 2:-1 3:-0.333333 4:-0.333333 5:-0.333333 6:1 7:-1 8:1 9:1 10:-0.333333 11:-1 12:0.333333 13:1 14:-0.333333 15:-1 16:-0.333333 17:-0.333333 18:-0.333333 19:0.333333 20:-1 21:-0.333333 22:0.333333 23:0.333333 24:1 25:-0.333333 26:-1 27:0.333333 28:1 29:0.333333 30:0.333333 31:-1 32:1 33:-0.333333 34:-0.333333 35:-0.333333 36:-1 37:-1 38:-1 39:1 40:-0.333333 41:1 42:-1 43:1 44:0.333333 45:1 46:0.333333 47:0.333333 48:0.333333 49:1 50:1 51:0.333333 52:0.333333 53:0.333333 54:0.333333 55:-1 56:-0.333333 57:-0.333333 58:-0.333333 59:-1 60:-0.333333 
0.6760606552062595 1:0.333333 2:-1 3:1 4:-0.333333 5:-1 6:-1 7:-0.333333 8:0.333333 9:1 10:1 11:1 12:-0.333333 13:-1 14:-0.333333 15:1 16:-0.333333 17:-1 18:-1 19:-0.333333 20:0.333333 21:1 22:0.333333 23:1 24:1 25:0.333333 26:0.333333 27:1 28:-0.333333 29:-0.333333 30:-0.333333 31:-0.333333 32:-1 33:0.333333 34:-1 35:-1 36:1 37:-0.333333 38:1 39:-0.333333 40:-0.333333 41:-0.333333 42:0.333333 43:1 44:1 45:0.333333 46:-1 47:-1 48:1 49:-0.333333 50:1 51:0.333333 52:-1 53:-1 54:-0.333333 55:-1 56:-1 57:1 58:-0.333333 59:1 60:-0.333333 
1.123901824629733 1:1 2:0.333333 3:1 4:1 5:1 6:-1 7:0.333333 8:1 9:-1 10:-1 11:-1 12:-1 13:0.333333 14:1 15:-1 16:0.333333 17:-1 18:-1 19:-1 20:-1 21:1 22:1 23:-1 24:-0.333333 25:0.333333 26:1 27:-0.333333 28:-0.333333 29:-0.333333 30:1 31:-0.333333 32:1 33:-0.333333 34:-0.333333 35:1 36:-0.333333 37:-0.333333 38:0.333333 39:-1 40:0.333333 41:-1 42:1 43:-0.333333 44:0.333333 45:0.333333 46:1 47:-0.333333 48:1 49:-1 50:-1 51:1 52:0.333333 53:0.333333 54:0.333333 55:-1 56:-0.333333 57:-1 58:1 59:-1 60:1 
0.9000312372004587 1:-0.333333 2:-0.333333 3:-1 4:-0.333333 5:0.333333 6:0.333333 7:1 8:1 9:-0.333333 10:-0.333333 11:-0.333333 12:-1 13:-0.333333 14:-0.333333 15:-0.333333 16:-0.333333 17:0.333333 18:-1 19:-1 20:1 21:-0.333333 22:-0.333333 23:-1 24:-1 25:0.333333 26:-1 27:-0.333333 28:1 29:0.333333 30:-1 31:0.333333 32:1 33:-1 34:1 35:1 36:0.333333 37:-1 38:1 39:1 40:0.333333 41:1 42:-1 43:-0.333333 44:1 45:1 46:0.333333 47:-1 48:-0.333333 49:0.333333 50:-1 51:0.333333 52:1 53:0.333333 54:1 55:-0.333333 56:-0.333333 57:-0.333333 58:-1 59:0.333333 60:1 
1.787065459648455 1:-1 2:-1 3:1 4:-0.333333 5:-1 6:-0.333333 7:-1 8:1 9:1 10:0.333333 11:1 12:0.333333 13:-1 14:1 15:-1 16:1 17:1 18:1 19:1 20:-0.333333 21:-0.333333 22:1 23:0.333333 24:1 25:-1 26:-1 27:-0.333333 28:-0.333333 29:-1 30:1 31:-1 32:1 33:-1 34:-0.333333 35:-0.333333 36:-1 37:1 38:-1 39:0.333333 40:-1 41:-0.333333 42:1 43:1 44:1 45:1 46:-1 47:0.333333 48:-1 49:-0.333333 50:1 51:-0.333333 52:-0.333333 53:-0.333333 54:1 55:-0.333333 56:-0.333333 57:-0.333333 58:1 59:0.333333 60:1 
2 1:-0.333333 2:-0.333333 3:1 4:-0.333333 5:-0.333333 6:-0.333333 7:-0.333333 8:1 9:-0.333333 10:1 11:-0.333333 12:0.333333 13:-1 14:0.333333 15:-1 16:0.333333 17:-0.333333 18:-0.333333 19:0.333333 20:-1 21:-0.333333 22:0.333333 23:-1 24:-0.333333 25:-0.333333 26:-1 27:1 28:1 29:-0.333333 30:-1 31:-1 32:1 33:-0.333333 34:-1 35:-1 36:-0.333333 37:-0.333333 38:0.333333 39:0.333333 40:-1 41:-0.333333 42:-0.333333 43:-0.333333 44:-1 45:-0.333333 46:-0.333333 47:0.333333 48:-1 49:-0.333333 50:0.333333 51:-1 52:0.333333 53:0.333333 54:1 55:-0.333333 56:-1 57:-0.333333 58:1 59:-0.333333 60:0.333333 
1.285180946800035 1:-1 2:0.333333 3:1 4:-1 5:-1 6:-1 7:1 8:-1 9:1 10:0.333333 11:1 12:0.333333 13:-1 14:-1 15:0.333333 16:1 17:1 18:0.333333 19:-1 20:0.333333 21:-0.333333 22:-0.333333 23:0.333333 24:0.333333 25:1 26:0.333333 27:-1 28:-0.333333 29:-1 30:-0.333333 31:-1 32:-1 33:1 34:-1 35:0.333333 36:0.333333 37:-1 38:-0.333333 39:1 40:0.333333 41:-0.333333 42:-0.333333 43:-0.333333 44:1 45:0.333333 46:-1 47:1 48:-0.333333 49:0.333333 50:-1 51:-0.333333 52:0.333333 53:-1 54:1 55:0.333333 56:-1 57:-1 58:1 59:-1 60:1 
1.042058178116682 1:1 2:0.333333 3:0.333333 4:1 5:1 6:1 7:-1 8:0.333333 9:-1 10:-0.333333 11:-1 12:0.333333 13:-1 14:-0.333333 15:0.333333 16:1 17:-1 18:-0.333333 19:1 20:-0.333333 21:1 22:-0.333333 23:-0.333333 24:1 25:-0.333333 26:-0.333333 27:0.333333 28:0.333333 29:-1 30:0.333333 31:1 32:0.333333 33:-1 34:-0.333333 35:1 36:1 37:1 38:1 39:-1 40:-0.333333 41:0.333333 42:-1 43:1 44:0.333333 45:1 46:0.333333 47:1 48:-0.333333 49:0.333333 50:1 51:0.333333 52:1 53:-1 54:1 55:1 56:1 57:-0.333333 58:-0.333333 59:0.333333 60:0.333333 
0.6079216090546304 1:-1 2:-0.333333 3:-0.333333 4:-0.333333 5:-1 6:-1 7:-1 8:-1 9:-0.333333 10:0.333333 11:0.333333 12:0.333333 13:-1 14:1 15:-0.333333 16:-1 17:1 18:0.333333 19:1 20:1 21:0.333333 22:-1 23:-1 24:-0.333333 25:0.333333 26:-1 27:-0.333333 28:-0.333333 29:-0.333333 30:-1 31:-1 32:-0.333333 33:0.333333 34:0.333333 35:0.333333 36:0.333333 37:-1 38:-0.333333 39:1 40:-0.333333 41:-1 42:-0.333333 43:1 44:-1 45:-0.333333 46:0.333333 47:1 48:-0.333333 49:0.333333 50:-1 51:1 52:1 53:0.333333 54:0.333333 55:1 56:-1 57:-0.333333 58:-1 59:-1 60:-1 
0.5207825492126992 1:-0.333333 2:-0.333333 3:-0.333333 4:-1 5:1 6:-0.333333 7:-0.333333 8:-0.333333 9:0.333333 10:1 11:-0.333333 12:0.333333 13:-1 14:0.333333 15:0.333333 16:-0.333333 17:1 18:-0.333333 19:-1 20:-0.333333 21:0.333333 22:-0.333333 23:0.333333 24:0.333333 25:-0.333333 26:-1 27:-0.333333 28:-0.333333 29:-1 30:0.333333 31:-1 32:-1 33:-0.333333 34:-0.333333 35:0.333333 36:-0.333333 37:-0.333333 38:0.333333 39:-0.333333 40:-0.333333 41:0.333333 42:0.333333 43:-0.333333 44:-1 45:-0.333333 46:0.333333 47:-0.333333 48:0.333333 49:1 50:0.333333 51:1 52:-1 53:-1 54:-0.333333 55:-1 56:1 57:-0.333333 58:-1 59:1 60:0.333333 
2 1:0.333333 2:-0.333333 3:-0.333333 4:-0.333333 5:0.333333 6:-1 7:-1 8:-0.333333 9:1 10:0.333333 11:-1 12:0.333333 13:1 14:-0.333333 15:0.333333 16:-0.333333 17:0.333333 18:1 19:0.333333 20:0.333333 21:0.333333 22:1 23:-0.333333 24:1 25:-0.333333 26:-1 27:-1 28:0.333333 29:-1 30:-0.333333 31:0.333333 32:0.333333 33:0.333333 34:1 35:-1 36:1 37:-0.333333 38:-1 39:-1 40:1 41:-1 42:-1 43:-1 44:-0.333333 45:-0.333333 46:-0.333333 47:-0.333333 48:-1 49:1 50:-1 51:0.333333 52:0.333333 53:-0.333333 54:-1 55:-0.333333 56:-0.333333 57:1 58:-0.333333 59:-1 60:1 
0.538898378517821 1:0.333333 2:0.333333 3:1 4:-1 5:-1 6:-0.333333 7:-1 8:-1 9:-1 10:-1 11:-1 12:1 13:-0.333333 14:1 15:-0.333333 16:1 17:1 18:1 19:1 20:0.333333 21:-1 22:1 23:-0.333333 24:1 25:-1 26:0.333333 27:-1 28:-0.333333 29:1 30:-1 31:-1 32:-0.333333 33:1 34:0.333333 35:-1 36:1 37:1 38:-0.333333 39:1 40:0.333333 41:1 42:1 43:0.333333 44:-1 45:0.333333 46:1 47:1 48:-0.333333 49:-0.333333 50:0.333333 51:1 52:-0.333333 53:0.333333 54:0.333333 55:-1 56:0.333333 57:0.333333 58:1 59:0.333333 60:0.333333 
0.8994584391162906 1:-0.333333 2:-0.333333 3:0.333333 4:0.333333 5:0.333333 6:0.333333 7:0.333333 8:-1 9:0.333333 10:0.333333 11:1 12:-0.333333 13:-0.333333 14:1 15:-0.333333 16:-0.333333 17:-1 18:-1 19:-0.333333 20:0.333333 21:0.333333 22:0.333333 23:1 24:0.333333 25:1 26:-1 27:0.333333 28:0.333333 29:1 30:-0.333333 31:-0.333333 32:1 33:-0.333333 34:1 35:-0.333333 36:0.333333 37:-0.333333 38:-0.333333 39:-0.333333 40:-0.333333 41:-1 42:-0.333333 43:0.333333 44:-0.333333 45:-1 46:-0.333333 47:-0.333333 48:1 49:1 50:1 51:0.333333 52:1 53:1 54:0.333333 55:1 56:-1 57:0.333333 58:-0.333333 59:0.333333 60:-1 
1.542520293732622 1:0.333333 2:1 3:-1 4:-0.333333 5:-0.333333 6:0.333333 7:1 8:0.333333 9:0.333333 10:-1 11:-0.333333 12:-1 13:1 14:-1 15:-0.333333 16:0.333333 17:0.333333 18:-1 19:1 20:-1 21:-0.333333 22:-1 23:-1 24:-0.333333 25:-1 26:-1 27:0.333333 28:0.333333 29:-1 30:-1 31:-1 32:0.333333 33:-1 34:0.333333 35:1 36:1 37:1 38:0.333333 39:1 40:-0.333333 41:0.333333 42:-0.333333 43:1 44:-0.333333 45:1 46:-0.333333 47:1 48:-0.333333 49:-1 50:-0.333333 51:-1 52:-1 53:1 54:-1 55:-1 56:1 57:0.333333 58:-1 59:-0.333333 60:-1 
0.2025800255898322 1:0.333333 2:-0.333333 3:0.333333 4:0.333333 5:0.333333 6:1 7:0.333333 8:0.333333 9:1 10:0.333333 11:0.333333 12:0.333333 13:1 14:1 15:-0.333333 16:1 17:1 18:1 19:-1 20:-0.333333 21:-1 22:-1 23:1 24:1 25:-0.333333 26:1 27:0.333333 28:1 29:1 30:0.333333 31:-0.333333 32:1 33:0.333333 34:-0.333333 35:1 36:0.333333 37:-1 38:1 39:-0.333333 40:-1 41:1 42:-1 43:-1 44:-1 45:0.333333 46:0.333333 47:0.333333 48:-0.333333 49:1 50:1 51:0.333333 52:1 53:-0.333333 54:1 55:-0.333333 56:1 57:0.333333 58:0.333333 59:0.333333 60:0.333333 
0.5706937484129978 1:-1 2:1 3:-1 4:0.333333 5:1 6:-0.333333 7:-1 8:-1 9:-1 10:-1 11:-0.333333 12:-1 13:-0.333333 14:1 15:-0.333333 16:-1 17:-1 18:-0.333333 19:-0.333333 20:-1 21:1 22:-1 23:1 24:-1 25:-0.333333 26:-0.333333 27:-1 28:1 29:-1 30:0.333333 31:-1 32:1 33:0.333333 34:1 35:1 36:1 37:-1 38:-1 39:-1 40:-0.333333 41:-1 42:-0.333333 43:-1 44:-1 45:-1 46:1 47:1 48:1 49:-0.333333 50:0.333333 51:1 52:-1 53:-1 54:-1 55:-0.333333 56:0.333333 57:1 58:-0.333333 59:1 60:-0.333333 
0.245108069063033 1:0.333333 2:-1 3:0.333333 4:0.333333 5:-1 6:-0.333333 7:0.333333 8:0.333333 9:-0.333333 10:-0.333333 11:-0.333333 12:1 13:-1 14:-1 15:-1 16:0.333333 17:-1 18:-1 19:1 20:1 21:1 22:0.333333 23:-1 24:-1 25:-1 26:-0.333333 27:-0.333333 28:-0.333333 29:0.333333 30:0.333333 31:-1 32:-1 33:1 34:-1 35:-1 36:1 37:-1 38:-1 39:0.333333 40:-1 41:1 42:-0.333333 43:0.333333 44:1 45:-1 46:1 47:-1 48:-0.333333 49:-1 50:-0.333333 51:-1 52:-0.333333 53:-1 54:1 55:1 56:0.333333 57:-1 58:-1 59:-1 60:-1 
0.1090406045760378 1:0.333333 2:1 3:1 4:-1 5:-0.333333 6:-1 7:-0.333333 8:1 9:-1 10:-0.333333 11:1 12:1 13:-1 14:-1 15:-1 16:-1 17:1 18:1 19:1 20:1 21:0.333333 22:-1 23:-1 24:-1 25:0.333333 26:1 27:-0.333333 28:-1 29:-0.333333 30:-1 31:1 32:1 33:1 34:1 35:-1 36:-1 37:-1 38:-1 39:0.333333 40:1 41:-0.333333 42:1 43:-1 44:-1 45:1 46:1 47:1 48:-1 49:1 50:1 51:1 52:-1 53:-1 54:-1 55:-0.333333 56:-0.333333 57:-0.333333 58:1 59:1 60:-1 
2 1:0.333333 2:-1 3:1 4:1 5:-0.333333 6:0.333333 7:0.333333 8:1 9:-0.333333 10:1 11:-1 12:1 13:1 14:0.333333 15:-1 16:-0.333333 17:1 18:-0.333333 19:-0.333333 20:-1 21:-0.333333 22:0.333333 23:0.333333 24:1 25:-0.333333 26:-0.333333 27:-1 28:-0.333333 29:0.333333 30:-1 31:-1 32:1 33:-0.333333 34:-1 35:-0.333333 36:-0.333333 37:-1 38:-1 39:-0.333333 40:-1 41:-0.333333 42:-0.333333 43:-0.333333 44:-1 45:-0.333333 46:1 47:0.333333 48:0.333333 49:-1 50:-1 51:0.333333 52:-1 53:1 54:-0.333333 55:1 56:0.333333 57:-1 58:-1 59:1 60:-1 
1.000786124365613 1:0.333333 2:0.333333 3:1 4:1 5:-0.333333 6:0.333333 7:1 8:0.333333 9:-1 10:-0.333333 11:-1 12:-0.333333 13:0.333333 14:-0.333333 15:-0.333333 16:-1 17:-0.333333 18:-1 19:-1 20:-1 21:-0.333333 22:0.333333 23:-1 24:1 25:1 26:1 27:-0.333333 28:1 29:1 30:1 31:-0.333333 32:1 33:-1 34:0.333333 35:-1 36:-1 37:-0.333333 38:-1 39:1 40:0.333333 41:0.333333 42:-0.333333 43:0.333333 44:-1 45:-0.333333 46:-1 47:0.333333 48:-0.333333 49:1 50:-0.333333 51:1 52:-1 53:-1 54:-1 55:1 56:-0.333333 57:1 58:1 59:0.333333 60:0.333333 
0.825424774754384 1:-0.333333 2:-0.333333 3:0.333333 4:-1 5:-0.333333 6:-1 7:1 8:-1 9:-1 10:1 11:-0.333333 12:0.333333 13:1 14:-1 15:1 16:-0.333333 17:-1 18:1 19:-1 20:0.333333 21:-1 22:1 23:1 24:1 25:1 26:1 27:1 28:-0.333333 29:1 30:-1 31:-0.333333 32:-0.333333 33:1 34:-0.333333 35:-0.333333 36:1 37:-0.333333 38:0.333333 39:0.333333 40:-1 41:1 42:1 43:1 44:-0.333333 45:-1 46:0.333333 47:1 48:-0.333333 49:0.333333 50:-1 51:1 52:1 53:1 54:-1 55:-0.333333 56:0.333333 57:0.333333 58:-1 59:-1 60:0.333333 
0.7544676685135246 1:1 2:0.333333 3:-1 4:-1 5:1 6:1 7:0.333333 8:1 9:-1 10:1 11:1 12:0.333333 13:0.333333 14:-1 15:1 16:1 17:0.333333 18:-0.333333 19:-1 20:1 21:1 22:1 23:-1 24:-0.333333 25:1 26:1 27:0.333333 28:-0.333333 29:-1 30:1 31:1 32:0.333333 33:1 34:-1 35:1 36:1 37:0.333333 38:-1 39:0.333333 40:1 41:1 42:0.333333 43:0.333333 44:-1 45:1 46:1 47:0.333333 48:0.333333 49:-1 50:1 51:1 52:0.333333 53:-0.333333 54:-1 55:1 56:1 57:0.333333 58:0.333333 59:-1 60:-0.333333 
2 1:1 2:0.333333 3:-1 4:1 5:1 6:-0.333333 7:-0.333333 8:-0.333333 9:-0.333333 10:-1 11:-0.333333 12:-1 13:-0.333333 14:0.333333 15:-1 16:0.333333 17:0.333333 18:-1 19:1 20:0.333333 21:0.333333 22:-0.333333 23:0.333333 24:1 25:-0.333333 26:0.333333 27:-1 28:0.333333 29:-1 30:-1 31:-0.333333 32:1 33:-0.333333 34:-1 35:0.333333 36:0.333333 37:0.333333 38:1 39:0.333333 40:-1 41:1 42:-0.333333 43:-0.333333 44:-0.333333 45:-1 46:-1 47:1 48:-0.333333 49:-0.333333 50:-0.333333 51:-0.333333 52:1 53:1 54:1 55:-0.333333 56:-0.333333 57:-1 58:-0.333333 59:0.333333 60:-1 
2 1:-0.333333 2:1 3:-0.333333 4:-0.333333 5:-0.333333 6:0.333333 7:0.333333 8:1 9:0.333333 10:0.333333 11:1 12:-1 13:1 14:1 15:0.333333 16:0.333333 17:0.333333 18:1 19:-0.333333 20:-0.333333 21:-1 22:-0.333333 23:1 24:-1 25:0.333333 26:-0.333333 27:-0.333333 28:-0.333333 29:-1 30:-1 31:-0.333333 32:-0.333333 33:1 34:-1 35:-1 36:-0.333333 37:-1 38:-0.333333 39:-0.333333 40:-0.333333 41:0.333333 42:1 43:-0.333333 44:-0.333333 45:-0.333333 46:-0.333333 47:1 48:-0.333333 49:-0.333333 50:0.333333 51:0.333333 52:-0.333333 53:-0.333333 54:-1 55:-0.333333 56:-0.333333 57:-1 58:-1 59:-0.333333 60:-0.333333 
1.342051167439173 1:-1 2:0.333333 3:0.333333 4:1 5:-0.333333 6:-0.333333 7:1 8:0.333333 9:0.333333 10:1 11:0.333333 12:0.333333 13:1 14:-0.333333 15:-0.333333 16:0.333333 17:0.333333 18:0.333333 19:0.333333 20:0.333333 21:0.333333 22:1 23:-0.333333 24:-0.333333 25:1 26:0.333333 27:1 28:0.333333 29:-0.333333 30:-0.333333 31:1 32:-0.333333 33:-0.333333 34:-0.333333 35:-1 36:-1 37:0.333333 38:1 39:1 40:1 41:-0.333333 42:0.333333 43:1 44:-0.333333 45:0.333333 46:1 47:0.333333 48:-1 49:-0.333333 50:1 51:-1 52:1 53:-0.333333 54:-1 55:1 56:-0.333333 57:-0.333333 58:-1 59:-1 60:-1 
1.278763559633622 1:1 2:-0.333333 3:-0.333333 4:0.333333 5:1 6:0.333333 7:-0.333333 8:0.333333 9:1 10:1 11:1 12:1 13:-0.333333 14:-0.333333 15:1 16:-0.333333 17:1 18:0.333333 19:0.333333 20:-1 21:1 22:1 23:1 24:-0.333333 25:1 26:-0.333333 27:1 28:-0.333333 29:-0.333333 30:-1 31:-1 32:1 33:-0.333333 34:1 35:0.333333 36:-1 37:1 38:1 39:1 40:1 41:0.333333 42:0.333333 43:-1 44:0.333333 45:0.333333 46:0.333333 47:0.333333 48:1 49:1 50:1 51:-1 52:0.333333 53:0.333333 54:1 55:1 56:-1 57:-1 58:-0.333333 59:1 60:1 
1.921646930817065 1:1 2:-0.333333 3:-1 4:1 5:-1 6:-0.333333 7:1 8:0.333333 9:-1 10:-1 11:1 12:-1 13:0.333333 14:0.333333 15:-1 16:-0.333333 17:-0.333333 18:-0.333333 19:-1 20:0.333333 21:0.333333 22:-1 23:-0.333333 24:-0.333333 25:-1 26:-1 27:-0.333333 28:-0.333333 29:1 30:0.333333 31:-0.333333 32:1 33:-0.333333 34:-1 35:0.333333 36:0.333333 37:-1 38:-0.333333 39:1 40:0.333333 41:0.333333 42:1 43:-0.333333 44:-0.333333 45:-1 46:-0.333333 47:-0.333333 48:0.333333 49:0.333333 50:0.333333 51:0.333333 52:-1 53:-0.333333 54:-0.333333 55:0.333333 56:1 57:-0.333333 58:1 59:-1 60:0.333333 
0.01637958326792328 1:-1 2:1 3:-0.333333 4:0.333333 5:0.333333 6:0.333333 7:0.333333 8:0.333333 9:-1 10:1 11:-0.333333 12:-0.333333 13:-1 14:-0.333333 15:-0.333333 16:-1 17:0.333333 18:1 19:-0.333333 20:1 21:-0.333333 22:1 23:-0.333333 24:-1 25:1 26:0.333333 27:1 28:0.333333 29:0.333333 30:-1 31:1 32:0.333333 33:0.333333 34:1 35:-0.333333 36:-0.333333 37:-0.333333 38:-1 39:-1 40:-0.333333 41:-0.333333 42:-0.333333 43:-0.333333 44:-0.333333 45:0.333333 46:1 47:0.333333 48:-1 49:1 50:1 51:0.333333 52:-1 53:0.333333 54:-1 55:-0.333333 56:-1 57:-0.333333 58:-1 59:-0.333333 60:-1 
1.420489692737119 1:1 2:0.333333 3:1 4:-0.333333 5:1 6:-0.333333 7:0.333333 8:0.333333 9:-1 10:-0.333333 11:0.333333 12:1 13:1 14:0.333333 15:1 16:1 17:-1 18:1 19:0.333333 20:0.333333 21:1 22:-1 23:1 24:-1 25:-0.333333 26:-1 27:-0.333333 28:-0.333333 29:-1 30:-0.333333 31:-1 32:-1 33:-1 34:-0.333333 35:0.333333 36:1 37:0.333333 38:-1 39:-1 40:-1 41:-0.333333 42:-1 43:1 44:-0.333333 45:-1 46:-1 47:-1 48:1 49:-0.333333 50:-1 51:-1 52:1 53:0.333333 54:1 55:0.333333 56:0.333333 57:1 58:1 59:0.333333 60:1 
