svm_type c_svc
kernel_type rbf
gamma 0.03125
nr_class 6
total_sv 174
rho 12.4947 -2.93532 2.1314 18.6956 0.624745 -12.4792 -9.66871 -3.59616 -8.03733 -10.5738 -21.3297 2.08209 9.62378 -1.41883 -9.05454
label -1 1 2 -2 3 -3
nr_sv 36 31 20 33 37 17
SV
0 0 0 2048 83.80439918002773 1:-0.753605 2:-0.954561 3:-0.853674 4:-0.972875 5:-0.58503 6:-0.901432 7:-0.378891 8:0.885714 9:0.287129 10:-0.169811 
0 0 0 2048 0 1:-0.72879 2:-0.957349 3:-0.84074 4:-0.97009 5:-0.58488 6:-0.901051 7:-0.378816 8:0.857143 9:0.306931 10:-0.169811 
0 0 0 2023.732677842684 0 1:-0.73971 2:-0.95088 3:-0.855152 4:-0.972774 5:-0.58503 6:-0.901212 7:-0.3789 8:-0.342857 9:0.227723 10:-0.157233 
2048 621.4711109669388 0 0 0 1:-0.971394 2:-0.994898 3:-0.961534 4:-0.997927 5:-0.585728 6:-0.906478 7:-0.378757 8:-0.914286 9:0.346535 10:-0.169811 
2048 0 0 2048 0 1:-0.96317 2:-0.990898 3:-0.966738 4:-0.997599 5:-0.585726 6:-0.9064 7:-0.378761 8:0.219048 9:0.326733 10:-0.157233 
2048 2048 0 2048 0 1:-0.900111 2:-0.977044 3:-0.941142 4:-0.991357 5:-0.585654 6:-0.905407 7:-0.378761 8:-0.752381 9:0.425743 10:-0.207547 
1595.864292631445 159.9417778234122 67.2353516842973 0 132.0801209331871 1:-0.936004 2:-0.994063 3:-0.943077 4:-0.995483 5:-0.585705 6:-0.906244 7:-0.378761 8:0.8 9:-0.70297 10:-0.232704 
541.817565107032 0 0 0 0 1:-0.819798 2:-0.981807 3:-0.885434 4:-0.983618 5:-0.585446 6:-0.904586 7:-0.378878 8:-0.428571 9:0.207921 10:-0.119497 
2048 0 0 0 0 1:-0.825595 2:-0.982504 3:-0.8833 4:-0.982453 5:-0.585411 6:-0.904454 7:-0.378883 8:-0.114286 9:0.306931 10:-0.106918 
211.5682863766903 0 0 0 5.701019769103102 1:-0.340334 2:-0.944031 3:-0.42758 4:-0.744664 5:-0.587678 6:-0.911526 7:-0.288448 8:-0.152381 9:0.524752 10:-0.194969 
0 0 0 2048 0 1:-0.822072 2:-0.97522 3:-0.896923 4:-0.981476 5:-0.585418 6:-0.904015 7:-0.37852 8:0.866667 9:0.306931 10:-0.18239 
0 0 0 348.6348997837531 0 1:-0.806188 2:-0.969262 3:-0.886312 4:-0.978186 5:-0.585299 6:-0.903177 7:-0.378517 8:-0.914286 9:0.306931 10:-0.169811 
2048 0 0 2048 0 1:-0.906954 2:-0.979874 3:-0.936864 4:-0.992056 5:-0.585661 6:-0.905566 7:-0.37876 8:0.247619 9:0.326733 10:-0.220126 
2048 843.1581287046872 0 1292.812035604444 0 1:-0.943593 2:-0.98917 3:-0.957372 4:-0.996932 5:-0.585721 6:-0.906321 7:-0.378754 8:-0.533333 9:0.227723 10:-0.119497 
2048 0 0 0 0 1:-0.863724 2:-0.992605 3:-0.919631 4:-0.989581 5:-0.585611 6:-0.905672 7:-0.378734 8:-0.2 9:0.247525 10:-0.106918 
2048 0 0 0 0 1:-0.876682 2:-0.992934 3:-0.923752 4:-0.990333 5:-0.585627 6:-0.905752 7:-0.378749 8:-0.171429 9:0.247525 10:-0.119497 
2048 0 0 0 0 1:-0.883361 2:-0.987337 3:-0.913498 4:-0.990973 5:-0.585632 6:-0.905624 7:-0.378796 8:-0.990476 9:0.306931 10:-0.169811 
2048 0 0 0 0 1:-0.961241 2:-0.995428 3:-0.948765 4:-0.998048 5:-0.585732 6:-0.906566 7:-0.378746 8:-0.466667 9:0.267327 10:-0.0566038 
2048 11.35337010361181 0 0 0 1:-0.899842 2:-0.982595 3:-0.937442 4:-0.99424 5:-0.58569 6:-0.905907 7:-0.378777 8:-0.0666667 9:0.50495 10:-0.371069 
2048 0 0 0 0 1:-0.84103 2:-0.978636 3:-0.896734 4:-0.987444 5:-0.585566 6:-0.904977 7:-0.378585 8:-0.0857143 9:0.108911 10:-0.081761 
2048 0 0 0 0 1:-0.943368 2:-0.992313 3:-0.944647 4:-0.99933 5:-0.585737 6:-0.906667 7:-0.378763 8:0.0761905 9:0.227723 10:-0.119497 
2048 0 0 0 0 1:-0.871981 2:-0.992444 3:-0.923927 4:-0.992113 5:-0.585659 6:-0.905932 7:-0.378707 8:0.92381 9:0.287129 10:-0.144654 
0 0 0 2048 0 1:-0.854196 2:-0.988404 3:-0.917359 4:-0.990989 5:-0.585635 6:-0.905667 7:-0.378725 8:0.990476 9:0.306931 10:-0.169811 
2048 0 197.2166170991444 2048 0 1:-0.875181 2:-0.982735 3:-0.931713 4:-0.991624 5:-0.585653 6:-0.905581 7:-0.378734 8:1 9:0.306931 10:-0.169811 
2048 0 0 2048 0 1:-0.906702 2:-0.991503 3:-0.936952 4:-0.994495 5:-0.585693 6:-0.9061 7:-0.378757 8:0.771429 9:0.306931 10:-0.169811 
2048 3.620592757916208 2048 2048 0 1:-0.929265 2:-0.984129 3:-0.956657 4:-0.996699 5:-0.585719 6:-0.906231 7:-0.378761 8:1 9:0.306931 10:-0.169811 
2048 785.9308676846015 0 2048 0 1:-0.970983 2:-0.989348 3:-0.9796 4:-0.999119 5:-0.585734 6:-0.906542 7:-0.378762 8:-0.190476 9:0.405941 10:-0.144654 
0 0 458.6778679535667 840.3599314424475 643.4446068795216 1:-0.64633 2:-0.946286 3:-0.810893 4:-0.962194 5:-0.584778 6:-0.900049 7:-0.376717 8:0.790476 9:0.346535 10:-0.194969 
0 588.2124470938357 0 0 0 1:-0.620222 2:-0.939654 3:-0.812709 4:-0.963061 5:-0.584645 6:-0.899256 7:-0.377294 8:-0.742857 9:0.326733 10:-0.194969 
2048 609.4925734633043 0 160.6963730053901 0 1:-0.906192 2:-0.984407 3:-0.953807 4:-0.997806 5:-0.585726 6:-0.906369 7:-0.378765 8:0.0190476 9:0.524752 10:-0.257862 
0 0 2048 2048 856.7165083290944 1:-0.609839 2:-0.928388 3:-0.801952 4:-0.958431 5:-0.584183 6:-0.89684 7:-0.379171 8:-0.0857143 9:0.287129 10:-0.169811 
1039.38694837264 0 0 219.3781432726475 91.1346141961461 1:-0.871543 2:-0.987735 3:-0.917283 4:-0.993255 5:-0.585674 6:-0.905929 7:-0.37882 8:-0.304762 9:-0.148515 10:1 
0 0 1702.83594259403 0 0 1:-0.770021 2:-0.961476 3:-0.877387 4:-0.976708 5:-0.58522 6:-0.902479 7:-0.378702 8:0.0666667 9:0.366337 10:-0.194969 
0 2048 468.4352246646709 2048 0 1:-0.751101 2:-0.953846 3:-0.881181 4:-0.983501 5:-0.585441 6:-0.90347 7:-0.378922 8:-0.666667 9:0.287129 10:-0.132075 
1448.69692885616 2048 2048 2048 0 1:-0.887772 2:-0.976768 3:-0.950538 4:-0.995751 5:-0.58571 6:-0.906029 7:-0.378766 8:-0.219048 9:0.346535 10:-0.0566038 
0 2048 2048 2048 0 1:-0.727081 2:-0.950803 3:-0.878131 4:-0.977714 5:-0.585272 6:-0.902336 7:-0.379052 8:0.838095 9:0.405941 10:-0.194969 
-2048 0 0 2048 0 1:-0.827628 2:-0.978336 3:-0.825665 4:-0.992081 5:-0.585697 6:-0.907161 7:-0.378504 8:1 9:0.306931 10:-0.169811 
-2048 0 0 0 0 1:-0.954704 2:-0.993184 3:-0.947374 4:-0.990361 5:-0.585645 6:-0.906028 7:-0.378756 8:-0.228571 9:0.148515 10:-0.119497 
-2048 0 0 2048 0 1:-0.991228 2:-0.989734 3:-0.975464 4:-0.999294 5:-0.585736 6:-0.906708 7:-0.378762 8:0.219048 9:0.346535 10:-0.169811 
-1041.195023953276 10.461396038966 0 0 86.491918128036 1:-0.975103 2:-0.991444 3:-0.944687 4:-0.999415 5:-0.585736 6:-0.90666 7:-0.378765 8:0.485714 9:-1 10:-0.396226 
-0 0 1136.109315685604 0 471.3809764240206 1:-0.679172 2:-0.965172 3:-0.672945 4:-0.96515 5:-0.584215 6:-0.904276 7:-0.379329 8:1 9:0.306931 10:-0.169811 
-2048 2048 2048 2048 651.9454306760277 1:-0.459236 2:-0.904599 3:-0.769363 4:-0.978401 5:-0.586289 6:-0.910079 7:-0.379441 8:-0.27619 9:0.405941 10:-0.18239 
-2048 2048 0 0 0 1:-0.978434 2:-0.990943 3:-0.96332 4:-0.999381 5:-0.585736 6:-0.906696 7:-0.378762 8:-0.67619 9:0.326733 10:-0.169811 
-2048 150.6798901461378 0 1123.910882429172 0 1:-0.915551 2:-0.982486 3:-0.905997 4:-0.996861 5:-0.585745 6:-0.906992 7:-0.378718 8:-0.638095 9:0.227723 10:-0.106918 
-1872.677126227696 0 0 0 59.85939652039572 1:-1 2:-0.995282 3:-0.976576 4:-0.99962 5:-0.585735 6:-0.906606 7:-0.378763 8:-0.257143 9:0.128713 10:0.584906 
-0 0 0 482.4975291865371 0 1:-0.823875 2:-0.971545 3:-0.818242 4:-0.994232 5:-0.585768 6:-0.907497 7:-0.378607 8:0.0952381 9:0.326733 10:-0.144654 
-2048 0 0 0 0 1:-0.99102 2:-0.997403 3:-0.980229 4:-0.999881 5:-0.585735 6:-0.906631 7:-0.378763 8:-0.361905 9:0.168317 10:-0.0691824 
-2048 0 0 0 0 1:-0.986324 2:-0.996412 3:-0.965159 4:-0.999565 5:-0.585736 6:-0.906667 7:-0.378763 8:-0.266667 9:0.207921 10:-0.132075 
-2048 2048 155.8042467849444 2048 0 1:-0.94036 2:-0.989109 3:-0.995656 4:-0.996558 5:-0.585736 6:-0.906281 7:-0.378775 8:-0.980952 9:0.326733 10:-0.169811 
-2048 0 0 1338.045266989582 0 1:-0.933358 2:-0.983474 3:-0.924644 4:-0.997592 5:-0.58574 6:-0.906886 7:-0.378735 8:-0.304762 9:0.346535 10:-0.232704 
-0 0 33.22262483777126 0 0 1:-0.910822 2:-0.978669 3:-0.898704 4:-0.995446 5:-0.585749 6:-0.907104 7:-0.378678 8:-0.219048 9:1 10:-0.371069 
-2048 0 0 0 0 1:-0.772497 2:-0.972926 3:-0.78672 4:-0.991508 5:-0.585635 6:-0.906974 7:-0.378514 8:-0.371429 9:0.405941 10:-0.220126 
-2048 708.979905117448 1729.439111614533 390.8234895138139 186.5299064867267 1:-0.944716 2:-0.996265 3:-0.969442 4:-0.990935 5:-0.585756 6:-0.906948 7:-0.378895 8:0.466667 9:0.108911 10:-0.081761 
-0 0 0 2048 0 1:-0.963652 2:-0.988349 3:-0.940557 4:-0.998199 5:-0.585739 6:-0.906799 7:-0.378748 8:0.857143 9:0.306931 10:-0.169811 
-2048 0 0 0 0 1:-0.958573 2:-0.985167 3:-0.947479 4:-0.998222 5:-0.585742 6:-0.906845 7:-0.378763 8:-0.447619 9:0.524752 10:-0.194969 
-2048 0 0 1507.221349545827 0 1:-0.953411 2:-0.990635 3:-0.936799 4:-0.998954 5:-0.585736 6:-0.90672 7:-0.378755 8:0.857143 9:0.267327 10:-0.144654 
-0 0 0 2048 0 1:-0.978599 2:-0.992499 3:-0.950674 4:-0.998709 5:-0.585737 6:-0.906732 7:-0.378754 8:0.92381 9:0.405941 10:-0.220126 
-2048 2048 639.8632825353887 2048 0 1:-0.985815 2:-0.98537 3:-0.983781 4:-0.999702 5:-0.585735 6:-0.906667 7:-0.378763 8:-0.114286 9:0.425743 10:-0.18239 
-2043.866896930031 0 2048 2048 0 1:-0.970177 2:-0.986052 3:-0.961118 4:-0.998707 5:-0.585737 6:-0.906745 7:-0.37877 8:0.72381 9:0.425743 10:-0.169811 
-2048 605.102264122398 1094.489071341268 2048 0 1:-0.992883 2:-0.990045 3:-0.98779 4:-1 5:-0.585735 6:-0.906635 7:-0.378763 8:0.704762 9:0.346535 10:-0.157233 
-0 0 0 0 162.7335517743385 1:-0.313897 2:-0.874128 3:-0.203631 4:-0.987417 5:-0.585217 6:-0.906719 7:-0.37863 8:-0.561905 9:0.386139 10:-0.106918 
-0 0 0 362.7605197279062 114.659779725229 1:-0.326833 2:-0.888014 3:-0.254951 4:-0.98799 5:-0.585584 6:-0.904479 7:-0.37976 8:1 9:0.306931 10:-0.169811 
-1113.534251595059 0 0 0 0 1:-0.895815 2:-0.987467 3:-0.877397 4:-0.997092 5:-0.585741 6:-0.906895 7:-0.378713 8:0.466667 9:0.148515 10:-0.119497 
-412.5268923377965 243.0885742684488 0 0 0 1:-0.830504 2:-0.976397 3:-0.82891 4:-0.99252 5:-0.585678 6:-0.907008 7:-0.378551 8:-0.219048 9:0.782178 10:-1 
-2048 0 0 1379.211265416234 0 1:-0.858398 2:-0.978755 3:-0.863865 4:-0.993846 5:-0.585667 6:-0.906593 7:-0.3787 8:-0.409524 9:0.207921 10:-0.0440252 
-2048 329.6879703066034 0 2048 0 1:-0.88798 2:-0.981465 3:-0.892165 4:-0.99673 5:-0.585724 6:-0.906786 7:-0.378711 8:0.952381 9:0.306931 10:-0.169811 
-401.5338303001144 0 0 0 0 1:-0.679276 2:-0.959082 3:-0.704466 4:-0.987086 5:-0.585465 6:-0.906918 7:-0.378338 8:-0.542857 9:0.386139 10:-0.157233 
-0 -0 2048 2048 0 1:-0.749025 2:-0.919927 3:-0.982951 4:-0.975062 5:-0.585865 6:-0.901003 7:-0.378385 8:0.0952381 9:0.227723 10:-0.119497 
-0 -0 0 2048 0 1:-0.649946 2:-0.909443 3:-0.958549 4:-0.96054 5:-0.586327 6:-0.896931 7:-0.378105 8:0.990476 9:0.306931 10:-0.169811 
-2048 -2048 1616.495124647102 2048 28.55486127202408 1:-0.879712 2:-0.952256 3:-0.945115 4:-0.999676 5:-0.585735 6:-0.906696 7:-0.378764 8:-0.780952 9:0.346535 10:-0.194969 
-2048 -2048 2048 2048 0 1:-0.912318 2:-0.964486 3:-0.976908 4:-0.999642 5:-0.585736 6:-0.906678 7:-0.378763 8:-0.609524 9:0.366337 10:-0.194969 
-0 -0 2048 2048 0 1:-0.788343 2:-0.928308 3:-0.971353 4:-0.988607 5:-0.585783 6:-0.904207 7:-0.378605 8:0.714286 9:0.584158 10:-0.320755 
-1025.566208158557 -0 2048 2048 104.148632476265 1:-0.749156 2:-0.916869 3:-0.96645 4:-0.984491 5:-0.585796 6:-0.903251 7:-0.378464 8:-0.4 9:0.326733 10:0.157233 
-2048 -2048 2048 2048 108.4816771532245 1:-0.848563 2:-0.948644 3:-0.956501 4:-0.998648 5:-0.585733 6:-0.906604 7:-0.378755 8:0.67619 9:0.405941 10:-0.194969 
-2048 -2048 0 2048 0 1:-0.836657 2:-0.940271 3:-0.95655 4:-0.998498 5:-0.585734 6:-0.906508 7:-0.378752 8:-0.8 9:0.346535 10:-0.194969 
-0 -0 8.075406502485615 24.85950692518342 0 1:0.846509 2:-0.358312 3:-0.815199 4:0.97835 5:-1 6:0.466177 7:-0.986848 8:-0.904762 9:0.287129 10:-0.157233 
-0 -0 0 2032.205063694241 0 1:-0.164625 2:-0.741269 3:-0.829951 4:-0.811265 5:-0.591978 6:-0.833467 7:-0.350726 8:0.942857 9:0.306931 10:-0.169811 
-0 -0 0 0 60.7960415660899 1:-0.108376 2:-0.706632 3:-0.825615 4:-0.782019 5:-0.598735 6:-0.811803 7:-0.352214 8:0.87619 9:0.346535 10:-0.169811 
-0 -0 1040.862305682612 2048 624.2692503605948 1:-0.322319 2:-0.772434 3:-0.797035 4:-0.943211 5:-0.587081 6:-0.887277 7:-0.373983 8:-0.00952381 9:0.346535 10:-0.169811 
-0 -0 2048 1947.888871754464 0 1:-0.217476 2:-0.72992 3:-0.802688 4:-0.901207 5:-0.588915 6:-0.867961 7:-0.368148 8:-0.619048 9:0.267327 10:-0.157233 
-0 -0 1333.175327770345 0 0 1:-0.508509 2:-0.853321 3:-0.924229 4:-0.947932 5:-0.586684 6:-0.891218 7:-0.376601 8:-0.0380952 9:0.366337 10:-0.157233 
-0 -0 76.96121321906202 89.02189411914203 0 1:0.12231 2:-0.643377 3:-0.798381 4:-0.566142 5:-0.631536 6:-0.689663 7:-0.318431 8:-0.828571 9:0.287129 10:-0.157233 
-0 -0 376.3473282269438 613.8703964662337 377.3898775408932 1:-0.644286 2:-0.916598 3:-0.933957 4:-0.969295 5:-0.585828 6:-0.90126 7:-0.377499 8:0.552381 9:-0.0891089 10:-0.0440252 
-549.6146604397495 -0 2048 2048 2048 1:-0.711455 2:-0.912876 3:-0.929016 4:-0.98779 5:-0.585663 6:-0.90581 7:-0.378472 8:1 9:0.287129 10:-0.169811 
-0 -0 0 2048 44.75957279823296 1:-0.586668 2:-0.899388 3:-0.886699 4:-0.955859 5:-0.58586 6:-0.898414 7:-0.375885 8:0.447619 9:-0.029703 10:-0.081761 
-2048 -2048 2048 2048 0 1:-0.7572 2:-0.93849 3:-0.91226 4:-0.979603 5:-0.585388 6:-0.905885 7:-0.378571 8:-0.0761905 9:0.306931 10:-0.169811 
-0 -0 1764.115974965365 2048 0 1:-0.685385 2:-0.916437 3:-0.926874 4:-0.980883 5:-0.585658 6:-0.904357 7:-0.378123 8:0.971429 9:0.306931 10:-0.169811 
-0 -0 -0 0 2048 1:-0.643897 2:-0.743725 3:-0.979763 4:-0.975678 5:-0.585512 6:-0.895973 7:-0.37877 8:0.752381 9:0.346535 10:-0.169811 
-397.3588945881907 -0 -1262.533080382291 2048 0 1:-0.82451 2:-0.870554 3:-0.99795 4:-0.998847 5:-0.585734 6:-0.906408 7:-0.378762 8:0.561905 9:0.227723 10:-0.119497 
-75.43559898492614 -104.219626083417 -369.2853840742915 544.6598997810075 565.0090371570046 1:-0.790781 2:-0.853038 3:-0.994106 4:-0.995766 5:-0.585726 6:-0.905243 7:-0.378761 8:-0.428571 9:0.029703 10:0.748428 
-0 -0 -2048 516.0262080158474 0 1:-0.743611 2:-0.827894 3:-0.978642 4:-0.99007 5:-0.585686 6:-0.9056 7:-0.378838 8:-0.47619 9:0.485149 10:-0.194969 
-0 -0 -1764.95216810004 2048 0 1:-0.762706 2:-0.82998 3:-0.996671 4:-0.996167 5:-0.585729 6:-0.905257 7:-0.378762 8:0.685714 9:0.346535 10:-0.18239 
-2048 -1369.486355199165 -2048 2048 0 1:-0.842843 2:-0.883997 3:-0.99468 4:-0.997708 5:-0.585732 6:-0.906015 7:-0.378764 8:0.428571 9:0.346535 10:-0.132075 
-0 -0 -0 0 2048 1:-0.693352 2:-0.771538 3:-0.990705 4:-0.991783 5:-0.585705 6:-0.903377 7:-0.378766 8:0.504762 9:0.524752 10:-0.232704 
-0 -0 -0 0 338.3525194541346 1:-0.721377 2:-0.794304 3:-0.992646 4:-0.992935 5:-0.585714 6:-0.903912 7:-0.378764 8:0.8 9:0.386139 10:-0.194969 
-0 -0 -0 0 2048 1:-0.692442 2:-0.778587 3:-0.988789 4:-0.98766 5:-0.585675 6:-0.901576 7:-0.378762 8:0.980952 9:0.148515 10:-0.157233 
-0 -0 -2048 0 2048 1:-0.579408 2:-0.763321 3:-0.910672 4:-0.986113 5:-0.585884 6:-0.909066 7:-0.378456 8:0.466667 9:0.287129 10:-0.132075 
-0 -0 -0 2048 0 1:-0.648998 2:-0.797873 3:-0.881573 4:-0.914011 5:-0.58214 6:-0.872993 7:-0.378771 8:0.238095 9:0.326733 10:-0.157233 
-373.6065104225912 -0 -701.3569781742129 2048 2048 1:-0.371082 2:-0.697774 3:-0.681499 4:-0.86941 5:-0.584075 6:-0.882934 7:-0.354374 8:0.457143 9:0.326733 10:-0.169811 
-0 -0 -0 1931.766362093937 1403.413974729453 1:-0.675588 2:-0.783327 3:-0.977792 4:-0.990875 5:-0.585683 6:-0.903199 7:-0.378792 8:0.914286 9:0.306931 10:-0.169811 
-0 -0 -2048 2048 0 1:-0.422816 2:-0.979987 3:-0.976595 4:-0.979517 5:-0.585767 6:-0.905681 7:-0.378353 8:-0.685714 9:0.366337 10:-0.157233 
-2048 -1267.221671516928 -2048 2048 0 1:-0.627674 2:-1 3:-0.902991 4:-0.995707 5:-0.585711 6:-0.906671 7:-0.378823 8:-0.752381 9:0.306931 10:-0.18239 
-0 -0 -0 0 2048 1:-0.601758 2:-0.720893 3:-0.972796 4:-0.957904 5:-0.585145 6:-0.887334 7:-0.378737 8:0.914286 9:0.306931 10:-0.169811 
-0 -0 -0 0 2048 1:-0.581277 2:-0.710075 3:-0.965824 4:-0.951921 5:-0.584928 6:-0.884406 7:-0.378736 8:0.704762 9:0.366337 10:-0.169811 
-0 -0 -0 121.3792435374088 0 1:-0.0436629 2:-0.532675 3:-0.12304 4:0.0606063 5:-0.165104 6:-0.277692 7:-0.493317 8:0.761905 9:0.306931 10:-0.157233 
-2048 -2048 -2048 2048 0 1:-0.63958 2:-0.964208 3:-0.710456 4:-0.881788 5:-0.577354 6:-0.886285 7:-0.386456 8:0.752381 9:0.346535 10:-0.18239 
-0 -0 -0 0 682.3804744267611 1:-0.610338 2:-0.713182 3:-0.983424 4:-0.977858 5:-0.58556 6:-0.89632 7:-0.378783 8:-0.285714 9:0.267327 10:-0.144654 
-0 -0 -0 0 2048 1:-0.370283 2:-0.543121 3:-0.980172 4:-0.973003 5:-0.585476 6:-0.892303 7:-0.378771 8:0.4 9:0.247525 10:-0.169811 
-0 -0 -69.90507028307279 0 0 1:-0.672608 2:-0.759912 3:-0.993693 4:-0.990538 5:-0.585705 6:-0.902666 7:-0.378762 8:-0.809524 9:0.326733 10:-0.169811 
-0 -0 -0 0 285.0786114514739 1:-0.521138 2:-0.694192 3:-0.94384 4:-0.920156 5:-0.583521 6:-0.868352 7:-0.378664 8:0.114286 9:0.306931 10:-0.106918 
-0 -0 -0 0 545.7337605983569 1:-0.48508 2:-0.661899 3:-0.948602 4:-0.922398 5:-0.583705 6:-0.867426 7:-0.378775 8:0.047619 9:0.306931 10:-0.169811 
-0 -0 -0 45.28815611101206 0 1:0.100821 2:-0.548374 3:-0.00815723 4:-0.04944 5:-0.323059 6:-0.354813 7:-1 8:0.961905 9:0.287129 10:-0.169811 
-0 -0 -0 0 589.5525451224893 1:-0.369658 2:-0.591109 3:-0.944249 4:-0.906932 5:-0.582966 6:-0.855126 7:-0.379231 8:-0.733333 9:0.306931 10:-0.169811 
-2048 -2048 -2048 2048 0 1:-0.953198 2:-0.978864 3:-0.969078 4:-0.99677 5:-0.585722 6:-0.906202 7:-0.378762 8:0.647619 9:0.386139 10:-0.18239 
-2048 -2048 -2048 2048 0 1:-0.853977 2:-0.991818 3:-0.998802 4:-0.999964 5:-0.585735 6:-0.906637 7:-0.378763 8:0.447619 9:0.306931 10:-0.144654 
-0 -0 -0 0 2048 1:-0.493705 2:-0.664486 3:-0.952281 4:-0.929624 5:-0.58405 6:-0.871252 7:-0.378481 8:0.809524 9:0.326733 10:-0.169811 
-0 -0 -0 0 1428.536323230291 1:-0.353149 2:-0.57136 3:-0.933362 4:-0.880611 5:-0.581327 6:-0.8389 7:-0.378372 8:0.704762 9:0.346535 10:-0.18239 
-0 -0 -2048 2048 0 1:-0.55941 2:-0.750243 3:-0.877787 4:-0.890969 5:-0.580523 6:-0.859248 7:-0.379109 8:-0.819048 9:0.326733 10:-0.18239 
-0 -0 -0 0 1246.996676410504 1:0.329217 2:0.137024 3:-0.612327 4:-0.393894 5:-0.465007 6:-0.450792 7:-0.344212 8:0.895238 9:0.227723 10:-0.119497 
-0 -0 -0 0 44.44409104158691 1:-0.706786 2:-0.781188 3:-0.986328 4:-0.99021 5:-0.585689 6:-0.902744 7:-0.378777 8:0.295238 9:0.485149 10:-0.194969 
-0 -0 -2048 -2048 0 1:-0.738034 2:-0.904276 3:-0.990405 4:-0.995702 5:-0.585746 6:-0.907574 7:-0.378752 8:0.895238 9:0.306931 10:-0.157233 
-0 -0 -2048 -0 565.5483923542419 1:-0.505928 2:-0.820738 3:-0.859582 4:-0.935801 5:-0.587354 6:-0.883397 7:-0.37443 8:0.961905 9:0.306931 10:-0.169811 
-2048 -2048 -0 -2048 0 1:-0.892314 2:-0.953115 3:-0.933304 4:-0.998291 5:-0.585741 6:-0.906799 7:-0.378752 8:0.0190476 9:0.326733 10:-0.169811 
-0 -0 -2048 -0 0 1:-0.669994 2:-0.899268 3:-0.895941 4:-0.981675 5:-0.586066 6:-0.901514 7:-0.378705 8:0.904762 9:0.306931 10:-0.169811 
-954.3181489557574 -0 -2048 -2048 0 1:-0.404149 2:-0.843001 3:-0.906602 4:-0.783625 5:-0.598274 6:-0.83181 7:-0.373677 8:0.67619 9:0.306931 10:-0.157233 
-0 -0 -2048 -0 0 1:-0.694245 2:-0.890959 3:-0.902609 4:-0.989482 5:-0.585843 6:-0.90371 7:-0.378566 8:0.980952 9:0.306931 10:-0.169811 
-0 -0 -1711.960411109228 -0 0 1:-0.731941 2:-0.909643 3:-0.920628 4:-0.990689 5:-0.585828 6:-0.904213 7:-0.378652 8:-0.8 9:0.326733 10:-0.194969 
-0 -0 -2048 -2048 0 1:-0.629438 2:-0.880495 3:-0.914642 4:-0.953448 5:-0.586686 6:-0.892857 7:-0.377069 8:-0.590476 9:0.306931 10:-0.194969 
-0 -0 -2048 -1995.297514245342 0 1:-0.695176 2:-0.902637 3:-0.927003 4:-0.976084 5:-0.586125 6:-0.900085 7:-0.37845 8:-0.790476 9:0.306931 10:-0.18239 
-0 -0 -2048 -1577.04335884261 0 1:-0.510224 2:-0.821946 3:-0.842307 4:-0.960491 5:-0.586906 6:-0.892175 7:-0.377542 8:0.885714 9:0.326733 10:-0.157233 
-2048 -2048 -1217.45063240073 -77.53029263030828 0 1:-0.890528 2:-0.958006 3:-0.948445 4:-0.999733 5:-0.585735 6:-0.906617 7:-0.378762 8:-0.219048 9:0.267327 10:-0.119497 
-2048 -2048 -2048 -0 0 1:-0.941379 2:-0.970805 3:-0.979975 4:-0.999902 5:-0.585735 6:-0.906648 7:-0.378763 8:-0.428571 9:0.247525 10:-0.106918 
-0 -0 -2048 -2048 0 1:-0.756301 2:-0.90584 3:-0.915737 4:-0.993948 5:-0.585709 6:-0.905763 7:-0.37865 8:0.380952 9:0.386139 10:-0.144654 
-0 -0 -1645.405988403616 -2048 483.6778574103974 1:-0.400653 2:-0.769027 3:-0.86674 4:-0.810655 5:-0.580555 6:-0.836468 7:-0.353425 8:-0.619048 9:0.346535 10:-0.232704 
-1297.397605005644 -0 -0 -0 0 1:-0.83646 2:-0.937405 3:-0.917471 4:-0.997398 5:-0.58574 6:-0.906646 7:-0.378729 8:0.933333 9:0.306931 10:-0.169811 
-0 -0 -0 -0 1138.068337570027 1:-0.744472 2:-0.892079 3:-0.882559 4:-0.998285 5:-0.585734 6:-0.907088 7:-0.378785 8:0.885714 9:0.306931 10:-0.157233 
-2048 -0 -978.0419659880218 -0 0 1:-0.545076 2:-0.962826 3:-0.812344 4:-0.990778 5:-0.585581 6:-0.907503 7:-0.378846 8:0.914286 9:0.326733 10:-0.169811 
-2048 -2048 -0 -0 0 1:-0.627498 2:-0.943817 3:-0.496499 4:-0.993664 5:-0.585875 6:-0.905315 7:-0.378656 8:0.504762 9:0.227723 10:-0.157233 
-0 -0 -0 -0 2048 1:-0.645837 2:-0.86255 3:-0.826523 4:-0.997783 5:-0.585719 6:-0.906599 7:-0.378746 8:0.904762 9:0.306931 10:-0.169811 
-1739.058437794699 -0 -0 -0 53.763049196579 1:-0.766509 2:-0.914545 3:-0.892305 4:-0.999196 5:-0.585733 6:-0.9066 7:-0.378759 8:-0.266667 9:0.128713 10:-0.0314465 
-0 -0 -0 -2048 2048 1:-0.706808 2:-0.872639 3:-0.888462 4:-0.994633 5:-0.58572 6:-0.905856 7:-0.378646 8:0.895238 9:0.326733 10:-0.169811 
-2048 -2048 -0 -0 0 1:-0.96689 2:-0.982921 3:-0.962586 4:-0.999859 5:-0.585735 6:-0.906617 7:-0.378763 8:0.914286 9:0.306931 10:-0.169811 
-0 -0 -2048 -2048 0 1:-0.675945 2:-0.878606 3:-0.888332 4:-0.996397 5:-0.585726 6:-0.905973 7:-0.378699 8:-0.247619 9:0.306931 10:-0.119497 
-0 -0 -354.1757353312799 -968.2688941607483 202.9033537178627 1:-0.607461 2:-0.834927 3:-0.802465 4:-0.991071 5:-0.585584 6:-0.907446 7:-0.378841 8:-0.2 9:-0.168317 10:0.54717 
-2048 -0 -0 -0 0 1:-0.744581 2:-0.909895 3:-0.86919 4:-0.998422 5:-0.585733 6:-0.906993 7:-0.378783 8:-0.495238 9:0.326733 10:-0.18239 
-2048 -2048 -0 -1853.210485484072 0 1:-0.904357 2:-0.953714 3:-0.937433 4:-0.998824 5:-0.585731 6:-0.906438 7:-0.378759 8:0.752381 9:0.326733 10:-0.169811 
-1081.17329068014 -1966.290439426424 -0 -0 0 1:-0.823612 2:-0.920583 3:-0.888816 4:-0.99851 5:-0.585737 6:-0.906593 7:-0.378745 8:-0.761905 9:0.287129 10:-0.157233 
-2048 -2048 -110.0580861310102 -0 0 1:-0.880287 2:-0.957705 3:-0.962139 4:-0.999878 5:-0.585735 6:-0.906652 7:-0.378763 8:0.933333 9:0.306931 10:-0.169811 
-0 -0 -0 -588.3660920096808 0 1:-0.72838 2:-0.904478 3:-0.857505 4:-0.993804 5:-0.585715 6:-0.905721 7:-0.378598 8:0.371429 9:0.306931 10:-0.169811 
-2048 -522.179863382641 -2048 -0 0 1:-0.688355 2:-0.957707 3:-0.924746 4:-0.941327 5:-0.585213 6:-0.91673 7:-0.375345 8:-0.304762 9:0.207921 10:-0.106918 
-2048 -2048 -0 -0 0 1:-0.897563 2:-0.96434 3:-0.937533 4:-0.999697 5:-0.585735 6:-0.906656 7:-0.378763 8:0.809524 9:0.425743 10:-0.144654 
-2048 -2048 -0 -0 0 1:-0.970375 2:-0.980747 3:-0.9913 4:-0.999781 5:-0.585735 6:-0.906606 7:-0.378763 8:0.980952 9:0.306931 10:-0.169811 
-1861.666578515126 -2048 -0 -0 0 1:-0.913228 2:-0.961588 3:-0.972594 4:-0.999467 5:-0.585736 6:-0.90654 7:-0.378763 8:0.895238 9:0.445545 10:-0.220126 
-2048 -2048 -712.6701503834564 -2004.644264911306 0 1:-0.975229 2:-0.983709 3:-0.977225 4:-0.999973 5:-0.585735 6:-0.906634 7:-0.378763 8:0.590476 9:0.544554 10:-0.220126 
-2048 -2048 -0 -0 0 1:-0.95019 2:-0.967537 3:-0.975921 4:-0.999884 5:-0.585735 6:-0.90662 7:-0.378763 8:-0.838095 9:0.386139 10:-0.194969 
-0 -0 -26.08276321191619 -0 0 1:1 2:-0.311721 3:-0.417229 4:0.390812 5:-0.671528 6:-0.835574 7:0.765073 8:0.857143 9:0.326733 10:-0.18239 
-0 -0 -0 -238.7589672551483 683.6798755175361 1:0.392539 2:-0.274619 3:-0.375651 4:-0.729289 5:-0.60798 6:-0.727954 7:-0.288468 8:0.942857 9:0.306931 10:-0.169811 
-0 -0 -0 -2048 -0 1:-0.632375 2:-0.697769 3:-1 4:-0.999996 5:-0.585735 6:-0.906637 7:-0.378763 8:1 9:0.306931 10:-0.169811 
-0 -0 -0 -2048 -0 1:-0.580334 2:-0.654209 3:-0.99857 4:-0.999815 5:-0.585735 6:-0.906543 7:-0.378763 8:0.409524 9:0.168317 10:-0.081761 
-450.9029497673854 -0 -553.3228132977035 -2048 -0 1:-0.743579 2:-0.803649 3:-0.99289 4:-0.9979 5:-0.585732 6:-0.905835 7:-0.378763 8:0.0952381 9:0.049505 10:-0.0566038 
-0 -0 -0 -1705.112475165956 -0 1:-0.176312 2:-0.569955 3:-0.739408 4:-0.907285 5:-0.582818 6:-0.895597 7:-0.367116 8:-0.047619 9:0.386139 10:-0.144654 
-0 -0 -0 -2048 -0 1:-0.0206123 2:-0.28123 3:-0.90733 4:-0.445626 5:-0.537415 6:-0.614135 7:-0.335465 8:0.619048 9:0.306931 10:-0.144654 
-0 -0 -0 -2048 -0 1:-0.609396 2:-0.674835 3:-0.98897 4:-0.995411 5:-0.585722 6:-0.904533 7:-0.378769 8:0.67619 9:0.386139 10:-0.144654 
-0 -0 -0 -170.5001067515244 -0 1:-0.404187 2:-0.472922 3:-0.938656 4:-0.957934 5:-0.58485 6:-0.880156 7:-0.37878 8:0.847619 9:-0.841584 10:-0.106918 
-0 -0 -0 -2048 -2048 1:-0.715071 2:-0.773703 3:-0.995887 4:-0.999169 5:-0.585735 6:-0.906338 7:-0.378762 8:0.914286 9:0.306931 10:-0.169811 
-729.5129009383257 -709.7716725440685 -2048 -2048 -2048 1:-0.765665 2:-0.817062 3:-0.991596 4:-0.998267 5:-0.585733 6:-0.906134 7:-0.378759 8:0.961905 9:0.306931 10:-0.169811 
-0 -0 -0 -2048 -0 1:-0.6445 2:-0.714174 3:-0.997283 4:-0.999905 5:-0.585735 6:-0.906591 7:-0.378763 8:0.504762 9:0.445545 10:-0.119497 
-0 -0 -0 -2048 -783.0866571331658 1:-0.427128 2:-0.669965 3:-0.791923 4:-0.997782 5:-0.585754 6:-0.907455 7:-0.378748 8:0.87619 9:0.326733 10:-0.169811 
-0 -0 -0 -2024.177341766394 -0 1:-0.530201 2:-0.610531 3:-0.886675 4:-0.931592 5:-0.58324 6:-0.869576 7:-0.378849 8:-0.0285714 9:0.405941 10:-0.169811 
-632.4654185813694 -1023.829287190706 -337.236991506212 -0 -928.9113231410863 1:-0.473311 2:-0.830873 3:-0.504041 4:-0.871518 5:-0.580039 6:-0.949922 7:-0.405971 8:-0.238095 9:0.207921 10:-0.106918 
-0 -0 -0 -2048 -0 1:-0.527045 2:-0.595499 3:-0.960377 4:-0.973648 5:-0.585384 6:-0.892263 7:-0.378832 8:0.857143 9:0.445545 10:-0.220126 
-0 -0 -0 -46.7544311458941 -0 1:-0.051887 2:-0.156511 3:-0.00447612 4:-0.0823052 5:-0.222388 6:-0.178554 7:-0.388358 8:0.914286 9:0.306931 10:-0.169811 
-0 -0 -0 -50.24790794497158 -42.56705329159193 1:0.407864 2:0.312233 3:1 4:0.942358 5:1 6:1 7:-0.434285 8:0.866667 9:0.306931 10:-0.157233 
-0 -0 -457.8401083634096 -1084.705750847311 -1373.0758322008 1:-0.207647 2:-0.740541 3:-0.55651 4:-0.832303 5:-0.583573 6:-0.976719 7:-0.420847 8:0.866667 9:0.287129 10:-0.144654 
